#pragma once
#include <stdint.h>

static const int32_t kBias_stem_0[112] = {-72, 59, 240, 105, 97, -24, 119, 67, 24, 30, -117, -24, 105, 15, 50, 91, 310, 31, 160, -16, -110, -201, 107, 109, -205, 3, -27, -169, -103, 37, 6, 85, -36, -162, 38, -36, 33, 40, 5, 86, -99, 366, -83, -110, 43, -81, -122, 244, 101, 108, 90, -214, 3, 232, 18, -20, 302, 29, 233, -68, -45, -55, 16, -104, -207, 165, 230, 76, 201, 26, -59, -164, 54, 136, 32, -125, -22, 196, -33, -62, 59, 97, 82, -77, -72, -66, 24, 16, -89, 137, 45, 162, -64, -20, -182, 72, -3, -120, 126, -73, 55, -3, -152, -16, -169, -96, -93, 37, -153, 100, 162, -110};
static const int32_t kBias_tcn_0_depthwise[112] = {-100, 297, 113, 116, 1, 6, -288, 84, -1, -42, -425, -296, -358, 361, -13, 112, 254, -151, -171, 190, 260, 222, 391, 161, -134, -308, -218, -55, 251, -125, -288, 310, 399, -36, -285, 249, 318, 46, -313, 343, 240, -1, 46, -242, -2, 357, 261, -186, -67, -118, -133, 414, 31, 342, 362, 149, 3, -311, 1, 356, 178, 296, 198, -114, -5, 300, -7, 9, 0, -243, -218, 153, 298, 0, -189, -162, 459, 375, 158, -348, 86, -345, 197, 261, -47, 194, 0, -261, -2, 446, 67, 168, -44, -46, -356, 362, 137, -371, -399, 197, 225, -208, -1, 449, -294, 609, -13, 399, -9, -348, 304, 409};
static const int32_t kBias_tcn_0_pointwise[112] = {-89, -118, 101, -180, 142, -127, -87, -6, 35, -131, -69, -206, 61, 101, -105, 112, 123, 97, 175, -121, 93, 88, 49, 152, 3, -82, -50, -92, -78, 26, 33, -88, 48, -152, -83, 63, -101, -123, -128, -128, 128, 25, 109, 39, -12, -52, -5, 43, -15, 143, -66, 77, 134, -46, 66, 40, 80, 42, 44, -60, 89, 74, 127, -20, 139, -30, 61, -116, -121, -66, 58, 143, -129, -63, -9, -37, -72, -54, 98, 146, 65, -48, 27, -54, 11, 131, 16, -50, 129, 44, -78, 103, 9, -117, -83, -62, -168, 145, 172, -187, 31, -17, 143, 210, 88, -134, 141, -180, -14, -61, 19, -155};
static const int32_t kBias_tcn_1_depthwise[112] = {-279, -188, -88, 237, -82, 339, 173, -108, 143, 138, -36, 492, -332, 265, -5, 22, -69, 351, -253, 387, -153, 277, -262, -277, 385, 238, 210, -412, 372, -138, -96, -155, 81, 149, 221, 206, -10, -178, 130, 294, 21, -1, -5, 268, -37, -72, -127, 21, 266, -376, -55, 225, 243, -156, -343, -74, 370, -359, -84, 17, 62, -212, -136, -251, 349, -5, 109, 38, 62, 8, 376, -65, 262, 125, 309, 155, -140, 353, 221, -1, -169, -46, -112, -244, -382, 8, -97, -121, -238, -375, 322, 9, 132, -251, 70, -26, 392, -241, -198, -393, 35, 243, -93, 332, -300, -149, -39, -259, 217, -77, -508, -76};
static const int32_t kBias_tcn_1_pointwise[112] = {-136, 34, 130, -11, -129, 78, -8, -15, 158, -37, 99, -42, -133, 92, 21, 57, 64, -51, 70, -114, 118, 11, -182, -30, -104, -42, -62, 28, -164, 51, 61, 129, 162, 80, -179, -140, -149, -119, -113, 169, -24, -3, 126, 46, -51, -93, -95, 61, 105, 130, -179, 78, -120, -113, 36, 90, -113, 44, -10, 106, 70, 42, 72, -79, 99, -179, -62, -163, -106, 91, 158, 1, 6, -67, 135, 16, 151, -107, -171, -53, -48, -14, -37, -18, -154, 28, 136, -79, 140, -189, -92, 71, -74, 71, -181, 28, -180, 85, -93, -27, 87, -142, 39, -184, -50, -57, 37, -58, -102, 115, -193, 12};
static const int32_t kBias_tcn_2_depthwise[112] = {353, 113, -305, 113, -152, 194, -259, 92, 6, -128, 108, -151, -162, -308, -88, -201, 145, -121, -13, 306, 282, -334, 348, -3, -24, -264, 12, 74, -189, -3, -187, 149, 193, -122, -309, 405, -49, -372, -258, 277, 23, 52, -144, 96, -11, -326, -121, 414, -214, 57, 416, -82, 14, 211, -127, -251, -287, -1, -92, -69, 299, 96, -280, -92, -22, 207, 152, 272, -110, 88, 87, 168, 134, 169, -110, -309, 344, 40, -103, -363, 324, -19, 346, 283, 117, -242, -12, -334, -217, -36, 6, 200, -355, 78, -330, -108, 224, -5, 45, -222, 365, -44, 317, 153, 207, -91, -61, 8, -153, -2, -161, 346};
static const int32_t kBias_tcn_2_pointwise[112] = {-121, 8, -18, -78, 43, -18, -235, 60, 37, -201, -126, -93, 55, 102, 35, -131, 212, 126, 64, 65, -151, 88, -121, 86, -143, 132, -84, -2, -78, 203, 112, 22, 77, -116, -118, -97, 113, 32, -48, -40, 110, 54, -23, -93, -131, -51, -116, -111, 90, -140, -28, -42, 22, -141, -130, -66, 120, 15, -183, -103, -93, 113, -130, -135, 67, -123, -116, 110, -135, -40, -29, -84, -25, 100, -16, -19, 109, -117, -46, 78, -42, -99, -79, 124, -33, -198, 84, -76, 28, -131, 30, -13, -20, -5, -110, -35, -27, -50, -39, -86, 59, -59, -150, 187, 135, -134, -86, -116, 71, 148, -23, -99};
static const int32_t kBias_tcn_3_depthwise[112] = {-80, -252, -323, -191, 235, -157, -215, -4, 296, 17, 163, -111, 231, 101, 307, 268, -39, -102, 281, 297, -73, 174, -243, -79, -313, -42, -97, 86, -22, -317, -282, -112, 208, -293, -109, 356, -137, -161, 337, 203, -230, -155, 204, 87, -391, -280, 86, -67, 92, -210, -183, -242, 142, -224, 345, 157, 60, 238, 183, 216, 204, -182, -111, 97, 257, 151, -237, 386, -7, -132, 281, 231, 284, -243, -145, 26, 381, 170, 372, 376, 75, -300, -88, 462, 271, 117, -10, -168, -14, -337, 9, 37, -170, -52, 135, -259, 273, 43, -74, -39, 269, 84, -33, -57, -264, -349, 334, -138, 370, 101, -104, -10};
static const int32_t kBias_tcn_3_pointwise[112] = {68, 181, -102, 68, -6, -68, -57, 136, -26, -153, 17, 97, -38, -11, 77, -85, -130, 81, 157, 106, 109, 34, 144, -151, 76, -168, -24, -12, 15, -173, -78, 55, -82, -63, 23, -89, 67, -47, 77, -12, -22, 188, -114, -40, 10, 92, -179, 90, 20, 69, -198, 55, 95, -101, 149, 158, 62, -164, 18, -113, -133, -133, -159, -125, -19, 85, -36, -46, -3, 47, -6, -193, -36, 25, 85, 19, 37, -9, -80, 78, 111, 173, 201, 102, 8, 151, 170, -106, -192, -187, -91, -28, -4, -31, -70, -164, 34, 131, 40, 12, 68, 71, -22, -52, 32, -70, 182, 91, -98, 55, -170, -93};
static const int32_t kBias_tcn_4_depthwise[112] = {240, -317, 308, 320, -170, -165, 83, 299, -30, -100, -415, -304, 325, 432, 381, 386, -288, -73, -262, 351, 238, 294, -325, -307, 252, 250, 379, 51, 360, 427, 5, 10, -13, -172, -300, -125, -344, -144, 20, 597, 612, -389, 409, -480, -65, -204, -22, -125, -229, -413, 268, 241, 424, 430, -408, 578, -257, 216, -75, 84, -1, -296, 268, -187, 307, -49, 454, -30, 326, -231, 315, -31, -151, 400, 467, -250, 254, -192, -489, 495, -25, -130, 378, 117, -193, -88, -439, 122, 168, -500, 139, 298, 472, 65, 348, -283, 355, -9, 532, -266, 0, 504, 29, -371, -17, -287, -267, -399, 416, 410, -119, 126};
static const int32_t kBias_tcn_4_pointwise[112] = {81, 27, -123, 53, 37, -57, 107, 24, -10, -9, 79, 144, 161, 40, 126, 19, -180, -71, 173, 43, 106, 139, -3, -102, -114, 126, -3, 38, 40, 228, 19, 87, -122, 109, -74, -36, 96, 5, -42, 23, -72, 82, 6, 113, -59, 11, -81, 121, 52, -7, -55, -26, 26, 81, -104, -87, 37, 3, 37, 121, 109, -52, 181, 79, 109, 172, 30, 78, -18, -41, -61, 138, -83, -62, 43, 32, -93, -52, 104, 135, -86, 142, 46, -141, 103, -123, -2, 24, 39, 52, -72, -119, -54, -55, -116, 130, -58, -106, 40, -151, -93, -95, 100, 35, 89, 11, -55, -10, -6, -109, -109, 95};
static const int32_t kBias_tcn_5_depthwise[112] = {-10, 220, -135, -286, 14, 316, 105, 206, -21, 363, -332, 273, -358, -197, 212, 481, 27, 21, 467, 295, -249, 169, -163, 61, -316, 343, 381, -103, 153, 57, -105, 298, -22, -77, 154, 294, -77, 274, 377, 89, 318, -41, -23, 395, -194, 285, 222, -149, 170, -272, 89, 332, 234, -235, 295, -331, 371, 310, -10, 145, 477, -349, 63, -14, 181, 153, -97, -230, 286, 317, 40, -256, 232, -122, -279, 181, -195, 325, 302, -187, -86, 238, 358, 291, -28, -217, -261, 239, -190, 198, -277, 239, -208, 211, 7, 374, -192, 282, -221, 381, -22, 137, 404, 269, -406, -122, -136, 38, -215, -212, -105, 46};
static const int32_t kBias_tcn_5_pointwise[112] = {-46, 33, 41, -39, 156, -25, -66, 102, -31, -23, 33, -132, -111, -87, 93, 116, 76, -63, 13, 99, -85, 102, 191, 23, -105, 154, -147, -94, 0, -122, 57, 23, -27, -102, 127, 49, 78, -52, 1, 103, 200, -25, 1, -20, 84, -163, 82, -141, -81, -100, 79, -39, 51, 9, 98, 148, -47, -30, 4, -124, 36, -96, 47, -34, -79, -82, -117, 5, -113, 69, 60, -23, -11, -34, 118, -61, -41, 103, -54, -92, 1, 102, -49, 29, -105, 57, 121, 123, 10, 21, 111, -31, -124, 61, -71, -20, 105, -51, -14, -48, 9, -51, -96, 177, -97, -100, 16, 100, 98, -32, -11, 17};
static const int32_t kBias_tcn_6_depthwise[112] = {-49, 259, 447, -153, -299, 67, 398, 327, 359, -371, 197, 275, -75, 300, -104, 354, -151, 361, -251, 519, 555, 370, -259, 291, -268, 168, -31, -325, 466, 82, -264, 345, -218, 156, 252, 144, -155, -188, -153, -70, -4, -150, -213, 73, -354, 34, 322, -120, -227, -173, 161, 264, 267, 246, 236, -284, -18, 384, 377, -179, -49, -102, -42, -30, -159, -264, 290, 346, 187, 323, 219, 330, 516, -306, 254, -222, -173, -111, -440, 6, -230, 416, -115, 15, -194, 321, -171, 195, -260, 422, -135, 202, -92, -54, -102, 85, 300, 306, 169, -234, 52, -95, 306, 407, 329, -255, 378, -221, 308, 23, -56, -93};
static const int32_t kBias_tcn_6_pointwise[112] = {182, 78, -58, -139, 111, -13, -6, 97, 108, -90, -4, 118, -65, 16, 22, -119, 189, -23, -143, -172, -138, -244, 62, 48, 53, 128, 48, 92, -4, -78, -150, 74, 172, -53, 104, -184, -46, 30, -66, -152, 121, -17, 12, -92, -101, -264, -112, 225, 48, 99, -75, -28, 50, 82, -4, 21, 202, 109, 121, 180, 4, 91, 124, -50, 118, -161, -95, -144, -45, 10, 34, -117, 7, -181, 54, -123, -63, 98, 88, 8, -46, -5, 196, 170, -212, 163, 33, -117, 51, 20, -16, 127, 131, 65, 23, -14, 7, 114, 51, -203, -33, -114, 22, 210, -179, -10, -66, -93, 112, 198, 177, 165};
static const int32_t kBias_tcn_7_depthwise[112] = {-153, 209, -180, 407, -37, -393, -219, 433, -44, 212, 329, -55, 361, -386, 256, -407, -166, 272, -445, -78, -485, 458, -214, -135, -28, -199, -284, -95, 301, -34, 199, 259, 154, -123, 246, 264, -3, -268, -441, 379, 309, 196, 280, 299, -31, 168, -22, 183, -8, 333, -153, 321, -110, -460, -353, 329, 157, -155, 539, -65, 118, -351, 165, -190, 432, -348, -245, 149, -425, -300, -55, -223, 41, 144, 424, 396, -308, 232, 363, -292, 431, 392, -128, -219, 471, 169, 12, 108, 398, 322, -463, 276, 251, 367, 452, -391, 108, 286, -346, 452, -7, 35, 18, 128, 400, -19, 176, 22, -249, -239, -86, 320};
static const int32_t kBias_tcn_7_pointwise[112] = {61, -203, -218, -147, 49, 38, 194, -123, -119, -209, -70, 161, -31, -51, 108, 198, 136, 62, -156, -202, 72, -124, 231, -124, -209, -178, -8, -69, -90, 51, -256, 117, 144, -128, 264, 96, 173, -161, -56, -100, -59, 90, 89, -103, -161, 30, -16, 145, -232, 58, -162, 191, 253, -3, 65, 84, -161, 100, 186, 292, -28, -27, -99, -155, 151, 176, 59, 125, -166, -175, -148, -342, 100, 180, 66, 132, -86, -142, -218, 157, 45, 87, -83, -114, -22, 47, 44, -27, -75, 115, -198, -162, -187, 69, -83, -57, -226, -194, 40, -212, -222, 214, 48, 133, -58, 140, -103, 67, -212, -90, 50, 118};
static const int32_t kBias_head[32] = {-101, 171, 126, 233, -228, 156, -158, 101, 92, 37, 71, 116, 154, -140, 211, 73, -170, -221, -75, 123, 44, 247, -14, -225, 151, -157, -131, 143, -62, -151, 107, -123};

static const int32_t kRequantMultipliers[18] = {1110681626, 1734587474, 1631166296, 1596095813, 1657623556, 1094964815, 1793501566, 1468892599, 1500423711, 1927647673, 1864291521, 1323913748, 1866946615, 1457899181, 1463291912, 1303297164, 1179232310, 1592112607};
static const int32_t kRequantShifts[18] = {-7, -6, -8, -6, -8, -6, -8, -6, -8, -7, -8, -6, -8, -6, -8, -6, -8, -6};
static const int32_t kResidualMultipliers[8] = {2139210976, 1073741824, 2087773267, 1073741824, 1073741824, 1073741824, 1073741824, 1073741824};
static const int32_t kResidualShifts[8] = {0, 1, 0, 1, 1, 1, 1, 1};
static const int32_t kHardSigmoidMultiplier = 1717986918;
static const int32_t kHardSigmoidShift = 8;
