#pragma once
#include <stdint.h>

static const int32_t kBias_stem_0[116] = {31, 43, -174, -49, -64, 59, -54, 83, -10, -137, -32, -16, 128, 129, 33, -161, 35, -172, -44, 28, 92, 49, 19, -11, 28, 95, 38, 19, 2, -78, -178, -158, 83, -42, -28, -133, -170, -48, -46, 71, 1, 175, 9, 66, -116, -127, -47, -105, 102, -6, -14, -47, 30, -121, 78, 60, 96, -54, -168, -109, -100, 109, 93, -76, -9, -128, 63, -26, 73, -41, -66, 85, 17, 155, 25, -47, -12, 50, -123, -20, -22, -117, -132, -16, -74, 42, -138, -22, -125, 118, 56, -66, 28, 63, -73, -62, 64, -97, -185, 60, -71, -136, -137, -33, -99, 56, 163, 19, -74, 60, -75, 58, 129, -38, -55, 173};
static const int32_t kBias_tcn_0_depthwise[116] = {-228, 153, 162, 72, -177, 90, -3, -225, -323, -1, -254, 279, -302, -150, -62, 91, -311, 251, 395, 290, 328, -209, 164, 185, 144, -204, -24, -377, -318, -240, -134, -247, 377, -28, -124, -28, 117, -263, -219, 346, -376, 101, -243, 155, -284, -43, 45, -90, 124, -25, 342, -2, -42, -406, 344, -153, 105, -350, -145, 240, 287, 101, -262, -420, 405, 297, -122, 300, -87, -106, 343, 258, 175, -1, -1, -28, -12, -151, -284, -356, -222, -7, 0, 40, -309, -33, -233, -261, -213, 382, 83, 174, 187, -220, 162, -215, -148, 429, 416, 257, -142, 222, -239, -57, 312, -171, -116, 223, -344, 166, 274, -382, -273, 153, -138, 0};
static const int32_t kBias_tcn_0_pointwise[116] = {-128, -29, -190, 150, -164, 17, 12, -35, -81, -182, 99, -9, -15, 44, 91, -82, -31, 29, 11, -16, 86, -67, -218, 130, -72, -84, 84, -32, -243, -133, 32, -220, -47, -189, 26, -162, -187, 192, -206, -113, -50, 17, -92, 30, 97, -202, -93, 52, 124, -56, -114, -24, -102, -118, 79, -88, 30, 149, 84, -21, 141, -25, 218, 124, 70, 196, -6, 70, -250, -7, 25, 128, 201, 101, 193, 70, 32, -86, 59, -229, 36, 70, -151, -142, -136, 53, -55, 138, -184, 16, 99, -63, -12, 34, -120, 157, -9, 94, -151, 119, 31, 102, 12, 94, -22, 190, -102, -21, -158, 44, -19, 28, -123, 86, -65, 189};
static const int32_t kBias_tcn_1_depthwise[116] = {-30, 245, 21, 448, 522, -357, -90, 252, 268, 275, 327, 293, 478, 570, -165, -291, -429, 320, 103, 0, 384, 247, -62, -166, 330, 226, 92, -400, -156, 378, 252, -101, -425, -350, -234, -294, 146, -149, -432, -261, -40, 573, 371, -357, 225, -58, -93, -276, 166, 396, -150, -363, 200, 330, -54, 395, 312, 213, -91, -105, -13, -73, 200, 280, 368, 169, 274, 120, 129, 331, 362, 168, 415, 222, -431, -10, -109, 320, -94, 279, -100, -379, -203, -63, -151, 210, 183, 360, 18, 221, -363, -99, -40, -74, -1, -298, -138, -218, 141, -245, -187, -68, -191, 142, -300, 66, 3, -274, -177, 250, 10, -230, -307, -220, -276, -356};
static const int32_t kBias_tcn_1_pointwise[116] = {-131, -1, -103, 59, 38, -58, 10, -26, -58, 116, 68, -146, -106, 40, 8, -76, 87, -110, -24, 99, -49, -67, 80, -72, 77, -103, -50, -107, -95, 10, -82, -139, -36, -64, -83, -114, -76, -176, 15, 41, 17, -134, -132, 162, 37, -17, 45, 33, 24, 73, -7, -125, -179, -83, -3, 75, 12, -4, -28, -103, 124, 149, -22, -77, -40, 31, 42, -142, -42, -49, -132, -28, 131, 97, 31, -23, 33, -31, 44, 76, -115, -63, -101, 91, 23, 4, -65, -3, 33, -16, 78, 51, 62, -83, -90, 37, 11, -41, 69, 97, 66, 123, -108, -57, 27, 36, 4, 83, -91, 114, -98, 23, -126, 65, -106, 74};
static const int32_t kBias_tcn_2_depthwise[116] = {-282, -316, 187, -236, -292, -344, -300, 255, -136, 331, -38, -235, 52, -52, 43, 366, -127, 88, -259, -3, 168, -202, -165, 6, -154, 14, -233, 489, -251, 305, 123, 413, -307, -8, 54, 144, 163, 96, 36, -397, -317, 191, 196, -75, 171, 61, -409, -180, 93, -122, 149, 103, -48, -274, -277, -407, 123, -190, -1, -200, 75, 48, 50, -235, 319, 203, -266, -3, 164, -139, 151, 127, -268, 53, -266, 241, 324, 76, -203, -206, 385, 268, 183, -13, -329, 615, 361, 123, 314, -138, -333, -273, 253, 523, 251, -430, -68, -122, 65, 338, 377, 185, 130, 419, 327, -94, -94, -262, 245, 22, 312, -214, -359, 9, -133, -268};
static const int32_t kBias_tcn_2_pointwise[116] = {372, -320, -424, 13, 344, -345, 475, -247, -133, -213, -1, -78, -339, -373, 220, -247, 207, -368, 89, -281, -319, 124, -263, -103, 4, -291, -277, -55, -450, 152, -179, -174, -164, 91, -227, -163, -54, -48, -120, -105, -189, -188, -29, -253, -299, -89, -247, -171, 187, -103, -436, -368, 44, 355, 75, 454, 111, -309, -308, 188, -252, 138, -36, -290, -321, -79, -300, -223, 150, 355, 149, -146, 427, 236, 438, 288, 249, 292, -60, -47, -415, 350, -340, 51, -195, 374, 259, 107, -465, 232, -347, -9, -480, -379, -17, -373, 436, 23, -182, 124, -112, 55, -63, 156, -368, 538, 12, -126, -64, 78, -336, 94, -423, -413, 209, -307};
static const int32_t kBias_tcn_3_depthwise[116] = {424, -473, 661, 18, 114, 117, 427, 34, 207, -147, 225, -177, 617, -549, 237, -341, -21, 503, -288, -107, 220, -374, -115, -479, -238, 285, 117, 368, 348, -579, 26, 503, 494, 403, -360, 80, 87, 262, -505, -53, 219, 525, -482, 102, 370, 63, 301, 269, 482, -339, -531, 71, -236, -136, -89, 340, 333, -228, 317, 17, 142, 425, -74, -205, 49, 367, 452, 51, -191, 116, -321, 129, 254, -110, -270, -134, -272, 215, -232, 60, 570, -114, 14, -18, 165, -223, 408, -226, 124, 116, -236, 500, 4, 29, 296, -64, 424, -364, -271, -362, -14, -432, 124, -236, 11, 518, -540, -28, -326, 261, 133, 456, 295, 494, -18, 277};
static const int32_t kBias_tcn_3_pointwise[116] = {-390, -123, -53, -27, 210, 121, 173, -202, -198, -249, -209, -55, -27, -87, -168, -24, 186, 182, 243, 296, 347, -203, 32, -142, -80, -25, 155, -204, -120, 43, -87, 17, -197, -117, -329, 49, 243, 6, -98, -170, 19, -125, 120, 97, -41, -232, -211, -305, 177, 120, 206, 162, -117, -397, 159, 177, -160, -37, 122, 317, 320, 224, 55, -271, -174, 24, 144, -278, 13, 186, -280, 145, 221, 89, 195, -137, 92, -266, -137, 78, 59, -14, 90, -7, 77, 144, 158, 284, -372, 172, -81, 227, -55, -8, 55, -284, 57, 122, -227, -365, 121, -292, -121, -60, 222, 280, 327, -25, -251, 299, 23, -94, 107, 317, 58, 421};
static const int32_t kBias_tcn_4_depthwise[116] = {-162, -155, -291, 96, -263, -78, 141, 416, 205, 203, -214, -418, -31, 469, -21, -356, 213, -32, 496, 445, 103, 34, 172, 360, -486, 333, 92, 55, 338, -218, 216, 26, 152, -187, 14, -168, 386, 307, 10, 385, -32, 332, 460, 345, 551, -356, 90, -146, -397, -226, 113, 190, 346, 52, -39, 157, 462, -81, -376, 472, -280, -88, -35, -384, 363, 170, 277, 285, 10, -77, -226, 270, -310, 210, -267, 127, -244, 100, 477, 133, -171, 68, 403, -184, -9, 11, -156, -257, -257, -386, -457, 392, -144, 35, 424, 240, 182, 590, 276, 415, 208, -117, -95, -227, -18, -194, -288, 450, -153, 61, -204, 388, 333, 173, -84, 166};
static const int32_t kBias_tcn_4_pointwise[116] = {-85, 8, -77, 96, -69, -24, 97, 91, -51, 45, -38, 3, 6, 41, -37, -64, -67, -8, 67, 36, 17, 41, -12, 60, -42, 88, -31, 6, -21, 17, 44, 48, -26, -65, -96, 55, -53, 12, 27, -77, -18, 96, -20, 28, -57, 60, 2, -29, 98, 5, -50, 60, -101, 10, 17, -22, -70, -37, -19, 77, -66, 106, -69, -38, -32, 70, -31, 1, 43, -4, -35, 18, 6, 38, 57, -5, 98, -1, -11, -17, 103, 3, -70, -76, -7, 49, 34, 60, -6, 86, 79, -60, 37, 48, 40, -23, 76, 27, 42, 58, 29, -72, 43, -53, -30, 64, 63, -20, 17, -13, -14, 6, -6, -52, 0, -24};
static const int32_t kBias_tcn_5_depthwise[116] = {295, -384, 170, 209, -53, -34, -37, -264, 199, 433, 497, 232, 377, -155, -236, 520, -1, -44, -60, -94, 56, 315, 135, 141, 216, 198, 218, 133, -308, 173, -158, -178, 314, 297, 159, -450, -230, 151, -164, 179, -142, 40, 546, 234, 273, 201, -42, -189, -327, -7, -265, 288, -141, 472, -93, -197, 431, 262, -174, -323, 124, -309, -71, -134, 363, -161, -390, 302, 458, -155, -244, 170, -81, 84, 405, -439, -283, -145, 351, 264, -162, -351, 200, 306, 85, -112, -75, -80, 263, -334, 212, -136, 54, -312, -297, 203, -344, -101, -238, 170, -179, -128, 53, 300, -79, 113, -318, 304, -13, 276, -48, -254, -299, 338, -36, 254};
static const int32_t kBias_tcn_5_pointwise[116] = {-77, -73, -43, 61, -45, 86, 111, -17, 106, 18, 32, 0, 12, 143, -41, -22, -5, -57, 93, 48, 16, 66, 16, 56, 36, 149, 27, 10, -88, -67, -98, -73, 73, -32, -30, -72, 18, -65, 41, 68, 76, 74, 82, -123, -102, 64, 32, -27, 98, -60, -100, -103, 1, 25, 51, 61, -72, -8, 24, -11, 86, -65, -105, 34, -65, -5, -39, -5, 26, 52, -16, -30, 139, 32, 16, -65, 33, -59, 75, -68, -22, -58, -73, -34, 6, 72, 50, -101, 73, 61, -53, -49, -80, 91, -96, -23, -11, -75, -22, -65, -75, 25, 20, -58, 88, 81, 114, 119, -76, -66, -100, 7, 43, 122, 94, 55};
static const int32_t kBias_tcn_6_depthwise[116] = {-285, 332, 315, -8, 124, -55, -328, 211, 51, 419, 314, 172, 145, 352, -124, -53, 146, 142, 98, -46, 33, -27, -127, -310, 240, -226, 304, 222, 284, 15, -149, 275, -177, -187, -36, 374, 153, -267, 261, -315, 100, -282, -196, 240, -324, 181, 298, 60, 251, 31, -186, -219, 172, -61, 116, -117, -166, 324, 371, -231, -272, -119, -197, 281, -147, -241, -283, 417, -5, -32, -187, -273, -75, 241, 150, 351, -16, 361, -203, 77, 6, 345, -86, -54, -104, 343, 249, -155, -101, 109, 178, -127, -343, 84, 307, 101, -233, -94, 143, -175, 193, 206, 299, 22, -108, -262, -36, 157, 237, 156, 129, -202, -194, 33, -162, 209};
static const int32_t kBias_tcn_6_pointwise[116] = {-205, -66, -123, 45, -117, -226, -70, -131, -137, -36, 165, 67, 182, 81, -118, 200, -191, -70, -45, 141, -219, 188, 3, -124, 126, -98, -98, 125, -276, -144, -199, -2, -28, -24, -145, 147, -23, 171, -289, -33, -123, 194, -26, -205, -172, 56, -109, -120, -36, 173, -71, 99, 38, -148, -157, 188, 25, 91, -8, 217, -108, -219, 179, -105, -207, -43, 45, -86, 69, 70, 23, 122, 196, -94, -79, 147, 271, -144, 73, 72, -231, -65, -53, -95, 2, -51, -82, 243, 101, -150, -67, -160, -185, 86, -199, -42, -83, 7, 144, 161, -214, -36, -79, 81, -140, 89, 73, 171, 139, -51, 250, -212, -196, -23, 218, 125};
static const int32_t kBias_tcn_7_depthwise[116] = {-181, 322, 384, -493, 182, 315, -529, 238, 107, -391, 20, -7, -420, 269, 153, 275, -193, -97, -363, 466, 268, -3, 354, 143, -457, 96, -147, -16, 368, 258, -27, 485, 228, -399, 68, 202, 253, -10, -326, 472, 461, -415, 374, 150, -338, 103, -193, 70, 662, 192, -398, 353, 88, 364, 180, -58, 278, -269, -328, 219, -238, -102, 443, 348, -169, 278, 472, -70, 224, 187, 272, 582, -185, -236, -5, 369, 306, 301, 332, -338, 190, -263, -308, 457, -98, -57, 202, -360, 41, 350, -230, 288, -21, -153, 312, -7, 12, -104, 247, -241, 153, -276, 298, 338, -480, 455, 259, -98, -430, 27, 233, -338, 313, 113, -258, 531};
static const int32_t kBias_tcn_7_pointwise[116] = {-125, -145, -114, 170, -134, 130, 150, -54, 128, -36, -89, 128, -75, -71, -59, 123, -249, 105, 120, 147, 1, 140, 113, -43, 13, -12, -67, -166, -138, -159, 17, -4, -115, 21, 93, 55, -67, 114, 96, -26, 132, -236, 167, -52, 5, 61, 73, -69, -128, -30, 94, 97, -32, 26, 201, -115, -86, 148, 70, 27, -218, 235, -58, 45, 82, -63, -108, 69, -140, -39, 145, 204, -205, 13, 226, 100, 165, -164, 35, -86, -36, -6, -14, 43, -59, -96, -122, -150, 58, -49, 117, -227, 13, 20, 49, -42, -159, 278, -142, 209, -145, 193, 15, 59, 125, 257, 34, 27, -143, 132, -167, -221, 167, 204, -99, 7};
static const int32_t kBias_head[32] = {114, -65, 235, -36, 123, -95, -193, 189, -1, -219, 8, 46, -104, -100, -195, -77, -155, -10, -49, -265, -226, -72, -6, -24, 133, -119, -5, -215, -153, -48, 103, -227};

static const int32_t kRequantMultipliers[18] = {1093790586, 1983592941, 1559326022, 1356137800, 1108919597, 1530732294, 1551198873, 2108352228, 1790164664, 1686426728, 1677152863, 1357338926, 1252219925, 2001289781, 1368009721, 1629301316, 1213739920, 1874634422};
static const int32_t kRequantShifts[18] = {-7, -6, -8, -6, -7, -5, -9, -6, -9, -7, -7, -6, -7, -6, -8, -6, -8, -6};
static const int32_t kResidualMultipliers[8] = {1073741824, 1073741824, 1073741824, 2092161098, 2109276703, 2072302679, 1073741824, 2045012962};
static const int32_t kResidualShifts[8] = {1, 1, 1, 0, 0, 0, 1, 0};
static const int32_t kHardSigmoidMultiplier = 1717986918;
static const int32_t kHardSigmoidShift = 8;
