#pragma once
#include <stdint.h>

static const int32_t kBias_stem_0[112] = {-649, 127, 352, 150, 34, -806, 1527, 642, -237, -282, 680, -257, -622, -514, 700, 317, 974, -684, 1153, -234, -707, 326, -524, 26, -887, 654, 67, 992, -187, -1139, 158, 1514, -939, 1210, 32, -233, 954, -159, -445, 566, 1308, -370, 530, 1155, 892, -1064, 817, -790, -929, 284, -959, 816, 391, -148, -296, 1552, -836, 205, -797, 3, -690, 1013, 1175, -68, 313, -919, 104, -291, 59, -555, -557, -961, 1245, 681, 410, 1077, -634, 672, 511, 1309, -1159, 528, 1163, 72, -682, -868, -205, -588, -1119, -162, 728, 1001, -244, -139, -980, 933, 413, -1373, 971, -298, -359, 829, 355, -101, 1086, 749, 810, -659, -602, -544, 915, 1274};
static const int32_t kBias_tcn_0_depthwise[112] = {423, -1849, 1387, 2091, -1056, -2129, 2608, -318, 1253, 1242, -389, 5, 1249, 147, 1088, 1322, -1667, 2143, -2066, 1737, 1656, -2330, -775, -890, 1692, -1040, -1028, -1892, -630, -1590, 2309, -426, 2299, 43, 1906, 813, 549, 246, -524, 523, -502, 1765, 551, 929, -1762, -912, -193, 2217, 542, 1131, 2141, -681, -1753, 621, 1518, 2502, 1057, 1500, -543, 841, -364, 2557, 156, -1084, -1892, 1997, -554, 2639, 1478, -2675, 2167, -1244, 239, 1043, 2629, 1207, -2243, -499, -18, -586, 2759, 2406, -1403, 2582, -1729, -1858, 714, -500, -675, 897, 2689, 1945, 1027, 2080, 1549, -1603, 2128, -2024, -1827, 1509, -2291, 2428, -1445, 1131, -2457, -2040, -281, 158, -1563, -390, -1255, 249};
static const int32_t kBias_tcn_0_pointwise[112] = {-1051, -174, -2147, 1361, -1037, -1060, 1745, -1158, -2138, -1230, -1061, 2276, -1915, 1359, 1111, -1053, -294, 1148, -1622, -295, -2870, 777, -1147, -2432, 1668, -1720, -1993, -934, -1810, -1285, 999, -1639, -1544, 37, 400, 511, -1138, -1356, -850, 1493, -600, -1463, 2529, 1438, -1381, -523, -673, 1444, -2685, 1589, 2098, 2064, -1059, -2210, -781, 625, 332, 1291, 234, -91, -1723, 1839, 2032, 1965, -1033, 2377, -943, -668, 52, 2128, 1367, 1849, -2177, 2029, -903, -280, -1108, 2674, -1007, 1426, -1460, 28, -2285, -1122, -1869, -835, 1782, 1945, -1475, 770, -2475, -2287, -1457, -1817, 89, 729, -1076, -1991, -1071, -2124, 750, 608, 36, 1556, 119, -60, -876, 661, 644, -244, 945, 400};
static const int32_t kBias_tcn_1_depthwise[112] = {1971, -108, 734, 1402, 564, -975, 1511, 1747, 768, 1572, 1324, 369, -1517, -835, -537, -920, -1653, 1467, -314, 1054, -1826, 807, 1975, -1487, 778, -715, 835, -39, 13, -2289, 598, -225, 2200, 2248, 134, -174, 1868, 1357, 85, 754, -1172, -1970, -1701, 472, -2127, 612, 1403, -796, 1015, -1896, 377, -602, -1547, -1242, 941, -1706, 579, 1409, -1224, -1193, 605, -518, -755, -2041, 824, -2191, 403, -149, -1871, 926, -1380, 133, -303, -36, -639, -1171, 1415, -1109, -1138, -182, 392, -1963, -231, -81, 88, 2011, 1754, 2110, -897, 1364, 405, -1382, 421, -125, -200, 2429, -297, 914, 790, -98, -776, 193, -1803, -1488, 2353, 2208, -973, 1838, -2221, -1630, 1820, -952};
static const int32_t kBias_tcn_1_pointwise[112] = {672, -1409, 1424, -1470, -2681, 79, 2481, 2366, -865, -333, 1702, -1918, 1567, 2101, 1661, -935, -940, -717, -776, -2224, 1413, -2221, 456, 1724, -231, -1240, 1407, 954, 1547, 1288, -940, 2238, -1172, 932, -2227, -874, 1079, 599, -2257, -1324, 1377, 1275, -1389, -323, 1590, -1500, 2188, 1718, 258, 2270, -2098, 1275, 1583, -1525, 1063, 245, -1533, -2369, 531, -1162, 557, 555, 1256, -2205, -1785, -1085, 1150, 391, -1074, -788, -1476, 388, 2583, -1665, -1651, 1235, -495, 2475, -1482, 668, -189, 1388, 906, -451, -1622, 464, -1947, 70, -485, 1627, 512, 516, -328, -1558, -1861, -1610, -692, -1995, -50, 1316, 89, -1233, -1187, -1612, -1330, 322, -2548, 2083, -1937, 2015, -1389, 2571};
static const int32_t kBias_tcn_2_depthwise[112] = {1899, 855, 1761, 619, -983, -804, -1928, 1114, 229, 1744, 1215, 1001, -1122, -718, 1171, 1613, -840, -42, -450, 1809, 996, 985, -1649, 852, 538, -774, -1847, 1371, 1561, 274, -2052, 1239, -1096, -1835, 1388, -1676, 1463, 568, -688, -1847, 1192, 282, 549, 1920, -100, 1583, -43, -1922, -887, -1493, 1300, 1459, -345, 1364, 1408, -257, -1873, -704, -1643, -223, 2148, 1998, -17, 388, 334, -294, -1212, 1439, 1794, -752, -299, -993, 487, -336, -2144, -1715, -1432, -392, 1311, -1083, 358, 818, 1838, -1178, 527, 286, -1132, -843, -709, 1074, -1743, 1853, -638, 2114, 2047, -1086, -142, -2135, 1408, -806, -478, 500, 269, 827, 282, 1208, -689, 600, 1849, 1478, 1602, -214};
static const int32_t kBias_tcn_2_pointwise[112] = {1733, 1042, 736, -1171, -536, -324, 436, -584, 775, 24, -1401, -1457, 10, -463, 1258, -778, -268, -1286, -431, -1073, 797, -989, -1096, -69, 627, 1411, -4, 144, 891, 514, -1473, 344, 655, 1367, -836, -60, -1357, -957, 200, 1428, 1625, -1783, -143, 250, -1025, 484, 1118, 1574, 1288, 80, -164, 1374, 307, 62, 152, -436, 586, 747, 194, 1620, 1059, 392, 621, -254, -1276, -724, -167, -323, 325, -95, -126, 929, 539, 41, 1820, 1493, 1403, -101, -950, 558, -1504, 786, 1271, 1474, 1489, 843, 1261, -1795, -1735, -458, 1749, 1016, -191, 1087, 799, 841, 187, 100, 1702, -8, -1465, 120, 86, 1660, 566, -383, -1867, 417, -875, -367, 488, -421};
static const int32_t kBias_tcn_3_depthwise[112] = {5, 813, -1550, 1180, -1828, 1227, -731, -3, 283, -1681, -1487, -1833, -1363, -1422, -1357, 150, 917, -1410, 1654, -1811, -501, 1696, -240, 560, 174, -1491, 1004, -1571, -844, 861, 599, 1398, -532, 1358, -1647, -867, -683, -1143, -1701, -1810, 1077, -1223, 1569, 261, 1094, 1648, 169, -1341, -961, -1065, 289, 262, 899, -1544, -1390, 700, 1906, 1590, -1375, 980, 164, 1100, 282, 1861, 246, 1220, 1133, -378, -645, 820, 569, -1477, 377, 913, 48, -1032, -1167, -1624, 350, 1118, -1450, 1860, 868, 1041, 1597, 400, 1209, -699, 280, 1722, 809, 1401, 1910, -635, 1107, 338, -707, 1572, -993, 1641, -976, 1204, -568, -1629, -1166, -495, 1792, -1562, 808, -407, 412, 488};
static const int32_t kBias_tcn_3_pointwise[112] = {-543, 486, 530, -421, -607, 238, 239, -124, -425, -520, 926, 774, -403, -355, -327, -649, 586, 306, -138, 334, 195, -258, -167, 189, -174, -805, -552, -26, -208, 168, 408, 79, 222, -746, -665, -554, 84, 207, 217, 586, -473, 283, 486, 351, 328, 251, -35, 530, 619, 338, -716, 550, 301, 674, -833, 97, -299, 434, -464, 296, -513, -325, -729, -204, 267, 647, -570, -445, 56, -175, -62, -325, -60, 958, 843, -91, -424, -304, 182, 249, -620, 34, 538, -364, 61, -280, 332, 24, -171, -313, 732, 58, 438, 403, -466, -254, -474, -635, -405, -779, -445, 304, 95, 947, 694, 948, 653, 760, -451, -798, -768, 761};
static const int32_t kBias_tcn_4_depthwise[112] = {-1663, 586, -14, -1568, 970, 2, 114, 302, 825, -1357, -619, 1257, 611, 241, -546, -855, 1052, 1405, -1565, 554, -374, 473, 966, -577, -1407, 102, -294, 260, -828, 35, -902, -1675, 1011, -320, -959, 715, -1281, 857, 1195, 1047, 197, -83, -1049, 167, 704, 1261, 148, -416, 498, -468, 92, 1053, 864, 322, -774, -529, -357, -764, 1115, 446, 287, 765, 241, -516, -1359, 429, 307, -1130, 664, 726, -556, 513, 544, 1414, -241, -507, -764, 1031, -915, -1588, 1690, -1578, 1382, -121, -772, -1378, 208, 1197, 67, -377, -230, 6, 807, 556, -753, -1151, 1046, -196, -1663, 764, 749, -233, 1821, 380, 1280, -34, -1116, -1127, -40, 1445, 221, -1198};
static const int32_t kBias_tcn_4_pointwise[112] = {41, 215, -511, 339, -1351, -1332, -128, -921, -336, -650, 105, 551, -1165, 751, 530, -370, -347, -384, 1199, -970, -978, 89, 906, -995, -358, -257, -62, -468, -171, -384, -69, -1214, -771, -1067, -1049, 233, 307, -298, -336, -348, 359, 1024, -617, 1172, -922, -150, 383, -389, 858, 1007, -167, -559, -825, 598, -633, 692, 207, 895, -584, -827, 475, 1059, 1284, -349, 639, -164, -459, -1128, -1034, -73, 333, 656, -453, -422, 154, 1392, -319, 423, -282, 357, 304, -987, 283, 678, 313, 107, -896, 974, -253, -922, -1262, 584, 485, -262, -65, 599, -862, -1264, 450, 518, 84, -227, -109, 829, 880, -602, -622, -766, 38, 1077, -273, -1384};
static const int32_t kBias_tcn_5_depthwise[112] = {760, -1002, -493, 1062, 360, -1076, 1503, 1140, -1183, -1403, -1458, -1452, -1383, 503, -759, 622, -1420, 1466, -279, 579, -942, 810, 753, 293, -262, 991, 714, -836, -1147, 1543, -647, -816, -260, 21, 993, 137, 3, 918, 605, -910, 1324, 1041, 360, 327, -1260, 226, 57, 261, 1343, 618, -1017, 711, -1104, 1406, -983, 376, 1201, -542, 1000, 1194, -757, 825, -256, 1416, 543, 1333, 292, -1078, -635, -1450, -875, -1004, 877, 193, 1470, 1107, -1090, -1237, 852, -1413, -256, 1281, -1473, -737, -333, 238, -412, -1004, -767, -139, -1586, 314, -1238, 874, -243, -420, -1008, -758, 1, 1280, -262, -850, 1256, -849, -1010, 99, 1516, 1108, -1213, -1377, 1521, 303};
static const int32_t kBias_tcn_5_pointwise[112] = {-57, -486, 85, 454, 969, -49, 111, 1025, -856, -844, 75, -60, 121, 815, 906, 359, 971, 635, 127, 407, 845, -724, 936, 149, -302, 1086, 891, -510, -1086, -15, 131, -508, -160, 789, -360, 611, 369, -913, -342, -655, -1109, 694, -44, 312, -1275, 61, 893, -1175, 912, 54, -403, -1319, 264, -208, -539, -1054, 22, -782, 311, -53, -1095, -775, -14, -881, -300, 977, 329, -614, 1060, -942, 38, -451, 39, 1153, 1133, -1084, -269, 652, 1100, 385, 742, -642, -1186, -717, 974, 261, -160, -915, 312, -102, 1018, -349, -1187, 788, 373, -850, -466, -395, -951, 513, -605, 924, 1011, -19, -552, 644, 152, 500, -1149, 1040, -18, -147};
static const int32_t kBias_tcn_6_depthwise[112] = {297, 1390, 845, -636, 740, -1382, 651, 785, -431, -877, -475, 803, 895, 534, 1076, -23, 1389, 613, -225, -1345, 1449, -1019, 1539, 867, 784, 105, -972, -639, 116, -987, 316, -1009, -1017, -99, 793, 441, 1129, 348, -24, 1730, 1381, 905, -75, -1575, -1227, 656, 484, -1027, 1422, 862, 28, 838, -27, 1384, 395, 1514, -1365, 67, 1564, 1150, -341, 1309, 702, 1568, 935, 568, 1543, -1416, -1376, 908, -269, 211, -1386, -467, -1130, 1416, -833, 1262, 1436, 545, 470, -1138, -555, 1444, 1381, -824, -1206, -1425, 1284, 137, 1373, -496, 937, 735, -545, -166, -1118, -1567, 398, 1610, -374, 324, 963, -183, 314, 556, 834, 716, -185, 609, 198, 1383};
static const int32_t kBias_tcn_6_pointwise[112] = {635, -467, -30, -233, 104, -27, -668, -565, 12, -541, -418, 130, 323, -15, -714, 164, -704, -17, 811, 26, 524, 534, 210, 333, 48, 740, 501, -265, 287, -87, -337, -278, 450, 122, 490, 226, -562, -665, -90, -195, -441, 570, 717, 693, 216, -311, -125, -614, -244, -257, 577, -276, 369, -325, -350, -141, -354, -494, 268, 413, -97, -575, 41, -433, -84, -741, -349, -149, 104, -34, -395, -475, -255, 762, 569, 418, 140, 514, 33, 280, -454, -93, 310, -82, 661, -58, -200, 72, -607, 531, 248, 496, 220, -448, -324, -261, -696, 412, -532, -580, -153, -648, -60, 590, 500, 248, -593, -574, 216, 693, 213, 170};
static const int32_t kBias_tcn_7_depthwise[112] = {1363, 965, 960, 1258, -1254, -690, -1259, -786, 353, 1244, 1190, 416, -1134, 1221, 435, -932, -1341, 91, -173, -883, -605, -893, 313, -548, -103, -45, -480, -863, 1240, 1241, 301, -1401, 1044, 1398, 116, 321, 873, 266, -85, -711, 781, -1287, -597, -344, -1483, 1002, -828, -1235, -14, -157, 1156, -626, 1104, 931, 973, -1119, -438, 466, -130, 135, -874, 208, -676, -332, -102, -1340, 1317, 969, -848, -1414, -42, 884, 495, -958, -840, 123, -157, -1136, 1460, 113, 265, -894, 92, -1033, 711, -492, -1280, 351, 1035, 585, 686, -330, 1126, 728, 661, -317, 1113, -1145, 26, 695, 239, 460, 726, -930, -1039, -215, 1555, -403, 63, -515, 962, 797};
static const int32_t kBias_tcn_7_pointwise[112] = {-1011, 920, -258, -928, -72, 359, 1046, 948, -1292, -338, 1105, -829, -954, -142, -356, 476, 70, -271, 1327, -521, -1275, 692, 645, -1324, -475, 829, -1138, -759, 908, -47, -914, 315, -877, 39, 679, 804, -1255, 1040, -1233, 545, -766, -474, 339, 222, 13, -123, 234, -830, 657, 185, 623, 837, 982, 150, 672, 695, -82, 760, 50, -95, 709, 172, -649, -1028, -1259, 1224, 1180, 993, 145, -689, -1236, -1043, -129, 17, 605, 339, -315, -347, 652, -668, -1280, 225, -1019, -902, -733, -771, -1191, -599, -760, -589, 379, 1367, 133, -1124, 329, -1070, -1273, 364, 251, -1061, 912, -1051, 1022, 1438, 151, -42, -909, -499, -258, -773, 469, -617};
static const int32_t kBias_head[32] = {429, -100, 315, 801, -170, 148, -1095, -1173, -1111, -492, -967, 689, 435, -517, -940, -333, -76, 128, 43, 246, -938, 583, -1113, 481, -1019, -753, 773, -37, -1057, -2, -196, -919};

static const int32_t kRequantMultipliers[18] = {1991470367, 1499539061, 1845564139, 1822640492, 1707602405, 1878788760, 2046050112, 1832210262, 2012260746, 1631006075, 1227551247, 1548108574, 1317986857, 1735052076, 1882760736, 1706232513, 1931388364, 1593370040};
static const int32_t kRequantShifts[18] = {-9, -7, -10, -7, -10, -7, -10, -8, -9, -7, -9, -7, -9, -8, -9, -7, -10, -8};
static const int32_t kResidualMultipliers[8] = {2009877536, 2021629483, 1896787877, 1857461830, 2079777522, 2079630782, 1900389615, 1978576894};
static const int32_t kResidualShifts[8] = {0, 0, 0, 0, 0, 0, 0, 0};
static const int32_t kHardSigmoidMultiplier = 1717986918;
static const int32_t kHardSigmoidShift = 8;
