#pragma once
#include <stdint.h>

static const int32_t kBias_stem_0[112] = {-96, 78, 318, 139, 128, -32, 157, 88, 32, 40, -154, -32, 140, 19, 66, 121, 410, 41, 212, -22, -145, -266, 141, 145, -272, 4, -36, -224, -137, 48, 7, 112, -48, -215, 50, -48, 44, 53, 7, 114, -132, 485, -110, -145, 57, -107, -162, 324, 134, 143, 119, -283, 4, 307, 23, -27, 400, 38, 308, -90, -60, -72, 21, -137, -274, 218, 305, 100, 266, 35, -78, -217, 72, 180, 42, -165, -29, 259, -44, -82, 78, 128, 109, -102, -95, -87, 32, 21, -118, 181, 59, 215, -85, -26, -241, 95, -4, -158, 167, -97, 73, -3, -201, -21, -223, -127, -123, 49, -203, 132, 214, -146};
static const int32_t kBias_tcn_0_depthwise[112] = {-154, 456, 173, 178, 2, 10, -443, 129, -2, -64, -653, -455, -549, 555, -20, 173, 390, -232, -263, 291, 400, 341, 601, 247, -205, -474, -334, -84, 385, -192, -442, 477, 613, -55, -437, 382, 489, 71, -481, 528, 369, -1, 71, -372, -2, 549, 402, -286, -104, -181, -204, 637, 48, 526, 557, 230, 5, -478, 1, 547, 273, 455, 304, -175, -8, 461, -10, 13, -1, -374, -335, 236, 457, 0, -290, -248, 705, 577, 243, -535, 132, -531, 303, 402, -72, 299, -1, -401, -3, 686, 103, 258, -68, -70, -547, 556, 210, -571, -614, 302, 345, -320, -2, 690, -452, 936, -21, 613, -14, -534, 467, 628};
static const int32_t kBias_tcn_0_pointwise[112] = {-201, -265, 228, -406, 320, -286, -197, -14, 79, -296, -156, -465, 137, 228, -236, 252, 277, 219, 394, -274, 209, 198, 110, 343, 6, -186, -112, -207, -176, 59, 75, -197, 108, -342, -188, 141, -228, -278, -289, -288, 289, 56, 246, 88, -28, -118, -12, 97, -34, 322, -148, 173, 303, -103, 149, 89, 180, 95, 98, -135, 201, 166, 288, -45, 314, -68, 137, -262, -273, -150, 132, 322, -292, -142, -21, -83, -163, -121, 221, 330, 147, -108, 61, -121, 26, 296, 37, -114, 292, 99, -175, 231, 21, -264, -187, -141, -378, 327, 388, -421, 70, -38, 322, 473, 199, -303, 318, -406, -33, -138, 44, -350};
static const int32_t kBias_tcn_1_depthwise[112] = {-423, -285, -134, 360, -125, 514, 262, -163, 217, 210, -55, 747, -503, 402, -7, 34, -104, 532, -384, 587, -232, 420, -397, -420, 584, 361, 318, -625, 565, -210, -145, -235, 122, 225, 335, 312, -15, -270, 198, 446, 32, -2, -7, 406, -56, -110, -193, 31, 404, -570, -84, 342, 369, -237, -521, -112, 561, -544, -127, 26, 94, -321, -206, -381, 530, -7, 165, 58, 93, 13, 570, -98, 397, 190, 469, 236, -212, 534, 335, -1, -256, -69, -170, -370, -579, 12, -147, -183, -360, -568, 488, 13, 200, -380, 107, -40, 595, -365, -300, -595, 54, 368, -141, 503, -455, -225, -59, -393, 330, -116, -770, -115};
static const int32_t kBias_tcn_1_pointwise[112] = {-349, 87, 334, -29, -333, 201, -21, -39, 405, -96, 255, -109, -343, 235, 54, 147, 163, -131, 180, -293, 304, 29, -467, -78, -267, -109, -160, 71, -422, 131, 158, 332, 417, 207, -461, -359, -382, -307, -290, 435, -62, -7, 323, 118, -130, -238, -245, 156, 270, 335, -460, 201, -308, -290, 92, 230, -291, 113, -25, 273, 179, 108, 185, -203, 254, -460, -160, -418, -274, 234, 406, 3, 14, -173, 348, 41, 387, -276, -439, -135, -123, -36, -96, -45, -395, 71, 350, -203, 361, -485, -236, 182, -191, 183, -466, 72, -462, 219, -238, -69, 224, -365, 101, -473, -128, -146, 95, -150, -263, 296, -495, 30};
static const int32_t kBias_tcn_2_depthwise[112] = {533, 171, -460, 171, -230, 294, -391, 138, 10, -193, 163, -228, -245, -466, -132, -304, 220, -184, -19, 462, 426, -505, 526, -4, -36, -399, 18, 112, -285, -5, -283, 225, 292, -184, -467, 613, -74, -562, -390, 418, 34, 79, -218, 145, -17, -492, -183, 626, -323, 87, 629, -123, 22, 319, -192, -379, -434, -1, -140, -104, 453, 145, -423, -138, -34, 312, 230, 411, -167, 132, 131, 254, 202, 255, -166, -468, 520, 60, -155, -549, 490, -29, 524, 428, 177, -365, -17, -505, -328, -54, 9, 303, -538, 118, -499, -163, 338, -7, 68, -335, 552, -66, 479, 231, 313, -138, -92, 13, -232, -4, -244, 522};
static const int32_t kBias_tcn_2_pointwise[112] = {-354, 25, -52, -228, 127, -52, -690, 177, 108, -591, -369, -274, 161, 299, 102, -385, 622, 371, 187, 191, -442, 259, -356, 253, -421, 387, -247, -5, -228, 595, 330, 64, 226, -339, -346, -283, 331, 95, -142, -119, 324, 159, -68, -272, -385, -148, -340, -327, 263, -412, -82, -125, 64, -414, -382, -193, 353, 45, -536, -301, -272, 333, -382, -395, 195, -361, -342, 323, -395, -118, -85, -248, -74, 294, -46, -57, 319, -345, -134, 229, -123, -291, -233, 365, -98, -582, 247, -223, 82, -383, 88, -39, -59, -13, -324, -104, -80, -146, -113, -251, 173, -173, -440, 549, 396, -394, -251, -342, 209, 435, -67, -291};
static const int32_t kBias_tcn_3_depthwise[112] = {-123, -386, -495, -293, 360, -242, -330, -6, 454, 27, 249, -170, 354, 154, 472, 412, -59, -156, 431, 455, -111, 267, -373, -120, -480, -64, -150, 132, -34, -487, -432, -172, 319, -450, -167, 547, -210, -247, 518, 312, -352, -239, 313, 133, -600, -430, 133, -102, 141, -322, -280, -371, 218, -344, 530, 241, 92, 365, 281, 332, 312, -279, -171, 150, 395, 232, -363, 592, -11, -202, 431, 354, 435, -373, -223, 40, 585, 261, 571, 577, 115, -461, -135, 709, 416, 180, -16, -258, -22, -517, 13, 56, -261, -79, 208, -398, 420, 67, -113, -60, 414, 129, -51, -88, -405, -535, 513, -212, 567, 155, -159, -15};
static const int32_t kBias_tcn_3_pointwise[112] = {209, 558, -316, 211, -17, -210, -175, 418, -82, -474, 53, 301, -118, -34, 236, -263, -401, 249, 486, 328, 338, 104, 444, -467, 235, -517, -75, -37, 46, -535, -241, 169, -253, -195, 72, -274, 206, -145, 237, -38, -69, 582, -351, -125, 31, 284, -553, 279, 62, 212, -611, 170, 294, -313, 459, 489, 192, -507, 55, -349, -410, -410, -490, -385, -57, 262, -110, -142, -9, 145, -18, -596, -111, 78, 264, 57, 116, -29, -248, 242, 343, 535, 621, 314, 26, 465, 523, -328, -594, -579, -281, -86, -13, -95, -217, -507, 106, 404, 124, 37, 209, 218, -69, -162, 98, -217, 562, 282, -303, 171, -526, -288};
static const int32_t kBias_tcn_4_depthwise[112] = {364, -481, 467, 485, -258, -250, 125, 454, -45, -151, -629, -461, 492, 654, 578, 585, -437, -111, -397, 532, 360, 445, -492, -465, 382, 379, 575, 78, 545, 648, 7, 15, -20, -260, -455, -190, -521, -218, 30, 904, 928, -589, 621, -728, -99, -309, -34, -190, -347, -627, 407, 366, 643, 651, -618, 876, -390, 328, -114, 127, -2, -448, 406, -283, 466, -74, 688, -46, 495, -350, 478, -48, -228, 606, 709, -378, 384, -290, -741, 751, -38, -197, 573, 177, -292, -133, -665, 185, 255, -758, 211, 452, 716, 98, 527, -429, 538, -13, 806, -403, 0, 764, 44, -562, -26, -434, -405, -605, 631, 622, -181, 191};
static const int32_t kBias_tcn_4_pointwise[112] = {255, 83, -385, 166, 115, -178, 336, 76, -33, -28, 248, 451, 504, 126, 395, 61, -563, -223, 541, 136, 331, 437, -11, -319, -358, 395, -9, 120, 124, 714, 60, 272, -382, 342, -231, -114, 301, 16, -132, 72, -224, 256, 19, 355, -184, 33, -254, 379, 164, -23, -173, -83, 82, 255, -327, -272, 115, 10, 117, 379, 343, -163, 566, 247, 343, 538, 93, 243, -56, -128, -190, 433, -260, -194, 134, 101, -291, -164, 326, 424, -270, 446, 146, -442, 323, -385, -7, 76, 123, 162, -226, -372, -169, -174, -364, 409, -181, -331, 124, -472, -292, -299, 313, 110, 279, 35, -172, -30, -20, -341, -343, 299};
static const int32_t kBias_tcn_5_depthwise[112] = {-15, 334, -204, -433, 22, 478, 158, 312, -31, 550, -503, 414, -542, -298, 322, 729, 41, 32, 708, 447, -378, 257, -248, 92, -479, 520, 577, -157, 233, 87, -159, 451, -33, -117, 234, 445, -117, 415, 572, 135, 481, -63, -34, 599, -294, 432, 336, -226, 258, -412, 134, 503, 354, -355, 447, -501, 563, 469, -14, 220, 723, -529, 95, -21, 274, 232, -147, -348, 434, 480, 61, -387, 351, -185, -423, 275, -296, 492, 457, -283, -130, 361, 543, 441, -43, -329, -395, 362, -287, 300, -420, 363, -316, 320, 11, 566, -291, 427, -334, 576, -33, 208, 612, 407, -615, -184, -206, 58, -326, -322, -160, 70};
static const int32_t kBias_tcn_5_pointwise[112] = {-97, 70, 87, -82, 331, -53, -139, 216, -67, -48, 69, -279, -236, -185, 197, 246, 161, -134, 28, 210, -181, 217, 404, 48, -222, 326, -312, -200, 1, -258, 122, 49, -58, -216, 268, 104, 166, -110, 2, 219, 424, -54, 3, -43, 177, -346, 173, -298, -172, -213, 167, -82, 108, 18, 208, 314, -99, -63, 8, -262, 76, -204, 101, -72, -168, -174, -249, 12, -239, 146, 127, -49, -24, -72, 251, -129, -87, 217, -115, -194, 3, 216, -104, 61, -222, 122, 256, 261, 22, 44, 235, -66, -263, 129, -150, -43, 223, -108, -30, -101, 20, -109, -204, 375, -206, -212, 34, 213, 208, -68, -23, 36};
static const int32_t kBias_tcn_6_depthwise[112] = {-75, 393, 679, -231, -454, 101, 603, 496, 544, -562, 299, 417, -114, 456, -158, 537, -230, 547, -380, 788, 842, 560, -393, 442, -406, 255, -46, -492, 707, 125, -401, 523, -331, 237, 383, 219, -235, -285, -232, -106, -6, -227, -323, 110, -536, 52, 488, -182, -344, -262, 245, 400, 405, 374, 359, -431, -27, 583, 571, -271, -74, -155, -63, -45, -241, -400, 440, 525, 284, 489, 333, 500, 782, -464, 385, -336, -263, -168, -667, 9, -348, 631, -175, 23, -295, 488, -260, 296, -394, 640, -205, 306, -140, -81, -154, 129, 455, 464, 256, -355, 79, -144, 465, 617, 499, -386, 573, -335, 467, 35, -85, -142};
static const int32_t kBias_tcn_6_pointwise[112] = {383, 165, -122, -293, 234, -28, -12, 203, 226, -189, -8, 248, -138, 33, 46, -251, 397, -48, -300, -361, -291, -513, 130, 101, 111, 269, 101, 193, -7, -165, -315, 155, 362, -111, 218, -387, -96, 64, -138, -319, 255, -36, 26, -194, -212, -555, -235, 473, 102, 209, -157, -59, 105, 172, -9, 44, 424, 229, 254, 378, 8, 191, 261, -105, 248, -340, -200, -302, -95, 21, 71, -246, 14, -382, 113, -259, -132, 206, 186, 18, -97, -11, 413, 359, -445, 342, 70, -246, 108, 43, -35, 267, 276, 137, 49, -30, 16, 241, 108, -428, -69, -240, 45, 442, -376, -22, -139, -196, 235, 417, 373, 348};
static const int32_t kBias_tcn_7_depthwise[112] = {-232, 317, -272, 615, -55, -595, -331, 656, -66, 321, 497, -84, 546, -585, 387, -616, -252, 412, -674, -117, -734, 694, -324, -205, -42, -301, -430, -143, 456, -51, 302, 391, 233, -186, 372, 399, -4, -405, -668, 574, 468, 297, 424, 453, -46, 255, -33, 277, -12, 503, -232, 486, -167, -695, -535, 498, 237, -234, 816, -99, 179, -532, 249, -288, 653, -527, -371, 226, -643, -454, -83, -338, 62, 218, 641, 599, -466, 351, 549, -442, 651, 594, -193, -332, 712, 255, 18, 163, 603, 487, -701, 418, 381, 555, 684, -592, 163, 433, -524, 684, -10, 53, 28, 193, 605, -29, 267, 33, -377, -362, -130, 484};
static const int32_t kBias_tcn_7_pointwise[112] = {137, -461, -495, -334, 110, 86, 439, -278, -270, -474, -159, 366, -71, -116, 246, 449, 308, 141, -354, -458, 164, -282, 523, -282, -474, -404, -18, -156, -205, 116, -579, 265, 327, -291, 598, 219, 393, -365, -127, -228, -133, 205, 202, -233, -365, 67, -35, 328, -525, 133, -367, 433, 574, -6, 148, 191, -366, 227, 421, 661, -63, -61, -224, -350, 342, 398, 133, 284, -377, -396, -334, -775, 226, 408, 149, 300, -195, -322, -493, 355, 102, 198, -189, -259, -50, 106, 99, -61, -170, 261, -449, -366, -424, 156, -189, -130, -513, -439, 92, -481, -503, 485, 109, 301, -131, 318, -232, 151, -480, -203, 114, 267};
static const int32_t kBias_head[32] = {-152, 255, 188, 349, -342, 233, -236, 152, 137, 55, 106, 173, 230, -210, 316, 109, -254, -331, -112, 184, 67, 370, -20, -336, 226, -235, -197, 215, -93, -227, 161, -184};

static const int32_t kRequantMultipliers[18] = {1288782895, 1273374638, 1095983149, 1352892062, 1950641575, 2125451018, 1875451992, 1477406227, 1473682804, 1993018646, 1801779369, 1852732680, 1335669200, 2022080754, 2105020222, 1952258824, 1558051976, 2126592581};
static const int32_t kRequantShifts[18] = {-7, -5, -8, -5, -9, -6, -9, -5, -9, -6, -9, -6, -8, -6, -9, -6, -9, -7};
static const int32_t kResidualMultipliers[8] = {2110324501, 2142030362, 2118890262, 2121435565, 2145859852, 1075028436, 2142378364, 2125085389};
static const int32_t kResidualShifts[8] = {0, 0, 0, 0, 0, 1, 0, 0};
static const int32_t kHardSigmoidMultiplier = 1717986918;
static const int32_t kHardSigmoidShift = 8;
