#pragma once

#define TINY_GATE_INPUT_DIM 384
#define TINY_GATE_HIDDEN 24

static const float kTinyGateFc1Weight[24][384] = {{-4.699335992e-02f, 3.582546487e-03f, -2.554096654e-02f, -3.055895213e-03f, 3.603855893e-02f, 4.144986346e-02f, -3.809987009e-02f, 2.413848042e-02f, -6.668581162e-03f, 1.807131246e-02f, -2.598766796e-02f, 5.378866196e-02f, 2.787739597e-02f, -3.030239977e-02f, 7.709534373e-03f, -4.262456298e-02f, 1.929830015e-02f, -3.855417296e-02f, 3.459092975e-02f, -9.662686847e-03f, 4.842210189e-02f, -2.081594244e-02f, 2.744259872e-02f, -9.618850425e-03f, -3.300277144e-02f, -9.253420867e-03f, 1.161275152e-02f, -2.300658822e-02f, -2.233255282e-02f, 5.057580397e-02f, -8.975677192e-03f, 5.053875968e-03f, 3.466572240e-02f, 3.844729811e-02f, -3.053348511e-02f, -1.569455676e-02f, -3.030757234e-02f, 2.647281252e-02f, -8.194046677e-04f, -4.334976524e-02f, -3.651311249e-02f, -3.722317517e-02f, 9.232872399e-04f, 1.057827566e-02f, 4.169338197e-02f, -3.945565596e-02f, -5.063035060e-04f, 2.038686536e-02f, -2.159641124e-02f, -4.557811096e-02f, -1.146088075e-02f, -1.338202506e-02f, 2.528605238e-02f, 3.742724657e-02f, -1.796717010e-02f, 4.774875939e-02f, 1.849113405e-02f, 3.606020659e-02f, 7.416883484e-03f, 3.162247315e-02f, 1.011822466e-02f, 1.630504057e-02f, -2.079237252e-02f, -6.899552885e-03f, 3.471041098e-02f, 7.908683270e-03f, -9.917249903e-03f, 8.444174193e-03f, 4.205551371e-02f, -1.385149546e-02f, -3.014643490e-02f, -2.122769319e-02f, -4.273222759e-02f, -3.522530571e-02f, -2.155778557e-02f, 1.639900962e-03f, -5.229372997e-03f, 5.148250610e-02f, -3.012908436e-02f, 2.909891494e-02f, 3.231490031e-02f, 4.536154494e-02f, -2.205243148e-02f, -1.568677463e-02f, 4.298943561e-03f, -3.879242018e-02f, -1.517782803e-03f, -9.797224775e-03f, -2.346709184e-02f, 4.828404263e-02f, 4.343461990e-02f, -2.314051054e-02f, 1.274081692e-02f, 2.718569897e-02f, -2.370792814e-02f, -3.196385875e-02f, -5.574918538e-02f, -3.989499435e-02f, -4.741976410e-02f, -5.616309494e-02f, -7.338427939e-03f, 3.004818782e-02f, -5.664345250e-02f, -4.365673661e-02f, -4.025796056e-02f, -2.614233270e-02f, -1.606504619e-02f, -3.847334534e-02f, 1.149987150e-02f, 4.243163392e-02f, -4.612729885e-03f, -3.657875210e-02f, -4.672444984e-02f, 1.045502070e-02f, 9.201237001e-03f, 3.586142138e-02f, -1.672950946e-02f, 1.431437861e-02f, 3.928481415e-02f, 3.121116012e-02f, 2.893631719e-02f, -4.859047756e-02f, -4.589939490e-02f, 4.443062469e-02f, -4.186884314e-02f, 4.135132208e-02f, -1.843671128e-02f, 2.921666205e-02f, -4.910521954e-02f, -4.865019396e-02f, 3.554298356e-02f, -4.509638250e-02f, 2.249894477e-02f, 1.766800135e-02f, 2.791867033e-02f, -1.181819011e-02f, -3.166433051e-02f, 2.534693806e-03f, 1.301394869e-02f, -2.870503813e-04f, -2.129297517e-02f, -7.963370532e-03f, -1.051880047e-02f, -2.930345573e-02f, -2.362240106e-02f, 3.910016734e-03f, -8.357864805e-03f, -3.165666945e-03f, -2.808171697e-02f, 1.803795807e-02f, -4.439640418e-02f, -2.872920409e-02f, 2.421763353e-02f, 9.175274754e-04f, -9.878116660e-03f, 2.643693006e-03f, 3.504471108e-02f, -1.589787751e-02f, 2.907411382e-02f, 1.115388982e-02f, -5.178635940e-03f, 3.139926493e-02f, 3.709620237e-02f, -2.424370870e-02f, -3.364896111e-04f, 1.470264280e-03f, 9.736644104e-03f, 1.624762639e-02f, -4.377555475e-02f, 7.659625262e-03f, -3.201780096e-02f, -4.127194732e-02f, 2.202540450e-02f, 2.136998996e-02f, 2.053549513e-02f, -1.014790405e-02f, 3.288820758e-02f, 1.245892886e-02f, 1.256644027e-03f, 4.181011021e-02f, -8.418804035e-03f, -3.573017567e-02f, 3.808106761e-03f, -2.591741085e-02f, -2.512506768e-02f, -2.813700400e-02f, 7.841328159e-03f, -4.474905506e-02f, -4.346938059e-02f, 1.483077090e-02f, -5.023394898e-02f, 3.622555360e-02f, -4.909040779e-02f, -5.611975119e-02f, -9.620563127e-03f, -2.519754879e-02f, 3.261954337e-02f, -3.570061177e-02f, -4.289760813e-02f, 1.532341074e-02f, -3.948172554e-02f, -2.855187282e-02f, -1.060764119e-02f, -4.666513950e-02f, -4.074383900e-02f, -4.768358544e-02f, 4.631546792e-03f, -3.036995605e-02f, -2.640415356e-02f, 2.178948559e-02f, -1.010965277e-02f, -5.429846793e-02f, 7.706893608e-03f, 1.208806876e-02f, 1.445972361e-02f, 1.809870638e-02f, 2.660360374e-02f, -1.785373315e-02f, -3.248648718e-02f, -1.389436331e-02f, -3.672274202e-02f, 4.252070189e-02f, 4.527085274e-02f, 2.728177048e-02f, -3.899139911e-02f, -2.867548494e-03f, 2.164434642e-02f, -5.225509033e-02f, -9.589924477e-03f, -4.121996462e-02f, 2.096195891e-02f, 1.648694463e-02f, 3.137645870e-02f, -4.391889647e-02f, -8.583898889e-04f, -4.968805611e-02f, 1.828044653e-02f, 3.665693477e-02f, 2.936133929e-02f, -2.788700163e-02f, 3.055377491e-02f, -1.914765127e-02f, 4.149304703e-02f, -3.503656713e-03f, 1.603850396e-03f, -9.897027165e-03f, -5.478121340e-02f, -6.792943925e-03f, -3.985140473e-02f, -3.662111610e-02f, -2.122841030e-02f, -5.075915717e-03f, 2.903385274e-02f, 1.967337169e-02f, 4.449475184e-02f, -1.415474527e-02f, -2.944380045e-02f, -2.394334413e-02f, -3.087068908e-02f, 4.518998042e-02f, 2.508616634e-02f, -1.585454866e-02f, -1.147176605e-03f, -3.491685959e-03f, 3.796143224e-03f, -4.501583427e-02f, -1.027295366e-02f, 1.402318478e-02f, 2.173086628e-02f, -6.662233267e-03f, -4.665987566e-02f, 4.104373977e-02f, 2.673211507e-02f, -9.829318151e-04f, -3.008886427e-02f, 1.366870664e-02f, 2.635851875e-02f, -1.929677092e-02f, 2.196901292e-02f, 1.160707232e-02f, -2.624567784e-02f, -5.258500203e-02f, -5.156034231e-02f, 2.753606252e-02f, -9.401989169e-03f, -3.777496144e-02f, 1.713161357e-02f, -3.220540285e-02f, -4.394759610e-02f, -1.493186504e-02f, -1.801795140e-02f, 3.754016012e-02f, 3.900272399e-02f, -4.033836722e-02f, 3.834089497e-03f, -7.340474054e-03f, -2.155055292e-02f, 1.500040293e-02f, 4.277385399e-02f, 1.871646009e-02f, -4.938574880e-02f, 2.195622958e-02f, -2.169329859e-02f, 3.323247656e-02f, -6.037445739e-03f, -2.073178254e-02f, -2.529739402e-02f, 1.113192551e-02f, 4.198577628e-02f, -2.979859896e-02f, -3.704112396e-02f, 1.696447493e-03f, -3.955804929e-02f, -1.797559112e-02f, 3.796700761e-02f, 3.186383098e-02f, -2.270684205e-02f, -8.880374022e-03f, -5.036251247e-02f, 3.408945631e-03f, -1.667753048e-02f, -1.616884023e-02f, -2.083833888e-02f, -1.300011482e-02f, -3.725979850e-02f, 2.388900518e-02f, 2.109056897e-02f, -4.049422219e-02f, 3.248986602e-02f, -4.050717503e-02f, -2.173238993e-02f, 2.204073593e-03f, 3.779065609e-02f, 4.450384155e-02f, -4.659899976e-03f, 4.000641406e-02f, -1.480045263e-02f, -4.005841166e-02f, -4.628974572e-02f, -9.553251788e-03f, 1.763329282e-02f, 2.098946087e-02f, -5.495192856e-02f, -5.224342272e-02f, 1.740690507e-02f, 1.855754666e-02f, 3.035536222e-02f, 2.380629815e-02f, 2.541781962e-02f, 1.937613636e-02f, -4.488482699e-02f, -3.813652322e-02f, -3.372800723e-02f, -2.054274641e-02f, 2.167719603e-02f, -4.120914266e-02f, 1.651811600e-02f, -1.837602444e-02f, 4.485923273e-04f, -5.471100658e-02f, 2.199428529e-02f, -3.873753548e-02f, -1.790713333e-02f, -4.973418266e-02f, 2.443252690e-02f, 2.705689892e-02f, -1.961973123e-02f, 8.108956739e-03f, 3.620643169e-02f, -1.580680534e-02f, -2.794090845e-02f, 2.814052068e-02f, -2.974678390e-02f, 2.553147078e-02f, 3.584979847e-02f, -1.306647155e-02f, 2.656489424e-02f, -2.120303921e-02f, -3.556519747e-02f, -9.114267305e-03f, -5.892276298e-03f, 3.048928455e-02f, -2.272806363e-03f, -3.273164853e-02f}, {1.408822741e-02f, 3.711109236e-02f, 3.018173017e-02f, 2.885494567e-02f, -4.297788069e-02f, 3.045210149e-03f, 1.134106517e-02f, 3.653991967e-02f, 1.526775188e-03f, 3.954558820e-02f, 4.598142952e-02f, -9.533858858e-03f, -2.118010819e-02f, 3.711459786e-02f, -4.117374122e-02f, -3.030125611e-02f, 2.020214498e-02f, -4.462264944e-03f, -1.458273828e-02f, 1.739062369e-02f, 3.355747834e-02f, 1.204241905e-02f, 3.318758681e-02f, 1.538761146e-02f, -3.881319240e-02f, 2.941465192e-02f, -7.516320329e-03f, -2.875850536e-02f, 2.766414359e-02f, 3.357448056e-02f, 4.549805820e-02f, -3.227450699e-02f, -3.864566237e-02f, 2.605471946e-02f, 9.241675027e-03f, -1.150844339e-02f, 1.412213035e-02f, -2.506793663e-02f, -4.291259497e-02f, 1.420139056e-02f, 4.223581776e-02f, -1.762144454e-02f, -2.163330279e-02f, -1.420808770e-02f, 4.838771187e-03f, 1.666385494e-02f, 4.498265684e-02f, 1.826400682e-02f, 2.735332027e-02f, 2.267634496e-02f, -3.574962914e-02f, -2.379631624e-02f, 4.501186311e-03f, 3.324690834e-02f, -3.060033917e-02f, -4.440686479e-02f, -6.393231452e-04f, 3.628436476e-02f, -5.051483959e-02f, 4.916772246e-03f, -1.326820720e-02f, -3.794683889e-02f, -1.280601043e-02f, 4.268011823e-02f, -8.906395175e-03f, -2.644496784e-02f, -1.320771407e-02f, 3.816887736e-02f, 1.851764135e-02f, -9.222627617e-03f, -3.602365404e-02f, 1.541898469e-03f, 4.856809601e-02f, 3.498770297e-02f, -1.164445560e-02f, -5.592775065e-03f, -1.913211122e-02f, 3.215622157e-02f, 5.973503925e-03f, -6.314081606e-03f, 4.968428612e-02f, 2.619214356e-02f, 1.808847114e-02f, -3.087157756e-02f, -3.587344289e-02f, -2.528408775e-03f, 2.710983157e-02f, -1.587097882e-03f, 2.631665766e-02f, -1.802166365e-02f, 2.036440186e-02f, 5.099305511e-02f, 3.732049093e-02f, -9.618010372e-03f, -1.452610269e-02f, 3.215238824e-02f, -2.118424512e-02f, -2.334279008e-02f, 1.512753498e-02f, -3.595380485e-02f, 1.237431541e-02f, 1.293631643e-02f, -1.420326997e-02f, -2.204454504e-02f, 1.270273328e-02f, -1.403052639e-02f, 2.020398341e-02f, -4.452277720e-02f, -4.952078313e-02f, 4.614444077e-02f, -2.225686610e-02f, 3.187915310e-02f, 3.849820048e-02f, 1.582271978e-02f, 1.512915362e-02f, -2.737447806e-02f, 2.908442169e-02f, -3.643534146e-03f, -2.463169023e-02f, 3.955780342e-02f, 1.401181985e-02f, -1.835741103e-02f, -2.694076858e-02f, -4.868246242e-02f, 4.084618017e-02f, 7.411613129e-03f, 1.934570447e-02f, -2.713429369e-02f, 2.085135132e-02f, -7.684336975e-03f, -4.507115111e-02f, -1.596214436e-02f, -3.906574845e-02f, -2.562311664e-02f, 2.900101990e-02f, 4.729371145e-02f, -2.323385514e-02f, 2.893037349e-02f, -1.911168359e-02f, -2.355270647e-02f, 1.434317511e-02f, -4.011315852e-02f, -3.090137988e-02f, -4.870654643e-02f, 2.958533913e-02f, 4.433321580e-02f, 4.727764800e-02f, 3.125577793e-02f, -2.808945626e-02f, 9.546268731e-03f, 2.019834332e-02f, 1.764708571e-02f, -3.888613731e-02f, -3.295806423e-02f, -1.407155301e-02f, -3.431820497e-02f, 4.712985083e-02f, -1.364081167e-03f, -1.001918502e-02f, 3.574774414e-02f, 2.823814005e-02f, 1.266446244e-02f, -4.146319255e-02f, -4.799096659e-02f, -2.434892394e-02f, -3.484730050e-02f, -4.601948708e-02f, -1.587658189e-02f, -4.245297238e-02f, 3.532825783e-02f, -9.164811112e-03f, 1.487743575e-02f, -2.460631169e-02f, 1.572942165e-05f, -4.422711581e-02f, -4.495686293e-02f, 3.476754576e-02f, 4.788867384e-02f, 4.724366590e-02f, -4.158806801e-02f, -1.359288208e-02f, 5.043697357e-02f, -4.891366884e-02f, -6.951765157e-03f, 3.390339017e-02f, -4.081128910e-02f, 9.872240946e-03f, 2.060214058e-03f, 2.035090327e-02f, 3.829589114e-02f, -2.529178560e-02f, 3.753923625e-02f, 4.801983014e-02f, -4.360706732e-02f, -1.815397665e-02f, 1.917320304e-02f, -4.127708077e-02f, 1.505213138e-02f, 3.202603757e-02f, 2.742799930e-02f, -3.149521351e-02f, 2.493239753e-02f, -2.081365883e-02f, -1.095263008e-02f, -3.469013050e-02f, 8.491423912e-03f, 2.969533391e-02f, -4.535091296e-02f, 4.161096364e-02f, 3.890601173e-02f, -1.533282455e-02f, 1.361864526e-02f, -2.023305558e-02f, -9.300725535e-03f, 1.889524795e-02f, -5.118277855e-03f, 2.611986734e-02f, 4.425854608e-02f, 1.743339002e-02f, -2.175437286e-02f, 1.187143940e-02f, -3.842097893e-02f, 1.285281591e-02f, -2.987754159e-02f, -3.331195936e-02f, -1.716935309e-03f, -6.837087218e-03f, -3.572700918e-02f, -4.497055896e-03f, -2.836545371e-02f, 4.950514063e-02f, 1.569518074e-02f, -1.387205441e-02f, -1.681191102e-02f, -1.403089799e-02f, 3.335904097e-03f, 1.836563647e-02f, -7.661092561e-03f, -2.550905105e-03f, 3.511929512e-02f, 3.637195751e-02f, -1.277677994e-02f, -2.609547786e-02f, 2.510572039e-02f, -2.485803852e-04f, -2.702476829e-02f, -4.307079688e-02f, -3.234944306e-03f, 1.187373325e-02f, -3.539401293e-02f, 1.444290671e-02f, 7.616738789e-03f, 4.829718918e-02f, 9.856441990e-03f, -2.598147653e-02f, -3.808673471e-03f, -2.524693869e-02f, -4.969232529e-02f, -2.832667716e-02f, 2.619728446e-02f, 4.844737053e-02f, -4.088229313e-02f, 4.728980735e-02f, -1.547735371e-02f, 1.866818033e-02f, 4.016033560e-02f, -3.670361638e-02f, 1.216097036e-03f, -1.770823635e-02f, 3.195117041e-02f, 3.262925148e-02f, 4.942645133e-02f, 7.310653571e-03f, -4.085918888e-02f, -4.369155318e-02f, 1.923806407e-02f, 3.359099850e-02f, 3.059610352e-02f, -3.407467529e-02f, -2.290037833e-02f, 4.711994156e-02f, -2.875240333e-02f, -3.891967610e-02f, 9.944858029e-03f, 4.451423883e-02f, -1.481230743e-02f, -3.520194814e-02f, 3.585312807e-04f, -4.994963482e-02f, -3.032090515e-02f, -1.424674783e-02f, 2.844152600e-02f, -2.584890090e-02f, 3.946058452e-02f, -2.934519760e-02f, -4.795407504e-02f, -4.292819649e-02f, 5.752208177e-03f, -4.018570483e-02f, 1.308207959e-02f, 2.571936697e-02f, 4.282785952e-02f, 1.952213980e-02f, -2.025317401e-02f, 2.018563636e-02f, -1.290035155e-02f, -3.553666174e-02f, -3.131011501e-02f, 2.946338616e-02f, 9.738960303e-03f, 4.514902458e-02f, -2.231433615e-02f, 2.521538548e-02f, 4.281639308e-02f, 4.330467433e-02f, -3.421159834e-02f, -5.044614151e-02f, 9.728776291e-03f, -2.375571616e-02f, 2.227717265e-02f, -1.607612148e-02f, 4.324653000e-02f, 2.245288529e-02f, 4.951997101e-02f, 3.191545978e-02f, -6.417565513e-03f, 2.816818096e-02f, 1.690937951e-02f, 3.216286376e-02f, 1.496628299e-02f, -3.655130044e-02f, -2.512605675e-02f, 4.714680091e-02f, 7.597192656e-03f, -1.150850393e-02f, -3.545585787e-03f, -6.723017897e-03f, 6.934938487e-03f, 3.365730867e-03f, 1.895041950e-02f, -1.264783647e-02f, -2.347163827e-04f, -5.092636496e-02f, 5.272497423e-03f, -4.516718537e-02f, 3.027490154e-02f, -3.172158822e-02f, 3.514616564e-02f, -3.785066679e-02f, 3.980305418e-02f, -2.614755183e-02f, -4.593690857e-02f, 3.537870198e-02f, -4.505768418e-02f, 1.316703856e-03f, -1.407923643e-02f, -2.584702149e-02f, -8.220227435e-03f, -4.574376717e-02f, 4.003666714e-02f, 3.182394803e-02f, -1.288219262e-02f, 1.236304920e-02f, -1.912971959e-02f, -4.584933072e-02f, 2.891666070e-02f, -1.367797703e-02f, -5.073985457e-02f, -2.987294272e-02f, -4.430369940e-03f, -2.309267968e-02f, 3.262227029e-02f, -1.810010895e-02f, -4.663557187e-02f, -1.214345824e-02f, -4.925741255e-02f, 2.214857563e-02f, -7.220583037e-03f, 4.813110828e-02f, -4.412326496e-03f, 4.733914509e-02f, -2.981936792e-03f, -1.490372140e-02f, -2.572927810e-02f}, {-4.398115911e-03f, -6.024598144e-03f, -1.544763613e-02f, 4.453060776e-02f, -2.579574473e-02f, 1.366411103e-03f, -1.586088538e-02f, -3.862097487e-02f, 3.412320092e-02f, 2.934319712e-02f, 2.804301493e-02f, 4.515964538e-02f, 1.597390324e-02f, 1.670465060e-02f, -9.885787964e-03f, 2.471635863e-02f, 4.542027786e-02f, -3.106134199e-02f, 2.747230418e-02f, 2.759881318e-02f, -1.935654506e-02f, 7.769626100e-03f, 2.097205818e-02f, 3.610854223e-02f, -3.180160373e-02f, -4.434111714e-02f, 4.632270336e-02f, -3.127086535e-02f, 5.073950812e-02f, 3.062556684e-02f, -6.981554907e-04f, 3.562023491e-02f, -4.459666833e-02f, -3.409103304e-02f, 1.282921247e-02f, -1.357048866e-03f, 4.493088648e-02f, 1.900172606e-02f, 8.206320927e-03f, 1.611726917e-02f, 1.773347706e-02f, -2.979022823e-02f, -2.612526342e-02f, 2.290045097e-02f, -1.737949625e-02f, 3.725275025e-02f, 2.235802636e-02f, 4.316574335e-02f, 8.559290320e-03f, 3.778557479e-02f, 2.795789205e-02f, -1.926069520e-02f, -1.254648156e-02f, -1.167169027e-02f, 4.319685698e-02f, -6.546764169e-03f, -3.358418588e-03f, -2.796444856e-02f, 1.107683405e-02f, 1.251287106e-02f, -5.459044129e-03f, -4.355867350e-05f, -3.588328511e-02f, -3.321335465e-02f, 2.561508445e-03f, -4.130004346e-02f, 4.155024420e-03f, -4.149280116e-02f, 2.566470951e-02f, -2.852148004e-02f, -2.692172304e-02f, 2.829625458e-02f, 3.921866044e-02f, 4.353374243e-02f, -2.749533020e-02f, -1.806976460e-02f, -3.219676763e-02f, -2.424493991e-02f, 3.027433716e-02f, 2.046442963e-02f, 8.828029968e-03f, -2.524065319e-03f, 4.168096185e-02f, 1.816718467e-02f, 2.874557301e-02f, -4.606629536e-02f, 1.398001611e-02f, -3.511952981e-02f, 1.476798952e-02f, -1.285269391e-02f, 1.354280394e-02f, -9.787785821e-04f, 3.110406548e-02f, -3.821812943e-02f, 5.048427358e-02f, -1.559732389e-02f, -1.189337671e-02f, 3.547395393e-02f, 5.458581727e-03f, 4.845176265e-02f, 2.382302843e-02f, 3.579517454e-02f, 4.228200391e-02f, -2.925310284e-02f, -3.319376707e-02f, 2.728622593e-02f, -1.542657521e-02f, 6.038930267e-03f, 2.705874480e-02f, 2.541076951e-02f, 7.616945542e-03f, -6.413441151e-03f, -2.605196461e-02f, -4.829922318e-02f, -8.861907758e-03f, 3.041067161e-03f, -4.278249107e-03f, 4.657197371e-02f, -4.407091066e-02f, 4.119705781e-02f, -3.998897225e-02f, 2.875516564e-02f, -2.708110586e-02f, 1.418721583e-02f, 1.960234903e-02f, 8.954077028e-03f, 1.548956335e-02f, -1.742907614e-02f, 4.528811947e-02f, 2.633803291e-03f, -1.403143909e-02f, 6.899478380e-03f, 4.560154304e-02f, -4.396432266e-02f, 4.251751676e-02f, 9.447907796e-04f, -1.451207418e-02f, 4.180265218e-02f, -3.259188309e-02f, 4.176821932e-02f, -2.912703715e-02f, 2.722961130e-03f, 8.285575546e-03f, 4.393139482e-02f, -4.490083084e-02f, 1.043119933e-02f, 4.957766086e-02f, -3.121930920e-02f, -1.100860257e-02f, -2.016353421e-02f, 4.535601288e-02f, -6.804644596e-03f, -4.663760215e-02f, -4.421730712e-02f, -2.183230780e-02f, -1.432700548e-02f, 4.456315655e-03f, -5.467256531e-03f, 4.744583368e-02f, -2.310469374e-02f, -2.213029563e-02f, 7.989600999e-04f, -3.623594716e-02f, -3.072376922e-02f, 4.813460633e-02f, 1.006673835e-02f, 4.047920182e-02f, -3.251413628e-02f, -2.619927935e-02f, 1.440280490e-02f, 4.272552580e-02f, -4.811233282e-02f, -4.928495362e-02f, -2.040194161e-02f, 2.053659782e-02f, -2.945477143e-02f, -2.144060470e-02f, 1.514369901e-02f, 2.395648509e-02f, 4.431807250e-02f, -2.604117803e-02f, 4.163037241e-02f, -1.858747751e-02f, -3.563708439e-02f, -3.654856980e-02f, 4.216118902e-02f, -8.295052685e-03f, -1.332439855e-02f, -1.586702466e-02f, 4.663789272e-02f, 2.416982874e-02f, -1.164830010e-02f, 4.827253520e-02f, -4.708450660e-02f, -3.103498369e-02f, 4.314610362e-02f, 4.000401124e-02f, 1.991959102e-02f, 3.311674297e-02f, 4.780870676e-02f, -1.147531904e-02f, 4.651517421e-02f, 2.968126163e-02f, -7.120402064e-03f, -4.533781204e-03f, -3.156123310e-02f, -2.536790073e-02f, -3.347693710e-03f, 1.122759841e-02f, 2.392892726e-02f, -4.903861880e-02f, 2.845747583e-02f, 3.021277860e-02f, 4.216537252e-02f, 7.188383956e-03f, 4.023945704e-02f, -3.963995725e-02f, -3.700240701e-02f, 5.084111169e-02f, 3.466369212e-02f, 1.902972162e-02f, -2.441593260e-02f, -2.557224222e-02f, 4.711492360e-02f, -3.381419554e-02f, 4.177521169e-02f, -2.090862580e-02f, 4.796122387e-02f, -4.480326921e-02f, -3.082607500e-02f, -4.927643109e-03f, -5.980669986e-03f, 2.708495781e-02f, 4.010107741e-02f, 9.012763621e-04f, -1.088661887e-02f, -2.459993586e-02f, -2.059107460e-02f, 9.539382532e-03f, 2.613843232e-02f, 2.267847396e-02f, 1.792836376e-02f, 3.536207974e-02f, 1.685132645e-02f, 2.369991317e-02f, -1.651259256e-03f, -1.126077678e-02f, -3.595235571e-02f, 3.168484569e-02f, -1.959303580e-02f, -3.541951999e-02f, 1.730635576e-02f, 3.912273329e-03f, 2.956656972e-04f, 4.925267026e-02f, -3.069434082e-03f, 1.472107507e-02f, -2.170000039e-02f, 2.731150202e-02f, -1.023039967e-02f, -2.221983159e-03f, -1.076814532e-02f, -4.185489193e-02f, 1.628886908e-02f, -4.158949107e-02f, 3.024868295e-02f, 3.181675822e-02f, 5.333805922e-03f, 1.936143613e-03f, -3.194747865e-02f, 1.040390320e-02f, -4.290032387e-02f, -9.580384940e-03f, 4.273682833e-02f, -3.881988302e-02f, -3.911449388e-02f, 2.639833279e-02f, -2.753083222e-02f, -2.087472938e-02f, 1.264994778e-02f, 3.666847944e-02f, -3.780412301e-02f, -4.416003078e-02f, -2.445550449e-02f, -3.602610528e-02f, -4.631669819e-02f, 4.445683956e-02f, 8.334339596e-03f, 4.741216078e-02f, -2.626743726e-02f, -2.679439634e-02f, -3.440645710e-02f, 3.546841070e-02f, 3.776906431e-02f, 4.517749697e-02f, -1.959405839e-02f, -4.493221268e-02f, -3.468269110e-02f, 1.711319014e-02f, -4.654728249e-02f, -3.097385168e-02f, 4.091423005e-02f, 1.545645762e-03f, 2.714187279e-02f, 2.160784323e-03f, 2.021791413e-02f, -2.607503161e-02f, -1.776838326e-03f, -1.433098409e-02f, 4.878160357e-02f, 2.404828370e-02f, 4.104161635e-02f, -1.097301487e-02f, -4.635552317e-02f, -1.498475205e-02f, 2.372773178e-02f, -9.619081393e-03f, -2.112206072e-02f, -2.564142458e-03f, 3.002760233e-03f, -1.568274014e-02f, -3.834753856e-02f, 8.057874627e-03f, -1.419802010e-02f, 1.776355319e-02f, -8.261679672e-03f, 4.783010855e-02f, 3.732982650e-02f, -2.774510719e-02f, 3.682168201e-02f, -2.234049514e-02f, -3.456334025e-02f, -1.976810396e-02f, 1.472459082e-02f, 4.140570760e-02f, -1.570318639e-02f, 3.330865130e-02f, -1.235629059e-02f, 2.254682407e-02f, 2.059157938e-02f, -4.386481270e-02f, -4.991519824e-02f, -4.976821132e-03f, 3.825896329e-06f, 1.397929247e-02f, -9.222092922e-04f, 3.642042354e-02f, 3.960470483e-02f, -3.858912364e-02f, -4.953371361e-02f, -4.889217019e-02f, 3.672837093e-02f, 3.490792215e-02f, 5.216694437e-03f, -3.825217113e-02f, 3.972320259e-02f, -2.433733316e-03f, 2.443684638e-02f, -8.496558294e-03f, 7.285109721e-03f, -4.489653558e-02f, 4.636386409e-02f, 4.202215374e-02f, -2.198111266e-02f, 3.449647129e-02f, 1.981250569e-02f, -6.165835541e-03f, -1.559665427e-02f, 5.506847054e-03f, 2.673904877e-03f, -2.632872434e-03f, -5.551505368e-03f, -2.606214769e-02f, 2.536366694e-02f, 9.019199759e-03f, -3.929416835e-02f, 3.098795190e-02f, 8.158420213e-03f, 3.189764172e-02f, 2.320271544e-02f, 4.667818546e-02f, -9.618947282e-03f, 4.543576017e-02f, -1.216774900e-02f}, {1.303707063e-02f, -2.353691682e-02f, 2.195531130e-02f, -2.516966872e-02f, 6.409508176e-03f, 3.808366880e-02f, -1.716099493e-02f, -2.013216540e-02f, 5.396355689e-02f, -4.313940555e-02f, -3.116279468e-02f, 2.385681123e-02f, 2.644630708e-02f, 1.364233159e-02f, -2.831007540e-02f, -4.098920524e-02f, 2.625833452e-02f, -1.293337625e-02f, -2.226803079e-02f, -9.191798046e-03f, 4.639527202e-02f, 3.645122051e-02f, 1.604185812e-02f, -3.252685443e-02f, -1.051566470e-02f, -7.730119862e-03f, 5.109814554e-02f, -8.165238425e-03f, 3.432352678e-04f, -3.886281699e-02f, -4.325810075e-02f, 3.619343042e-02f, 3.317809477e-02f, -1.618120074e-02f, 2.460845746e-02f, -5.174378678e-02f, -5.010586604e-02f, 4.981556907e-03f, 2.275072597e-02f, 3.189312667e-02f, 5.241430923e-02f, -2.120611072e-02f, 1.135410834e-02f, 3.550394252e-02f, -4.199508950e-02f, -2.056833170e-02f, 2.052325755e-02f, 2.824637573e-03f, -2.023922652e-02f, -5.761373322e-03f, 4.811946303e-02f, -3.993757535e-03f, 2.717232332e-02f, -4.350857064e-02f, -4.120682180e-02f, 3.287734464e-02f, 5.804855376e-03f, -1.246790960e-02f, 4.726111889e-02f, 4.615391418e-02f, 4.386819154e-02f, -4.259897023e-02f, 3.607586399e-02f, 2.562653087e-02f, -2.307731099e-02f, -7.032846566e-03f, 3.276776988e-03f, 3.369115526e-03f, 9.767257608e-03f, 1.527249627e-02f, 6.329851225e-03f, -3.458781168e-02f, -1.926060021e-02f, -3.029156476e-02f, 4.187801480e-02f, 4.115363955e-02f, -9.943827055e-03f, 5.342049897e-02f, 4.764101468e-03f, -1.156923827e-02f, 1.192308776e-02f, -2.929412574e-02f, -2.258972451e-02f, 6.044059247e-02f, -3.241200373e-02f, -4.010562971e-02f, 2.800801769e-02f, -3.222202882e-02f, 4.575824365e-02f, -1.208474208e-02f, 1.320404699e-03f, 4.815856740e-02f, 4.427948222e-02f, -3.612980247e-02f, -4.301476292e-03f, 4.572954774e-02f, 2.249539131e-03f, 2.504323982e-02f, 4.697574768e-03f, -9.576781653e-03f, -2.150440775e-02f, 2.898505516e-02f, -1.922393031e-02f, -2.007584646e-02f, 7.864346728e-03f, -2.426265925e-02f, 9.545398876e-03f, -3.189555369e-03f, 1.734334975e-02f, -1.004729979e-02f, -3.424600512e-02f, -1.430018712e-02f, -2.554696985e-02f, -3.108746558e-02f, 3.310558945e-02f, 3.299644962e-02f, -5.623373762e-02f, 3.533597291e-02f, -5.745532364e-02f, -1.095813420e-02f, -3.590241820e-02f, 1.767750271e-02f, 2.547799610e-02f, 2.425010502e-02f, 2.008683514e-03f, -2.457258292e-02f, -3.341175243e-02f, 1.657096727e-04f, -5.951732397e-03f, -3.214373812e-02f, -1.863630675e-02f, -3.816524521e-03f, 3.747713938e-02f, 2.408371866e-02f, -2.254720032e-02f, -1.530321408e-02f, 2.802559361e-02f, -3.671159595e-02f, -2.168746479e-02f, -9.179178625e-03f, 3.230298311e-02f, 3.485029191e-02f, 3.025182709e-02f, 4.188827798e-02f, 5.583262816e-02f, -9.643714875e-03f, 4.213537276e-02f, -3.003483824e-02f, -3.471460193e-02f, -3.524849564e-02f, 4.117181897e-02f, -4.043006524e-02f, 2.448570915e-02f, -6.034513935e-03f, 2.343771793e-02f, 2.508980595e-02f, 2.087242715e-02f, 8.044310845e-03f, -4.847845808e-02f, -7.168913260e-03f, 4.017215397e-04f, 1.815442368e-02f, -3.341688961e-02f, -5.571513996e-02f, 3.534165770e-02f, -3.842647001e-02f, 3.329531103e-02f, -3.232334182e-02f, -7.299765944e-03f, -3.047025762e-02f, 3.429728746e-02f, -3.439326584e-02f, -1.300191879e-02f, 1.612991281e-02f, -2.631657384e-02f, 3.977522627e-02f, 4.053998739e-02f, 3.359314054e-02f, 2.669647150e-02f, -4.687661305e-02f, -5.747976899e-02f, -7.978388458e-04f, 1.141558960e-02f, -3.611719981e-02f, -3.871950554e-03f, -3.305532038e-02f, 3.448995948e-02f, 2.705468424e-02f, 1.071705949e-02f, 4.184686393e-02f, 2.119114250e-02f, -1.131807803e-03f, -5.925079342e-03f, 4.107852280e-02f, -1.600283012e-02f, -5.696748570e-02f, -3.867702931e-02f, -5.083873123e-02f, -3.339300677e-02f, -9.001546423e-04f, 3.264006972e-02f, 3.439743072e-02f, -3.859732673e-02f, 3.430083767e-02f, -2.454898879e-02f, -2.474565059e-02f, -1.049465407e-02f, 4.298179969e-02f, -2.549528331e-02f, -2.326997928e-02f, -4.876521975e-02f, 2.913888730e-02f, -3.410363197e-02f, -5.430360138e-02f, -5.526332185e-02f, -9.549872018e-03f, 1.172801014e-02f, 1.396945212e-02f, 1.884052716e-02f, 2.224901505e-02f, -2.245149016e-02f, 3.199940780e-03f, -3.825921938e-02f, -3.161858022e-02f, 2.843558975e-02f, 3.563753888e-02f, 1.489137113e-02f, 9.274824522e-03f, -7.514168508e-03f, 3.380091116e-02f, -4.919118434e-02f, 3.895666450e-02f, -1.974451728e-02f, -1.818802953e-02f, -9.621944046e-04f, -2.834044397e-02f, -5.187488720e-02f, -3.266379982e-02f, 1.830942556e-02f, 2.029444277e-02f, -1.219528075e-02f, 3.771942481e-02f, 2.601635642e-02f, 2.947861142e-02f, 1.476605423e-02f, 2.686089650e-02f, -2.643783018e-02f, 3.556982800e-02f, -3.411544859e-02f, -5.474973097e-02f, -3.098611347e-02f, -7.473485079e-03f, 1.714364626e-02f, -5.039309151e-03f, 1.653022692e-02f, -5.649959296e-02f, 1.234218595e-03f, -1.300847251e-02f, -3.562795371e-02f, 1.005385816e-02f, -2.558374777e-02f, 3.922153264e-02f, -8.832744323e-03f, -2.045080811e-02f, 3.462688252e-02f, -2.899430925e-03f, 3.627147060e-03f, 6.608898286e-03f, -4.375597090e-02f, 2.380733006e-02f, -3.085621074e-02f, -2.920594998e-02f, 3.205630183e-02f, -1.379363704e-02f, -2.007817104e-02f, 3.702206910e-02f, -5.928762257e-02f, -2.762208320e-02f, -1.008376013e-02f, 1.336583868e-02f, -9.224517271e-03f, -4.769791663e-02f, 3.031200171e-02f, -1.286755223e-02f, -5.362115800e-02f, 1.240158826e-02f, -5.392063037e-02f, -3.885059431e-02f, -5.036877934e-03f, 2.484716475e-02f, -2.028958499e-02f, 4.227098078e-02f, -4.299165308e-02f, -2.053450793e-02f, -1.368319616e-02f, 2.724165656e-02f, 1.916967891e-02f, -1.628088951e-02f, 1.686069882e-03f, -4.246131703e-02f, 1.261098403e-02f, 1.315909321e-03f, -4.828400910e-02f, 3.788078669e-03f, 2.010425553e-02f, -2.878891304e-02f, 3.273395449e-02f, 1.251043379e-02f, -4.923309665e-03f, 8.612734266e-03f, -2.849261649e-02f, -1.106607146e-03f, 1.693994924e-02f, -2.120640501e-02f, -5.704453960e-02f, -3.717375547e-02f, -4.276640341e-02f, -4.347253591e-02f, -5.648910254e-02f, -5.009543151e-02f, 1.460399828e-03f, -3.851644695e-02f, -3.192897886e-03f, -3.333539516e-02f, 2.824662998e-02f, -1.647493243e-02f, -4.355864227e-02f, 2.263721265e-02f, 3.496611491e-02f, -3.038680740e-02f, 2.037525550e-02f, 2.743885107e-02f, 6.575485226e-03f, -3.156105801e-02f, 1.512239873e-02f, 4.117119312e-02f, -5.008349568e-02f, 3.302550316e-02f, -4.650985077e-02f, 1.226028241e-02f, 1.389900781e-02f, -5.092074350e-02f, 2.221979387e-02f, 2.328069322e-02f, -3.744185716e-02f, -5.392305553e-02f, -5.544911325e-02f, -4.445623606e-02f, -5.851858109e-02f, 6.150914356e-03f, -2.992697433e-02f, -3.571530059e-02f, -1.433811709e-02f, 3.756087273e-02f, -5.244433135e-02f, -2.944298089e-02f, 2.979439311e-02f, 3.164841980e-02f, -4.818193614e-02f, 2.182750404e-02f, -5.579538643e-02f, -5.466878787e-02f, -5.627236143e-02f, 1.171497349e-02f, -1.213913783e-02f, -3.844442964e-02f, -5.526573583e-02f, -5.621789768e-02f, 7.557641249e-03f, -4.689862579e-02f, 8.879607543e-03f, -5.787805840e-02f, 3.043862805e-02f, -2.682062984e-02f, -7.282545266e-05f, -3.843607754e-02f, -1.234587468e-02f, 2.419107035e-02f, 2.344010957e-02f, -3.284408525e-02f, 9.900167584e-03f, -3.931209818e-02f, -1.785137132e-02f, -1.465476956e-02f}, {4.973231256e-02f, -4.567678645e-02f, -2.314001322e-02f, 4.304112867e-02f, 1.843490079e-02f, 3.995597363e-03f, -9.329044260e-03f, 2.331575146e-03f, -2.060410380e-02f, -4.181862250e-02f, -3.317132965e-02f, 1.983146742e-02f, 1.851458102e-02f, 7.943500765e-03f, -9.116679430e-03f, 2.354568616e-02f, -2.859362215e-02f, -3.762808442e-02f, -2.288552746e-02f, 2.459133975e-02f, 2.455789968e-02f, 4.569802433e-02f, -2.694484591e-02f, -4.726372287e-02f, 3.041988797e-02f, -4.456345923e-03f, -1.312336139e-02f, 2.500297688e-02f, -1.702476293e-02f, 1.676249783e-03f, 4.278332740e-02f, 4.846511409e-02f, -2.481367439e-02f, -3.021430224e-03f, -3.520912677e-02f, 3.705347329e-02f, 2.098028176e-02f, -2.195359766e-02f, -4.641417041e-02f, -2.931257337e-02f, -1.521223970e-02f, -4.026747122e-02f, 8.476709016e-03f, 3.919652663e-03f, 3.386167809e-02f, 4.207657278e-02f, 4.003178328e-02f, 4.349442199e-02f, 3.293864056e-02f, -4.901444912e-02f, 1.209826488e-02f, 1.796947978e-02f, 4.788720235e-02f, 8.865478449e-03f, -7.147990167e-03f, -2.271974459e-02f, -3.737159073e-02f, -5.982470699e-03f, -2.372685075e-02f, -1.908221468e-02f, -3.422349691e-02f, 1.765708812e-02f, 1.057431661e-02f, 2.739876136e-02f, -2.123923413e-02f, 1.192773459e-03f, -3.306210786e-02f, -2.823635750e-02f, 2.039976418e-02f, 2.782632597e-02f, -1.902811602e-02f, 2.770768292e-02f, 6.921938155e-03f, 5.948032718e-03f, -1.565154456e-02f, 2.789610252e-02f, 1.618637703e-02f, 3.791765124e-02f, -4.397291318e-02f, 2.795183286e-02f, -9.589971974e-03f, -1.895169541e-02f, -3.065827675e-02f, 2.525650151e-02f, -2.847847529e-02f, -4.174716026e-02f, -2.982238494e-02f, -3.749655560e-02f, -3.121710196e-02f, -5.102172121e-02f, 1.140277460e-02f, -1.563983411e-02f, 2.696647123e-02f, -7.905036211e-03f, 2.910110354e-02f, 2.947232313e-02f, -3.545024619e-02f, 2.432900667e-02f, -4.892292898e-03f, -4.223561659e-02f, -2.790117636e-02f, 3.663076088e-02f, 4.804795608e-03f, 4.070505500e-02f, -3.577189520e-02f, 2.806450799e-02f, -1.461680513e-02f, -2.394962311e-02f, 3.415593132e-02f, -4.840601608e-02f, 1.306106802e-02f, 7.864161744e-04f, 1.606528647e-02f, -1.398128737e-02f, 8.345149457e-03f, 3.783990443e-02f, 7.579794154e-03f, -3.489685059e-02f, 3.826973215e-02f, 4.995281622e-02f, -1.066663209e-02f, -3.856531344e-03f, 2.027774975e-02f, 4.832646251e-02f, -1.183172781e-02f, 7.901550271e-03f, -2.372318134e-02f, 8.667117916e-03f, -3.767726198e-02f, 4.642359540e-02f, 3.277546167e-02f, 2.968358807e-03f, 4.691350088e-02f, -4.628698528e-02f, -1.601889543e-02f, 4.663965851e-02f, -4.499007761e-02f, -3.605712950e-02f, 5.031731352e-02f, -1.620756462e-02f, -2.953733504e-02f, -5.035720766e-02f, -3.809241951e-02f, -3.902183846e-02f, -3.420652077e-02f, 4.557773843e-02f, 2.285598777e-02f, 4.334175959e-02f, 2.243787609e-02f, 5.048727244e-02f, 2.722221054e-02f, -2.550381608e-02f, 4.066997673e-03f, -1.560941711e-02f, -2.302631550e-02f, -4.189913347e-02f, 6.320943590e-03f, -4.953757674e-02f, -2.743275650e-02f, -5.623611622e-03f, -3.961251676e-02f, -3.197298571e-02f, 3.070862219e-02f, -3.417718038e-02f, 2.583320066e-02f, 3.609393537e-02f, 4.512069863e-04f, -1.177340001e-02f, -1.611644775e-02f, -3.360183164e-02f, -4.734809697e-02f, -1.830837876e-02f, 9.455487132e-03f, -6.039624102e-03f, -2.959737927e-02f, -6.026525516e-04f, 2.566197701e-02f, -2.197022364e-02f, -2.151800320e-02f, -4.346682131e-02f, -2.949278057e-02f, -1.511822734e-02f, 2.125336556e-03f, 4.015912116e-02f, -1.791182905e-02f, 1.405327208e-02f, -1.567668095e-02f, -3.674782068e-02f, 3.075958230e-02f, 5.586137995e-03f, 4.002039880e-02f, 3.172945604e-02f, -3.422227222e-03f, -3.379652649e-02f, -5.012991652e-02f, -3.625611216e-02f, -4.323842004e-02f, 4.780707136e-02f, 1.568373293e-03f, -1.901856996e-02f, 3.749754652e-02f, -2.532070968e-03f, -1.073232666e-02f, -4.613949731e-02f, 1.594969071e-02f, 2.852264047e-02f, 4.024504870e-02f, -4.328859597e-02f, 5.243753549e-03f, 2.574911527e-02f, -2.005646750e-02f, 7.708938327e-03f, -2.653686330e-02f, -2.733722329e-02f, 4.110731557e-02f, -1.186362281e-02f, -4.729383439e-02f, 1.803221181e-02f, -3.330864385e-02f, -2.137014084e-02f, -4.459229112e-02f, -1.256981120e-02f, 2.858948894e-03f, -2.700912207e-02f, -1.991286315e-02f, 8.592328988e-03f, 7.891688496e-03f, -4.998895898e-02f, 1.395901665e-02f, -1.621479914e-02f, -5.014539137e-02f, 4.254093766e-02f, -1.585158519e-02f, 1.018113689e-03f, -1.457962394e-02f, -1.373944897e-02f, 3.685189784e-02f, -7.731367834e-03f, 1.502983156e-03f, -2.741263807e-02f, -4.763985053e-02f, -3.734743223e-02f, -3.897276893e-02f, 5.389468744e-03f, 7.333551534e-03f, 1.440733671e-02f, 3.302115574e-02f, -2.363750013e-03f, 1.064875908e-02f, 8.781923912e-03f, -1.226583123e-02f, 4.566689208e-02f, -2.765727229e-03f, 5.836030934e-03f, -8.257208974e-04f, 1.944690756e-02f, 4.616983235e-02f, -2.331977710e-02f, -3.801575303e-02f, -2.816133760e-02f, 4.840687383e-03f, 2.624003775e-02f, 1.589703374e-02f, 4.417787492e-02f, 5.098466203e-02f, -3.412596881e-02f, -3.809063137e-02f, -8.369221352e-03f, -4.576570168e-02f, 7.355074398e-03f, 9.637027048e-03f, -4.962196201e-02f, 3.297145665e-02f, 1.198542397e-02f, -1.120284479e-02f, 4.386977293e-03f, -2.082053339e-03f, 9.187003598e-03f, -3.395523503e-02f, 5.086575449e-02f, -2.054593060e-03f, -3.212936968e-02f, -3.132530674e-02f, -3.248723224e-02f, -2.223163843e-02f, 8.161668666e-03f, -1.844310202e-02f, 5.709229037e-03f, -7.756449282e-03f, 3.501190990e-02f, -4.016840085e-02f, -3.642791882e-02f, 7.559773978e-03f, -3.577160835e-02f, 4.939606041e-02f, 4.814196005e-02f, 3.993261606e-02f, -1.750293374e-02f, 8.732289076e-03f, 4.338449985e-02f, 5.409069359e-03f, 4.818046093e-02f, 3.095367365e-02f, 3.928538412e-02f, 3.540981561e-02f, -2.876668796e-02f, 2.979308832e-03f, -2.320355549e-02f, -5.094261840e-02f, 2.915136330e-02f, 1.682359166e-02f, -1.870287955e-02f, 1.460999250e-02f, -3.948946297e-02f, -1.381063648e-02f, -6.503274199e-03f, 3.333564103e-02f, -3.395567089e-02f, 1.969578079e-05f, -3.726489842e-02f, 3.857624903e-02f, -4.960631207e-02f, 1.562399976e-02f, -2.978645638e-02f, 4.451340437e-02f, 3.949335963e-02f, 3.950802982e-02f, 3.016500548e-02f, 7.288856898e-03f, -1.246921066e-02f, -3.873290867e-02f, 1.621453092e-02f, 4.030970857e-02f, -2.002591081e-02f, 3.079080209e-02f, -2.354830317e-02f, -9.515250567e-04f, 2.380112745e-02f, -1.059135608e-02f, 2.147151623e-03f, 4.979128391e-02f, -2.234506980e-02f, 2.542484179e-02f, -6.275956985e-03f, -6.934043951e-03f, -4.172100872e-02f, -3.918059543e-02f, -4.787872732e-02f, 2.313323691e-02f, 3.045707569e-02f, -5.880908575e-03f, 2.948927134e-02f, 4.227415472e-02f, -1.251156256e-02f, 2.172683366e-02f, -2.157784067e-02f, 3.593961895e-02f, 4.280597717e-02f, 4.592555016e-02f, 1.121775527e-02f, 1.674284041e-02f, 4.536504671e-02f, -3.745720536e-02f, 4.892404377e-02f, 2.690348402e-02f, -2.561382204e-02f, -3.048214503e-02f, 3.709015623e-02f, 3.080164269e-02f, 2.227852307e-02f, 3.152685007e-03f, 2.103700303e-02f, -7.143105380e-03f, 4.729698598e-02f, 4.478602484e-02f, 8.543832228e-03f, -3.596534021e-03f, -1.874830388e-02f, -2.516269684e-02f, 3.802675009e-02f, -7.804702502e-03f, 2.941591898e-03f, -2.451298013e-02f, 2.538091876e-02f}, {-6.691287756e-01f, -2.655449212e-01f, 5.060506612e-02f, 2.603640035e-02f, 6.793188304e-02f, 1.486894768e-02f, 3.157693893e-02f, 3.726814687e-02f, -4.018522054e-02f, 3.604603186e-02f, 2.489314042e-02f, 2.445925400e-02f, -7.300337311e-03f, -9.376811795e-03f, 9.313681163e-03f, 2.599385567e-02f, -1.960544288e-02f, -5.301731452e-02f, -1.732124202e-02f, -2.255181968e-02f, -4.219521582e-02f, -6.319296360e-02f, -2.899865992e-02f, -4.324699566e-02f, -1.954535581e-02f, 1.980647631e-02f, -3.534625843e-02f, 1.374803483e-03f, -1.446180325e-02f, -5.335568637e-02f, -4.576796666e-02f, -6.646689773e-02f, -6.681509614e-01f, -2.257093042e-01f, 2.637860924e-02f, -6.079505547e-04f, 7.464048266e-02f, 5.926730111e-02f, 2.723338455e-02f, 3.887969535e-03f, -5.294845253e-02f, 8.406686597e-03f, -4.633507505e-02f, 1.112878323e-02f, -3.075633012e-02f, -1.348857582e-02f, 1.242520753e-02f, -2.046557516e-02f, -6.182806566e-02f, 1.385551179e-03f, 1.615509205e-02f, -1.603685902e-03f, -5.098455772e-02f, -6.330282986e-02f, -1.335502253e-03f, -3.443145007e-02f, -5.911181495e-02f, 1.900728792e-02f, -3.669021279e-02f, -5.231881887e-02f, -5.828357534e-04f, -5.013125017e-02f, -3.597537801e-02f, -4.184620082e-02f, 1.059880294e-02f, 2.837023139e-01f, 7.719833404e-02f, 7.825572789e-02f, -2.311100625e-02f, 1.051348634e-02f, 2.418109775e-02f, 2.187753171e-01f, 1.652332097e-01f, 1.937851310e-02f, 5.151915178e-02f, 2.696517482e-02f, -1.538345218e-02f, -5.388427526e-02f, 2.109626494e-02f, 4.747453704e-02f, 7.509499043e-02f, -1.155498251e-01f, -6.114380434e-02f, -3.931674361e-02f, -7.999484986e-02f, -4.849132895e-02f, -8.420913666e-02f, -1.046819389e-01f, 2.723527141e-02f, -7.304843515e-02f, -2.257068828e-02f, -8.583471924e-02f, -2.643397637e-02f, -8.186235279e-02f, -3.952184319e-02f, -5.374887958e-02f, -2.216864936e-02f, 3.113112412e-02f, -4.142498970e-02f, -5.148950964e-02f, 1.780969836e-02f, 2.925227769e-02f, 3.037364967e-02f, -2.911345661e-02f, -6.197731476e-03f, 3.264867142e-02f, 4.259995371e-02f, -1.723888703e-02f, 1.336785266e-03f, 2.331475960e-03f, 5.496440921e-03f, -1.293386053e-02f, 4.525959492e-02f, 4.936902970e-02f, -3.576188534e-02f, -4.187145270e-03f, 4.289527982e-02f, 2.872257493e-02f, -1.114660967e-02f, 4.613330215e-02f, -3.218173608e-02f, -2.087945864e-02f, -1.042449009e-02f, -3.380315378e-02f, -1.050790772e-01f, -4.840293899e-02f, -7.678266615e-02f, -1.084551513e-01f, -4.111842811e-01f, -4.415127039e-01f, -2.081599683e-01f, -1.461122837e-02f, -1.977172680e-02f, -7.819152437e-03f, 4.839461297e-02f, 4.741954803e-02f, -1.020833328e-01f, 5.718945991e-03f, -8.023020811e-03f, -4.987409804e-03f, -1.397596113e-02f, -3.303959966e-02f, 1.946433820e-02f, 2.783341520e-02f, -3.674590262e-03f, -2.533017891e-03f, 9.595220536e-02f, 2.675552852e-03f, 5.737537146e-02f, 1.580977999e-02f, 9.995327890e-02f, -2.610941418e-02f, -1.234646793e-02f, 7.560752332e-02f, 1.120493636e-01f, 1.558828801e-01f, 7.111480087e-02f, 6.252467632e-03f, 1.124120280e-01f, 2.159757018e-01f, -6.092869863e-02f, -9.534292854e-03f, 2.553540096e-02f, 2.855710313e-02f, -2.848289721e-02f, 4.864164814e-02f, -1.195328776e-02f, 1.323935296e-02f, 2.925161272e-02f, 5.027772114e-02f, 1.829834771e-03f, -3.422828391e-02f, 4.470960423e-02f, 3.760291263e-02f, -2.254566876e-03f, -4.311010125e-04f, 4.038188979e-02f, 2.512981184e-02f, 2.680772543e-02f, 3.902100958e-03f, 3.813083842e-02f, 5.805240571e-02f, -2.297472395e-02f, 2.537089773e-02f, 4.882405326e-02f, -1.507116016e-02f, -5.120409653e-02f, -1.357353106e-02f, -3.789725481e-03f, -8.716220967e-03f, 3.013579734e-02f, 2.231752314e-02f, -2.018504292e-01f, 1.593366861e-01f, 6.317213178e-02f, -9.584176354e-03f, 3.210210428e-02f, 4.824717715e-02f, 3.165257350e-02f, -5.847343057e-02f, 2.224793844e-02f, 3.245511279e-02f, -6.194697693e-03f, 3.660020232e-02f, -1.501215063e-02f, -2.846756391e-02f, -7.448664983e-04f, -3.302186355e-02f, 2.923530526e-03f, 4.114164039e-02f, 2.401297167e-02f, -2.412067959e-03f, -1.495516486e-02f, -3.740452603e-02f, -7.936735637e-03f, -1.364954468e-02f, 6.768896710e-03f, 2.531589940e-02f, 3.975910321e-02f, -1.840165234e-03f, -2.179091610e-02f, 3.754670173e-02f, 3.485259041e-02f, 1.237805188e-02f, -1.835755557e-01f, 1.439261436e-01f, 1.778869703e-02f, 6.550375838e-03f, 2.764032222e-02f, 1.963493647e-03f, -3.053968586e-02f, 3.694465011e-02f, -1.136525813e-02f, 3.195354715e-02f, 3.036768548e-02f, 2.977360785e-02f, 4.343906883e-03f, 1.638585515e-02f, -3.473011777e-02f, 3.268332779e-02f, 3.571321815e-02f, -6.015882641e-02f, 9.087286890e-03f, -5.054548755e-02f, 4.656192660e-02f, 2.370426990e-02f, 2.504076622e-02f, -5.387685820e-02f, -3.798433766e-02f, -4.507176578e-02f, 1.211665105e-02f, 3.052008152e-02f, -3.997829929e-02f, 2.433780953e-02f, -3.420961276e-02f, -5.816203356e-02f, -3.479848849e-03f, -2.087927889e-03f, -6.496013701e-02f, -1.358971298e-01f, -1.768211573e-01f, -1.643631011e-01f, -8.378022909e-02f, -8.481622487e-02f, -1.291409433e-01f, -5.978607386e-02f, -2.703667246e-02f, -4.528544471e-02f, -6.196761969e-03f, -8.036880195e-02f, -8.519618213e-02f, -5.309910700e-02f, -5.718695745e-02f, 3.127351031e-02f, 2.210910432e-02f, -6.820652634e-03f, 1.928600133e-03f, -6.116880849e-02f, -6.293112040e-02f, 8.348259144e-03f, -5.772245675e-02f, -4.234674200e-02f, 1.185944490e-02f, 5.138975009e-02f, -2.107280307e-02f, 3.423573077e-02f, -1.171799935e-02f, -2.861309052e-02f, 1.357804239e-01f, 6.058270112e-02f, -4.474923946e-03f, -1.812109500e-01f, -1.450348347e-01f, -1.064190492e-01f, -1.248250008e-01f, -1.646006554e-01f, -5.815973878e-02f, -1.195306927e-01f, -1.171681955e-01f, -8.556169271e-02f, -1.374462247e-01f, -4.202726483e-02f, -1.162042469e-01f, -6.341028959e-02f, -1.250221282e-01f, -2.155707963e-02f, -2.124374732e-02f, -5.265751481e-02f, 1.919385162e-03f, -6.778765470e-02f, -2.281915024e-02f, 4.323855788e-02f, 5.130861700e-02f, 9.515479207e-02f, 9.515710175e-02f, 4.682588577e-02f, 6.715517491e-02f, 8.748141676e-02f, 5.621608719e-02f, 7.829061896e-02f, 1.307057589e-01f, 9.546445683e-03f, -8.432280272e-02f, -1.575247347e-01f, -1.099994779e-01f, -1.105310172e-01f, -1.413478851e-01f, -9.311358631e-02f, -5.340633914e-02f, -3.973976523e-02f, -5.259799212e-02f, -2.328508534e-02f, 1.402656198e-04f, -7.830499113e-02f, 1.339062490e-02f, -9.553934634e-02f, -5.188797414e-02f, -4.552597925e-02f, -2.581228875e-02f, -1.892455481e-02f, -7.709621917e-03f, -8.104287833e-02f, -1.128428988e-02f, -3.958619013e-02f, -2.629135177e-02f, 5.012087896e-02f, 2.429951914e-02f, -2.467823774e-02f, 3.750335798e-02f, -1.119507663e-02f, -1.652207109e-03f, 6.980609149e-02f, 5.756990239e-02f, 6.092498079e-02f, -6.543529779e-02f, -1.857318431e-01f, -1.297780275e-01f, -6.059551612e-02f, -7.018350065e-02f, 5.490856245e-03f, 3.290420771e-02f, -1.454147603e-02f, -2.209243551e-02f, -1.604761556e-02f, -9.635412693e-02f, -8.113320172e-02f, -8.823406696e-02f, -6.740579009e-02f, -6.697011739e-02f, -7.480346598e-03f, -4.304574337e-03f, -5.808624625e-02f, -4.456597567e-02f, -3.973215818e-02f, -2.476469427e-02f, -6.770159304e-02f, -4.825907946e-02f, 3.468522057e-02f, -4.819421470e-02f, -4.470703006e-02f, -5.865441635e-02f, 7.149272133e-03f, 1.111186482e-02f, 3.603217006e-02f}, {-2.161188796e-02f, -2.859735116e-02f, 9.272438474e-03f, 2.285963111e-02f, -9.492966346e-03f, -4.665940627e-02f, -1.438230369e-02f, 4.145742208e-02f, 4.757764190e-02f, -4.437770694e-02f, -3.818321857e-04f, -1.435756218e-02f, -1.052971371e-02f, -5.030374974e-02f, 1.127215847e-02f, 4.152978212e-02f, -3.453891026e-03f, 3.484885907e-03f, 1.859396324e-02f, -3.048833832e-02f, 1.765698381e-02f, -4.301663116e-02f, 3.891275078e-02f, -2.484799176e-02f, 1.137854531e-02f, 4.245188087e-02f, 2.134193853e-02f, -4.579600319e-02f, 2.862128243e-02f, -2.079327404e-02f, 3.014998697e-02f, 9.170901030e-03f, 3.443161771e-02f, -5.299592856e-03f, -2.972484380e-02f, -1.430353499e-03f, 3.209711611e-02f, 1.909874380e-02f, -4.757739976e-02f, -1.515923534e-02f, -7.502955385e-03f, -3.595210612e-02f, -3.493715078e-02f, 1.003825571e-02f, 1.080922596e-02f, -2.861600928e-02f, 2.898860909e-02f, -4.355661571e-02f, 1.704281196e-02f, 4.293976724e-02f, -3.140271828e-02f, -1.210545469e-02f, 3.586157411e-02f, 2.776094712e-02f, 3.188348189e-02f, -3.737916425e-02f, -3.581396490e-02f, -3.520466760e-02f, 5.014708266e-03f, 2.353723720e-02f, 1.565280370e-02f, 3.124832734e-02f, -3.184749559e-02f, -3.358113021e-02f, -1.228896435e-03f, 2.560985275e-03f, -2.872684225e-02f, 1.453993493e-03f, 2.431278303e-02f, -3.067251109e-02f, -1.269931439e-02f, 4.928762466e-02f, 4.780996218e-02f, 3.644372895e-02f, 1.759717241e-02f, -4.192617536e-02f, 2.589816414e-02f, 2.658402734e-02f, -2.070466802e-02f, -4.703284428e-02f, 7.710726932e-03f, -5.310025881e-04f, -4.679032415e-02f, 1.979238167e-02f, -2.891136333e-02f, 3.687386587e-02f, 3.523217142e-02f, 4.388236254e-02f, -4.038174078e-02f, 6.907599512e-03f, -2.096893638e-02f, -3.336488456e-02f, 1.976929605e-02f, -4.784282297e-02f, -3.581085801e-02f, 1.246054750e-02f, 7.706814911e-03f, -4.741199780e-03f, 3.788493574e-02f, -3.807493299e-02f, -7.259504404e-03f, 5.773465455e-05f, 3.297080845e-02f, -4.232366756e-02f, -4.660530388e-02f, 2.392266691e-02f, -3.470120206e-02f, -1.889431104e-02f, 2.373062074e-02f, 3.983449936e-02f, 7.000504993e-03f, -6.955821882e-04f, 5.060137808e-02f, -1.724874042e-02f, -1.284157857e-03f, -1.882445626e-02f, -3.491652757e-02f, -3.543776274e-02f, 3.256741539e-02f, -1.276277564e-02f, 2.309092693e-02f, -3.363251686e-02f, -3.985716403e-02f, -2.896680683e-02f, -1.463377196e-02f, -2.496705577e-02f, 1.898043440e-03f, -1.969546825e-02f, 4.183335975e-02f, 4.829223081e-02f, 4.110880196e-02f, -3.710525855e-02f, 6.290721241e-03f, 2.589497715e-02f, 1.258715522e-02f, -3.932468593e-02f, -3.026153147e-02f, -4.225065187e-02f, 1.999484189e-02f, -2.568054385e-02f, 1.124163810e-02f, 4.709869251e-02f, 3.660064191e-02f, -2.079680795e-03f, 3.212663904e-02f, 3.381146118e-02f, -4.885108769e-02f, 6.806524470e-03f, -3.916839510e-02f, -3.002718091e-02f, -3.830641508e-02f, 4.750493914e-02f, 1.492163166e-02f, 4.441049695e-02f, 3.282905789e-03f, -2.907090448e-02f, -2.070813626e-02f, -6.250388455e-03f, -2.335122228e-02f, 5.088133365e-02f, 2.680047415e-02f, -3.024036624e-02f, 1.098555326e-02f, -1.648462005e-02f, -4.644336179e-02f, 2.967495471e-02f, 1.819937117e-02f, -1.383889373e-02f, -2.953901514e-02f, -3.238596767e-02f, 4.911992326e-02f, -3.535158560e-02f, 9.321677499e-03f, -4.419633374e-02f, -7.585178129e-03f, 4.080341384e-02f, -1.360031031e-02f, -7.469344418e-03f, 2.874171548e-02f, -4.545006528e-02f, 7.687816862e-03f, -3.960085288e-02f, 2.089007199e-02f, 4.292438552e-02f, 2.475950308e-02f, 5.115893204e-03f, -7.618381176e-03f, -4.168210551e-02f, -3.971482068e-02f, 4.248621687e-02f, -2.640391141e-02f, 3.585669212e-03f, 4.644837230e-02f, -3.951548040e-02f, 2.518806979e-02f, -5.057419091e-02f, 3.605756164e-02f, -3.966520354e-02f, -4.294145852e-02f, -5.077222735e-02f, -4.197034612e-02f, -2.422178723e-02f, 1.026995387e-02f, 4.094372969e-03f, 4.567799345e-02f, -2.850621007e-02f, 2.217445523e-02f, -3.651870042e-02f, -4.824849218e-02f, 2.332036197e-02f, 2.017967403e-02f, -3.783654049e-02f, -4.710483178e-02f, 3.540062532e-02f, 1.838384941e-02f, 3.600733727e-02f, -8.454413153e-03f, 5.714996369e-04f, 2.053618431e-02f, -3.047659062e-02f, -1.426741295e-02f, -2.427054010e-02f, -1.853355020e-02f, -4.368462414e-02f, -4.010725766e-02f, -1.449067332e-02f, -1.467857743e-03f, -2.486317884e-03f, -5.619535688e-03f, 3.301621601e-02f, -2.115279436e-02f, -4.418860190e-03f, -3.954930976e-02f, -3.310402483e-02f, -3.233619779e-02f, 1.911715232e-02f, 2.384597994e-02f, -1.178086456e-02f, -1.780209690e-02f, 2.515801787e-02f, 2.050648443e-02f, 2.587223053e-02f, -4.742012545e-02f, 1.399458013e-02f, -4.501127824e-02f, -1.954448409e-02f, 3.343749046e-02f, 1.222239528e-02f, 2.757833712e-02f, 4.510093480e-02f, -9.564732201e-03f, -1.548192836e-02f, -1.210610569e-02f, -4.300864041e-02f, -1.311497297e-02f, -1.536026690e-02f, -2.225187793e-02f, 4.525616020e-02f, 4.614580423e-02f, 2.205851860e-02f, 1.279199403e-02f, -3.150689974e-02f, -3.470255295e-03f, -2.244470827e-02f, 1.547566243e-02f, 9.468895150e-04f, 4.750481993e-02f, -4.667406529e-02f, -2.334300429e-02f, 7.314024027e-03f, 8.021994494e-03f, -2.642786875e-02f, 1.540182973e-03f, 4.220059514e-02f, -2.896618657e-02f, -4.000062495e-02f, -2.995601855e-02f, -4.683331773e-02f, -4.213855043e-02f, 1.325241476e-02f, 1.881667040e-02f, 4.444885068e-03f, 2.772693522e-02f, 4.000075161e-02f, -4.546580836e-03f, 3.862224519e-02f, -2.474504057e-03f, -1.589746587e-02f, 7.617432158e-03f, -3.658370674e-02f, 3.290140629e-02f, 1.009819563e-02f, -2.327117696e-02f, -3.625229001e-02f, 1.999263465e-02f, 4.879061133e-02f, 2.432115376e-02f, 6.180563476e-03f, -3.888715431e-02f, 2.384146117e-02f, -9.883877821e-03f, 4.482104629e-02f, 2.111608163e-02f, -8.043730631e-03f, -8.973928198e-05f, -1.048266422e-02f, 1.423671655e-02f, -4.581146687e-02f, 5.704654614e-04f, -2.681701444e-02f, 1.919142343e-02f, -1.102961507e-02f, 4.756231792e-03f, 2.365416847e-03f, 3.585910425e-02f, -1.365436707e-02f, -4.811917245e-02f, -1.518141571e-02f, 8.933940902e-03f, -2.595794573e-02f, -4.701659828e-02f, -2.736595459e-02f, -3.555423766e-02f, -3.617856186e-03f, 4.122947529e-02f, -2.826911584e-02f, -2.605259046e-02f, -2.466290444e-02f, -4.660644755e-02f, -4.933914915e-02f, 2.796076238e-02f, -8.814609610e-03f, -3.231674433e-02f, 1.399487955e-04f, -4.004848748e-02f, 2.412472107e-02f, 2.855064906e-02f, -2.059796080e-02f, 2.356381528e-02f, -3.895447031e-02f, 7.757757325e-03f, -2.854261361e-02f, 3.248753026e-02f, 3.341962397e-02f, 1.131490059e-02f, -3.212849423e-02f, 3.977070749e-02f, 4.577393830e-02f, 4.257671162e-02f, 4.595674947e-02f, -3.103360161e-02f, -5.060631782e-02f, -5.077592097e-03f, -2.541595884e-02f, 1.175139658e-02f, -9.587915614e-03f, 3.688094020e-02f, 2.940046601e-02f, 3.552291170e-02f, -3.243425488e-02f, -3.556511924e-02f, -2.261706814e-02f, -5.701910704e-03f, -5.355845671e-03f, 1.329357270e-03f, 3.859641030e-02f, 2.137343772e-02f, -3.589965776e-02f, -4.932472110e-02f, 2.599078976e-02f, -2.077426948e-02f, 9.655118920e-03f, 2.289615571e-02f, 1.830086112e-03f, -8.237048052e-03f, 1.975289546e-02f, 4.473024979e-02f, -3.279085830e-02f, -1.546087395e-02f, -7.625225000e-03f, -6.171146408e-03f, -1.202531252e-02f, 4.059886560e-03f, 2.255431935e-02f}, {6.689651608e-01f, 2.081509084e-01f, -9.396120906e-03f, -1.465674303e-02f, -4.196807742e-02f, 2.573443204e-02f, 1.519617159e-03f, 2.031278796e-02f, -1.566536594e-05f, 3.988774121e-02f, 4.845138267e-02f, 4.307050724e-03f, 3.707957640e-02f, -6.550449878e-03f, -3.228725120e-02f, 4.011461511e-02f, 1.879028790e-02f, -2.325834893e-02f, 9.762565605e-04f, 8.393024094e-03f, -1.709594019e-02f, -2.299303748e-02f, 4.964919388e-02f, 6.236781925e-02f, 3.425058350e-02f, 3.961284179e-03f, -3.237690777e-02f, 3.257819917e-03f, 6.533010304e-02f, -3.424672410e-02f, 5.983249471e-02f, 2.906965464e-02f, 6.399796009e-01f, 2.699702978e-01f, 5.775593594e-02f, -4.558075219e-02f, -1.904720813e-02f, 9.634640068e-03f, -1.817254908e-02f, 4.828005657e-02f, -6.719603203e-03f, -2.242681943e-02f, -4.078616947e-02f, 1.015683450e-02f, 1.458794251e-02f, -5.830796435e-03f, -4.518258851e-03f, 4.632790014e-02f, -2.839218639e-02f, -3.804159909e-02f, -1.540606841e-02f, 5.221367348e-03f, 1.767136529e-02f, 4.975305498e-02f, -1.626302116e-02f, 1.230633538e-02f, 2.679695375e-02f, 4.199380800e-02f, 4.438089672e-03f, -1.566235907e-02f, -5.698713940e-03f, -2.148878947e-02f, 5.314049870e-02f, 1.448395848e-02f, -2.196749300e-02f, -2.795069814e-01f, -1.076899171e-01f, -4.687114432e-02f, 2.860549279e-02f, -6.800559908e-02f, -1.216048151e-01f, -1.479838938e-01f, -2.282403409e-01f, 2.127264068e-02f, 3.338042414e-03f, -6.976640970e-02f, 4.048816860e-02f, 4.737425596e-03f, -6.503288448e-02f, -5.661467090e-02f, -9.228715301e-02f, -2.973907255e-02f, 6.819867343e-02f, 1.335671358e-02f, -8.399173385e-04f, 2.749955654e-02f, -1.193066873e-02f, 8.612490445e-02f, -1.888680086e-02f, -1.174036320e-02f, -2.556457371e-02f, -4.187508486e-03f, 9.052203386e-04f, 4.724232480e-02f, 1.351582538e-02f, 4.128634185e-02f, 2.724708803e-02f, 4.219526891e-03f, -3.189122677e-02f, -2.104816213e-02f, 3.915280476e-02f, 2.859416977e-02f, -2.096864022e-02f, -3.289040551e-02f, -2.293324471e-02f, -5.116878077e-03f, -3.324097022e-02f, 5.094789714e-02f, -2.009353228e-02f, 4.010355845e-02f, 1.284972019e-02f, -1.329884212e-02f, -4.959117994e-02f, 3.117563203e-02f, 2.311434969e-02f, -5.161448196e-02f, 5.995885935e-03f, -1.155750453e-02f, -3.040465713e-02f, 2.823246270e-02f, 4.713897128e-03f, -2.394429781e-02f, 3.648789600e-02f, 2.822154202e-02f, 7.144069672e-02f, 7.556230575e-02f, 8.180338144e-02f, 5.513249710e-02f, 3.434765339e-01f, 4.969696403e-01f, 1.593558639e-01f, 7.170534693e-03f, -1.239242125e-02f, 1.486572716e-02f, -4.349059239e-02f, -5.389553308e-02f, 7.615498453e-02f, -3.341388423e-03f, -6.870228052e-02f, 4.266250506e-02f, -1.104501914e-02f, 7.352992427e-03f, -6.457906216e-02f, 4.249132052e-02f, 5.843930319e-02f, 3.977625817e-02f, -1.180706248e-01f, -4.168096930e-02f, -6.911667436e-02f, 4.528770223e-03f, -4.061104357e-02f, -3.432068974e-02f, -5.140070990e-02f, -8.793929964e-02f, -4.357992858e-02f, -1.484481990e-01f, -8.613646775e-02f, -6.715056300e-02f, -5.531924218e-02f, -2.022255510e-01f, 4.113771394e-02f, 2.554533072e-02f, -2.903455123e-02f, -3.084731102e-02f, -1.873632707e-02f, 6.057164818e-02f, -5.505535752e-03f, -6.259887014e-03f, 2.979245270e-03f, -2.768418752e-02f, -1.843165793e-02f, 1.223195717e-02f, -2.540796623e-02f, 1.855184697e-02f, 1.476795226e-02f, 4.027714487e-03f, -3.135729581e-02f, -1.892801002e-02f, 2.492029406e-02f, -2.287072875e-02f, 3.862097859e-02f, 3.625219688e-02f, -4.988624156e-02f, 5.177319050e-03f, -5.369481444e-02f, -4.285440221e-02f, 3.727811575e-02f, 5.284458771e-02f, 1.608851948e-03f, -6.445796462e-04f, 2.831286192e-02f, 1.900542155e-02f, 1.666810066e-01f, -1.288132519e-01f, -3.334720433e-02f, -3.599764034e-02f, -1.426167320e-02f, -2.109153196e-02f, -5.133381486e-02f, -2.123324014e-02f, 1.409335434e-02f, 4.611292109e-02f, 3.828237578e-02f, 4.486969113e-02f, 1.016606111e-03f, -2.086008666e-03f, -1.843158342e-02f, 2.923787385e-02f, 3.947231919e-02f, 1.888943464e-02f, -1.993078366e-02f, -5.306061823e-03f, -4.591125995e-02f, 3.385110945e-02f, -1.271139737e-02f, -3.705834970e-02f, -1.875352673e-02f, -5.364270508e-02f, 2.397638373e-02f, -4.239774495e-02f, 3.127546236e-02f, 4.180866107e-02f, 4.941459000e-02f, 1.146590337e-02f, 1.500592828e-01f, -1.516072750e-01f, -4.649678990e-02f, 6.128321547e-05f, -9.789845906e-03f, -3.475555405e-02f, -2.718215436e-02f, 1.069267932e-02f, 4.299800470e-02f, 2.841506712e-02f, -2.200692520e-02f, 7.163880393e-03f, 2.227170579e-02f, 1.214151387e-03f, -2.732145227e-02f, 7.479029242e-03f, 2.818813547e-02f, 6.251587532e-03f, 1.143330336e-02f, -3.413403407e-02f, 4.266228527e-02f, 3.739191219e-02f, 3.034518566e-03f, -2.107219957e-02f, 9.708918631e-03f, 3.017044999e-02f, 1.354362071e-02f, 1.358762477e-02f, -1.882282645e-02f, -3.670566529e-02f, 1.765009388e-02f, -2.207727544e-02f, -3.697395790e-03f, -1.397704706e-02f, 7.753841579e-02f, 1.417451650e-01f, 1.312395930e-01f, 7.460536808e-02f, 8.334732056e-02f, 6.302006543e-02f, 1.010024548e-01f, 1.350326240e-01f, 5.349088088e-02f, 2.549412660e-02f, 8.511257917e-02f, 2.816078998e-02f, 1.992388815e-02f, 3.241686895e-02f, 1.031839103e-01f, 2.981965803e-02f, 4.681023955e-02f, 5.319439620e-02f, 8.077524602e-02f, 8.041982353e-02f, -1.101345988e-03f, -2.322067274e-03f, 6.061989814e-02f, -9.972538799e-03f, 6.017978489e-02f, 5.020558834e-03f, -1.653743722e-02f, -2.421398833e-02f, -1.045767218e-02f, 3.067597002e-02f, -1.231705174e-01f, -6.814970821e-02f, -2.133975364e-02f, 8.706063777e-02f, 1.751711220e-01f, 7.949069887e-02f, 1.443047673e-01f, 9.085990489e-02f, 1.278212965e-01f, 1.112756804e-01f, 1.171551123e-01f, 1.369171292e-01f, 1.259491593e-01f, 1.058985442e-01f, 9.008952230e-02f, 1.234797835e-01f, 1.361513883e-01f, 5.247847736e-02f, 4.293967783e-02f, 9.005280584e-02f, 3.846479580e-02f, 4.305956885e-02f, 9.063058347e-02f, 6.480190158e-02f, 2.417759271e-03f, -4.367075488e-02f, -7.582968101e-03f, -6.544780731e-02f, -3.187852353e-02f, 7.678129245e-03f, 1.684838207e-03f, -1.643688604e-02f, -4.292517528e-02f, 3.129380196e-02f, 1.228889525e-01f, 1.562452465e-01f, 1.612859815e-01f, 1.639815569e-01f, 8.412215114e-02f, 7.873677462e-02f, 7.344759256e-02f, 5.405822024e-02f, 8.559666574e-02f, 4.575024173e-02f, 9.453878552e-02f, 8.025904186e-03f, 7.710526884e-02f, 3.284968808e-02f, 7.109874487e-02f, 7.261196524e-02f, 5.774082616e-02f, 1.064697877e-01f, 8.901172131e-02f, 6.022321060e-02f, 7.160221785e-02f, 5.691539869e-02f, -1.114269905e-02f, -2.648728527e-02f, 1.947823726e-02f, 1.446319185e-02f, 3.044553846e-02f, 4.321686924e-02f, 6.065513566e-02f, 1.463023364e-03f, -9.410823137e-02f, -1.024336740e-01f, 9.103314579e-02f, 1.544944942e-01f, 7.241591811e-02f, 1.166719720e-01f, 2.494420111e-02f, 4.722704180e-03f, 2.297920734e-02f, -2.196436934e-02f, 3.352295235e-02f, 7.853928953e-03f, 4.370017350e-02f, 6.240891665e-02f, 4.011455178e-02f, 7.458467036e-02f, 4.959814250e-02f, 2.450473793e-02f, 1.956420019e-02f, 2.919741382e-04f, 3.758333623e-02f, 5.087299272e-02f, 5.101437122e-02f, 6.195702404e-02f, -2.289140224e-02f, 1.051532011e-02f, 2.741734870e-02f, 6.069918349e-02f, 2.591831051e-02f, 2.931438945e-02f, 4.317855835e-02f, 1.421575993e-02f}, {6.833920479e-01f, 2.880507410e-01f, 7.163890451e-02f, 4.057829082e-02f, -4.234134406e-02f, 4.030743614e-03f, 3.477568179e-02f, -2.544816397e-02f, -2.705872990e-02f, 3.859799728e-02f, 1.924053393e-02f, 5.415501446e-02f, -1.707253791e-02f, 4.396071285e-02f, 3.007533588e-02f, 1.391522679e-02f, 4.996763915e-02f, 2.406243421e-02f, -1.416781079e-02f, -2.290445752e-02f, 5.222635344e-02f, 8.873706684e-03f, 2.419074625e-02f, 1.164212450e-02f, -2.483560517e-02f, 1.242110133e-02f, -1.941229962e-02f, 5.639082938e-02f, 1.517879195e-03f, -1.243645791e-02f, 3.957005218e-02f, 3.924871609e-02f, 5.959871411e-01f, 2.888308167e-01f, 3.558854386e-02f, -1.500187814e-02f, 2.053261176e-02f, 3.956019506e-02f, -2.985899150e-02f, 1.723833755e-02f, -3.013583273e-02f, -1.757703349e-02f, 5.136061087e-02f, 3.842671588e-02f, 3.801324591e-02f, -2.356888354e-02f, 5.581497774e-02f, -2.248834819e-02f, 2.267444320e-02f, -1.685715094e-02f, 3.670453653e-02f, 1.924953423e-02f, 4.240436852e-02f, 2.228231169e-02f, 3.158104606e-03f, -2.892813459e-02f, -2.908736933e-03f, -3.365731612e-02f, -7.752121426e-03f, -2.182446979e-02f, -1.890407293e-03f, -4.745982587e-03f, 1.034762431e-02f, 6.203315407e-02f, -7.575616986e-02f, -3.314934075e-01f, -6.100930646e-02f, -3.307544440e-02f, -3.602828085e-02f, -5.542778596e-02f, -3.706884012e-02f, -1.526515186e-01f, -2.125278413e-01f, 1.052423101e-02f, -3.258176520e-02f, -5.323653296e-02f, -8.979951032e-03f, 5.483718961e-02f, -1.311365515e-02f, -1.312358081e-01f, -1.391595900e-01f, 5.833332986e-02f, -3.015434369e-02f, 8.819605224e-03f, 7.028945256e-03f, 4.175016657e-02f, -2.740857750e-02f, -8.726710454e-03f, -5.385496467e-02f, 1.885953359e-02f, 5.570068210e-02f, -2.589958906e-02f, 7.425699383e-02f, -2.409647219e-02f, 5.390417203e-02f, 1.314241719e-02f, 4.901587218e-02f, 5.759165809e-02f, 9.034694172e-03f, -3.520254791e-02f, 5.544082448e-02f, 5.958433449e-02f, 5.924523994e-02f, -1.301813032e-02f, -1.001586486e-02f, 6.346385181e-02f, 2.199726924e-02f, 1.435750071e-02f, -1.847453602e-02f, -5.710763857e-03f, -3.803934902e-02f, 1.642581075e-02f, 4.917890765e-03f, -3.882247023e-03f, -2.580945753e-02f, -3.496364923e-03f, 2.667785250e-02f, -5.927810445e-03f, -3.616324067e-02f, -1.329520252e-02f, 3.976691142e-02f, 4.009526968e-02f, -1.935825124e-02f, 3.091241792e-02f, 4.110100865e-02f, 3.371880949e-02f, 9.823893756e-02f, 2.411280945e-02f, 3.073334098e-01f, 4.072595835e-01f, 1.405503899e-01f, -4.685552791e-03f, -3.945955262e-02f, -4.642406851e-02f, 2.063278481e-02f, 5.835932214e-03f, 4.976826534e-02f, -9.269887581e-03f, -1.924824901e-02f, -3.247951344e-02f, -4.689460620e-02f, -7.435185369e-03f, -4.603028297e-02f, -5.670604296e-03f, -1.637875102e-02f, -1.451199874e-02f, -7.007617503e-02f, -2.996836230e-02f, -1.826029737e-03f, -7.005055994e-02f, -7.078662515e-02f, 3.209670773e-03f, -6.293327548e-03f, -3.388361633e-02f, -8.790931106e-02f, -1.544178277e-01f, -9.380946308e-02f, -5.584063008e-02f, -1.192999855e-01f, -1.792792082e-01f, -1.733863377e-03f, 3.315319493e-02f, 1.653027534e-02f, 6.209527329e-02f, 2.167322906e-03f, 3.266341612e-02f, 1.775669865e-02f, -9.287485853e-03f, 5.058833212e-02f, 1.601624303e-02f, 3.416325781e-04f, -3.366672993e-02f, 1.198952645e-02f, 3.415327892e-02f, 3.950989991e-02f, 4.007146135e-02f, -2.620038763e-02f, -4.148968682e-02f, -3.377287835e-02f, -3.797390684e-02f, 4.926130548e-02f, -1.014674269e-02f, 4.054181650e-02f, 2.527094632e-02f, 4.126282781e-02f, -3.493125737e-02f, 4.596627504e-02f, 1.635330729e-02f, 5.933538452e-02f, 7.147394121e-02f, 3.343099728e-02f, -2.458216995e-02f, 1.994639188e-01f, -1.118035764e-01f, 3.986374475e-03f, -4.508025199e-02f, -8.517951705e-03f, 3.505539522e-02f, -2.525922842e-02f, -1.192839071e-02f, 1.947265677e-02f, -7.408073172e-03f, 1.311375853e-02f, 4.913446307e-02f, -2.239882760e-02f, 4.839287326e-02f, 5.158151686e-02f, 4.541896284e-02f, -8.296953514e-03f, 1.493711863e-02f, 1.728060283e-02f, -4.646274820e-02f, 3.143358231e-02f, -2.923839726e-02f, -3.614093002e-04f, 1.295376197e-02f, 3.258311003e-02f, 2.675993368e-02f, -4.195692018e-02f, -5.412919447e-02f, 3.154255077e-02f, -3.132017702e-02f, -4.396393150e-02f, -3.986771684e-03f, 1.465902328e-01f, -1.813273430e-01f, -3.855572641e-02f, -1.897446066e-02f, -1.802748069e-02f, -1.342527801e-03f, -3.236573189e-02f, -3.655557707e-02f, 4.619652871e-03f, 1.158746239e-02f, -1.911241934e-02f, 1.017512009e-02f, -2.790989354e-02f, 4.442058504e-02f, 2.949270234e-02f, -1.973652281e-03f, 1.281385869e-02f, -4.299427196e-02f, 4.369473457e-02f, -4.909261316e-02f, 2.915796638e-02f, -5.713761225e-02f, -6.560091861e-03f, 2.382949740e-02f, 5.116209015e-02f, -3.769426793e-02f, -2.325367928e-02f, 4.499185830e-02f, -2.070308104e-02f, -3.654379025e-02f, 3.703384846e-02f, -2.749297582e-02f, -3.760470450e-02f, 6.854358315e-02f, 2.635444328e-02f, 1.418403536e-01f, 1.498263031e-01f, 1.140063480e-01f, 1.594767421e-01f, 1.188620850e-01f, 1.109659672e-01f, 1.299919933e-01f, 1.060433090e-01f, 6.315225363e-02f, 2.953783423e-02f, 1.160843018e-02f, 8.474905789e-02f, 1.371063478e-02f, 7.825774699e-02f, 5.779088289e-02f, 1.225381438e-02f, 2.661228739e-02f, 4.075485468e-02f, 3.999788314e-02f, 6.106567755e-02f, 5.438121781e-02f, 1.809594408e-02f, 4.411687329e-02f, -2.282507345e-02f, 5.610147119e-02f, -7.548333146e-03f, 5.486818403e-02f, -2.157811634e-02f, -1.866991632e-02f, -1.046827063e-01f, -6.946502626e-02f, 4.962302744e-02f, 1.400402784e-01f, 1.907318085e-01f, 1.071932688e-01f, 1.502280682e-01f, 9.958983213e-02f, 8.001499623e-02f, 1.329525262e-01f, 1.674536169e-01f, 1.073199213e-01f, 5.376003683e-02f, 1.290404052e-01f, 1.127261296e-01f, 1.446322203e-01f, 1.017367095e-01f, 1.718062535e-02f, 5.049500987e-02f, 9.302328527e-02f, 7.215071470e-02f, 5.681777000e-02f, 5.399473011e-03f, 7.618546486e-02f, 2.725023590e-02f, -3.263112903e-02f, -4.360223934e-02f, -6.169840693e-02f, -7.849377580e-03f, -1.119412575e-02f, -4.861301556e-02f, -4.742734134e-02f, -3.879214078e-02f, 5.005099624e-02f, 1.332978457e-01f, 1.379343718e-01f, 1.615508199e-01f, 9.601086378e-02f, 1.520817578e-01f, 7.250543684e-02f, 1.289253682e-01f, 5.393037945e-02f, 5.624698475e-02f, 6.710579991e-02f, 5.736804754e-02f, 4.537102953e-02f, 6.713218987e-02f, 6.497024000e-02f, 1.042231917e-01f, 1.230883133e-02f, 1.995344460e-02f, 7.590737939e-02f, 5.355654657e-02f, 2.572440542e-02f, 8.957465738e-02f, 1.038908660e-01f, 1.805698685e-02f, -2.368919365e-02f, 3.580917045e-02f, 2.359847352e-02f, 2.659633756e-02f, -1.180265285e-02f, 6.432167441e-02f, -1.862001792e-02f, -3.165182099e-02f, 1.202976983e-02f, 5.997351930e-02f, 1.187506169e-01f, 1.397123784e-01f, 5.255136639e-02f, 4.704201967e-02f, 5.935610458e-02f, 5.759671330e-02f, 5.931332335e-02f, 8.371500671e-02f, 5.854069442e-02f, 6.613951921e-02f, 6.061945111e-03f, 1.122268960e-01f, 7.538161427e-02f, 1.020708457e-01f, 8.078709245e-02f, 7.666312158e-02f, 3.659405187e-02f, 9.360124171e-02f, 7.931437343e-02f, -1.417829562e-02f, 7.419049740e-02f, 5.404174794e-03f, -6.504928693e-03f, -1.181355491e-02f, 2.233033441e-02f, 8.145614527e-03f, 5.273109674e-02f, 3.900875524e-02f, 5.278903618e-02f}, {3.374694660e-02f, 1.098319702e-02f, -5.811226740e-02f, -3.266168013e-02f, -6.167976931e-02f, -5.770855024e-02f, 3.604308888e-02f, 3.510665521e-02f, -4.533404112e-02f, 1.726047508e-02f, -9.629686363e-03f, -1.080575306e-02f, -1.521367114e-02f, 1.420869026e-02f, 3.075405210e-02f, 1.546898950e-02f, -1.938816905e-02f, -2.754357457e-02f, 1.136907004e-02f, 2.673152089e-02f, 6.220084801e-02f, -3.848505206e-03f, 4.525469616e-02f, -3.087966889e-02f, 4.105522856e-02f, 5.862696841e-02f, -1.698679477e-02f, 5.149818584e-02f, 5.684929341e-02f, 4.730426893e-02f, 8.058428764e-03f, 2.994688787e-02f, -2.867890289e-03f, -6.485793274e-03f, -2.215976268e-02f, 3.596981242e-02f, 3.897333518e-02f, -3.846188635e-02f, 3.401312605e-02f, 1.507539395e-02f, -3.093173727e-02f, 5.205925554e-02f, 5.201762076e-03f, 3.255752474e-02f, 1.026462018e-02f, -1.161687542e-02f, 3.822556883e-02f, 4.649111629e-02f, 1.030595321e-02f, 3.575486690e-02f, 6.115551293e-02f, 5.260786414e-02f, -2.488214150e-02f, 8.431688882e-03f, 3.373810649e-02f, -3.545422852e-02f, 2.053635567e-02f, 4.356949404e-02f, -3.572227061e-02f, 2.436473407e-02f, 1.940757968e-02f, 5.860998482e-02f, -1.064032409e-02f, 1.500944956e-03f, -3.566493839e-02f, 1.307559945e-02f, -9.638885240e-05f, 4.923976958e-02f, 2.714027278e-02f, 1.191358455e-02f, 1.765896007e-02f, -1.730457880e-02f, 2.234006114e-02f, -1.104178745e-02f, -1.291275490e-02f, 7.406583754e-04f, -2.585349791e-02f, 2.913401648e-02f, -8.844645694e-03f, -3.213115036e-02f, -1.597446948e-02f, 2.972868085e-02f, -1.104064938e-02f, -8.763021789e-03f, 3.012610413e-02f, -2.835320123e-02f, 2.357205935e-02f, 1.674026996e-02f, 3.429185599e-02f, 1.231783885e-03f, 2.192771062e-02f, -2.529320866e-02f, -1.404218562e-02f, 4.294236377e-02f, 1.956162602e-02f, -2.147849090e-02f, -4.060899839e-02f, -5.749662872e-03f, -4.747416824e-03f, 1.002744585e-02f, -4.392172769e-02f, 2.014390193e-02f, -5.057311058e-02f, -1.154679619e-02f, 8.377121761e-03f, -2.957212925e-02f, -6.142324582e-02f, -4.279883206e-02f, 2.221386135e-02f, -4.250138253e-02f, 3.229595721e-02f, -5.607949570e-02f, -8.205522317e-04f, -2.343153581e-02f, -2.028568089e-02f, 9.274797514e-03f, -3.111865930e-02f, 2.407235559e-03f, -3.891652450e-02f, 2.607990988e-02f, 2.137810551e-02f, 1.347790931e-05f, 7.245912217e-03f, 1.323438832e-03f, -1.857605577e-02f, 2.899017185e-02f, -3.600010648e-02f, 3.434950113e-02f, -4.169147462e-02f, 1.145531051e-02f, 2.612997219e-02f, 9.041124023e-03f, -3.943314403e-02f, 1.931595802e-02f, 9.896938689e-03f, 1.049095020e-02f, -5.891370028e-02f, -2.169242688e-02f, -3.985223919e-02f, -2.527575940e-02f, -1.956415921e-02f, 3.572203591e-02f, 5.634179339e-03f, -3.725974634e-02f, -1.198523585e-02f, 2.401532046e-02f, -8.653196506e-03f, -5.674215406e-02f, -3.980902582e-02f, -5.456390604e-02f, -1.807550783e-03f, 4.612902179e-03f, 2.780553699e-02f, 2.624204941e-02f, 4.974049516e-03f, -4.084742442e-02f, 1.363808941e-02f, -3.745592386e-02f, 3.157587722e-02f, 1.032506488e-02f, -7.670809864e-04f, -5.804698169e-02f, 3.765793517e-03f, -3.021478094e-02f, 2.272963710e-02f, -4.819537047e-03f, 2.740553394e-02f, 3.519251570e-02f, 1.457816269e-02f, -3.504727036e-02f, 3.676206246e-02f, 1.343107689e-02f, -2.779202722e-02f, 2.684902214e-02f, 6.592549384e-03f, -2.771032602e-02f, -1.097495784e-03f, -2.250720747e-02f, -1.027270220e-02f, -1.563129202e-02f, 1.914779656e-02f, 1.501830295e-03f, 2.654055506e-02f, 1.978792623e-02f, -2.765130950e-03f, 1.774965785e-02f, 3.941329196e-02f, 1.256936113e-03f, 3.231291473e-02f, -1.191680785e-02f, -5.206283182e-02f, 1.693562721e-03f, -2.873869985e-02f, 2.467987314e-02f, -4.222706705e-02f, -5.537720397e-02f, 2.291749232e-02f, -2.804988250e-02f, -5.362936854e-02f, -1.727206074e-02f, -5.512261763e-02f, 2.751831524e-02f, -3.514276072e-02f, -1.108864509e-02f, 9.754463099e-03f, 1.895684935e-02f, -2.989377081e-02f, -5.648040771e-02f, -3.416280076e-02f, -3.802343085e-02f, -4.910690710e-02f, -5.021251738e-02f, 7.173401769e-03f, -3.705776855e-02f, -4.742324352e-02f, -4.363671690e-02f, -2.263164334e-02f, 3.747926094e-03f, -1.648613252e-03f, 1.303751301e-02f, 3.209741041e-02f, -1.395720709e-02f, -3.567445651e-02f, 2.273748256e-02f, -3.949744999e-02f, 2.698150650e-02f, -4.974306747e-02f, -5.509307981e-02f, -2.833710518e-03f, -7.147389930e-03f, -4.814785346e-02f, 2.257706970e-02f, -5.535517260e-02f, -2.021665499e-02f, 3.236423060e-02f, -2.160836942e-02f, -8.908419870e-03f, -3.061766364e-02f, 6.723705214e-03f, 8.839721791e-03f, -4.032447934e-02f, 3.867875412e-02f, -6.149271503e-02f, -2.558100037e-03f, -3.122671321e-02f, -3.212178871e-02f, 3.519840911e-02f, 3.912371024e-02f, -1.788831316e-02f, 3.238731250e-02f, -5.962243304e-03f, 1.300694980e-02f, 2.319672890e-02f, 2.200840786e-02f, 2.157090604e-02f, 2.829767996e-03f, -1.021204423e-02f, -1.306461054e-03f, -6.193036214e-02f, 2.584771719e-03f, 3.078122996e-02f, 9.072448127e-03f, -5.508062616e-02f, 3.898870572e-02f, 1.195765007e-02f, 3.197383834e-03f, -1.763204113e-02f, -3.928443044e-02f, 1.858602278e-02f, -5.521668866e-02f, -1.477720402e-02f, 1.951725595e-02f, -1.001056470e-02f, 8.116396144e-03f, -4.850204661e-02f, -5.668489635e-02f, -5.072094500e-02f, -4.393774644e-02f, 3.518536314e-02f, -2.213578485e-02f, -4.873111472e-02f, -8.027322590e-03f, 3.940382972e-02f, -1.086895261e-02f, -2.009349130e-02f, -5.260816216e-02f, 7.765297778e-03f, -5.877200142e-02f, -2.127993357e-04f, 3.474751860e-02f, -1.511923503e-02f, -1.451751962e-02f, 5.234053824e-03f, -3.690915182e-02f, 1.647131331e-02f, -6.812460721e-03f, -5.168047268e-03f, 3.816065844e-03f, 1.793344505e-02f, -2.050461946e-03f, -5.965163931e-02f, 3.178594634e-02f, -1.871935651e-02f, 2.584524220e-03f, -5.206482485e-03f, -1.087303087e-02f, -2.397188917e-02f, 2.970452188e-03f, 2.730098739e-02f, -2.205313556e-02f, -5.300280452e-02f, -1.614571176e-02f, -5.334438011e-02f, -2.449911088e-02f, 2.833564533e-03f, -4.242479429e-02f, -8.137273602e-03f, -4.111563042e-02f, 9.755373001e-03f, -5.393841490e-02f, 1.837815717e-02f, -5.159538239e-03f, -5.414823070e-02f, -4.990755022e-02f, -4.680636898e-02f, -4.325767606e-02f, -3.986727446e-02f, -3.582004225e-03f, 2.289791033e-02f, -5.536086857e-02f, -2.097296901e-02f, 2.568764053e-02f, 2.761013061e-02f, -1.600634120e-02f, 2.935766801e-02f, -1.290154178e-03f, 3.967691958e-02f, 4.795396701e-03f, -2.709976956e-02f, -6.129883975e-02f, 1.534087490e-02f, -2.370364219e-02f, 1.732861251e-02f, -6.302250084e-03f, -4.774083197e-02f, 1.305900887e-02f, -2.654838003e-02f, 1.458827406e-03f, 2.909005247e-02f, 3.472494707e-02f, -4.034071788e-02f, 2.701165341e-02f, 1.681413502e-02f, 1.029968844e-03f, -8.050378528e-04f, 3.620618489e-03f, 1.010368112e-02f, -6.203296781e-02f, -7.300825324e-03f, -5.079752207e-02f, -6.502797361e-03f, -4.009155557e-03f, -3.185467422e-02f, 2.654523961e-02f, 2.974843793e-02f, -2.026372217e-02f, 1.689855941e-02f, -8.730475791e-03f, -1.310277823e-02f, -1.608080231e-02f, -2.289919928e-02f, 4.723398481e-03f, -5.541666970e-02f, 2.063352242e-02f, 1.209654473e-02f, -3.076810762e-02f, -4.982385784e-02f, 3.127667308e-02f, -5.938310921e-02f, -2.472357638e-02f, 3.632080927e-02f, 3.400475904e-02f, -6.841518916e-03f, 1.261321828e-02f}, {5.021875501e-01f, 2.027902454e-01f, 6.011695042e-02f, -4.397745244e-03f, 1.766249724e-02f, 1.346126199e-02f, 8.875849890e-04f, 1.858876273e-02f, 1.586898416e-02f, -4.315302894e-02f, -1.532369759e-02f, 4.609585926e-02f, 5.055026338e-02f, -2.369575575e-02f, -1.148520783e-02f, 5.187740922e-02f, 1.229488058e-03f, -4.235555232e-02f, 1.753926743e-03f, 1.521099126e-03f, 3.047212586e-02f, -1.951820031e-02f, -6.088416558e-03f, 1.671952754e-02f, 8.913275786e-03f, -3.393566608e-02f, -3.386592120e-02f, -3.677081689e-02f, 1.803116500e-02f, 5.162633955e-02f, 1.875156537e-02f, -3.412999585e-02f, 4.034588933e-01f, 1.668418199e-01f, 4.674578086e-02f, 2.205147780e-02f, 3.858477576e-03f, -4.105869308e-02f, -8.090509102e-03f, -2.981081232e-02f, 1.968358271e-02f, 1.442085858e-02f, -3.315560147e-02f, 2.679102123e-03f, 5.086308345e-02f, -2.576699480e-03f, -4.179209843e-02f, -1.520260982e-02f, 6.543421187e-03f, 4.633488506e-02f, -2.326693386e-02f, 3.980476409e-02f, 3.237614408e-02f, -3.211339191e-02f, -1.419055928e-02f, -1.143477578e-02f, -1.937095448e-02f, 3.880205378e-02f, 4.586871341e-02f, -2.935540304e-02f, 6.015351787e-02f, 2.889762260e-02f, 4.794760048e-02f, 1.873585861e-03f, -9.090213105e-03f, -2.483454794e-01f, -2.476585656e-02f, -7.005051523e-02f, -4.667080566e-02f, -5.871601030e-02f, -7.505217940e-02f, -1.475944072e-01f, -1.370747238e-01f, 5.610627122e-03f, -7.428935915e-02f, -4.385707900e-02f, 5.433150008e-02f, 2.928566560e-02f, -4.065288231e-02f, -3.330133483e-02f, -9.880779684e-02f, 7.609763741e-02f, 2.957158722e-02f, 6.531301141e-02f, 5.643969402e-03f, -6.076423917e-03f, -2.432997525e-02f, 8.548408747e-02f, 4.096272588e-02f, 4.115450755e-02f, -2.673601918e-02f, 3.098966740e-02f, 6.925195456e-02f, 4.841082916e-02f, 3.602832183e-02f, 2.956772223e-02f, 3.885524720e-02f, 6.031158939e-02f, 5.899019167e-02f, -3.372152895e-02f, -1.860354654e-02f, 5.619797111e-02f, 5.363198463e-03f, -2.997059934e-02f, -2.397294715e-02f, -1.652059436e-04f, -5.514920922e-04f, -1.440543029e-02f, -3.390685469e-02f, 2.838461287e-02f, 7.409868762e-03f, -1.191239152e-02f, 3.638475761e-02f, -2.793360315e-02f, 1.951123960e-02f, -1.959973201e-02f, 1.892981678e-02f, -2.065446600e-02f, 2.675386705e-02f, 3.814948350e-02f, -8.405852132e-03f, 1.050374750e-02f, 2.383293770e-02f, 7.074407768e-03f, 2.184913866e-02f, 1.783483475e-02f, 6.001911312e-02f, 1.512278244e-02f, 3.116102219e-01f, 3.343629539e-01f, 1.157980636e-01f, 1.629349403e-02f, 5.144159496e-02f, 1.868250594e-02f, -2.009607665e-02f, 7.380935829e-03f, 5.356514454e-02f, -4.698704183e-02f, -3.832178935e-02f, -2.212642506e-02f, -1.746206544e-02f, 1.605463773e-02f, -1.060306909e-03f, 4.474252462e-02f, 7.051670551e-02f, -3.208208084e-02f, -6.492666155e-02f, 1.733555831e-02f, 2.658390626e-02f, -1.224826835e-02f, -1.239042133e-01f, 1.000172924e-02f, -6.687762588e-02f, -8.166518807e-02f, -9.991583973e-02f, -9.971968085e-02f, 7.051025052e-03f, 6.011219230e-04f, -1.053033322e-01f, -1.265236884e-01f, 4.755742475e-02f, -2.979799174e-03f, 4.163649306e-02f, -6.427507382e-03f, 3.421401605e-02f, -3.262086958e-02f, 4.250473343e-03f, 1.481777150e-02f, -9.857338853e-03f, 1.025947928e-02f, -3.473011032e-02f, 1.218343247e-02f, 9.947238490e-03f, -2.259316482e-02f, -4.549060017e-03f, -4.822460189e-02f, 1.495259814e-02f, -4.127337039e-02f, 2.488116361e-02f, -1.846746542e-02f, 2.241753601e-02f, -2.740577236e-02f, -2.977939136e-02f, -1.576048322e-02f, -1.680158824e-02f, -8.787543513e-03f, 1.667784713e-02f, 1.768058538e-02f, 6.335584819e-02f, 4.138164222e-02f, -1.197964419e-02f, 3.810759261e-02f, 1.855298728e-01f, -1.382924169e-01f, -1.454910357e-02f, -5.334882438e-02f, -2.869811654e-02f, 3.436406329e-02f, 4.066069669e-04f, 3.740796447e-02f, 2.945777774e-02f, 3.259644285e-02f, 1.188637968e-02f, 5.034565181e-02f, -4.314196762e-03f, -2.076918259e-03f, 3.825647011e-02f, 4.728267668e-04f, -1.983648911e-02f, -4.026479274e-02f, -4.178941250e-02f, -3.306632861e-02f, -3.534035757e-02f, -2.379149012e-02f, 9.415761568e-03f, -1.463077404e-02f, 4.382190108e-02f, 5.583791528e-03f, 5.042083189e-02f, 3.582597151e-02f, -4.967279732e-02f, 1.486474555e-02f, 3.886328265e-02f, -2.301965095e-02f, 1.565560549e-01f, -7.183343917e-02f, -6.262454670e-03f, -5.884699151e-02f, -5.374445394e-02f, 4.612999409e-02f, 4.617270082e-02f, -4.198016599e-02f, 4.286200274e-03f, 4.966483265e-02f, -2.185309678e-02f, 1.169686764e-02f, 5.320902914e-02f, -3.191810101e-02f, 3.378370404e-02f, 2.436070330e-02f, 2.223253436e-02f, -3.249030933e-02f, 3.264264762e-02f, 3.023880161e-02f, 2.851511724e-02f, -4.084113240e-02f, -1.303131040e-02f, -1.662445441e-02f, -8.540318348e-03f, 4.569734260e-02f, -4.594952613e-02f, -2.821434475e-02f, -2.026591683e-03f, 3.666348383e-02f, 3.441693261e-02f, 3.712030128e-02f, 1.731822826e-02f, 4.287962615e-02f, 6.224872917e-02f, 1.068261787e-01f, 9.154396504e-02f, 1.498593092e-01f, 9.248299152e-02f, 1.261396706e-01f, 5.331640691e-02f, 1.001121625e-01f, 6.110101566e-02f, 1.478112396e-02f, 9.678494930e-02f, 1.722694933e-02f, 4.241586197e-03f, 4.107123241e-03f, 4.945295304e-02f, 6.357733905e-02f, 1.464616321e-02f, 8.389125764e-02f, -7.565925363e-03f, 1.590485312e-02f, 6.992844492e-02f, -4.686627071e-03f, 6.850275397e-02f, 1.413210388e-02f, -2.255331783e-04f, -4.078337550e-02f, -2.132351696e-02f, 1.529498678e-02f, 5.733998865e-02f, 3.600845486e-02f, -3.476135060e-02f, -8.161009848e-02f, 5.735813454e-02f, 1.108337417e-01f, 8.862847835e-02f, 1.416532397e-01f, 7.163906097e-02f, 7.234439254e-02f, 9.427079558e-02f, 1.407235116e-01f, 6.366521120e-02f, 9.693530947e-02f, 1.079422459e-01f, 4.278856143e-02f, 1.087143645e-02f, 8.129651845e-02f, 5.555536225e-02f, 1.516345702e-02f, 2.612613328e-02f, 1.303679589e-02f, 1.337872446e-02f, -1.001466904e-02f, -1.273757685e-02f, 8.117234334e-03f, -4.257167131e-02f, 2.288193646e-04f, 4.770000465e-03f, -5.773546919e-02f, -3.852186352e-02f, 1.485534478e-02f, 1.404901315e-02f, 1.013054419e-02f, -1.220717281e-01f, 4.554860666e-02f, 6.257475168e-02f, 1.304663420e-01f, 6.774947792e-02f, 7.838957757e-02f, 9.468781203e-02f, 1.381278187e-01f, 1.146619469e-01f, 2.784566581e-02f, 5.021987855e-02f, 2.241658047e-02f, 2.064372785e-02f, 1.990182512e-02f, 1.455464680e-02f, 1.500568073e-02f, 8.966430277e-02f, 2.558123693e-02f, 6.535468251e-02f, 6.438823044e-02f, 6.733252108e-02f, 3.711963072e-02f, 5.556072667e-02f, 6.072433665e-02f, 6.271977723e-02f, -3.199115023e-02f, -2.821778692e-02f, 1.973936707e-02f, -1.995824650e-02f, -1.782475971e-02f, -1.144877542e-02f, 3.498840332e-02f, 1.188939624e-02f, -2.397304960e-02f, 4.915854707e-02f, 1.647253186e-01f, 9.382617474e-02f, 4.921766371e-02f, 5.813894421e-02f, 3.998421133e-02f, 3.070635907e-02f, 4.850763828e-02f, 6.094199419e-02f, 2.372820862e-02f, 3.842319176e-02f, 1.011970490e-01f, 5.348993838e-02f, 5.649516732e-02f, 7.107958943e-02f, 7.382577658e-02f, 3.315355629e-02f, 1.427288633e-02f, 7.825872302e-02f, 8.783622831e-02f, -3.641149960e-03f, 5.734299123e-02f, 2.728501800e-03f, -3.230867535e-02f, 5.558765307e-02f, 6.041174755e-03f, -7.599531673e-03f, -6.745174993e-03f, 5.142284930e-02f, 3.486095369e-02f}, {4.827615321e-01f, 2.083484083e-01f, 1.942803897e-02f, -3.150365874e-02f, 4.638551269e-03f, -1.828964427e-02f, -1.924891584e-02f, 1.968148910e-02f, -1.447727066e-02f, 1.800611801e-02f, -1.032836270e-02f, -4.704606533e-02f, -3.048270568e-02f, -3.195204213e-02f, 4.690269753e-02f, 1.270086155e-03f, 2.293080278e-02f, 4.193070531e-02f, -1.705826260e-02f, -1.366554759e-02f, -3.382110503e-03f, -3.788261965e-04f, -1.815352216e-02f, 6.021220237e-02f, 4.596095532e-02f, -1.493742224e-02f, 2.782153152e-02f, -3.806202114e-02f, 4.840264097e-02f, 6.199279055e-02f, -4.508073442e-03f, -1.388564054e-02f, 4.536547661e-01f, 1.873456091e-01f, 6.757812947e-02f, 2.646986209e-02f, -5.002307892e-02f, 4.606898502e-02f, -2.203177288e-02f, 3.717969358e-02f, 3.514723107e-02f, 3.897639364e-02f, -9.252456017e-03f, 1.245360915e-02f, 2.450233151e-04f, 1.839384809e-02f, 5.472676829e-02f, 5.251101777e-02f, -9.061871096e-04f, -1.143328100e-02f, 5.121324584e-02f, 5.380386114e-02f, 3.563392675e-03f, -2.973007038e-02f, 4.720563814e-02f, -1.405103039e-02f, 5.347678065e-02f, -1.871987991e-02f, -1.817266690e-03f, -1.893490739e-02f, -3.440086916e-02f, -3.596121445e-02f, 2.512367629e-02f, 5.211722106e-02f, -2.617273852e-02f, -2.860341370e-01f, -1.040641963e-01f, -1.053142473e-01f, -1.707099564e-02f, -4.722998012e-03f, -3.427323699e-02f, -1.362627149e-01f, -1.435755044e-01f, 3.025843017e-02f, -6.237946823e-02f, -5.432258919e-02f, -2.188281156e-02f, -4.144392535e-02f, -9.240462631e-02f, -1.231981590e-01f, -6.081410125e-02f, -3.728367388e-02f, -5.070733652e-02f, -4.560584202e-02f, -3.675354272e-02f, 3.128331527e-02f, 2.844707482e-02f, -8.143670857e-03f, 2.360075526e-02f, 4.480727762e-02f, -3.892579302e-02f, -8.515621535e-03f, 7.162281126e-02f, -1.970679313e-02f, -4.309435375e-03f, 3.718424961e-02f, 7.677684724e-02f, 5.013179779e-02f, 2.880135924e-02f, -5.763905589e-03f, 5.721732305e-05f, 5.827015266e-02f, 3.311444446e-02f, 1.369692758e-02f, 2.320998535e-02f, 1.167805027e-02f, 9.437198751e-03f, -1.693752781e-02f, 3.146050498e-02f, -3.688866645e-02f, 5.277022719e-02f, -6.849456113e-04f, 4.347117990e-02f, 1.907911152e-02f, 2.998915315e-02f, 2.149847150e-02f, 4.054666683e-02f, 1.681715064e-02f, -8.097415790e-03f, -1.130407490e-02f, -7.806720678e-03f, -3.317027912e-02f, -4.171826877e-03f, 5.923651159e-02f, 3.598170727e-02f, 4.651122540e-02f, 5.373672768e-02f, 2.915326133e-02f, 2.837111354e-01f, 3.527666628e-01f, 9.985751659e-02f, 3.313300200e-03f, 3.557299078e-02f, -8.141909726e-03f, 1.536254771e-02f, -5.887772143e-02f, 5.030643940e-02f, -5.770192295e-02f, -4.028771818e-02f, 2.153534256e-02f, 1.357584447e-02f, -6.672499329e-02f, -1.361020189e-02f, -4.842260852e-03f, 2.749224566e-02f, -1.344826072e-02f, -8.262885362e-02f, -5.270204693e-02f, -6.914681941e-02f, -2.725317702e-02f, -5.574780330e-02f, 3.204452572e-03f, 8.795775473e-03f, -8.234000206e-02f, -6.413067877e-02f, -1.275496632e-01f, -6.293854211e-03f, 2.579104528e-02f, -5.848011374e-02f, -1.298008412e-01f, 7.187227905e-02f, 1.487538591e-02f, 4.837652296e-02f, 1.548279822e-02f, 5.662146583e-02f, -1.894781366e-02f, -3.182544559e-02f, 4.570773244e-02f, 5.038228631e-02f, -2.545117401e-02f, -6.109604612e-03f, -3.036204912e-02f, 2.947673015e-02f, 5.810853839e-02f, 2.430778742e-02f, 2.816487849e-02f, 4.556533531e-04f, 5.700687692e-02f, 1.682753116e-02f, -4.335696995e-02f, 3.671813011e-02f, -8.510801010e-03f, 4.467043281e-02f, -2.858666889e-02f, 4.832830280e-02f, 4.687945172e-02f, 1.053403690e-02f, -1.375993434e-02f, -1.614785171e-03f, 5.723831430e-02f, -2.321441285e-02f, 4.841565713e-02f, 1.256345361e-01f, -1.832090765e-01f, 1.431619050e-03f, -1.088427287e-02f, -1.761828922e-02f, 2.768568695e-02f, 5.294239894e-02f, -3.992188722e-02f, 5.210667476e-02f, -1.106727053e-03f, 5.708340090e-03f, 8.797392948e-04f, 1.965222135e-02f, -7.211809978e-03f, -3.675837070e-02f, 3.900752589e-02f, 2.532476187e-02f, 1.759893447e-02f, 3.305722401e-02f, -2.614663541e-02f, -4.554323107e-02f, -1.178771607e-03f, -2.544815652e-03f, 6.031183526e-03f, -1.373667456e-02f, -1.998217776e-03f, -3.586953506e-02f, 2.701080032e-02f, -4.275730997e-02f, 1.777981222e-02f, 4.210747406e-02f, 1.204798464e-02f, 1.283750534e-01f, -1.737592667e-01f, -6.105046347e-02f, -1.208941266e-02f, -3.557344526e-02f, -3.509265184e-02f, -4.336250946e-02f, -2.081025578e-02f, 1.271292660e-02f, -3.553660586e-03f, 3.206038103e-02f, -1.289672125e-02f, -8.550244384e-04f, -1.498030964e-03f, 2.152636461e-02f, -3.083937243e-02f, -1.578235254e-02f, -4.705193639e-02f, -2.105673775e-02f, -3.315231204e-02f, 1.319963112e-02f, -2.422226965e-02f, -4.874610901e-02f, -4.587405920e-02f, 1.429906022e-02f, 2.987936884e-02f, -3.824098036e-02f, -2.015998401e-02f, -1.096601877e-02f, 2.685220540e-02f, 3.200753033e-02f, 3.955871984e-02f, -3.888447955e-02f, 4.270847142e-02f, 1.153334677e-01f, 1.572496295e-01f, 1.052018031e-01f, 1.468205005e-01f, 1.152494699e-01f, 9.905271232e-02f, 1.164540723e-01f, 1.264152378e-01f, 1.260212958e-01f, 9.328773618e-02f, 1.951521263e-02f, 3.914524242e-02f, 6.508298218e-02f, 7.588437200e-02f, 1.072856933e-01f, 1.930159982e-03f, 7.586201280e-02f, 3.057786496e-03f, 5.622600392e-02f, 4.932898283e-02f, 1.820030250e-02f, 2.443939447e-02f, -8.756388910e-03f, 7.649167627e-02f, 5.967564136e-02f, 5.231633410e-02f, -2.224602178e-02f, -1.305095106e-02f, -2.107586153e-02f, 3.576227278e-02f, -6.710963696e-02f, -7.224763185e-02f, 2.845085226e-02f, 9.647396952e-02f, 1.010682881e-01f, 8.580465615e-02f, 7.473853230e-02f, 1.127194092e-01f, 9.396446496e-02f, 1.434630454e-01f, 8.014814556e-02f, 1.406249553e-01f, 1.144638509e-01f, 6.849059463e-02f, 1.097319275e-01f, 1.401022524e-01f, 5.168659985e-02f, -2.184384502e-03f, 8.016669750e-02f, 2.537333220e-02f, 4.723569006e-02f, 4.588960856e-02f, 2.626115642e-02f, 3.820976242e-02f, 3.946268186e-02f, -6.745165214e-03f, 6.771622691e-03f, 1.915925881e-03f, 2.446562285e-03f, 4.115720745e-03f, -6.078095641e-03f, 4.315944761e-02f, -6.955510378e-02f, 1.161350962e-02f, 1.032459736e-01f, 7.994334400e-02f, 1.321984977e-01f, 1.286395639e-01f, 7.151427120e-02f, 1.271838248e-01f, 6.950449198e-02f, 4.840961471e-02f, 9.169610590e-02f, 5.574308336e-02f, 5.115609244e-02f, 9.006576985e-02f, 8.161985129e-02f, 2.734760009e-02f, 8.459752798e-02f, 7.403938472e-02f, 4.314706475e-02f, 2.144928835e-02f, 1.052826643e-01f, 2.394363657e-02f, 9.169472754e-02f, 3.277257085e-02f, 1.595990732e-02f, 3.802870959e-02f, 4.816657305e-02f, 6.575438380e-02f, 9.760762914e-04f, 9.357131086e-03f, 1.721441001e-02f, -2.820181288e-02f, -5.386381596e-02f, 2.296484821e-02f, 4.496372119e-02f, 1.319745034e-01f, 1.494913995e-01f, 9.895379841e-02f, 3.112833202e-02f, 3.224760992e-03f, -6.386640947e-03f, 7.692768425e-02f, 4.702164605e-02f, 7.052300964e-03f, 4.811588302e-02f, 3.038506582e-02f, 7.256604731e-02f, 5.064707622e-02f, 5.521336570e-02f, -7.211806718e-03f, 3.530988097e-02f, 6.680112332e-02f, 6.158754602e-02f, 8.141469955e-02f, 6.628723443e-02f, 7.714085281e-02f, 3.452476114e-02f, -2.628379688e-02f, -3.050915839e-04f, 6.153703481e-02f, 1.239715330e-02f, 6.040589139e-02f, 4.286682233e-02f, -3.825490177e-02f}, {-1.156125311e-02f, -1.062631700e-02f, 8.371856064e-03f, 4.122738540e-02f, 3.474927694e-02f, -1.618425921e-02f, -4.083001986e-02f, 1.027787384e-02f, 2.271629637e-03f, 1.531346701e-02f, 9.540508501e-03f, 1.419485081e-02f, -2.757356130e-02f, -3.988534957e-02f, -3.284683824e-02f, -2.830435708e-02f, 4.735456035e-02f, 1.121919043e-02f, -4.349122196e-02f, 4.897668958e-02f, 2.871301398e-02f, 1.702004857e-02f, -5.017746985e-02f, 3.348946571e-02f, 2.182992361e-02f, 2.237687819e-02f, 3.186408058e-02f, -1.862821355e-02f, -3.312639147e-02f, -3.980271146e-02f, -2.489033714e-02f, 3.540365025e-02f, -1.874211803e-02f, -8.960482664e-03f, 1.243783254e-02f, 3.208938241e-02f, -8.454759605e-03f, -1.108028926e-02f, 3.177157044e-02f, -6.927699316e-03f, -3.870408610e-02f, -1.768111065e-02f, 4.248663038e-02f, -1.986671984e-02f, -3.884093091e-02f, -4.724822938e-02f, 2.604137361e-02f, 5.009340495e-02f, 4.338334501e-02f, 1.357884798e-02f, -9.119612165e-03f, -4.141919315e-02f, -3.026642278e-02f, -2.497920953e-02f, -4.631934315e-02f, -1.753668487e-02f, -6.926342379e-03f, 5.063279346e-02f, 3.798724711e-02f, 2.828209661e-03f, -2.329737879e-02f, 2.110974863e-02f, 8.242377080e-03f, 4.003214836e-02f, -1.274066232e-02f, -1.756327599e-02f, -2.365968376e-02f, 4.938684404e-03f, 2.614241093e-02f, -4.141122848e-02f, -2.566662431e-02f, -1.611694135e-02f, 1.444107480e-02f, 2.232228033e-02f, -3.711680183e-03f, 4.006564990e-02f, 6.710248999e-03f, 3.038213402e-02f, -4.667313024e-02f, -4.085062072e-02f, 3.607533127e-02f, -1.090739947e-02f, -3.062456381e-03f, 3.932226077e-02f, 1.453626156e-02f, 4.046363011e-02f, -2.194743603e-02f, 2.798527293e-02f, -4.798222333e-02f, -3.682747716e-03f, 6.922728498e-04f, -2.373868227e-02f, -3.499841690e-02f, -3.299395740e-02f, 3.870487586e-02f, 9.437984787e-03f, 3.470923752e-02f, 1.229517721e-02f, -4.207122698e-02f, -1.125211478e-03f, 1.534413360e-02f, 4.575365037e-02f, -2.738458104e-02f, -1.696355268e-02f, 2.790874988e-02f, -3.425566107e-02f, -3.621539474e-02f, 4.788802192e-02f, 4.064377397e-02f, -2.648923174e-02f, -1.189058460e-02f, 4.082764685e-02f, 4.917430878e-02f, -2.495275252e-02f, -1.605912484e-02f, 4.325783253e-02f, -1.864721626e-02f, 3.290422633e-02f, 2.483809367e-02f, -1.141218003e-02f, 4.009985551e-02f, -4.254670441e-02f, 4.633479565e-02f, 4.349499941e-02f, -3.032436036e-02f, 3.935749177e-03f, -4.247346520e-02f, 5.017340556e-02f, 7.908400148e-03f, -3.599656373e-02f, 2.817399334e-03f, -4.735774174e-02f, 8.792429231e-03f, -3.698513284e-02f, -4.885533452e-02f, 4.129667208e-02f, -8.240442723e-03f, -1.402066555e-02f, 3.273865907e-03f, 4.052225873e-02f, -4.318192974e-02f, 2.391881682e-02f, -1.690430101e-03f, -4.096558690e-02f, 2.171363868e-02f, 3.566081077e-02f, -4.960779333e-04f, 3.932536393e-02f, 1.244280860e-02f, -9.307940491e-03f, -1.052534580e-02f, -2.454941906e-02f, 5.929691251e-03f, 1.533034258e-02f, 1.083624829e-02f, -1.305382699e-03f, 6.232467014e-03f, -2.540813573e-02f, -3.554488719e-02f, 3.756879270e-02f, 1.320475596e-03f, -4.698034003e-02f, -1.476741210e-02f, 7.340018637e-04f, -9.590106085e-03f, 1.725956239e-02f, -3.471916076e-03f, 2.679072786e-04f, -2.576386184e-02f, 4.114939645e-02f, -4.478452727e-02f, -2.310595289e-02f, -3.673179448e-02f, -4.383838270e-03f, 2.889882773e-03f, 3.751613200e-02f, 4.588935152e-02f, 3.476206586e-02f, 2.360187843e-02f, -3.475894034e-02f, -4.263415188e-02f, -2.494929172e-02f, 2.490533330e-02f, 1.434550527e-02f, 3.118763305e-02f, 4.870845005e-02f, -1.593172736e-02f, -6.840938237e-03f, -4.059292376e-02f, -3.884733841e-02f, -3.601525351e-02f, 4.160566255e-03f, -3.096425720e-02f, -3.970678896e-02f, -9.655611590e-03f, 3.518054634e-02f, 4.423129186e-02f, 3.563806042e-02f, 6.140267476e-03f, -5.093393102e-02f, 5.101555213e-02f, -3.160406649e-02f, -4.124643747e-03f, -3.933285549e-02f, -4.111662507e-02f, 2.103203349e-02f, 4.075625166e-02f, -3.917644918e-02f, -1.843954809e-02f, -3.327077022e-03f, 2.478209697e-02f, -5.054190755e-02f, 1.616571844e-02f, -3.750472516e-02f, 4.754741676e-03f, 2.395453863e-02f, -1.649575308e-02f, -3.648553416e-02f, 3.109207144e-03f, 4.964042827e-02f, -9.776592255e-03f, 1.764394157e-02f, -2.065162174e-02f, -5.008798465e-02f, -4.844026640e-02f, -4.759866744e-02f, -3.669913486e-02f, -4.297159240e-02f, -1.357406098e-02f, -4.721789435e-02f, -4.713468626e-02f, -1.206560247e-02f, 4.636499286e-02f, 2.728338540e-02f, -5.052075535e-02f, 2.196088620e-02f, 6.416330580e-03f, -1.015787007e-06f, 2.727431990e-02f, -1.296408661e-02f, -1.197726652e-02f, -4.754684865e-02f, 1.013304666e-02f, -2.841840871e-02f, -1.017553359e-02f, 1.854797825e-02f, 3.214484081e-02f, -6.474092603e-03f, -3.095644154e-02f, 5.072391033e-02f, -2.920980006e-02f, -6.322871894e-03f, 4.227133468e-02f, 2.929143980e-02f, 2.628936805e-02f, 1.774195023e-02f, 4.276722670e-02f, -4.059832171e-02f, -1.222248096e-02f, -4.365077987e-02f, 3.893755376e-02f, 4.183281958e-02f, 1.530246250e-02f, 5.067539960e-02f, -1.880505681e-02f, -3.599294648e-02f, -3.280921280e-02f, -3.811370581e-02f, -8.341925219e-03f, 2.623264119e-02f, 1.198940817e-02f, -5.551371258e-03f, 2.653907239e-02f, -2.217375487e-02f, -3.851207718e-02f, -2.582567558e-02f, 4.750422761e-02f, 1.549078524e-02f, -2.997814305e-02f, -3.347829729e-02f, 2.787260897e-02f, 1.592185907e-02f, 6.608188152e-03f, 4.908538237e-02f, 1.991918311e-02f, -1.875943691e-02f, -3.212563694e-03f, -2.395863272e-02f, -2.486158721e-02f, -3.239383921e-02f, -3.597789630e-02f, -3.155136714e-03f, 4.686278477e-02f, -2.867703140e-02f, -2.692295052e-02f, 1.291028503e-02f, 3.439063951e-02f, 3.038282134e-02f, 2.170534804e-02f, -2.726331539e-02f, 2.632225491e-02f, -1.466938388e-02f, -4.329005629e-02f, 4.910963774e-02f, 2.194885910e-02f, -1.493190043e-02f, 1.811361522e-03f, -4.121181741e-02f, -5.486832932e-03f, -2.740263194e-02f, -1.233596634e-02f, -4.291758686e-02f, -1.188159268e-02f, -4.105376452e-02f, -4.204458743e-02f, 2.236974984e-02f, 1.274070516e-02f, -3.279348463e-02f, -4.855891690e-02f, 2.842905372e-02f, 2.513187751e-02f, -3.344776481e-02f, -2.553611249e-02f, 2.710203268e-02f, -1.952485926e-02f, 1.521233097e-02f, -5.071051419e-02f, 4.786736146e-02f, -4.581386968e-02f, 6.866335752e-04f, -8.731680922e-03f, -2.002485096e-02f, 4.179259762e-02f, -4.123341292e-02f, -6.967350375e-03f, 2.460421249e-02f, -1.640227623e-02f, 9.168996476e-03f, -3.701045737e-02f, -2.024626173e-02f, -2.718968317e-02f, 4.387621954e-02f, 4.164964426e-03f, -2.295042574e-02f, -5.017184094e-02f, 3.946101665e-02f, 4.369741678e-02f, -2.967291512e-02f, -1.136146858e-02f, 7.990993559e-03f, -2.082013153e-02f, 2.029693685e-02f, 3.301200643e-02f, -2.668788284e-02f, -8.385816589e-03f, 9.113322012e-04f, 4.343979806e-02f, 3.004240803e-02f, 3.325214237e-02f, -1.845166786e-03f, 1.562270988e-02f, 1.093461085e-02f, 1.811882108e-02f, -2.388433553e-02f, -3.431424499e-02f, -4.172010720e-02f, -1.746114716e-02f, 2.411944047e-02f, -1.885109581e-02f, -5.833609495e-03f, -4.879801720e-02f, -4.130423442e-02f, 3.211180121e-02f, -1.437726058e-02f, -4.925630242e-02f, 3.362238035e-02f, 4.829458147e-02f, 4.441258311e-02f, 1.717857458e-02f, -4.212588072e-02f, -1.695282198e-02f, 1.524127647e-02f, -5.138200708e-03f, 7.025343366e-03f}, {-1.714927144e-02f, 8.647632785e-03f, -1.813951693e-02f, -2.318337001e-02f, 4.336402938e-02f, 1.211524941e-02f, -1.918193325e-02f, -1.837991923e-02f, -3.541557118e-02f, -1.447356027e-02f, 3.934850916e-02f, 2.667368576e-02f, -3.924208134e-02f, 4.748718441e-02f, -4.032601044e-02f, 4.064182192e-02f, 2.976033464e-02f, -1.332773268e-02f, 1.387088094e-02f, -2.415420115e-02f, 4.642831534e-02f, 1.051951759e-02f, 3.393869475e-02f, 4.744169861e-02f, -7.495393511e-03f, 1.437891554e-02f, 1.787419617e-02f, -9.713690379e-04f, -3.753169253e-02f, 4.633080587e-02f, -4.897652194e-03f, -1.120546088e-02f, 3.803613037e-02f, 3.734650835e-02f, 3.748698533e-02f, -2.908562683e-02f, -1.722621359e-02f, 1.147980243e-02f, 1.517993119e-02f, 3.292250261e-02f, 2.176628448e-02f, -3.646250069e-02f, 3.710224852e-02f, 3.910293058e-02f, 3.297742456e-02f, 2.167372592e-02f, 4.183306918e-02f, 3.199162334e-02f, -3.835131600e-02f, 1.510017179e-02f, -2.754365653e-02f, -1.650792256e-04f, 1.674022526e-02f, 5.086124688e-02f, -1.422044355e-02f, 3.723591333e-03f, 4.960339516e-02f, 2.583891898e-02f, 1.115365513e-02f, -1.119508222e-02f, 4.422152787e-02f, 4.124992341e-02f, -1.487592701e-02f, 9.539571591e-03f, 3.253951296e-02f, -4.312834144e-02f, -7.423104718e-03f, -3.707595542e-02f, 4.049231112e-02f, 3.771089017e-02f, -1.895572990e-02f, -9.876894765e-03f, 4.242191091e-02f, -4.158754274e-02f, 2.383400314e-02f, -4.446364939e-02f, 2.383913659e-02f, 3.054894693e-02f, -2.158848569e-02f, 1.113031246e-02f, 9.758993052e-03f, -4.544476792e-02f, -4.475045577e-02f, 2.719412372e-02f, 2.340377122e-02f, 4.982458428e-02f, -3.219733387e-02f, -3.278627247e-02f, -2.637819201e-02f, 3.101797961e-02f, -2.901819907e-02f, -1.379247848e-02f, 4.090506956e-02f, 3.017776832e-02f, -3.144594142e-03f, -1.260803267e-02f, 1.227425691e-02f, -2.141196048e-03f, 1.843466423e-02f, -1.472665276e-02f, -4.945251346e-02f, -7.139059715e-03f, 8.057856467e-04f, 3.110017814e-02f, -2.439997531e-02f, 9.539036546e-04f, 8.995426469e-04f, -2.281807130e-03f, -3.422738612e-02f, 2.099053189e-02f, -2.340973821e-03f, -4.729370028e-02f, -4.242357332e-03f, 2.809240110e-02f, -3.495076671e-02f, 4.636621848e-02f, 3.132159635e-02f, 2.185594663e-02f, -2.288841084e-02f, -4.446907341e-02f, 3.093286231e-02f, 4.602725804e-02f, -3.290668502e-02f, 4.521350935e-02f, 3.826698521e-03f, 4.720211029e-02f, -7.516180631e-03f, -1.117249485e-02f, -4.593493044e-02f, 1.998575404e-02f, -2.464645542e-02f, 4.525068402e-02f, 4.724011198e-02f, 1.400523819e-02f, -4.314664286e-03f, 3.976830281e-03f, -2.897366323e-02f, 3.410681337e-02f, 5.742322654e-03f, 1.212682016e-02f, 2.111614868e-02f, 1.394433714e-02f, -3.305946290e-02f, 2.915694192e-02f, -4.890345968e-03f, -4.762978479e-02f, -4.835259914e-02f, 1.101930393e-03f, -2.003999427e-02f, 4.208971746e-03f, 3.188711032e-02f, 1.033853088e-02f, -2.943163179e-02f, 1.716446131e-02f, 3.443378955e-02f, 4.038087651e-02f, 2.453518473e-02f, -5.003212392e-02f, -4.737445712e-02f, -6.265134551e-03f, 1.766146719e-02f, -4.015532508e-02f, -8.923027664e-03f, 2.305487171e-02f, -2.952967770e-03f, 2.209051698e-02f, -4.082953185e-02f, 1.179926656e-02f, 7.695755456e-03f, -3.422004357e-02f, -3.233251348e-02f, -4.121989384e-02f, 3.831195831e-02f, 1.194071770e-02f, -3.093767911e-02f, 2.366779605e-03f, -6.665256340e-03f, 2.241423726e-02f, 1.418501977e-02f, -3.785437718e-02f, 1.110697724e-02f, 4.224957526e-02f, -2.388653904e-02f, -4.232778028e-02f, 4.255960137e-02f, -2.671818435e-02f, -3.276698664e-02f, -4.378453642e-02f, -1.322253235e-02f, 9.451909922e-03f, -3.125287592e-02f, 4.962561652e-02f, 3.551329672e-02f, 1.890447736e-02f, 1.672906242e-02f, -3.249889240e-02f, -1.191669423e-02f, -4.143063724e-02f, 3.709154204e-02f, -1.915623061e-02f, 9.761578403e-03f, 4.888654873e-02f, -3.540090472e-02f, -3.293112665e-02f, -2.510197833e-02f, 2.357151173e-02f, -9.859508136e-04f, 3.081949241e-02f, 3.174866736e-02f, 9.245263413e-03f, 1.711560600e-02f, -1.798557118e-02f, -7.109482773e-03f, 2.609771118e-02f, -3.316292167e-02f, -4.601318017e-02f, 4.653806332e-03f, -2.515368722e-02f, 4.378533456e-03f, -2.034220845e-02f, -3.601475433e-02f, 7.778392173e-03f, 4.458829761e-02f, 3.355735540e-02f, -3.242244199e-02f, -4.474230111e-02f, -1.389217679e-03f, 3.355446085e-02f, 8.137432858e-03f, 3.727925196e-02f, 2.580287866e-03f, 8.358180523e-03f, -1.078920625e-02f, -2.362710610e-02f, 2.262085862e-02f, 1.790489419e-03f, 1.507812645e-02f, 4.640115425e-02f, 3.627768904e-02f, -4.139553383e-02f, 4.430078343e-02f, -2.661105618e-02f, 3.169523552e-02f, 2.622601576e-02f, -1.563506550e-03f, 2.409273386e-02f, -3.574857488e-02f, -1.019292604e-02f, 4.273940623e-02f, 9.199134074e-03f, 4.243604373e-03f, -7.777905557e-03f, 4.694594443e-02f, 3.885220364e-02f, -2.645740286e-02f, 4.370585829e-02f, 3.187360242e-03f, 1.541074645e-02f, 5.393897183e-03f, 1.882931031e-02f, -8.632042591e-05f, -2.671289258e-02f, -1.841673627e-02f, 1.062152348e-02f, 4.895603284e-02f, -4.151690810e-04f, 2.751497366e-02f, 2.140471945e-03f, -2.033018321e-02f, -3.594261780e-02f, -4.815461487e-02f, -2.419689484e-02f, 2.409679256e-02f, 4.940469936e-02f, 4.912031442e-02f, 2.125774510e-03f, -2.376446873e-02f, -2.673316188e-02f, -2.673054673e-02f, -1.183202583e-02f, 4.666098580e-02f, -1.653342694e-02f, -2.495313063e-02f, 2.152073011e-02f, -1.383137517e-02f, -1.307830773e-02f, 3.231933108e-03f, -1.832856424e-02f, -2.908156998e-02f, 1.604476757e-02f, 4.380295798e-02f, -1.677285694e-02f, -2.572970279e-02f, -3.786923364e-02f, 5.941334646e-03f, -5.687310360e-03f, -6.772250868e-03f, -1.186356228e-02f, -2.204000577e-02f, -1.463083364e-02f, -2.492565848e-02f, 1.770706289e-02f, 3.662891686e-04f, -1.595432684e-02f, 1.773581840e-02f, -2.413559146e-02f, 2.017999627e-02f, -3.780185012e-03f, 4.428626969e-02f, 8.547428064e-03f, -4.980596527e-02f, -3.886290267e-02f, 3.132092580e-02f, 8.726935834e-03f, 4.537125677e-02f, 2.433039714e-03f, -1.197548397e-02f, 4.738307372e-02f, 5.064414814e-02f, 2.139123157e-02f, -4.655764252e-02f, 3.273032233e-02f, 2.424034663e-02f, -3.152922168e-02f, 4.014571011e-02f, 1.374947466e-02f, -5.104608368e-03f, -3.015544207e-04f, 3.509023786e-02f, -4.509867635e-03f, -3.662663698e-02f, -2.513800934e-02f, -3.797175828e-03f, -3.452489153e-02f, 3.266525269e-02f, -1.666102000e-02f, -7.945398800e-03f, 3.630457819e-02f, 2.725695260e-02f, -1.264707651e-02f, 2.464061603e-02f, -1.478462759e-02f, -4.164681584e-02f, -4.332574829e-02f, -3.649818897e-02f, -1.019839477e-02f, 8.827525307e-04f, -5.128741264e-03f, 1.823734306e-02f, 2.370961569e-02f, 1.463811565e-02f, -4.090117663e-02f, -4.549301043e-02f, -4.460327327e-02f, 4.667029530e-02f, 2.394881472e-02f, 4.900151864e-02f, 1.978011243e-02f, -4.984584078e-02f, 2.262467332e-02f, -4.470149055e-02f, -8.157781325e-03f, 4.080314189e-02f, -3.283005953e-02f, 3.991933540e-02f, 1.933587343e-02f, 2.779839747e-02f, 1.590363309e-02f, 1.956900116e-03f, 4.905778170e-02f, -3.546705097e-02f, 1.981705055e-02f, -8.702328429e-03f, 2.639150061e-02f, -2.332538553e-02f, -4.869747534e-02f, 3.331377730e-02f, 2.141235396e-02f, -9.518979117e-03f, 3.563714214e-03f, 1.819008775e-02f, 1.195823774e-02f, -2.925135009e-02f, -8.201818913e-03f}, {5.683779716e-01f, 1.779229045e-01f, 3.426260129e-02f, -2.324221469e-02f, -1.466294657e-02f, 1.252766605e-02f, 3.311822191e-02f, 3.263796866e-02f, -3.236280382e-02f, 2.363810688e-02f, 2.346298099e-02f, 7.217301987e-03f, 1.811683364e-02f, 2.343646251e-02f, -1.510119159e-02f, 4.552049935e-02f, -4.202599451e-02f, 5.533483997e-02f, 3.660160117e-03f, -2.656454965e-02f, 2.209763788e-02f, -3.400543472e-03f, -9.529108182e-03f, -3.858246282e-02f, 4.280297086e-02f, 3.587483242e-02f, 