#pragma once

#include <stdint.h>


/* INT8 weights, int32 bias. Scales are stored in model_int8.json. */

static const int8_t stem_0_weight[10752] = {-13, 11, 26, -35, -46, 3, -14, 41, 9, 7, -30, 42, -32, -30, -49, 12, -24, 18, 58, 46, 9, -15, -13, 50, -7, 22, -17, 33, 43, 16, -3, 25, 37, 2, -39, -19, -54, -50, -29, -4, -29, 16, -6, 11, -22, -9, -52, 17, -47, 44, -5, -37, 54, -37, 1, 31, 38, 31, 48, 5, -3, 46, -41, 56, -45, 1, -58, 24, 43, -14, 47, -23, -52, -4, 28, 2, 12, -49, -13, -40, -11, 26, 34, -55, -9, -33, 49, -42, 24, 8, 27, -55, -43, -55, 22, 11, 13, -35, -73, -42, 1, -40, 60, -38, 36, 11, 4, -28, -53, -16, -40, 6, -47, -1, -51, 25, -11, 0, -41, -48, -11, 18, 41, -19, 52, 59, -41, -12, 53, -36, -11, -50, -21, -36, -20, -18, 48, -26, -46, -10, -11, 25, -3, 17, 25, 45, 45, -50, -36, 22, -5, -15, 8, 44, 19, 15, 61, -15, -34, 50, 15, 21, 71, 1, 87, 32, 13, -39, -45, 53, 11, 9, 71, 21, 8, -15, -15, 28, -58, 15, -45, -27, -19, -8, 69, 9, 60, -26, -33, -57, -43, 18, -12, 54, -53, -32, -39, -47, 21, -12, 38, -10, -35, -22, -24, 20, 7, -36, -51, -40, -29, -11, 30, 59, -11, 7, -8, 9, 51, 49, -40, -51, 20, 0, 36, 7, -63, 5, 24, -10, 0, -27, -42, 5, -6, -50, -29, 44, 27, -16, -2, -27, 14, -45, -30, -39, 42, 31, 21, -40, 43, -27, 3, 7, 38, 2, 48, -12, 65, 8, 108, 36, 14, -11, 6, 25, -11, -15, 2, -8, -24, -54, 67, 12, 22, -24, -47, 3, 29, -9, -26, -2, 24, -21, 28, 25, 1, 22, 56, -29, 66, -10, 1, 21, -4, -46, -33, 22, -41, -40, 7, -2, 34, 33, 8, -53, 45, -42, 13, -26, 16, -32, 39, -20, 9, 32, 14, -63, -26, -58, 13, -13, 66, -31, -55, -23, 25, 27, 30, -34, 25, 54, 47, -12, 3, -13, -46, 32, 35, 19, 18, -34, 33, 45, 44, -7, 26, 35, -18, 38, -19, 35, -55, -3, -38, -56, -123, -41, -93, 12, 3, -52, -31, -22, -79, -20, -80, 5, -22, -56, -38, -2, -2, -56, 28, -63, -53, 23, 5, 33, -27, 19, -11, -46, 43, 13, 27, -38, -39, 41, -3, -27, -34, -10, -15, -43, -52, -42, -54, 43, 15, -34, 4, -42, -50, 54, 32, 57, -49, 28, 32, 59, 8, 53, -35, -32, -32, 51, -11, 29, -14, -10, 36, 14, 47, 5, -39, -57, 41, -31, 43, -19, -1, 34, -13, -39, -36, 15, -36, 13, 26, -26, 35, -32, 34, -8, -6, 29, -27, -15, 53, -17, 33, 28, 46, -31, 45, 6, 35, -39, -50, -24, -29, 9, 64, 10, -24, 20, 5, 39, 6, -50, 37, -46, 2, -31, 9, -24, -15, -11, 31, -4, 16, -39, 52, -50, 14, 21, -27, -12, 3, 59, -26, 28, 23, 37, 32, 42, -32, 6, 38, -4, -35, 21, 14, 3, 0, 35, 29, 24, -33, 31, -34, 41, 11, -19, 32, -42, 15, 54, 32, -41, -40, -10, -36, 46, -23, -13, -36, 21, 24, -6, 17, 21, 39, -15, -39, -45, 1, 46, -16, 36, 28, 20, 4, 29, -34, -67, -9, -9, -71, -60, -54, -40, 43, 53, -8, -42, 53, 40, -53, 36, -49, 36, -11, -36, -39, 52, -28, -53, 44, 23, 49, 40, 34, 3, -8, -26, 76, 15, 3, 2, -19, -32, -21, -24, -13, 51, 58, -52, -22, -45, -1, 33, 26, -21, -23, 49, -9, -29, -39, -39, 15, 43, 3, -50, -19, 25, 64, 51, 1, 33, 37, 11, -21, 39, -3, 47, -35, 40, -8, -18, -43, 52, -16, -8, 54, -13, -11, 4, -3, 24, 54, 26, 48, 41, -55, -15, -31, -32, 34, -26, -66, -127, -125, -104, -15, -59, -20, -2, -21, -4, -23, 51, -24, -87, -67, -43, 9, -66, -30, 13, -28, 27, 28, 69, -38, -52, 32, 10, 8, 75, 18, 14, -9, -52, 32, 11, -18, -48, 16, -10, 20, 53, -34, 15, -29, 20, -24, -23, 4, 22, -9, -50, -12, 38, -49, -3, -18, -22, -39, 32, -5, -48, 33, -5, 30, -11, -56, -48, -35, -56, -1, -23, 45, -27, 24, -20, -6, -24, 0, 43, 54, -56, -51, 36, -51, 45, -14, 21, -33, 8, 46, 25, 50, 1, 66, 26, 12, 6, -21, -33, -6, -24, -18, -1, 37, -41, 9, -33, -31, -75, 16, 30, 3, -21, 6, 52, 15, -22, -34, 68, 17, 53, -2, 49, -3, 3, -63, -34, -4, 17, -8, 21, 10, 13, -48, 23, 45, -3, -3, 57, -2, 56, -14, 26, 8, -39, -5, -20, -46, -42, 23, -12, 42, 35, -28, -43, 37, 27, 31, -22, -50, -50, -48, -21, 1, 0, 39, -17, 22, 48, 15, 30, -5, -42, -29, -7, 30, 52, 12, 19, -40, -42, 14, 29, -20, -5, -2, 12, 0, 21, 1, 33, 49, -10, 3, -45, 1, 40, 55, -44, -5, 57, 5, 45, -29, -11, -28, 7, -38, 40, -9, -44, 43, -11, 34, 4, 49, 3, 47, 32, -41, 17, 37, -9, 18, -10, -57, -32, -52, 37, -58, -52, 7, -27, 29, -2, -57, -48, -15, -49, -9, -20, 34, -51, -32, 8, 2, -44, 8, 3, -49, 44, 33, -10, -34, 68, 24, -32, -19, -47, -68, -51, -15, 53, -41, 0, 43, 35, 47, -7, -23, 31, 41, -37, -16, 39, -4, -2, -13, -2, 4, -45, -7, 33, -9, 40, -31, 42, -45, 10, 15, -20, -83, -4, 19, 48, -15, -16, -3, 35, 32, 2, 0, 85, -12, 41, 7, 44, -20, -30, 31, 15, 10, -17, 53, 0, -28, 41, -47, 15, -49, 14, 27, -24, 29, 53, -20, 27, -1, 0, 27, -37, -1, 23, 21, -7, 26, 36, 5, 24, 12, 7, 17, 9, 55, 19, -10, 8, 13, 60, 17, -28, -26, 5, -4, -8, -33, -18, 38, -48, 41, 53, 27, -40, -13, 13, 0, -5, -41, -11, -48, -42, -19, -1, -22, -12, -13, -38, 60, 56, -9, -38, -16, 32, 44, -3, -40, -51, 48, 30, -46, -8, 27, -18, 45, -29, 27, -30, -18, -39, -20, 25, 45, 23, 36, 6, 53, -31, -22, 55, 50, -40, 30, -24, 28, -9, -18, 32, -39, -43, -8, 60, -9, -26, -3, 43, 8, -2, 21, -46, 46, -23, 32, 3, -13, 36, -15, 31, 44, 4, -42, -32, 3, 9, 33, -5, -58, 15, 24, 15, -25, 30, -30, 36, 10, -53, 9, 7, 49, -43, -27, 28, 10, 38, 29, 41, -25, -20, -40, -29, -8, 1, -38, -34, 2, -23, -22, 49, -65, 49, 51, 20, 22, 17, 39, 3, 15, 48, 2, 15, 0, -81, -45, 27, -19, 74, -16, 57, 10, 11, 3, -30, 33, -42, 9, -55, -33, -14, 1, -71, 27, -16, -52, 11, 16, -1, 15, -3, 2, 12, -31, 59, -24, 46, -2, 11, 56, 51, 25, -13, -50, 16, -27, 51, -20, -42, 22, 8, 57, -48, -10, 31, 19, -12, -46, -42, -1, 27, 29, 23, -33, 1, -38, -32, 47, 42, -10, -11, 38, 30, -5, -26, -30, -33, 47, -28, 31, 59, 0, -14, -4, -15, 45, 44, 26, -38, -10, -65, -54, -67, 40, -15, -18, 35, 18, -38, 13, -9, -51, 30, 33, -40, 43, -32, -52, -6, -37, -43, -36, -37, 48, -49, -47, 41, 17, 14, 59, 19, -56, -43, 5, -55, 22, -12, -28, -33, 2, -45, 38, -44, 11, 14, -51, 1, 37, -52, 37, 44, 13, -20, -33, 19, -53, -54, 36, 19, 1, 48, -24, 48, 31, 34, -33, -57, -50, -43, -8, -8, 5, -35, 20, 38, 1, -20, 49, -49, -56, 12, 2, 51, -52, 7, 40, 11, 18, 42, 27, 26, -39, -19, -12, 18, 52, -10, 42, 1, 27, -55, 1, 37, 7, -63, 39, 17, 30, 9, -47, 8, -25, 23, 6, 81, 24, -34, -17, -33, 25, -1, 23, -3, -5, -25, -32, 9, 25, -31, 33, 52, 37, -30, 33, -41, 45, 7, 9, 4, -15, -39, -3, -44, -48, -12, 8, 56, 50, -36, 24, -23, -51, 29, 52, 20, -13, 48, -33, 2, 57, 45, 31, -43, -44, -9, -48, -20, 6, -23, 52, -21, 27, 50, -22, 45, -26, 10, 51, 53, -32, 29, -12, -30, 55, -4, 36, 1, 39, 4, -46, -16, -6, -25, -7, -16, 45, 26, 19, -8, -26, -47, -48, -5, -15, 36, -20, -26, 1, 54, -16, -9, 0, 9, -33, -10, 64, 72, 37, 58, -28, -18, -56, -9, -16, -26, 62, -11, 52, 13, -14, 44, 35, 3, 25, -45, 53, 38, 45, -59, 13, -53, -33, 40, 35, 16, -27, -26, -20, -12, 10, -11, 4, 32, -56, -28, -35, 80, 2, -1, 12, 74, 66, 10, -29, -59, 34, -51, -4, 27, 48, -37, 34, -2, 40, -54, 27, -35, -40, 18, 7, -23, 44, -30, -34, -52, -28, 32, 88, 97, 96, 91, 74, 50, 6, 3, -14, 66, 6, 11, -31, 66, 25, -5, -10, 73, 33, -55, -58, 0, 40, -28, 38, -16, -37, -51, -73, -65, -48, 20, 52, 45, 30, 8, 29, -31, -31, -36, 8, 29, 44, 14, 0, 45, -49, -21, 59, 4, 15, -40, -44, 10, 4, 3, 26, 34, -48, -37, -12, -41, -55, -14, 3, -44, 41, -28, 30, -48, -7, 26, 15, -41, -3, -26, 4, 49, 43, 21, 24, -24, -19, -19, -22, 1, -33, -42, 38, 14, -46, 9, -36, 1, -40, 48, 69, 35, 60, 69, -2, 25, -22, 53, 51, 47, 12, 3, 41, 81, 15, -7, 36, 32, -35, -20, 45, -20, -32, -34, 3, -40, -35, -48, -1, -34, 50, 25, 37, 27, 44, -28, -37, -10, -17, -10, -5, 44, 27, -42, 25, -38, 29, -25, -17, -50, 40, 26, -8, 32, 28, 33, -35, 7, -54, 18, 48, 12, 2, 14, 19, -39, 47, 29, 19, -57, 0, 49, -26, 6, 18, 32, -40, 27, 34, -9, 38, 31, -1, 7, -18, 51, -29, -31, -5, 28, 18, -22, -31, 23, -8, -77, -26, -31, -90, 1, -69, -20, -62, 20, 37, -40, -12, -3, -35, -32, -62, 1, -1, 27, -10, 25, -49, -49, -52, 52, -60, -5, 19, 13, 17, 33, -4, -33, 82, -25, 0, 45, -36, 18, -23, 17, -32, -8, -21, 19, -44, -31, 52, -23, 40, -2, 36, 47, 11, 19, 48, 12, -42, -6, 8, 28, -14, -40, 36, -42, 64, -25, 40, 29, 9, 22, -31, 4, -43, 42, -5, -48, -43, 8, 9, -4, -39, -48, 0, -14, -52, -19, 35, 19, 38, -45, 42, -3, -48, 39, 7, -26, -71, -100, -74, -31, -15, -24, 24, -87, -11, -69, -73, -27, -79, -23, -71, -39, -2, -88, 11, -65, -36, -14, 13, 49, 14, 16, 67, 57, 56, -17, -43, -50, -32, 26, 7, 6, -40, -45, -15, 23, 40, -38, 43, -17, -41, 30, 57, -49, -12, -25, 53, 2, 13, 53, 30, -43, -27, -34, 53, 19, 28, -16, 32, -7, -22, -31, 13, -29, 37, 31, -25, -42, 30, 28, 21, 12, 8, 41, 31, -51, -8, 51, 31, 59, 8, -3, -10, 2, -2, -34, 20, 14, -14, 19, -23, 30, -10, 42, -22, 63, 40, 42, 45, -33, -14, 6, 36, 53, 24, 50, 6, 19, 42, 34, -1, 32, -6, 21, -7, -12, 28, -13, 29, 18, 12, -16, 17, -59, -2, 37, 45, -11, -41, -9, -10, -4, 5, 8, -23, 36, 20, 15, 16, -23, 3, -23, 8, 19, -14, -36, 34, 60, -45, -36, -15, -7, 2, -2, 41, -21, -5, -20, -5, -10, -8, 8, -34, -43, 15, 50, -31, 27, 59, 58, 1, 54, 52, 13, 34, 44, 3, -8, -35, 40, -15, 58, 7, -11, -8, -22, -23, -6, 30, -18, -44, -32, -4, 51, 5, -43, 16, 30, 38, -46, -13, 28, 32, 19, 40, 14, 41, 27, 34, -3, -9, 10, 5, 34, 6, -22, 40, 53, 34, -2, 36, 50, 39, -2, -3, -46, -28, -34, -4, 60, 16, -34, 31, -44, 50, 39, 45, -35, -3, -43, -55, 42, 32, -38, -42, -15, 9, 28, 26, -13, -10, 13, 42, -24, -43, 60, -10, 28, 36, 53, -12, -9, 32, 32, 17, 51, -37, -46, 15, 28, -5, -30, 47, 32, 1, 28, -9, 34, -41, 39, 27, 34, 31, 33, -41, 8, -54, 14, 0, 6, -82, -83, -71, -16, -13, -79, -12, -7, 12, -10, -7, -31, -15, -63, 43, 38, 44, -23, 21, 37, -35, 38, 38, -31, 14, -17, 51, 80, -30, -3, 82, -25, -5, -56, -21, 2, 37, 56, -7, -39, -3, -22, -35, 34, -15, 21, -11, 33, -54, -25, 8, 56, 58, -13, 57, 50, -48, -13, 10, 72, 3, 27, 9, 10, -43, -34, -25, -29, 38, -41, -40, -21, -42, -49, 48, 22, -44, 19, -17, 7, -4, 24, 23, -21, 6, -16, -33, 20, -33, -6, 111, 26, 117, 101, 75, -32, -27, 50, 3, 56, 36, -62, 7, -7, 22, 63, 9, 4, 23, -34, 61, -32, -31, -77, -10, 7, -100, -6, -51, 14, 56, 57, 59, -51, 46, 22, -3, 9, 8, -17, -2, -31, 59, -14, -47, -32, -10, 43, 7, 32, 24, 41, 47, -43, -49, 49, -10, 20, -16, 34, 52, 41, -4, 25, -11, 40, 21, -29, -31, 0, 7, -17, -46, 32, -13, -3, 52, 13, -17, -43, -16, -34, -9, 51, 9, -38, -24, 55, -3, -26, 34, 33, -5, 8, 62, 1, 0, 12, 39, 83, -20, -4, -52, -51, -13, 23, 87, -11, -53, -25, 36, -44, -23, 73, -35, 11, -38, -14, -24, -48, 5, -32, -32, -11, -5, -21, 27, -30, 57, -29, -48, 9, 29, 4, -3, 51, 13, 9, -5, -31, 21, 47, 23, 43, 40, 43, 47, -10, -52, 35, -1, -9, 38, -60, 0, -16, 38, 42, 36, 19, 46, 41, 39, -11, -28, -21, -26, 24, 22, -11, -28, -56, 26, 0, -8, -11, -24, -14, 17, -5, 15, -32, -33, -13, -33, -59, 9, -17, -34, -25, -38, -45, -103, -31, -124, -102, -28, -68, -30, -76, 33, -25, 86, 113, 63, 32, -49, -52, 4, -2, -39, -26, -35, 35, -39, 71, -20, 16, 7, 21, 37, -15, -32, 21, 38, -33, 44, 36, 4, 32, -37, -49, 20, 2, 50, 51, 26, -15, -17, 36, -14, -51, 52, -39, 48, -40, 43, 4, 55, 48, 51, 48, -29, 0, 37, -31, 53, -38, -41, -19, -11, 55, 40, 31, -27, -17, -47, -34, -11, -11, 20, 63, 51, -16, -2, -26, -40, -33, 25, -41, 50, -14, -43, -44, -50, 40, -35, -64, -41, -20, -89, -110, -42, 20, -14, 49, 92, 102, 87, 12, 11, -61, -60, -66, -23, 55, 14, 3, -41, -61, -14, 34, 18, 8, 39, -71, 5, -19, 26, 2, -40, -23, 38, 9, 26, -49, 45, 36, -28, 18, -19, 54, -48, 3, 51, 33, -11, -10, -8, -28, -31, 24, 61, -16, 30, 34, 34, -20, -38, -2, 59, 45, -19, 12, 10, -40, -15, 3, 11, 18, 6, -33, 57, -35, -29, 52, -48, 31, -10, -2, 18, 4, -50, -30, 8, 27, -41, -12, -18, 39, -26, -32, 65, 48, -41, -48, -46, -68, -33, 37, 1, -97, -61, -75, -12, -68, -72, 23, -28, -67, -19, -24, -54, -40, 5, 3, -43, 62, 9, -44, -2, -4, 55, -16, 46, -35, -38, -34, 42, 35, 55, 15, -21, 53, -2, -19, 2, 0, 22, 17, 57, -5, -3, -38, 11, -45, -9, -43, 22, 27, 10, -40, -10, -40, -32, 36, 28, 8, 34, -38, -20, -44, -39, 3, 59, -36, 48, 50, -12, 5, 56, -32, -1, 51, 9, 58, 18, 53, -29, 22, 31, 17, -14, -33, 1, 23, 26, 8, 45, -1, -38, -40, 4, 51, 3, 40, -29, -46, 19, -6, -23, 20, -62, -21, -19, 33, 42, -24, 10, 13, -57, 38, -37, -9, -7, 41, -36, 6, 37, 46, 34, 44, -12, -41, 7, 44, -31, 47, -4, -40, -9, -49, 21, -53, -23, 15, 9, -14, 35, 54, 7, -45, 58, 40, -48, -16, 51, -35, 39, -41, -1, -34, -8, -14, -33, 44, 5, -52, 31, 22, -1, -42, 49, -58, -58, -32, 20, -19, -58, -26, -25, -32, -7, 54, -42, -54, 16, -18, 3, 46, 17, -20, 53, 22, -23, 0, 69, 22, 43, 78, 41, 18, -20, 101, 87, 26, 22, 8, 23, 26, 86, 0, 38, 46, 38, -22, 57, 7, 23, -37, 10, 41, -35, -8, -56, 28, 25, 2, -74, 53, 59, -5, 65, -35, 28, 6, -5, 28, -31, -13, -30, -11, -27, -4, -32, -46, 24, -18, 15, 1, -22, -28, -7, -13, 7, -7, 2, -16, 46, -24, 22, -21, 3, 24, -5, 5, -15, 31, -24, -4, -17, -28, -1, -4, 10, 11, 27, 56, -20, -21, -32, 33, 57, 17, -15, 39, 28, -34, 34, 17, -8, 42, 54, 18, 2, 43, 17, -15, 50, -7, 21, 53, 50, -67, 6, 32, 15, -17, 37, 50, 11, 0, 38, -48, 42, -8, -39, 39, -75, -42, -43, 0, 44, 11, 28, -2, 36, -14, -10, 27, -24, -11, -42, -44, 39, 1, 58, 41, -7, -57, 9, -29, -44, -34, -5, 48, -10, -35, 48, -40, 5, 49, 0, 7, -31, -5, 36, 9, 14, 15, 73, 26, 7, -34, 12, -23, -61, 21, -24, 28, 37, -39, -22, 25, -24, -34, 28, -42, 55, -45, 27, 39, 59, -9, -43, 11, -44, 48, 27, 7, 81, 39, 53, 39, -53, 40, 20, -16, 8, -35, -18, -52, 52, -28, -4, -15, 65, 20, 9, -9, -5, -29, 33, 21, 13, -21, 16, -55, -43, 25, -50, -20, 19, 24, 3, 19, -16, 38, 31, 43, 5, -32, 29, 49, 52, 36, -3, 36, 42, 17, -33, -30, 52, 0, -17, -24, -41, 51, -43, -1, 8, -59, -57, 15, 20, 46, 4, 5, -6, -53, 57, 4, 26, 18, 46, 52, -30, 39, 22, -1, 23, -4, -42, -38, 49, -7, 8, 5, -13, -43, 63, -11, -25, 56, 45, -9, -17, 38, 44, 2, 37, 54, -24, 55, -22, 17, 57, 52, 11, 30, -9, 19, -25, -25, -8, 20, -1, -13, 40, 57, -24, -22, 40, -49, 29, 5, -17, 4, 36, -52, -34, -12, 15, 37, 42, 65, 31, 8, 47, 16, -4, 37, -44, 60, 12, 46, 27, 0, -38, 6, 55, -43, -46, 31, -39, 40, -31, 43, -26, 54, 22, 29, 40, -15, 45, 45, 82, 21, 14, -23, -13, -37, 61, 7, 13, -23, 52, 25, 50, 33, 58, 0, -51, -43, -37, -50, 29, -3, 16, -22, -50, 1, 18, -26, -16, -29, 8, 2, -4, -20, 46, -42, -51, -20, -7, 14, 53, -55, -76, -17, 37, -12, -1, 18, -45, 8, -45, 40, 41, 40, -89, 62, -4, 63, 28, 63, 59, -19, 54, -45, -21, -15, 15, -27, -17, -11, 45, -28, 32, 37, -34, 9, -18, -32, 41, -56, 9, 35, 16, 34, 46, -50, -70, 19, 13, 61, -27, 46, -11, -49, -14, -39, -17, -24, 35, -32, 1, -19, 1, 13, -25, 1, -40, 29, 43, -51, 7, -20, 39, 38, -28, -20, -8, 16, -89, 39, 0, 71, 80, 89, 49, 13, 1, -9, 21, 40, -5, 2, 46, 36, 8, -97, 8, -33, 41, -52, -2, -64, -13, -30, -11, 39, -55, -43, -16, -1, -42, 33, -36, -40, 43, -7, 22, 14, -43, 29, -48, 10, 38, -30, 27, -8, 6, -29, 47, 54, -48, 51, -17, 5, -13, 45, 55, -37, 9, -18, 0, 34, 36, 27, 13, -34, 62, -20, 6, -26, 46, -35, 56, 5, 56, 7, 14, -23, -30, -45, 19, -46, -29, -16, -1, 47, 47, 12, -20, -49, -39, 49, 26, 30, -22, -2, -21, 40, -30, 31, -51, 19, 26, -7, -11, -14, -16, -15, 43, 13, -52, -51, 48, 27, 42, -46, 52, 34, -12, -8, 38, 19, 44, -31, -37, -26, 10, 39, 44, 40, -47, 28, -32, 31, 22, 67, 7, 19, -26, 60, -10, 45, 33, 65, -28, -8, 53, -39, 47, -16, -19, -13, 10, -6, 57, -22, -14, 39, 4, -33, 38, 51, 50, 33, -15, -19, 41, 60, -25, 5, 47, 34, 10, -40, 51, -2, 15, 17, 45, -10, -19, -18, 50, -47, 2, 17, 20, 24, 16, 20, -11, -62, -78, 21, -66, -33, 0, 40, -9, -70, -3, -1, -2, 13, -35, 5, 9, -19, -57, -30, 11, -20, 7, -40, -35, -28, -16, -34, 27, -41, -26, 17, -25, -49, 30, 27, 36, -5, -31, -59, 10, 1, 25, -20, -35, 0, -41, 35, -15, 13, -44, 4, 29, -1, 21, -17, 34, -26, 16, -3, 22, -29, 3, 45, 36, 5, -51, 23, -12, -41, 36, -26, -16, 17, 8, -1, -26, -1, -46, 23, -40, 32, 55, -30, -48, 3, -11, -33, 45, 15, 51, 14, -48, -45, -36, -10, 81, 44, 37, -46, -28, 27, 16, 39, 13, -30, 36, 66, 70, 61, 48, 46, 34, -17, 63, 50, 38, -41, 37, 63, 34, -9, 52, 19, -1, -37, -17, 39, 26, -22, 36, -36, 38, -54, 22, 28, -36, -16, -27, 3, -55, 34, 20, -54, -21, 25, 28, 0, 8, 35, 49, 34, 18, 37, 35, 23, 29, 7, 15, -22, -68, -15, -2, 22, -23, -2, 19, 40, -51, 3, 35, 3, 38, -14, 45, 15, 50, -3, -5, -56, 0, -1, 37, 37, 22, -53, -52, 10, 44, 28, -27, -20, 35, 23, -40, 44, -18, 50, 47, -47, -29, 24, 47, -3, 31, 3, -8, 55, 53, -8, 41, 2, 5, 7, 15, -6, 54, 11, -45, -6, 54, 26, 11, -3, 18, -40, -38, -46, 17, -19, 32, -15, -28, 23, 36, 41, 20, -18, 22, 35, -16, -37, 6, 13, -25, 57, -4, 9, 16, -10, -12, 6, -22, 59, -32, 37, -58, 45, -22, 45, -5, -4, -9, 0, -41, 18, 24, 2, -20, 49, -36, 44, -46, 31, -26, -39, -22, 37, 25, -39, 32, -39, 57, 3, 36, 9, -14, 25, 4, -18, 32, -5, 6, 16, -42, -13, 46, -23, 4, -50, 43, 36, 55, 21, -50, -10, 1, -29, 49, -9, 21, -31, -22, -3, -6, -38, -35, 46, 9, 2, 33, 25, -14, -15, 53, 35, -6, -49, -26, -8, 30, -28, -8, 33, 9, -32, 17, -14, -32, 3, 5, 58, 36, -9, 53, 43, -32, 18, 25, 29, -5, 28, -1, -52, -38, 45, 22, -7, -18, -25, 10, 42, -7, 32, 46, -45, -30, 14, -23, 41, -8, -41, -47, 31, -42, -3, 43, 55, 16, 19, -4, 34, -5, 18, 0, 11, -20, -15, 38, 17, 31, 36, -31, -52, 53, 35, 20, 34, 31, -24, -27, 16, -4, -31, 51, 1, 23, -52, 28, 33, 33, 15, -16, -42, 25, -53, 4, 73, -10, -62, 34, 39, -3, -40, 41, 0, 14, -34, 44, -55, 7, -4, 27, -23, 50, 42, -19, -28, 12, -4, 30, -1, 13, 25, -35, 43, 53, -45, -32, 62, 13, -58, -56, -26, -8, -56, 9, -13, 2, 26, -22, -29, -32, -29, 46, -52, 30, 10, 35, -3, 31, 41, 51, -45, 13, 55, -29, -27, -10, 9, -84, -47, -49, -39, 52, -4, -69, -19, -23, -38, -80, -71, -38, -94, -91, 10, -22, -6, -58, -58, 17, -30, -74, -67, -54, 11, -74, -66, -13, -55, 31, -2, -31, 0, 43, -12, 35, 32, -23, -38, -31, -5, 32, 53, -15, 22, 52, 52, -19, 41, -37, 51, -19, -31, 16, -40, 46, -43, -37, 37, -13, 6, 37, 16, -5, -21, 19, -27, 1, 30, 17, 30, -18, 9, 31, -23, 0, -49, 16, 13, 2, 34, -21, 42, -14, -38, -45, 51, -7, -18, 24, -9, 5, -40, 55, 25, -15, 13, -37, 51, -5, 24, 58, 0, -15, -41, 21, 23, 7, 4, 5, -31, 56, -32, 0, 46, -11, 36, 18, 56, 18, 34, 52, -54, 44, -52, -1, -15, -19, 7, -17, 34, 26, 42, -59, 18, -12, -44, 39, -52, -42, 30, 22, -30, -3, -16, -9, 35, -8, 32, -33, 18, -25, -28, -3, 32, -42, 62, 31, -2, -25, -58, 24, -62, -18, 1, -55, 10, 22, 44, 6, 41, -5, 26, 46, 19, -3, -2, 12, 30, -25, 8, 9, -6, 48, 25, -8, 7, 41, -26, -10, 4, 14, -6, 61, -19, -45, 48, -3, 29, 1, 45, 29, 23, 19, 32, 4, 37, -29, 22, 21, 0, 27, -24, 50, 16, 6, -34, -28, -24, -20, 45, 2, 43, -14, 19, -18, -14, 42, 13, -35, 54, 27, 24, -12, 2, 39, -12, -45, 31, -14, -20, -17, 32, 51, 24, 36, 2, 7, -33, -40, 48, -10, 45, 46, -10, 46, 11, 2, 50, 2, -18, 47, 58, 2, -43, -19, 7, 4, 25, -33, -36, -21, -1, -47, -11, 4, 22, -3, -32, 38, 2, 21, -48, 24, 37, 44, 33, -23, 26, -16, 6, 70, 31, 24, 9, -3, 70, 26, 4, -3, -46, -62, 45, -51, 61, -26, 69, 41, 6, -34, -1, -34, -21, -8, -17, 30, 17, -71, -60, -21, -28, -20, 36, -46, 11, -11, 0, 11, -33, -15, -43, 2, -46, 47, -21, 13, 40, -13, 44, -36, -7, -48, 35, 4, -15, -2, -1, 20, 16, 5, 26, 31, 21, -25, 3, -39, -20, 2, 14, 13, -23, -42, 26, -2, -26, -7, -49, -51, 29, -45, 9, -45, -51, 25, -45, -30, 32, -44, 53, 40, 27, 42, 56, 25, -26, 76, 0, 26, 70, 60, -29, -19, 19, 30, 4, 64, 20, 65, -55, 18, 69, -13, -1, -18, -40, -6, 33, 36, 26, 15, 49, -12, -21, 22, 22, 30, -36, -30, 2, 5, -29, 56, 37, 24, 29, -21, -30, -31, 38, -32, 42, -11, -7, -42, -1, 55, -44, 33, -49, -6, 21, 12, 46, 5, -28, -43, -12, -58, -23, 32, 75, 49, -32, -27, 49, 56, 19, 0, 10, -33, 18, 4, 34, 4, 37, -6, -7, -48, 48, 54, 33, -19, 3, -56, 32, 48, -39, -41, -27, -34, -26, 73, 20, 86, -3, -40, 31, 54, 40, 7, 53, -30, -5, -9, 44, 40, 22, 16, 31, -96, -10, 106, 56, 35, -27, -26, 16, -59, 2, -61, -47, -6, -34, 52, -36, 11, -19, -17, -44, -6, 55, 45, -12, -23, 53, 46, 5, 20, -34, 59, 19, 23, 36, 40, 51, 20, 29, -24, -28, -25, -37, -16, 26, 39, 48, -49, 47, 24, -7, 46, 41, -16, 1, 42, -50, 40, -45, -52, -3, 28, 10, 28, -15, -22, 18, -43, 0, 36, 51, 31, 48, -44, -26, -27, -18, -27, -1, 30, -16, 14, -29, 13, 2, 15, 24, 38, -32, -23, -40, -8, 44, 46, 11, 33, 27, 9, 35, -58, 21, 45, 15, -30, -46, -18, 58, 28, -34, 10, 30, -11, 36, 29, 55, -54, -46, -47, 46, -41, 6, -33, -13, -40, 55, -17, -3, -15, -51, -39, 24, -28, 45, 19, -19, -47, 40, -23, 44, -48, -42, 60, -25, 7, 26, -37, 51, 38, -1, -22, 35, -10, -41, 39, 50, -38, 36, 31, 14, -45, -2, 6, -4, -30, 32, 47, 31, 52, -52, -41, 51, 34, 11, -1, -37, -4, -10, -93, -60, -99, 18, -11, -19, 0, -47, -66, -39, -51, 18, -5, -48, 36, -1, 19, -33, -56, 45, -33, 36, -30, 3, 33, -19, 51, 3, -8, -37, 3, 15, 48, 15, -2, -40, 55, -42, 2, -13, -36, 55, 48, 27, 27, 27, 1, 20, 12, -13, 16, 7, 3, 35, 49, 27, 38, 24, 22, -1, 16, -42, -19, -31, -36, -4, 27, -19, -23, 32, -26, -21, 9, 23, 32, -24, -19, 26, -4, -38, -13, -36, -50, -25, 3, -41, -28, 34, 21, 17, 36, -16, -25, 20, -39, 30, -41, -10, -33, -19, -22, -13, -24, -22, 39, 4, -45, 20, -45, 31, 8, -8, 38, 19, 18, 66, -8, 32, -44, -40, 9, -47, 3, 37, 34, -19, -30, -14, -46, 6, 6, 23, -30, -38, 39, -10, 47, -41, -34, -8, -40, -29, -36, 28, -1, -49, 21, -2, 44, -35, 56, 26, -14, 29, -16, 1, -37, -45, 55, -9, -50, -55, -11, -34, 16, 1, -48, -16, -39, -33, 52, 41, 27, 37, 53, 5, 53, -39, -12, 44, 47, -8, 12, 54, 5, 11, -50, 7, 77, 17, -13, -8, -14, 56, 56, 94, -35, 12, -22, -69, -12, -41, -4, 16, -8, 37, -52, 38, 37, 5, -47, 37, -46, 10, -57, 48, 10, -25, -33, 5, 60, -25, -7, 53, 2, 51, 42, 31, -17, -57, -20, -19, -54, -5, -10, -56, 37, -40, -10, 14, 0, -27, 44, 46, 32, 19, 20, 56, 41, 38, 41, 9, -40, 14, -36, 41, -37, -12, -4, 12, -2, -39, -56, 14, -26, -3, -27, -29, -3, 44, 46, -55, 36, -40, -51, -15, 8, 13, 24, -43, 4, -26, -40, -11, -9, 51, 56, 19, 50, 22, 47, -4, -9, -17, -59, 25, 2, 9, -34, -76, 4, 32, 5, 2, -19, -23, 60, 13, -34, -64, -5, 5, -56, 2, -69, -32, -10, -60, -48, 47, -22, 13, -48, 14, 29, 24, 19, 3, -16, -37, 10, 33, -14, -32, 56, -31, 58, -18, -26, 26, 25, -8, -23, 30, -48, -11, 30, 16, -42, -20, -19, -44, 36, -12, 14, 29, 8, -1, -18, 3, 12, 13, -35, -16, 29, -11, -26, 7, 54, 3, 32, 28, -6, 54, -18, 15, 35, -24, 25, -44, -3, -1, 1, 48, 48, -17, -28, 6, 8, -13, 52, -26, 52, 26, -31, 31, -18, 36, -13, 13, 0, 33, 60, 42, 9, -36, 62, 6, -25, -42, 42, 4, -52, -21, 5, -58, -16, 33, -14, -40, 15, -14, 33, 9, 30, -19, -36, 25, -16, 37, 4, 34, 22, 37, -26, -35, 18, 11, 20, 22, 29, 20, 41, 9, -55, 28, 15, -1, 40, -30, 9, -2, 43, -33, 4, -45, 3, 46, -50, 13, 31, 15, -5, -22, -34, 14, -31, -31, 53, 7, 5, -21, -11, -4, -18, 36, -12, 11, -32, -15, -40, 15, 45, 11, -42, 49, -2, 53, 12, -38, 41, 40, 42, 5, 39, 31, 27, -42, 28, 9, -27, 22, 24, -33, 1, 14, -29, 40, -61, 11, -60, -48, 32, 10, 25, -10, 27, 38, -22, 6, 6, -34, 7, -10, -13, -13, -38, 46, -17, 25, 6, 8, 55, 57, 43, 37, -46, -12, 19, -32, -32, 15, -11, 7, -44, -30, 7, 24, -47, -24, -36, -37, 53, -23, 23, 5, 29, 33, -5, 52, 2, -25, 42, 50, 48, 20, 27, -38, 61, -18, -36, 14, -41, 2, 7, 29, 58, 36, -17, 20, 53, -19, -4, 27, 38, -18, 8, 29, 46, -34, 32, -2, 56, -27, -42, -16, -2, 44, -4, 8, -4, 2, -18, 53, 31, 17, -5, 41, -37, 13, 18, -67, -33, -10, 47, 61, -36, 27, -42, -43, 21, 63, 28, 5, 26, 64, -43, -17, -34, -33, 55, -43, 20, -24, -42, -18, -54, 37, -27, 40, 8, -28, 43, 34, -38, -8, 61, -6, 7, 50, 39, 63, -37, -7, 62, 33, -19, 44, -30, 65, 0, 38, -4, 29, -30, 40, 31, -42, -34, -34, 12, 13, -51, -27, -18, -35, 24, 0, -37, -2, -55, -46, -9, 38, 26, 11, 48, 2, 42, 47, 3, 63, -40, 10, 34, 67, 2, 10, -22, 46, -62, 23, -20, 56, 36, 21, -40, 5, 34, 8, 63, 30, 60, -38, -18, 2, 6, -19, -30, -6, -11, -20, -20, 48, -30, 27, -5, -45, -5, -7, 34, -7, -9, 21, 53, 2, 30, -28, -39, -35, -37, 2, 35, 57, 53, 9, 53, -43, -47, 39, 4, -30, 28, 28, -27, -2, 28, 8, -40, 33, 24, 54, 25, -12, 14, 66, 11, 58, 11, 50, -29, 18, -35, 63, 25, 61, 31, 38, -42, -21, -12, 49, 30, 59, -28, -43, 48, -31, -6, -18, 12, -21, 0, -10, -22, 40, 19, 10, 60, 24, 25, -26, -6, -57, -17, -31, -26, 21, 29, -13, 54, -46, 54, 37, 46, 14, -40, 49, 44, 53, -48, 50, 52, -50, -38, 23, -25, 35, -14, 75, 19, -2, 26, 10, -21, -26, 12, 49, -25, 47, 1, -28, -19, -15, -35, 3, 44, -47, -28, 45, 48, -48, 9, -2, -32, -4, 2, 48, 24, -5, 42, -8, 7, 5, -67, -13, -50, -40, 36, -51, -57, 8, -34, -36, -34, -22, -64, -24, -29, 42, -16, -17, -39, 12, 23, 39, -47, -10, -2, -55, -40, -29, -16, -17, -13, -3, -20, 19, 18, 9, -38, 29, 3, -8, 57, 58, 56, -39, 41, -25, 1, -19, -20, -34, 54, 56, 12, -37, 7, -21, 45, -10, -43, -30, -55, 19, -35, 4, 39, -39, -29, -28, -19, -4, -16, 15, -42, 27, 29, 7, 22, -19, 52, 50, 54, -41, -12, 39, 4, 42, -38, 31, 15, 24, 15, -42, 29, -2, 21, 26, -34, 55, 16, 33, 28, 8, 61, 3, 30, 4, 7, -4, -17, -4, 58, 25, -42, 12, 54, -26, 3, -14, -13, -4, -5, 29, 29, 22, -12, -18, 21, -5, 21, -20, -14, 59, 22, 7, 45, -28, 53, -34, -45, -39, -1, -3, 32, 63, -9, 0, 16, 8, -46, -20, -1, -11, 3, -47, -50, -38, -16, -34, 42, 29, -31, 15, 44, 75, 5, -38, -36, 55, 52, 28, 5, 3, -21, 16, 50, 8, 50, -47, 32, 53, -36, -39, 0, 49, 3, -25, -17, -24, -14, -21, 35, -18, 64, 75, 18, -6, 0, 14, 57, 74, 21, 13, 16, 66, -6, 60, -8, -8, 69, 63, 15, 50, 21, 7, -19, 34, 8, 11, 9, -4, 15, 15, -3, -7, 41, -1, -35, 10, 33, 87, 10, 9, 27, -10, 64, 7, 9, 10, 32, -19, 69, 47, 16, -37, -44, -7, -12, 45, 12, -19, 21, -57, -15, 45, 16, 18, 47, 22, 62, 64, 10, 5, 80, 76, 3, 44, -5, 49, 87, 51, 62, 1, 62, 24, 19, -12, -51, 61, 49, 23, -2, 12, 6, 18, 39, -20, -42, -17, 15, -84, -36, -54, -10, 4, 34, -13, -44, 6, 27, -8, -54, -35, 50, 35, 16, 0, -7, 28, 56, -5, -5, 14, 10, 38, 40, -55, -46, -54, 30, 8, -7, -40, -32, 25, -39, 18, 30, -42, 3, -18, -25, -25, 22, 42, 13, 29, 21, 17, -22, 35, -45, -46, -27, -6, -38, -48, 52, 14, -53, -4, 12, 19, 5, 26, 1, -4, -8, 30, -47, -21, 55, 14, 26, 3, -20, -40, 49, -7, -36, 27, 28, 25, 16, -1, 7, -18, 24, -23, -41, -43, -103, -17, -33, 38, 17, 13, -39, -89, 47, 6, -33, 60, 98, 35, -9, -62, -43, 48, 30, 52, -37, -74, 16, 17, 22, 56, 16, -18, 41, -9, 19, 0, -12, -4, 23, -3, -31, 58, 8, 10, -3, 45, 54, 17, 59, -21, -25, -18, -37, 28, 62, -44, -25, -44, 24, -30, 17, 24, -22, 47, 57, 19, -45, -3, -33, -59, 23, 41, 39, -16, 35, -32, -40, -3, -23, -9, -18, 46, -1, -11, 42, 52, -16, -1, -14, -37, -38, 2, 16, 60, 7, -23, 10, 11, -46, 40, 41, 39, -33, 60, 27, 60, 22, 19, 45, -10, -19, -9, 32, 51, -37, 3, 48, 4, 18, 43, 44, -27, 63, -14, 62, -47, 33, -10, 22, 30, 6, 56, -5, -22, 53, 45, -4, -9, -7, -50, -27, 44, -15, 24, -8, -40, -27, 13, 15, -9, -20, 45, 4, 22, 51, 56, 42, -51, 49, 1, 57, -33, -17, 13, -39, 35, 51, -33, 46, 6, -14, 23, -47, -53, -53, -37, 52, 32, 21, -49, 8, -9, -30, 4, -46, -26, -49, -12, 54, 52, 0, -40, 6, 20, 41, 21, 61, -3, 15, 53, 55, -25, -17, 55, -12, -15, 30, -8, -50, 16, 37, 31, -8, 3, -13, 60, 34, -15, -38, -15, -10, 22, 37, 4, -24, -1, 37, -48, 7, 8, -18, 68, 14, -15, 47, 66, 67, -34, -45, 27, 30, 43, 14, 44, 18, -31, -52, 2, -3, -16, -9, -59, 20, 41, 14, 40, 6, 41, -19, 32, -61, -48, -23, 43, -35, 13, 44, 6, 74, 8, 22, 2, 22, 42, 50, -60, 21, 30, -31, -19, -46, -38, -8, 34, 12, 28, -2, 16, -38, -49, -43, -50, -68, 31, 39, 64, 49, 82, 16, 12, 24, 18, -15, 3, 16, 28, 9, 50, 63, 47, 25, 46, 21, -19, 19, -16, 45, -6, 14, -20, -52, -13, -11, -41, -28, -57, 50, 48, -3, 29, 40, 7, 33, -9, -10, 14, 19, -16, -49, 12, -37, 52, 14, 1, -40, -34, -40, 34, 30, -20, 39, 29, 47, -9, 20, 35, 24, -35, -25, -42, 18, -4, -48, -20, 31, -31, -40, -9, 55, 9, 53, -14, 36, 41, 28, 1, 0, -27, -8, -49, 16, -21, -31, -13, -45, 61, 21, 29, 63, 40, 35, 18, 34, -12, 32, 29, 31, -8, 48, -34, -11, -16, -43, 51, 38, 1, 33, 36, 4, 37, 54, 35, 34, 25, -27, 52, 31, -22, 0, 18, -20, 40, 10, 78, 0, 59, 73, 38, -21, 41, -51, -55, 14, -26, -13, 35, -43, -32, -6, 50, -3, -35, 47, 51, -13, -4, 48, -47, 24, 10, 26, 22, -58, -23, 25, 57, 29, 57, 5, -7, 8, -1, 46, -52, -20, -4, -19, -19, 14, 37, 56, -19, -13, 11, -50, -41, 14, 19, -3, 16, 7, 12, -18, -44, -32, 27, 57, 66, 70, 30, 84, 41, -16, -14, 14, 44, -13, -7, 32, -22, 5, 79, 31, 9, 24, 21, 38, -64, -13, -85, 42, -42, -1, -17, -42, -66, -52, -17, 32, 8, 0, -17, 1, -23, 40, -52, -49, 0, -3, 16, -38, 51, -43, 36, 53, 15, -40, 29, 36, -49, -10, -4, -8, -27, -3, 26, 60, 22, -36, -2, 37, -1, -30, -36, 30, 8, 16, 53, 22, 12, 38, -37, -28, 7, 57, -5, -29, 59, -48, 23, -50, -12, -9, -45, 54, -1, -39, 38, 13, 16, -24, -5, -14, 10, -34, 25, -24, -25, 44, -6, 61, 4, 46, -22, 5, -15, -22, 63, 39, 41, 10, 45, 7, -41, 8, -49, 3, -4, -37, 11, -59, -21, 4, 19, -35, 45, -48, 14, -48, 29, 7, -28, 29, -15, -4, 4, 5, 34, -45, 0, 17, -46, 35, 1, -25, 35, 45, 30, -45, 13, -45, -34, 58, 32, 11, 66, -44, 26, -43, 50, -8, 13, 38, -17, -5, -15, 30, -50, 1, -32, 22, 56, 12, 18, -32, -11, 18, 46, -18, -43, -11, 26, 11, -10, 55, -24, -85, -55, -79, -65, -2, -9, -16, 23, -24, -10, 30, -14, -75, 66, 26, 36, 0, 22, -9, -61, 32, 23, -45, -10, -9, -28, -46, -2, 46, -28, -52, -22, 13, -25, 3, -3, -7, 48, -37, 6, 19, -31, -19, -8, -35, -7, -14, -25, -18, -3, 52, -46, -33, -44, 51, 4, -40, 45, 26, -9, 10, 54, -18, 20, 6, -34, 3, -6, -15, -33, 12, -18, 37, 28, 38, 6, -14, 27, 57, -47, -34, 8, 46, 40, 31, 23, -1, -13, 43, -21, 12, 14, 13, 56, 16, 40, 43, -5, 51, 10, -39, -28, -13, 5, -42, 6, -41, 60, 51, 32, -4, -22, 5, 23, -5, 22, 17, 47, -31, 55, 11, -28, -17, 26, -15, 39, 54, -12, -49, -4, -16, -15, 0, 52, 7, -43, 14, -13, -48, 26, -41, -5, 43, 42, -3, 52, 54, -48, 35, -19, 5, 5, 15, 28, -21, -64, -28, -8, -24, -42, 17, -4, 2, 42, 28, -39, -15, -31, -3, 36, 5, 11, 54, 45, -7, 41, -3, 23, -33, -29, -18, -20, 48, -63, -19, 23, -3, -56, -62, -11, -32, -61, -16, 10, -34, -60, -43, -71, -114, -73, -41, 28, -34, -98, 22, 78, -52, -27, -55, 1, 14, -5, 23, -44, -14, -27, -4, 38, 17, 22, 76, 7, 37, 15, -8, 31, -4, 55, -32, 1, -17, 46, -48, -59, 24, 21, -59, -5, -6, 5, 25, -13, -12, 30, 4, 48, 43, 29, -52, -25, 18, 40, -4, -15, -41, 25, -12, 25, -51, 46, 6, 25, 14, -28, -25, -42, -17, -62, 39, 3, 10, 4, -53, -57, -15, 55, 36, -45, -15, -42, -32, -29, -4, 12, 44, 40, -46, 20, 17, 44, 9, 20, 113, 93, 41, 10, -42, 6, -12, -14, 78, -27, -3, 28, -12, 60, -43, 30, -22, -6, -2, -60, 41, -44, 35, -57, 0, -1, -32, -40, 35, -7, 21, 57, 25, 4, -14, 61, -41, 11, 42, -42, -43, -47, 45, -19, -3, -30, -25, 13, 7, -31, 22, 14, 40, -36, -32, -15, 0, -60, -8, -35, 15, -12, -26, 36, -26, 61, -27, -1, 12, -24, 34, -10, 36, 47, -6, 45, 20, 39, -14, 57, 30, -55, 4, 26, -20, -50, -18, 38, -27, -40, 9, -10, -14, 4, -4, -108, -54, -86, -30, 2, -19, -40, 4, -26, 14, 8, -36, 68, -7, 17, 14, 65, -18, -7, 25, 19, -47, 37, -19, 25, 4, 41, 57, 2, -32, 15, -21, 50, -36, 56, -11, 33, -14, 7, 9, -24, 32, -26, 36, -18, -43, 38, -13, 13, 29, -49, 16, 51, 60, -1, 53, -29, 11, -34, -18, -20, -46, -41, -1, 4, 47, -27, -40, -26, -44, -46, -39, -20, 5, 21, 32, -43, -20, 14, 45, 37, -27, 60, -19, -6, 35, 54, 37, -8, -30, 17, 57, 36, -37, -11, 38, -46, 4, -7, -4, -46, -12, -12, 30, 48, 0, -8, -31, 36, 11, 17, 20, 8, -19, 46, 3, 57, 45, 33, 40, 9, 15, 34, 46, 45, 43, 17, -37, 52, 45, -23, 66, 7, 39, -42, 42, -9, -31, -4, -17, -52, -30, 17, 51, 34, 13, 22, 39, -34, 23, -5, 17, -28, -4, -32, 26, 17, 52, 20, -9, 73, 44, 55, -19, -16, 18, -39, -60, -52, 15, 35, 4, -27, 53, 38, 27, -55, 0, 21, 25, -19, -28, -31, 2, -30, 20, -2, 17, -43, 13, -8, 81, 96, 99, 56, 89, -27, -36, 24, 8, 25, 35, -5, 20, 40, -29, 35, -39, 35, 30, 10, -46, 10, -38, -51, 7, -12, 12, -1, -38, -74, -57, -23, 16, 31, -12, 45, -9, -28, 44, 6, -32, -14, 16, 51, -11, 53, 30, -26, -2, 12, -50, -1, 20, 16, 13, 15, -7, -9, -22, -27, -39, -7, -49, 22, -28, 1, 24, -15, 11, -42, -25, 20, -13, -37, -54, -37, 57, -9, -26, 52, 31, 46, -39, -27, -49, 49, -21, -16, -24, -20, 3, 19, -53, 9, 22, -5, 104, 17, 79, 110, 87, -1, 38, 7, 15, 51, -20, -17, 62, 17, -7, 57, -19, 56, -13, -29, 18, 26, -19, -72, 31, 14, -69, -48, 19, -12, 21, -3, 48, -34, -38, 24, -32, 12, -29, 4, -49, 18, 15, -17, 21, 48, 27, 35, -19, -56, 16, 12, -53, 28, -30, 53, -22, -5, -11, -30, -7, 14, 40, 29, 3, -39, -28, -25, 15, -35, 27, 51, -12, -34, -19, -56, -10, -53, 55, 58, 17, -18, 28, -25, -6, -33, 38, -48, -28, 53, -19, -48, 46, 32, 20, -24, -65, 3, -79, -83, -59, -16, 14, -25, -83, -76, -25, -31, -2, -45, -14, -29, -55, -45, -6, -5, -76, -13, 16, -25, -5, 11, 13, -37, -5, -7, -79, -5, -8, 58, 33, -35, -39, -1, -34, 12, 35, -19, 20, -32, 32, -59, -43, -10, -8, 10, 8, -31, 51, 26, -13, 46, -17, 4, 5, 12, 8, 37, 11, -12, -3, 69, -33, -38, 51, -23, 41, -64, -13, -51, 3, 39, -28, 14, -53, -36, -38, 6, -35, -9, -14, 56, 33, -29, 10, -35, 57, 0, -14, 5, 10, -11, 78, 36, 40, 28, 5, 26, 23, -54, -16, -12, -42, -50, -99, 86, 30, -76, -59, 107, 81, 20, -9, -11, 2, -16, 9, 30, -12, 25, -50, 39, -5, 1, 30, -34, -44, 49, 13, 8, -40, 25, 33, 46, -23, -1, -43, 53, -15, 12, 11, -8, 43, -39, 16, -47, 57, -50, -31, 8, 16, -23, -34, -36, -9, -57, 49, 0, 43, -32, 53, -12, -11, 19, 10, 48, -11, -30, -49, 57, -18, 18, 19, -34, 52, 14, -46, 6, 57, 45, 29, 10, -19, 56, -4, 53, 18, 63, 9, 46, 45, 48, 5, 34, 30, 30, 46, 29, 23, -25, -47, -17, -32, 5, 22, -26, -30, -21, 10, -40, 33, -14, -53, -42, -29, -42, -17, -21, 45, 7, -27, -23, -4, -33, -17, -27, -6, -5, -33, -46, 21, -34, 19, -14, 21, -39, 27, -17, 35, 51, 35, -25, -38, 14, -30, 3, -26, -30, 21, 47, -43, 14, 51, -35, -47, 50, 37, -21, -31, -34, -25, 25, 61, 53, -40, 39, 30, -4, -31, 37, 23, 26, -42, -37, 26, 9, -6, 57, 53, 18, -35, -47, -11, 42, 8, 43, -44, -32, -9, 42, 69, 54, 24, 50, -22, -37, -37, 33, -70, 15, -55, -22, 4, 7, 34, -22, -28, -32, -53, -41, -15, -39, -22, -30, 24, 17, 41, 18, 44, 25, 38, -29, 45, -42, -16, 17, -42, 33, 20, -28, -27, 21, -37, 30, 55, 39, 58, 29, -3, -45, -41, 38, -4, 15, -1, 21, -66, 3, 36, 54, 5, -26, 63, 15, 26, 28, 23, 14, -33, -44, -35, 49, -11, -33, 40, 36, -19, -47, 20, -7, -52, -10, 17, -45, -44, 17, -21, -36, -22, 2, 42, 45, 70, 64, 95, 32, -6, 47, 54, 32, 54, -48, -12, 13, -18, 60, 18, 11, -12, -21, -21, -11, 24, -33, 41, -25, 9, 6, 3, 1, 54, -14, 10, 12, -30, -33, 4, 55, -41, 36, -42, -5, 38, 44, -22, 2, 48, 1, -30, -28, 2, 14, 1, -6, 1, -16, -29, 21, 8, -18, -4, -28, -14, 74, 16, -39, -14, 14, -38, -8, 51, -5, -31, -9, 51, 16, -20, 43, 18, 24, 54, 18, -2, 13, 59, 42, 6, 35, 7, -40, -46, 30, -39, 50, -68, 36, -45, 48, -45, -54, 0, -15, -28, 5, -66, 0, 45, 2, -55, -66, 7, 47, -21, 23, 25, -36, -23, 25, -44, -69, -14, 39, -5, 27, 13, -23, -61, 35, -38, 46, 22, -7, 35, -22, -40, 43, 51, -44, -12, -30, -23, -35, -38, 40, 20, 50, 50, 9, 60, -2, 8, 32, -45, 56, 55, -43, -8, 44, -12, 32, -31, -2, 26, -13, -9, -24, -41, -13, -15, -18, 54, -19, -26, -9, 15, 23, 50, 7, -47, 1, -49, -5, 12, 55, 51, 49, 61, 63, -2, 39, 7, 61, -40, -56, 37, 42, 29, -31, 26, 17, 10, 34, 5, 40, 46, -39, 30, -28, -23, 28, -14, -38, -19, 29, 32, 66, -21, 61, 53, -5, 13, 12, 56, 32, -52, 30, 11, -32, 42, 34, -33, -14, 13, 8, -21, -19, 48, -25, 8, -36, -16, -34, 55, 7, 43, 36, -4, -44, -5, -32, -1, -13, -4, -28, -9, 7, -29, 22, 0, 28, 49, -9, 22, -12, -25, -58, -35, 26, 2, -48, 46, 33, -39, 43, -3, 2, 38, 16, -11, 4, -45, -19, 6, 17, 50, -40, 14, 77, 87, 27, 62, 74, 90, -40, -23, 62, 51, 83, 26, -7, -22, 78, 104, 22, -22, -33, -84, -12, 34, -40, 32, -49, 47, -14, -37, -34, 29, -5, -54, 9, 2, -52, -18, -6, -42, -29, 50, -16, -17, -20, 23, 41, 33, 52, 51, 30, 0, -46, 37, 17, 31, 43, 37, 15, -27, 4, 17, -53, 4, 50, 6, -43, 34, -5, 26, 37, -3, 10, 36, -27, 44, 19, 24, -8, 26, -19, -31, -32, -27, 17, 32, -17, -6, 2, -35, 28, -49, -16, 39, -2, -49, -46, -7, 16, 63, 31, 61, 23, 61, 17, 53, -12, 51, -24, 17, 16, 5, 39, 33, 49, 53, -36, 22, -14, -28, 50, -40, -39, 14, -62, -40, -60, -60, -44, -28, -22, 20, -4, -51, 14, 49, -26, 38, -24, 37, 49, -12, -46, -23, 41, 4, 23, 30, -19, -29, 21, -13, 24, -41, -30, -21, 53, 18, -43, -28, 8, -73, 47, -33, 21, -17, -27, 2, 33, 14, 14, 24, -50, 29, -25, -42, -19, -17, 47, -48, 16, 29, -32, -27, -30, 29, -14, -9, -36, 33, 46, 18, 39, 21, 13, 53, 16, 8, 14, 101, 17, -8, 74, 60, 71, 80, -19, 24, 44, 12, 74, -52, 7, 46, 46, -25, 32, -10, -51, -4, -11, -56, 4, -55, -16, -2, -5, 38, -43, 30, 35, 52, -5, 80, 59, -6, 53, -35, 11, 45, -29, 13, 6, -6, 38, 3, -6, -34, -16, -1, -30, -44, 28, -19, -52, 18, -11, 6, 41, 0, 49, 27, -38, 34, 24, -1, 39, 38, -16, 24, 26, 3, -45, 27, -10, 15, 22, 9, -18, 35, -43, 6, -20, 8, 10, -5, 5, -47, -11, 39, -4, 48, 88, 55, 34, -13, -26, -17, 30, 42, 35, 33, -32, -11, 4, 21, 82, 67, -7, 67, -18, 11, -33, 61, -25, -20, 20, 8, -38, -58, -61, 5, 36, -7, 39, 23, -9, 49, -34, 17, -5, 16, -21, -5, -34, -13, -52, 24, -57, -43, -6, 10, -29, -20, 26, -38, -17, -22, -6, 4, -57, -43, 5, 19, -16, -19, -2, 54, 6, 15, 25, 56, 3, -23, 29, 11, -6, 11, -12, 23, 4, 25, 37, 42, 12, -4, -5, -13, -60, -15, 35, 46, 29, -61, 36, -41, 22, 40, 33, -23, 49, 15, 19, 39, -2, 2, -36, 6, -1, -23, -8, 21, -3, 34, -19, 46, -15, -56, 32, 30, 14, 28, -36, -2, 20, 20, 40, -54, -60, -50, 8, 15, 13, -40, 9, -5, 9, -31, -13, 36, -24, 14, -8, 18, 28, -50, 3, 48, 39, 21, 5, 48, 32, -10, 27, -19, -32, 8, 53, 13, -6, 27, 35, 22, -34, -30, -1, 32, 3, -14, 12, -17, 26, -27, 18, -32, -46, 7, 36, -32, -36, 37, 23, -5, -29, 1, 45, 19, 61, -11, 25, 53, -9, -17, 32, 11, 13, -31, 19, 18, -45, -38, -43, -37, -19, 26, -21, 10, 47, 35, -44, 23, -22, 33, -15, 25, 26, 45, 34, 15, 41, 2, 39, -18, 58, -10, 51, 48, 43, 67, 12, -36, 46, -3, 26, -2, 29, -13, -56, 4, 27, 4, -11, 26, -23, 23, -18, 34, 0, -21, 15, -53, -31, -11, -53, 6, 31, -29, -26, -24, 80, -17, -34, 14, 50, -53, -20, -49, -10, -10, 53, 6, 0, 24, 42, 43, 9, 41, 25, -50, 31, -29, 53, -17, -38, 1, -51, -5, 48, 50, 7, 21, 63, 31, 9, 37, -36, 20, -2, 10, 19, -30, 44, 42, 21, 18, 62, 9, -35, -27, -17, 29, 19, 32, -36, -18, 8, 55, 46, -26, -24, -27, -2, -26, 18, -37, -23, 5, 34, 10, -3, -54, -15, 36, -2, -27, -44, -23, -31, 26, -21, 2, 34, -9, -40, -31, 31, -42, 33, -39, -40, -51, -49, 10, 10, -56, 34, 38, -46, 4, -52, 16, -5, -1, 54, -45, 6, -55, 10, 33, 40, -46, 15, -30, 12, -17, -45, 24, 25, 46, 56, -6, -37, -24, 22, 39, 20, 101, 59, 49, 38, 26, 30, 83, 19, 28, 25, 20, 73, -16, -2, 73, 91, -10, -48, 45, 1, 2, 13, 54, -25, -30, -49, -26, -9, 13, -57, -14, 65, 30, -11, 61, 66, 5, 38, 1, 5, 46, -41, -53, -55, -66, 26, -56, 23, 26, -23, 45, 15, -20, 29, 36, 30, 16, -16, 7, -5, -17, 0, -52, 40, 22, 49, 52, 9, -32, 34, 1, -19, 8, -8, -44, 3, -6, -38, -56, -64, -26, -36, -29, 13, -48, 50, -28, 43, 13, 54, 57, -19, -11, 57, 62, 29, 64, 81, 76, -25, 7, 53, -16, 20, 23, -17, 9, -74, 13, -6, -42, -49, -29, -22, -37, -70, 0, 5, -46, -3, -83, 17, -75, -60, -31, -49, 40, 24, 75, 7, 77, 18, 10, -38, -15, -46, 17, 21, 24, 22, 31, -37, 51, -16, -14, -49, 1, -8, 18, 13, 48, 35, 25, 4, -9, -25, -39, 41, -1, 70, 40, 53, 41, 51, -16, -51, -6, -40, 37, 21, -23, 22, -27, 36, 3, -33, -19, -49, 44, -44, -39, 44, 15, -5, 19, -37, 43, -33, 12, 55, 22, 61, 7, 78, 68, 11, -12, 69, 5, 9, -10, 1, 14, 11, 74, 74, -1, 60, -36, -11, 41, 6, 41, -1, 6, -57, -44, -12, -29, -27, -66, -19, -4, 9, -18, 63, 56, 16, 39, -5, -60, 19, 26, -17, -42, 33, 20, -33, 10, 50, -53, -57, 31, 17, -23, 10, 19, 5, 21, -2, 16, -30, 18, -14, 20, 24, 65, 70, 57, 4, -23, 31, 22, -4, 4, 47, 46, -48, 35, -14, -46, 25, -24, -43, 46, -40, -30, 7, 19, -19, -33, -3, 52, 13, 15, 17, 47, 33, 90, 28, 27, 9, -26, -16, 20, 6, 56, 21, 46, -36, 64, 12, 52, 6, -8, 27, -4, -69, 19, -60, -16, 8, -99, -26, -41, 3, 8, -8, -58, 34, -4, -35, -11, 10, 19, 19, -26, -30, 13, 39, 12, 14, -7, 22, -14, 4, -21, 35, -13, -37, -5, 59, 14, 27, 7, -7, -38, 57, 6, -38, 33, -8, 32, -7, 18, 37, 9, 37, 43, 31, 42, 38, -34, -46, -14, -35, -36, -37, -39, -15, 61, 30, 59, 31, 58, 20, 35, -34, -10, 43, -2, -23, 54, 52, 38, -27, -43, -59, 13, -46, 20, -54, 11, -14, -47, -21, 50, -21, 50, -31, -34, 48, 1, 53, -30, -49, -21, 56, -1, -44, -34, 4, 43, 54, -32, -8, -17, 14, -25, -25, 31, -28, -15, -24, 34, 60, -9, 1, -46, 38, 58, -18, 4, 1, 26, 21, -4, 46, 26, -39, -25, 23, 54, -15, -6, 41, 14, -33, -6, -48, -15, -20, 44, 50, -9, -20, 13, 58, -42, -29, -49, -27, -20, 31, 10, 15, -28, 38, -10, 8, 25, 13, -3, 22, 6, -32, -29, 53, 33, 14, 37, -20, 47, 21, -41, -18, -21, 42, 35, -2, -15, 22, -4, 24, 46, -22, 4, 9, 35, -36, -48, -24, -33, 21, -9, 30, 4, -19, -53, 35, -23, 2, 53, 28, 53, 39, 41, -29, 40, 28, 4, 45, 24, -7, 25, -23, -43, 48, -57, -30, -28, 36, -17, 26, -28, -24, -4, -23, -14, -28, 20, 52, -10, 54, 15, -27, 59, 66, -4, 36, -37, -4, -44, 10, 49, 49, 11, 15, 10, -5, 47, 43, -15, -54, 25, -5, -29, 16, 37, -33, 13, 56, 11, 3, -18, 70, -2, 52, 49, 45, 15, 59, -5, 49, 15, 17, -34, 74, 41, 50, -12, -11, -9, 46, 47, 24, 38, 2, 44, -5, -59, -28, -26, 8, -77, -48, 24, -21, -35, -53, 42, -49, -45, 21, 34, -16, 12, -29, -33, 5, 45, 23, 7, -34, -2, 1, -54, -49, -50, -44, 33, 34, -21, 9, 40, -18, -84, -6, 15, -34, 23, -36, -46, 20, 47, -14, 26, -21, 26, 45, -6, -33, -22, 38, -55, 34, -51, 34, 41, 48, 44, 36, -47, 36, -27, -18, 36, 14, -15, 42, 13, 11, -24, 10, 58, 5, 34, 22, 35, 72, 37, 18, -21, 25, -25, -2, 39, 27, -8, 49, -34, 13, 60, 20, 18, 23, 22, -61, 13, -31, -22, -1, 9, -11, -9, 63, 13, 11, 3, -21, -36, 8, 44, -4, 26, -49, 37, 2, -49, -21, -15, -29, -36, 46, 15, -16, -17, 47, 29, -36, 17, 44, -16, 47, -17, 24, -26, 15, 69, -3, 2, 29, -27, 9, 45, -21, 0, -30, -35, -1, -47, -30, 38, 27, -22, 12, 23, 11, -42, -46, 49, 31, -39, 5, -8, 47, 65, -5, 35, 0, 37, 40, 24, -5, 9, 73, 38, 14, -33, 21, -14, -90, -47, 19, 36, -69, -60, -14, -53, -31, -59, -30, 34, 21, -53, -26, 26, 15, 45, -34, -20, -26, 29, 2, -5, 56, 67, 8, 63, -23, 37, 51, 47, 48, 22, -17, -11, -10, 26, 42, 50, 17, -12, 60, 12, -50, 0, 15, -16, -31, 53, 56, 18, -34, -16, 65, 32, 17, 52, 39, 72, 10, 48, 5, 2, 22, -33, 47, -15, -24, 29, 58, -45, -27, 40, 10, 52, -18, -64, 28, 38, 14, -41, -34, -35, 14, -48, 27, -36, 30, 3, -35, -12, -43, 6, 2, 16, -14, 33, -38, -7, 50, -38, 3, -45, -20, -48, -43, 54, 20, 59, -6, -71, -40, -51, -5, -56, -26, 28, -5, -53, 37, -34, -10, -39, -1, 5, 42, -8, 9, -31, 3, -27, 5, -6, 34, 17, -25, 44, -36, -15, 46, -24, -25, 1, -90, -19, 9, -46, 31, -37, -38, -7, -53, 50, -17, -50, 38, -1, -8, 42, -22, 22, -13, 7, 45, 46, 19, 25, -43, 52, 33, -50, -19, -41, 58, -26, 20, -15, 36, 16, -45, -4, 10, -37, -54, 58, 38, 32, 1, -15, 64, 43, 21, -28, -46, 13, 23, 46, -35, -3, 33, 49, -15, 36, -5, 2, -14, -53, -31, 36, -37, 53, 31, -20, -5, 2, 33, 22, 23, -39, 54, -23, -28, -38, -4, 49, 12, 32, 34, 56, -26, -17, 3, 15, 43, -37, -43, 26, -32, -4, 28, 21, -42, -29, -18, -27, -36, 40, 42, 3, -28, 24, -38, 27, 42, -38, 27, -49, 13, -9, -20, 6, 54, -20, -8, -15, 53, -9, 54, 55, 31, 34, 51, 36, -7, -29, -14, 49, 23, 47, -30, -32, -44, -47, -27, -13, 50, -32, -4, -17, -40, -31, 50, -1, -29, 12, 3, 42, 27, 44, -44, 5, -16, -72, 31, -27, -30, 2, -12, 37, 38, 16, -25, -54, 17, 0, -25, 23, -23, 8, -6, -4, 27, -7, 4, 1, -24, 22, -41, -52, -33, -8, 52, 18, 48, -64, 45, 2, -15, -49, 11, 46, 53, -28, -5, 4, -31, -35, -51, -6, 22, -75, 24, -12, 22, -8, 16, 43, 29, 18, -22, -55, -4, -29, 8, 33, 22, -23, 50, 68, 75, 38, 68, 19, -32, 15, -6, 44, -49, 45, -25, -16, -45, -1, -11, -43, 78, -6, -15, 21, -11, -4, -78, 14, -17, -82, -32, -28, -4, 51, 36, 28, -36, 12, 6, 52, -42, 45, 28, -24, 2, -4, 32, -17, 42, -28, -35, 28, -52, -24, -41, -1, -7, 23, 21, 28, -41, 35, 21, -53, -33, -18, 30, -1, -3, 58, -40, -1, 59, -32, -9, 2, 40, -8, 24, -45, 3, 36, 16, 5, -9, -3, -22, -25, 19, -6, 50, 28, 31, 6, -55, 1, 22, 73, -44, -39, -45, -62, -79, -96, -1, 76, -5, 20, -39, -50, -5, 56, 70, 32, -34, 16, 77, 22, 24, 39, 72, 51, 55, -30, -35, 29, -30, -3, 20, -11, -47, -35, -7, -26, 59, 38, -28, -8, 26, 43, 33, 45, -25, 18, -46, 25, -41, 9, -42, -46, 23, -7, 16, 40, -5, -55, -11, -20, -44, -44, -22, -80, 27, 40, 8, -43, -12, 31, -17, 2, 21, -43, 1, -13, 44, -23, 45, -19, 32, 22, 21, 33, -40, -16, -9, -40, -54, 37, -3, 20, -15, 0, 51, -26, 22, 29, 15, 64, -24, 17, 5, -27, 22, -54, -42, 52, -41, 2, 32, -6, 52, -6, 84, -10, -44, -26, 1, 24, 12, 19, 2, 36, 57, -5, 31, 73, 23, 11, -56, -49, -29, -24, -20, 48, -12, 39, -17, -17, -12, -52, 8, -51, -6, -10, -15, 6, 12, -7, -16, 36, -18, -33, 3, 17, -35, -19, 18, 52, -7, -46, -17, -31, 7, 13, 2, -54, 7, -32, -3, 32, 47, -65, 50, -3, -4, -18, 26, 26, -34, 4, -21, 20, -36, -30, -9, 10, 43, 41, 38, 50, -40, -72, -6, -70, -5, -31, -2, -38, -26, -73, -26, 16, 0, 2, 87, 41, -27, -5, 2, 21, 14, 18, 0, 16, 7, -15, -45, 51, 58, 7, 60, 6, 32, 32, -22, -18, -31, -42, 21, -23, 29, -18, -21, -18, -44, -2, -34, 9, -26, 33, 47, 3, -26, -18, -13, 35, 15, 0, -36, 2, -7, 51, -32, 32, -24, -50, -19, 34, 45, 1, -28, 45, 21, 40, 42, -9, 57, 26, 18, 4, 9, 0, 16, 4, 49, 59, 8, -26, 36, -36, 59, 44, 18, 46, 22, -37, -43, 34, -28, 6, 12, -37, 19, -21, -26, 44, -4, 36, -38, 31, 15, -29, -25, 41, -28, -7, 23, -16, 62, 16, 10, 46, -7, -45, 6, -19, 8, 31, 47, -65, -63, 46, 51, -35, 26, 18, -47, -31, -29, -35, 22, 20, 14, 19, 15, 23, -41, -16, -46, 24, -49, -40, -40, -37, 18, -4, -15, -19, -34, 37, 23, 22, -35, -26, -37, -33, 44, 39, 24, 35, 34, 32, 27, 45, 35, 58, 10, -29, -32, -33, -29, 44, 34, -13, -49, -43, -24, -4, -14, -40, -39, 59, 36, -28, 53, 12, -38, 31, -13, -25, 3, 73, 30, -21, -23, -13, 19, -3, 39, -5, -17, 29, -4, -3, 30, -25, -28, 40, 46, 19, 20, 19, 21, 14, 16, 41, -2, 20, 72, 85, -7, 36, -33, 37, -15, -32, 33, 5, 38, -26, -32, 8, 38, 31, 9, 45, -49, 43, -38, 28, -19, 24, -30, 8, 49, -26, 51, -52, 52, 61, 4, 55, -14, 15, -60, 21, -37, 14, 39, 24, 45, -31, 27, -6, 6, -30, -6, -14, -7, -32, -61, 28, -51, -45, 7, -7, -23, -20, 28, 53, 11, 98, 85, 43, -16, 33, 42, -18, -8, 45, -12, 13, 32, 30, 69, -14, -11, -1, 6, -17, -28, -34, -84, -42, -18, -1, -67, 2, -63, 37, 47, 23, 40, 73, 49, -28, 0, -53, -2, -3, -45, 27, 50, 45, -6, -14, 39, -49, -39, 9, -42, -13, 22, 14, 50, -50, -10, -43, 11, -47, 14, 61, -23, -17, 59, 31, -8, -3, 30, -51, 48, 15, -11, 16, -44, -26, -35, -13, 46, 4, 55, -8, -46, -16, -2, 53, 29, 24, 10, -26, -35, -47, 12, 62, -59, -64, 14, -46, -9, -40, 9, 30, 0, 34, -15, -54, 15, -43, -7, -21, -3, 32, 51, -66, -77, -32, 30, -14, 20, -16, -25, 16, 18, 5, 15, -37, -46, 37, 41, 45, 32, -26, 49, -32, -56, 39, -21, -23, -21, 27, 30, 45, -20, -15, 42, -52, -7, 44, -15, 47, -34, -55, -15, 40, 19, -39, -16, -67, -57, -36, -48, 3, 41, 18, -38, -2, -35, -20, -50, 6, 15, 2, 19, 50, -24, -22, -31, 9, 54, -8, -10, 19, 42, -53, -11, -18, -34, -38, -32, 28, 68, 98, 101, 93, 98, 63, 26, 45, 71, 72, -18, 4, 21, -25, 61, -1, 28, 64, 86, 2, 19, 55, 17, 73, 9, 36, 12, -78, -71, -43, 5, 17, -27, 52, 39, -16, -5, -32, 56, -11, -24, 3, 28, 39, -15, -45, 41, 61, 44, 61, 37, 59, 50, -16, 51, -13, -32, 40, 61, -4, -43, 48, 50, -51, -24, 26, -4, 6, -44, -7, -30, -44, -11, -12, 4, 10, 11, -28, 12, -36, -41, 31, -38, 17, 40, -25, -20, 43, -31, 15, -47, 2, 27, -41, -10, -17, 58, 38, 16, 4, 45, -30, -3, -3, 2, -15, -35, 42, 50, 1, 12, 45, -34, 50, -24, -40, 6, 21, 53, -8, 44, 41, 45, -32, 6, 8, 51, -32, 24, 37, -48, -18, -49, 31, -27, -27, 33, 55, 53, 60, -12, -2, -15, -9, -38, 14, 31, -27, -1, 48, 35, -31, 43, -24, -7, 9, 14, 38, 30, 24, 60, -27, 40, 12, 20, -37, -1, 55, -49, -15, 28, -18, -30, 59, -37, -46, 15, 42, 54, 66, -36, -25, 6, -17, -26, -4, 45, 12, -5, -37, 31, 25, -47, 47, -46, -57, -1, 34, -55, -6, 48, -52, -27, 19, -10, 23, -21, -62, -50, 31, -28, 1, 55, 44, -50, -29, -16, 10, -5, -53, 22, -30, 24};

static const int32_t stem_0_bias[112] = {-31, -6, 21, 6, 35, 17, -32, 43, 5, -23, -16, 33, 51, 50, -44, -20, 37, 28, 66, -6, -20, 38, 14, -27, 25, -6, 47, -36, -31, -19, 14, 41, 24, 0, -32, 10, -61, 17, 46, 5, 67, -18, -37, 36, 11, -33, -16, -23, 30, -34, 1, -57, -17, -43, 37, -57, 58, 30, -7, 6, -53, -50, -23, -4, 0, -37, -16, 53, 2, 18, -3, -48, -30, -52, 15, 57, 40, -11, -36, -36, 61, -54, -39, -50, -4, 12, 40, 22, 24, -11, -33, -40, -1, -14, 12, -41, -19, 39, 70, -3, 11, -25, 60, -5, 53, -61, 23, -1, -38, 8, 34, 42};

static const int8_t tcn_0_depthwise_weight[560] = {36, -58, -66, 103, 115, 49, 15, -49, -35, 113, 58, 22, 73, -86, 76, 125, -37, 9, 11, 124, -38, 27, -67, -68, -43, -62, -22, -70, 80, 9, 95, 119, -87, 109, 116, -97, 58, -20, -60, -61, 1, -86, -107, 80, -80, 22, 118, -22, 19, -108, -31, 15, -22, 110, -91, -30, 96, -86, 26, -18, -27, -93, 46, -78, -35, -20, -42, 0, -43, 4, -108, 88, -39, 65, 116, -55, 82, 69, -106, -11, -96, -96, -39, 78, 27, 59, -78, 71, -9, 62, -69, -75, 74, -52, -12, -66, -10, 14, -11, 77, 10, 2, -29, -78, -51, 66, 76, 77, 94, 111, 96, 110, -24, 8, -19, -65, 31, -36, -87, 6, -75, -14, -53, -104, 19, 46, -33, -18, -28, 127, -19, -52, 97, 111, -98, 83, -49, -106, -45, 47, -69, 114, -103, 85, 117, -99, -119, -114, 103, -45, -83, -15, -22, -23, -20, 65, 36, -63, 51, -85, -72, 95, -68, 43, 56, -60, -90, -72, -33, -58, -101, 81, -97, 78, 88, -45, -29, -50, -20, 53, -17, 53, 34, -100, 77, -66, 84, 95, -6, -17, 28, -24, 70, -110, -24, 48, -22, 41, 37, -46, 84, 41, 48, 105, -49, -71, -16, 23, 25, 24, -108, -28, 55, 115, 2, 50, -61, -6, -54, -66, 39, 62, 60, 40, -93, -97, 15, 31, 33, -92, 50, 65, 62, 83, -13, -73, -80, -74, 19, -4, -39, -19, -1, 115, -86, -72, -71, -43, -91, -78, -71, -56, 77, 25, 52, 94, -93, 73, -64, -113, 112, -13, -114, 71, 35, -86, -86, -10, -37, 53, 8, 88, -76, -19, 31, -77, -34, -43, -101, 87, 32, 66, 23, -24, 37, 96, -22, 38, -6, -1, -93, 10, -91, -59, 27, 119, 77, -88, -45, 39, -17, 5, 32, -103, 56, -107, 110, -56, 98, 20, 8, 70, 116, 32, -36, -50, 102, 94, -67, -71, -44, -108, -76, -80, 63, -10, 11, 33, 39, -49, -42, 4, 55, -67, -59, -1, 63, -92, -5, 20, 100, -34, 31, -2, 102, -114, -55, 59, -58, -22, -61, -11, -107, 43, 87, 28, 102, 114, -3, -24, 50, -86, -62, 43, -41, -70, -37, 105, 101, -78, 93, -6, -11, 9, 80, 23, 102, -98, 68, -110, -8, 72, 91, -93, -76, 67, -27, 75, -59, -61, 101, 85, 115, 36, 56, -116, 33, 115, -109, 81, 100, -91, -8, -96, 21, 86, 67, 99, 39, 91, -18, -27, 20, -86, 9, 8, 46, 31, 108, -77, -67, 90, -108, -76, 76, -79, 54, -48, 105, 91, 12, -119, 46, 17, 78, 1, -72, 117, 74, -48, -47, -90, -48, -74, 103, -13, 104, 7, 52, -45, 29, -15, -15, -13, -104, -10, -3, 100, 120, 116, -22, -4, 19, 51, 64, -78, -92, -27, -98, 80, -112, -88, -110, 72, 117, 29, 61, -104, -70, -85, 29, 32, 87, 60, 66, 64, 72, -21, -36, 93, -12, -34, 14, 72, 119, -95, -12, -40, -114, 70, -23, 19, 37, 30, -48, 36, -19, 54, -17, -24, -104, 49, 90, 2, 14, 114, -52, -76, -55, -7, 25, 96, -33, -90, 67, -64, -57, -79, -12, 23, 15, 34, 109, -70, -114, -102, -47, -33, 21, 100, -14, -63, -75, -28, -72, 95, -60, 101, -42, -95, 46, 58, -40, 18, 15, -69, -38, -68, 104, 80};

static const int32_t tcn_0_depthwise_bias[112] = {53, 76, -46, -31, 50, -7, 30, -65, -27, -97, 55, 91, 39, -60, -79, -43, -5, 60, -76, -102, 100, -32, 7, 34, 113, -44, -36, -102, -86, 57, 32, 10, 82, -75, -11, 92, 49, 51, -75, -65, -61, -109, -34, -2, -48, -107, -100, 116, -112, -94, 29, -107, 111, -7, 0, 17, 6, 15, -109, 62, 22, 98, 50, 107, -46, 42, -60, 68, 88, 30, -90, -89, 89, -62, -67, -101, -81, 25, 36, 20, -3, 60, 66, 61, 93, -41, -113, 81, -42, 15, -35, 17, 62, 26, -76, -99, -82, -8, 5, -48, 8, 23, 109, 17, -45, 65, 60, -12, -114, -50, -77, 85};

static const int8_t tcn_0_pointwise_weight[12544] = {-18, 35, 32, 12, -19, 39, 19, 30, -3, -38, 5, 64, 16, 8, 42, 15, 14, -9, -27, -34, 62, -25, 31, 56, -33, 56, 71, -15, -5, -25, -20, 64, -12, 24, -17, 48, -7, 13, -29, 37, -22, 4, 48, -29, -7, 27, 34, -41, -32, 34, 30, 22, 13, 44, -8, 46, 9, 56, 24, 3, 27, 33, 14, 2, 6, 19, -36, 13, 59, 1, 46, -28, 39, -21, 2, 18, 20, 13, 55, 10, 9, 53, 45, -26, 27, 40, -5, 54, -38, -22, -13, -39, -9, 43, 48, 11, 31, 21, 9, 29, 10, 4, 34, 38, 17, 53, 10, -78, -10, 80, 15, 19, -4, 23, -28, -3, 25, 10, -59, -19, 9, 0, -28, 43, 30, 12, -18, -39, 37, -2, 46, -1, 36, 17, 31, -32, 37, -67, -48, -32, 58, 27, -8, -17, 32, -4, -9, 10, 44, -30, -12, 17, -39, 3, -15, 10, 45, 29, -6, 8, -18, -23, -3, -24, 7, -23, 3, -25, -6, 38, -29, 3, -9, 9, -42, 2, -27, -18, -16, -44, 35, 2, 48, -55, -40, 22, -29, 33, -58, 22, -25, 18, 13, -40, 7, 27, -40, 27, -23, 42, 74, 43, 16, 40, 8, 37, 14, -5, -21, 34, -40, -33, 43, 43, 4, 35, 0, 41, 42, 24, 21, -22, -38, -31, -46, -56, 25, -10, -31, 33, -25, 6, 31, 33, -6, 7, 30, -12, 12, 15, -14, 38, 15, -39, -41, -30, -4, -17, 2, 22, -34, 25, -11, 20, 5, -28, -1, 39, 2, 13, -19, 35, -38, 10, 26, 23, 38, 3, -56, -2, -15, 41, -37, -39, -6, 15, -16, 40, 17, 28, 22, -15, 0, -43, -10, 16, -40, 3, 13, -26, 3, 32, 23, -28, -24, -35, -53, -12, 14, 39, 36, -19, -46, -19, -30, 37, 29, 6, 24, -27, 44, 14, -7, 22, -23, 8, -19, -31, -27, -27, -12, 20, -39, 40, 16, -10, -22, -44, -23, -22, -41, -28, 10, 24, -17, -28, 45, 0, 41, -5, -29, -2, 3, 28, -22, 0, 15, 24, 47, 33, -7, 7, 1, -9, 31, 31, -18, 45, 38, -11, 49, 6, 69, -12, -41, -10, -26, 7, 39, 46, -9, -27, -12, 32, 46, -12, 12, 13, -16, 12, -14, 8, -26, -2, 27, -9, 45, -7, 50, -17, 33, -8, -27, 30, -38, 21, 51, -11, -32, -17, 8, 37, 40, 23, 22, 1, -18, 43, -5, -9, 6, 33, -35, 14, -7, 37, -1, -15, -3, -22, 64, 1, -24, -36, -65, -51, 44, 9, -39, -37, -19, 18, 43, -37, 19, 20, -20, 32, 50, 42, -10, -13, 26, -52, 34, 57, -37, -33, 43, 22, 25, -36, 3, -17, 0, 41, -34, -44, -7, 19, -46, 16, 6, -37, -48, -6, -27, 46, -28, 38, -15, -13, 6, -1, 22, 8, 7, 26, -53, -10, 11, -9, -32, -36, 40, 38, 10, 16, -62, 28, -16, 68, 41, 26, -8, -44, 2, -16, 30, 22, -40, -32, 32, -48, 22, 47, 38, 24, 4, 33, 6, -42, 35, 33, 18, -3, 34, 19, 6, 9, 32, 6, -36, 0, -71, 41, -9, -24, -48, -11, -20, 31, -7, -2, -1, 31, 6, 29, 4, -39, 34, -26, -53, 27, -6, 53, -42, 19, 8, -39, -29, 27, -23, -40, -30, -41, -6, -52, 42, -36, 35, 31, 20, -26, -5, 29, 17, -31, 24, -2, 1, -6, -31, -44, 37, 34, -54, 19, -15, -12, -7, -28, -8, 55, 2, 37, 59, 33, -47, 54, 32, 18, 9, 37, 29, -12, 35, 49, -23, 23, 1, -44, 7, 45, -35, -19, 14, -38, 4, -13, 10, -26, -31, 26, -5, -24, 39, 17, -33, 33, 10, 26, 44, 23, 35, 5, -25, -9, -16, -8, -1, 16, 55, -19, -7, -11, 23, 42, -8, 27, 9, 55, -23, 1, 40, -44, -30, 50, -77, 12, 1, -40, -12, -36, 21, -2, -20, 14, -5, -2, -34, 29, 13, -9, -22, -4, -30, -48, -5, 65, 10, 33, 19, -43, 21, 7, 28, -8, 27, 1, 49, -12, 4, 43, 22, -29, -22, -24, -9, 23, -28, 38, 33, 18, -42, -19, 21, -19, 10, 19, 20, 4, -36, 0, -36, 13, 33, -31, 18, -44, -23, -6, 36, 15, 52, -22, 27, -8, -15, -10, 26, -38, 18, 34, 15, 16, -11, 37, -6, 16, -32, 21, -35, 11, -3, -46, -31, 6, 24, -23, 0, -2, -31, -18, -33, 0, -43, -2, -43, -26, 21, -2, 23, 9, -19, -8, 30, -30, -23, -1, 12, -27, 6, -16, -24, 8, 59, -37, -2, 7, 6, 46, -32, -39, 40, -13, 16, 30, 53, -56, -21, -8, -2, 35, 36, -24, 39, -3, -27, 19, 27, -49, 32, -41, -4, 46, 36, 38, 32, 16, -19, -9, -24, 40, 31, 12, 16, 1, -1, -14, 45, 40, 3, 14, -1, -5, 45, 26, 6, 12, 35, -33, -46, 38, 20, -24, 34, -9, -53, -15, 58, 14, -12, -16, -9, 17, 15, -14, -20, -10, 23, -18, 33, -5, -6, 8, -14, 33, 23, -35, 26, -17, 24, 23, 8, 21, 29, -14, -32, -11, 11, -20, 20, 5, 37, 6, -4, 23, 55, -14, 26, 40, -77, 39, 13, -28, -13, -30, 26, 27, 2, 56, 16, -21, 15, 28, -15, 52, -44, 5, 20, -31, -46, 45, 20, -28, -17, 31, 6, -10, 20, -40, 6, -14, 5, -17, 19, -46, -15, 18, -16, 28, 14, -35, 21, 10, 12, -37, -13, -39, 15, 22, 19, -40, 19, -74, 27, -12, -45, 34, -16, -18, 37, -29, 22, 22, 44, 25, 8, 43, 31, 4, -7, 8, -36, -12, -32, 37, -12, -15, -15, 16, 13, 18, 38, -20, -2, 18, 21, -8, 24, -14, 29, 26, 15, 19, 25, -40, 14, 3, -48, -16, 15, -14, -30, 4, -52, -42, -51, -29, 22, 37, -12, -4, 5, 28, 27, -34, -33, 4, 34, 4, 19, 58, -16, 2, -38, 20, -8, -2, -6, -36, 13, -38, -43, -52, -21, 10, -13, 17, -33, 26, -58, 0, 40, -44, 12, -13, 30, 6, -27, -26, 8, 53, -37, -3, 0, -7, 52, 0, -45, 3, 16, 61, 46, 49, 6, 19, -19, -7, -29, 21, 5, -19, -18, 56, 28, 36, -31, -11, 18, 6, 23, 23, -19, -7, 34, -22, 17, -6, -17, 5, 21, 37, 41, -1, -27, 49, -9, 27, 16, -18, 23, 2, -5, 0, -27, 9, -8, 46, -19, -20, -15, -9, -15, -7, 22, -29, 37, -11, -4, 31, -19, 29, -17, 7, -62, 12, 8, -54, 11, 35, 15, -25, -17, -27, 48, 27, -36, 40, -28, 39, -10, -22, -2, -62, -2, 28, -25, -27, 39, -50, -27, 52, 8, -34, 33, -5, -3, -18, 1, 39, -23, 12, -40, -46, 36, -39, -22, 14, 12, -4, -3, -47, -8, 31, -38, 34, -32, -33, 48, 11, -46, -36, 39, -6, 5, 21, -18, 4, -5, 43, -41, 16, -14, 2, 5, 32, -10, -24, 32, 23, -18, -43, -40, 18, 0, -21, -24, 29, -41, -10, -6, -48, -1, 42, 3, -41, -27, -36, 10, 20, 15, -39, 20, -47, 38, -30, 32, -22, -2, 37, -14, -38, -27, -17, 21, 32, 11, 1, -14, -47, -8, -13, -50, -39, -22, 40, -10, -17, -35, 19, 28, 1, 29, 34, 0, 13, -6, -55, -3, -18, 9, -14, -50, -33, -41, -4, 6, 4, 6, 29, 11, -8, -15, -36, 37, -42, -20, -47, -25, -28, 27, 4, -14, 14, -24, -36, 18, -31, 30, 28, -44, 25, -46, -36, -39, -18, -51, -52, 19, -44, -19, -44, -23, 43, -28, -42, -9, -23, -12, -23, -17, -21, 38, -6, 4, 16, 23, -31, 48, 36, -2, 12, 22, -43, 39, 39, -46, -35, -1, -9, 1, 23, -22, 8, 33, -17, -42, 2, 25, 23, 35, 12, 15, 19, 31, -8, 14, 22, -23, -30, -37, -27, -38, 11, 20, 21, -27, 17, -37, -40, -39, -48, -34, -34, 26, -28, 13, -35, -22, -31, 35, 30, -7, -25, -52, -2, 14, 26, -9, 18, -26, -63, -4, 56, -8, 16, 9, -14, 1, 28, 39, 39, 18, -27, -45, 7, 13, 28, 73, 13, -46, 29, 14, 15, 3, -21, 0, 12, -27, -18, 34, -12, 20, 8, 37, -41, -49, -42, 43, -7, 31, 11, 11, 8, 29, 35, 27, 38, -19, -19, -44, 56, 50, 54, 5, -11, -25, 21, 36, 29, -30, 16, -75, -4, -18, 26, -32, 9, 47, 27, 29, 32, 80, -24, -16, 6, 40, 52, -19, 56, -102, 9, -46, 7, -19, 60, 15, 34, -26, 35, 61, -29, -10, 50, -26, 17, 36, 42, -5, -76, -5, -15, 21, 25, -24, 46, -29, -14, -51, -37, -9, -29, 43, -70, 11, 40, -4, -13, 42, -46, -56, -30, 10, 10, 32, -4, 20, -34, 15, 51, 29, -12, -30, 55, 22, 19, -30, -6, 0, -7, -4, 40, 15, 9, 49, 21, 27, 19, 6, -42, -35, 2, -26, 34, 20, 14, 24, 21, -3, -2, -12, -35, -39, -16, -1, 31, -16, -18, -25, 11, 41, -28, 11, -42, -14, -38, 27, -8, 21, 11, -58, 15, 30, 36, 23, -20, 45, 12, 5, -30, -22, 37, 13, 17, -32, 34, -15, -37, 20, -34, -19, -34, -43, -38, -27, 40, -33, -28, 35, 22, 11, -30, 13, 39, -26, -18, 19, 13, 13, -5, 2, 23, -27, 42, 35, 38, 17, -32, -4, 4, -52, -42, 93, -24, -32, 19, 38, 11, 6, -30, -36, -7, 3, -6, 33, -5, 13, -8, 3, -21, 17, 2, -32, -27, 39, 34, -22, 35, 32, -50, 61, -10, 39, 36, -10, -5, 40, 3, -28, -32, 16, 3, -25, -18, -35, 0, 24, -40, 1, 19, 29, 22, 25, -35, -25, 12, 41, 23, 9, 39, 37, 8, 50, -12, -22, 15, 16, 28, -16, -47, -41, -6, 52, 42, 58, 3, -44, 65, 12, 6, -54, -17, 16, -21, 19, -10, -1, 43, 17, -15, 28, -18, 16, 68, 24, -20, -43, -35, 29, -46, -3, -18, -41, 15, 36, 33, -41, 31, 41, 5, 32, 2, -33, -1, 8, -35, 15, -38, 31, 6, 38, -7, -11, -37, -7, 12, 27, 18, 15, -41, -19, 13, 38, -45, 12, 33, -18, -35, -37, 5, -12, 53, 26, -28, 13, 45, 4, -46, -41, -33, 24, -12, 31, -42, -51, -3, -44, 16, 10, -2, -42, 28, -44, 15, 37, 35, -13, -36, -48, -48, -45, -41, -23, 41, 35, -22, -45, 6, -8, 31, -32, 31, 1, -41, 0, -30, -32, 42, 10, -36, -14, 0, 14, -10, 45, 9, 3, 31, -35, 37, 16, 45, 51, -32, 14, -23, -22, -63, 4, 30, -4, 42, -37, -19, -49, 11, -33, -16, -39, 22, 8, -5, -24, -9, 44, 30, 9, 23, 46, -40, 13, -40, 35, -24, -33, -2, 17, 24, -20, -17, -17, -21, -34, -29, 30, 24, -29, -21, -13, -40, 1, 5, 40, -1, 23, 15, 32, 41, 39, -1, 40, -3, 7, -9, 8, -46, -46, -19, 12, -7, 32, -39, 3, 23, -34, 29, 47, 15, -27, -36, -15, -7, -36, -33, -5, -22, -28, -44, 40, -9, -34, 6, -18, -5, -37, 23, 3, 25, -4, 13, -6, -4, -19, -19, 40, 20, -8, 5, 17, 38, 40, -37, 5, -46, -29, 41, -47, 29, -36, 4, -5, -19, 20, 9, -51, 47, 49, 30, 25, -41, -1, 26, 15, 12, 16, 0, 1, 23, 22, 7, -14, 26, 37, 44, -31, -25, -35, 53, 44, -12, -49, 13, 48, -19, 22, 2, -15, 8, 39, -22, -22, -26, -18, -12, -12, 36, -3, 13, 52, 22, 3, 1, -27, 33, 35, 48, 24, 28, -24, 1, -47, 15, 31, -3, 39, 17, -38, 14, 42, 6, 25, -22, -46, 31, -16, 21, 4, 30, 11, -25, 35, 27, 33, 40, 5, 44, 4, -40, 1, -11, -55, -33, -32, -33, 49, -10, 30, -2, 14, -45, -3, -42, -20, 15, 19, 26, -28, 50, 16, -67, -29, 17, -23, -16, -17, -35, 5, -23, -14, -11, 42, -25, 45, -48, 36, 46, -16, 0, 45, 0, 34, -6, -42, -37, 49, 3, -49, 45, 31, 35, 60, -22, -45, -17, 29, 48, 4, -43, -20, 34, -18, 33, -29, 28, -44, -11, 29, -4, -33, -45, 36, -48, -30, 37, 28, -46, -23, -24, -29, 47, 48, 11, 15, 30, -12, 3, -21, -7, -14, -31, 1, -34, 15, 16, -4, 42, 54, -9, -9, 4, 36, 14, 15, 54, 29, -1, 41, 56, -23, -35, 20, 51, -19, 22, -24, -43, -17, 14, 17, -48, 28, 8, 1, 28, 33, -2, -5, 23, 15, 16, 42, -41, -6, 34, 33, -6, -26, 35, -33, -44, -11, -55, -47, 23, -30, 13, 8, -36, -17, -31, 0, -45, -31, 26, -35, 39, 12, 37, -44, 19, -46, 15, 15, 3, 37, -18, -31, -56, 16, -24, 39, 35, -41, -16, -33, 33, 34, 22, 16, -51, -24, 46, 12, -52, 28, -33, -56, 36, -51, 33, 7, -13, 26, -3, -8, 27, 27, 15, 22, 17, -9, -37, 19, -32, 7, -48, -52, -30, -24, 25, -17, 28, -36, -7, 11, -45, -12, -50, 31, 8, 21, -39, -46, 0, 12, -15, 30, 18, -6, -51, -17, -4, 38, 28, -8, 22, 18, 23, -15, 38, -49, -57, -14, 14, -13, -45, 32, -42, 10, 45, -68, -23, -31, 0, -9, 33, -13, -18, -22, 0, -16, 30, 0, -41, -32, -3, -5, -38, 59, -36, -44, 43, -36, 34, 56, -7, -16, 17, -15, -11, 42, -29, -16, 15, 1, 6, 43, -2, 15, -8, 10, -32, 5, -38, -14, -19, -37, -15, -49, 42, -12, -24, 47, 12, -31, 8, -36, 17, 24, 49, 39, 15, -18, -7, 44, -12, -13, -41, -40, 22, -17, -37, -30, -12, -23, 47, -19, -7, 61, -20, 20, 54, 46, 13, -41, 32, -66, -7, 39, -7, -19, -22, 31, -60, 13, -11, 43, -33, -8, -5, 63, -28, -9, 49, 1, -18, 7, -9, 2, 25, 9, 45, 18, 31, -19, 6, -35, 3, 40, 69, -32, -47, -35, 3, -47, -18, -20, -35, 16, 39, 10, -24, 13, 7, 33, 46, 28, -22, -16, 17, 47, 10, 2, -42, -22, 28, -44, -23, -33, -29, 3, 23, 33, -42, 7, 44, 47, -39, -23, -11, -34, 38, -4, -26, -7, 33, -14, -8, -51, -27, -15, -26, -15, -1, -42, -44, 44, 12, 30, 2, 26, 21, -8, -38, -47, 30, 17, 9, 16, 36, 62, 2, -4, 37, 8, 10, 16, -42, 8, -44, -30, -4, 12, -37, 24, -31, 0, -25, -40, 2, 18, 25, 10, 50, 6, -29, -16, -17, 17, -24, 9, 22, 28, 18, -37, -47, 16, -55, 4, 16, -20, -58, 3, -17, -44, 21, 1, -54, -8, 29, -16, -27, -35, 15, -28, -23, 17, -23, 15, 31, 24, 8, -5, 3, -2, 35, -34, 13, -17, 37, -23, 32, 23, 22, 11, -28, -31, -14, 3, 13, -2, 18, -13, 17, 13, -47, -53, 16, -9, 37, 38, -52, -8, -29, -24, 15, -16, -48, 26, -47, -11, -39, -38, -9, -27, -3, 9, -50, 12, -36, 10, 35, -5, -17, -14, -27, 11, 31, -15, -50, 48, -44, 17, -43, 24, -47, 11, 32, -46, -53, -45, -6, 27, -12, 18, 3, -2, 27, -2, 75, 34, 12, -2, -10, -32, 16, 12, 41, -24, -42, 0, 12, -3, -10, 37, 21, 0, 21, 10, -29, 10, 13, 0, -26, 28, 21, -23, -33, -39, -3, -1, 2, -30, 33, -18, 35, 0, 25, -42, -44, -24, 35, -26, 36, 15, 5, -23, 17, -31, 2, 54, 38, 23, -45, -11, -29, -16, -23, -9, 0, -41, -39, -49, -40, 35, 31, -9, -20, 3, 31, -10, -44, -2, 50, 1, -44, 25, 34, 3, -49, -22, 44, 46, 29, -13, 32, -6, 13, 13, -37, -4, 34, -23, -5, 12, 9, 11, 19, 24, 16, -23, 10, -31, -6, 16, -22, 2, 1, -6, -31, -27, -45, 42, 14, 37, 5, 34, -46, 8, -47, -2, -18, -22, 8, -35, -9, -36, -18, -15, -28, 11, 34, -7, -1, 7, 25, -47, -1, -21, -53, -6, 25, -47, 35, -25, -33, 39, -29, 21, 21, 29, 8, -52, 23, -25, -32, 0, -17, -38, 2, -8, -2, -51, 9, 17, -11, -27, -5, -3, -10, 8, 3, 7, -57, 28, -8, 11, -19, -35, -18, 21, -2, -41, 9, -39, 8, -22, -29, 15, -21, 19, -47, 0, -20, -26, 24, 5, -14, -3, -28, -5, 17, -11, 2, -21, 9, -42, 16, 11, 23, -38, -5, -8, -46, 10, 38, -10, -27, -22, 10, 13, -54, -7, -3, 19, 36, 43, -28, 55, 0, -13, 24, -22, 42, 29, -10, -12, -56, 3, -4, 56, -4, -7, 35, -12, -16, -18, 12, 54, -21, -40, -7, 4, 21, 63, -6, -33, -60, -28, -35, 12, -17, 22, 24, 31, 0, 38, 26, -57, 3, -35, 58, 20, -33, 42, 23, -18, 31, -34, -19, 10, 41, 14, -12, 11, 34, 33, 50, 69, 40, 14, 7, 29, 18, -1, 13, 2, -14, -21, -23, 26, 64, 31, 13, -15, 38, 26, 25, 53, -31, -60, 22, 56, -20, -13, 36, -96, -47, -29, -46, -5, -13, 55, -26, -17, -15, -26, -26, 27, 3, 19, -23, 26, -6, 64, -26, -23, 47, -30, 50, -4, 7, 7, 46, -30, 18, 22, -43, -24, -3, 5, 18, 1, 34, -21, 50, -4, 31, -29, -8, 3, 35, -54, 18, -20, 40, 69, 4, 30, 39, 24, 12, 51, -23, -31, -16, 43, 28, 30, 15, 37, 6, 15, 30, -40, 25, 44, -18, -44, 15, 37, 20, -35, 39, -29, -12, 38, -20, -12, -24, -34, -20, -35, 24, 38, 30, 23, -40, -15, 10, -4, 41, -19, 47, -39, 32, 14, 10, 1, 43, 72, -29, 8, -13, -16, -11, 10, 50, -7, 36, -22, -20, -47, 48, 64, 47, 37, -14, 14, -29, 22, 29, 35, 4, -32, -33, 8, -35, 15, 50, 5, 31, -44, -34, 38, -8, -16, 39, -7, 45, -46, -10, -7, 4, -44, 19, -20, 2, -4, -39, 15, -20, -4, 60, 3, 38, -6, 28, 16, -48, 5, 38, 43, 0, -51, -37, 14, 7, -40, 13, 35, -11, -18, -30, 31, -20, -2, 42, 0, -17, 42, -34, -21, 17, -11, 27, -17, 11, -29, 5, -37, 17, -46, 0, 1, 9, 28, -49, 9, -21, -16, 39, -3, 22, -39, 27, -26, -10, -12, 33, 36, -44, -24, -50, 23, 37, 32, 24, -46, 8, 25, -3, -7, 45, -44, -27, 30, -2, -31, 41, -5, 7, -10, 11, -23, 27, 11, -12, 48, 30, 5, 2, -13, 39, -19, -12, 16, -5, 19, -32, -39, 27, 41, -9, 40, 44, 40, 26, -56, 20, -5, -40, 20, 35, -34, -2, 71, 5, -12, -18, -38, 31, -34, 13, 18, -7, -17, -25, 43, -42, -7, -30, -18, 36, -21, 38, -34, -11, -1, -20, 3, 16, 36, 24, 31, -26, 10, -19, -32, -10, 40, 30, -23, -36, 24, -4, -6, -1, 41, 2, -25, -10, 49, -31, 35, 53, 44, 9, 40, -39, 19, -29, -16, 46, -62, -9, -16, -19, -52, -4, 21, -27, 45, 16, 27, 24, 27, 11, -22, -19, 18, 39, 48, -23, -33, -27, -23, 2, -31, 4, -43, 83, -18, -46, -1, -9, -21, 37, 40, -20, -3, 48, -33, -9, 30, 76, 7, -4, 6, 28, 15, 18, -8, 6, -37, 34, 30, 4, 16, 4, -5, 5, -21, -48, 46, -26, -79, 11, -15, 22, 43, 30, 41, 2, -40, -18, -44, 2, 25, -27, 2, 27, 24, 48, -46, 40, 3, 45, 20, -6, -23, 23, -12, -22, 20, -34, -41, -34, 6, 35, 26, 30, 6, 17, 22, 40, -5, -51, -7, 15, -38, -8, -35, -38, -15, -8, -2, -11, -31, 27, -6, -23, -36, 3, -43, 40, -5, 36, -2, 12, 45, -48, 7, 15, 18, 28, 46, 26, -5, -16, -35, 29, -15, 69, -40, -30, -30, -39, -49, -18, 9, 20, 20, 29, -8, 11, -45, 62, -21, -23, -11, 9, -33, 37, 4, -8, 36, 25, -44, 38, -13, -30, 30, -22, -28, -36, 12, 21, -5, 34, -14, 23, 39, -21, 41, -20, -13, -32, -23, -45, -34, 35, 47, 8, 38, -16, 28, -38, 14, -18, -1, 22, 21, -14, -28, -13, -23, -21, 21, -1, 45, -7, -41, 36, -26, -27, -13, 21, -4, 25, 38, 46, 35, -6, -4, 8, -5, 33, -49, 44, -31, -37, -7, 9, 33, 19, 67, 20, -32, 13, -35, 33, -6, -30, -15, 32, -37, -38, -21, 16, 29, 66, 29, 14, -8, 54, 11, 12, 1, 43, -22, -17, 19, -30, -25, -58, -9, -17, -43, 11, -40, 37, -3, 5, 20, -40, 23, 43, 15, -43, 50, 2, 59, -7, -8, -41, 7, -7, -1, -25, -44, -26, -37, 35, 35, -29, -4, -16, -2, -3, 13, -16, -17, -11, -2, -24, -22, 38, 24, -15, 1, -15, 16, 3, -29, 22, -7, -4, 38, -37, 4, 44, 14, -28, 13, -7, 24, 25, -25, 34, 12, -25, 40, 18, 0, -21, -52, -25, -15, 35, 0, 21, -16, -16, 11, -22, -26, 13, 1, -15, 14, 20, -32, 11, 14, 7, -39, 42, -10, 57, -26, 37, -38, -42, -51, 29, 18, 60, -39, -13, 32, 20, 12, -12, -11, 30, -8, -14, 24, 43, 0, -10, 20, 19, -8, -46, 12, -24, 17, -40, 8, 4, 7, 20, 10, -1, -40, 44, 33, 38, -6, -15, 49, -49, 4, 9, -38, -33, 1, -22, 36, -14, 32, -13, -12, -35, 31, 5, 35, -11, -38, -16, 29, -12, 18, 36, -48, -19, -52, -27, -15, 4, -22, 29, -24, -15, 21, -21, 6, 5, -4, 41, -46, -39, -52, 40, 5, 14, -16, -42, -19, -32, -42, -40, -4, 28, 8, -8, -15, -28, -12, 0, 7, 31, -56, -50, 35, -17, 8, -45, 40, -27, 20, -47, 39, -23, -18, -43, 20, 1, 37, -9, 34, -44, -14, 47, -23, -22, 64, -27, -22, 3, 4, 41, 36, 34, -38, -3, 58, 22, 17, 22, -9, -45, -15, -27, -32, -2, -9, 24, -52, -44, -14, -13, -11, 44, 10, -16, -6, -39, -32, -4, 31, -27, 44, 16, -33, -34, -23, -18, -26, 28, -21, -30, 22, -21, -32, 23, -37, -3, -34, 43, -9, -42, -49, 27, 8, -33, -37, -32, -21, 37, -40, -20, 1, -26, -13, -24, 54, 33, 38, 20, -33, 53, 22, -19, 58, 45, 10, -15, 3, 0, 25, -8, 30, 42, 52, -15, -37, 46, 12, -6, 28, 9, 12, -4, 38, -20, -23, -20, -19, 61, 16, -65, 38, -33, -9, -27, 3, 40, -9, -4, -1, -6, -11, -7, -47, 14, -23, 7, -13, -1, 65, -31, 31, 32, 19, 15, 1, 14, 9, 0, 20, 11, -44, 35, -34, -15, 37, 27, 35, 39, -5, -27, 0, -29, -12, -33, 9, -43, -28, -19, 27, -43, -30, 29, -14, -17, 7, 41, -1, -6, 28, 10, -42, -50, -41, -26, -26, 34, -36, 42, 38, -6, 33, 19, 43, -14, 8, 0, 6, 11, -27, -27, 3, 16, -24, -27, 30, -15, -18, 0, 18, -45, -4, 19, 6, -1, -14, 29, 18, -14, -7, -1, 44, 21, -2, 20, -11, 32, -15, -21, 24, 35, 35, -49, 32, 3, 23, -15, 16, 45, -24, 44, 39, -29, 0, -82, 4, 52, 16, -39, 9, -8, 15, 25, -26, -6, 17, -2, 0, -39, 8, 20, 35, 29, -11, -30, 29, -32, -20, 43, 18, 44, 14, -25, 32, 42, 32, -39, 9, -14, -40, -19, 33, -49, 31, -43, -39, 29, 49, 33, 15, 6, -5, 15, -32, -34, -19, 32, 8, 7, -34, 30, -33, -16, -22, 47, 27, 26, -33, 13, -18, 32, -20, 40, 47, 31, 1, 27, -10, 29, 43, -48, -18, 42, -79, -11, -7, -34, 36, 36, 58, -37, -47, 40, 37, 41, 48, 33, -35, 28, 36, -9, 28, -35, -9, 6, 19, 5, 0, -34, -1, 10, -4, 18, -17, -45, -29, -45, 14, -28, 35, 10, 14, 20, -50, -8, 17, -10, 19, 21, 2, 27, -26, 62, 31, 41, -54, 35, 5, 5, 44, -41, 44, 13, -20, -27, 22, 51, 66, 16, -28, -46, -32, -35, -7, -33, -2, 34, -6, 11, 29, -9, 33, -21, -28, 17, -26, 1, 34, -17, -27, 14, 1, 2, -41, -25, 33, -6, 9, -12, 34, -16, 38, 43, -13, 40, 6, 6, 20, 47, 38, 23, 34, -39, -26, -39, -48, 30, -38, -29, -25, 10, 41, -12, 24, -11, 10, -7, -37, -33, 43, -54, 29, 44, -27, -6, -32, -14, -27, -5, 25, -2, -11, -2, -36, 24, -23, 39, -50, 49, 34, -32, 36, -18, 2, -27, -34, -24, 35, 40, -12, -19, -30, -39, -1, 35, 2, -42, -9, -11, 0, 30, -34, -27, 34, 1, -45, 16, 5, -40, -21, 26, -14, 20, -34, -20, 34, 48, 20, 28, 22, -18, 36, -8, -48, -15, 34, -47, 48, -7, -37, 33, -10, 18, 40, 20, -3, 34, -18, -37, -49, -39, 32, -38, 10, -10, -39, 1, 2, 9, -8, -31, -19, -2, -48, -32, 28, -43, 15, 3, -27, 39, 8, 0, 20, 44, -39, -25, -42, 16, 28, 3, -4, 15, 0, 25, -31, 78, -37, -42, -23, -3, -38, 9, 5, -25, -45, 31, 5, 8, 5, 13, -22, -23, 10, -38, -34, 12, -16, -4, -34, 18, 24, -15, -9, -46, -12, -30, -44, 5, 9, -5, -41, -34, -26, -17, -11, 13, -44, 28, -37, -15, 29, 32, 28, -31, -31, 29, 19, -47, 5, 20, -16, -21, 30, -14, -33, -30, -13, -36, -37, -18, 32, -36, 8, -37, 24, -30, 45, -16, -18, -20, -29, -8, -49, 21, -5, -25, 21, 22, 11, -23, -10, -37, 7, 13, -42, 3, -10, -29, 18, -48, 25, 29, 23, -27, -41, -3, -33, -46, 7, -4, -26, 11, -17, 25, -11, -42, 10, 27, 46, -32, -17, -48, 16, 18, 41, -29, 50, 38, -16, -3, 19, 44, -17, 9, -45, 11, 35, -53, 70, 34, -15, 15, 29, -25, -26, 33, 33, 32, 2, 26, -3, -13, 37, -24, 35, 23, 22, 24, -38, -10, -20, -35, -46, 13, -22, 30, -12, -37, 58, 58, 43, 3, -40, 33, 35, -10, -28, -27, 20, -33, 35, 31, -24, -11, 32, 27, -36, 4, 41, 2, 32, -40, 8, -8, -42, -34, 20, 63, -4, 45, 36, 25, 36, -16, -6, -15, 22, 4, -39, -44, -15, -10, 27, 40, -38, 45, 6, 37, -2, -37, 26, -19, -6, 24, 14, -12, 18, -6, -8, 37, -33, -31, -13, 43, -8, 40, -41, 61, -10, 44, 15, 23, 29, -43, 50, -7, 29, 27, -15, 59, 1, 33, -48, 37, -9, 61, -2, 37, -39, 3, 63, 5, -61, -14, -26, 53, -18, 17, 29, 28, -2, 37, 33, -36, -14, -40, 3, -3, -52, 13, 22, 20, -17, -24, -31, 42, 47, 64, 20, 20, 42, 44, 21, -7, 57, 34, 44, -41, -1, 45, -22, 30, 45, 29, -57, -7, -26, 49, -21, 0, 4, 45, -14, 23, 24, 6, 47, 5, 63, -9, 2, -23, -31, 30, 0, -28, 7, 11, 50, -14, -5, -16, 24, -17, 9, -14, -32, 61, 19, -39, 10, -43, -11, 61, -25, 19, -35, -39, 22, -15, -44, 27, -14, -37, 35, -2, 39, -29, 24, 40, -13, 20, -24, 28, 35, 24, 10, -45, -19, 7, -47, -29, 5, -32, -5, -19, 2, -45, -7, -45, -18, -10, -24, 15, 0, 39, 30, -31, -21, 4, -46, -4, 12, 21, -1, -41, -20, -6, -29, -47, -37, 32, 26, 5, 33, -40, -42, 11, 41, -8, 40, 42, -32, 10, -17, 14, -4, -26, -2, 12, 41, 46, 1, -1, 20, 19, -6, 1, 8, -13, -1, -42, -17, -42, 1, -20, -44, -14, -8, -40, 14, -31, -7, -22, 38, 22, 32, -20, 8, 22, -5, -37, -26, -12, -10, 43, 13, -39, -6, -14, 21, -33, 17, -13, -32, -31, -28, 40, -6, 13, -23, 38, 5, -32, 41, -29, -34, 5, -15, 5, -16, -16, 7, -51, -11, -36, 56, 33, 32, 15, -23, 9, -13, 20, 10, -19, -7, -40, -6, 10, -4, -7, 29, 22, 26, 3, 9, 2, 39, 37, -21, 35, 26, -20, 33, -10, 32, -3, -40, 4, 8, 28, 0, -17, -45, 6, -20, -56, 64, -51, -15, -41, 46, 28, -63, -43, 8, 19, -28, 10, -21, 46, -38, -40, 20, 7, 13, 18, -31, 35, 3, -43, -41, 2, 16, 23, 21, 6, -14, 30, 7, 34, 5, 8, 32, 13, 33, -63, 22, 30, -44, 13, 5, -6, -29, -31, -25, -21, 39, -10, -9, 34, 37, 34, 2, -36, -43, -17, -47, 18, 6, 34, 37, -1, 9, 16, -21, -32, 35, 5, -31, -45, -37, -1, 17, -5, 11, -8, -26, 33, -31, 6, -45, 56, -24, 7, 0, -32, -44, 42, -14, -2, -4, 13, -39, -23, 14, -24, 21, -27, 49, 46, 25, -38, 32, 16, 2, -41, 23, 18, 42, 22, -18, 17, -4, -7, -5, 32, -30, -17, 52, 26, 11, 27, 20, -1, -48, -7, -34, 4, -17, 39, -31, -6, 39, -22, -13, 46, -8, -10, -32, 18, 14, 31, -24, 6, -5, 1, 46, 8, 17, -22, -15, -5, 42, 25, 19, -21, 28, 7, 12, 45, -15, 24, 27, 43, 31, -1, 9, -32, -48, -44, -37, -50, -55, 33, -40, 3, -19, 17, 22, -29, 61, -43, 16, 9, 36, -10, -36, 33, 19, -36, -32, 28, -22, 49, -12, -41, 40, 21, -37, -23, 16, -20, -45, 44, -34, -38, -21, -27, 20, 39, -27, -26, -19, 36, 41, 43, 15, -15, -20, -44, 14, 46, 27, -41, 36, -26, 11, 16, -11, -35, -37, 15, -34, -36, -38, 36, 13, -1, 51, 4, 13, 1, 21, -16, 18, 35, -7, -40, -4, 19, 38, -3, -32, -44, -40, -41, -40, 71, 42, 9, -19, 39, 4, 28, -20, 32, 67, -4, 30, 7, -11, 9, -18, -53, -41, 22, -7, -7, 3, -3, -2, -3, 18, 16, 18, -34, 28, 9, -12, 31, -20, 23, 5, -11, 17, 2, 23, 22, -48, 22, -41, -17, -36, -44, 47, -53, -4, -36, -37, 28, 14, 4, -41, 46, -21, -29, -38, 9, -23, 27, -38, -42, -51, -18, 17, -46, -40, -37, -33, -3, -2, -9, 54, -6, -50, -32, -26, -14, -21, 2, 23, 31, 17, -18, -1, 32, 1, 51, 10, 26, 81, -12, 35, 29, 27, 7, -3, -43, 35, 39, -17, -29, 2, -4, 1, 0, -34, -13, 9, 121, -37, -40, -37, -5, 5, 9, 35, -17, -27, 16, 33, -22, 6, -55, -6, 51, -7, 16, 0, -1, -42, 0, 8, -16, 42, -11, -21, 7, -38, 25, 37, 19, 23, 22, -17, 43, 10, -6, -16, 30, 19, 23, 33, -15, -60, 27, 15, 38, 39, 11, -1, 5, 31, -3, -16, 43, 54, -26, -5, 26, -28, 43, -10, 19, 23, 37, 22, -39, -42, -14, -6, 48, 13, -20, -24, -38, 8, -9, -42, -38, 15, -6, 47, 40, 22, 49, -35, 8, -36, 36, -6, -19, -10, -2, -28, -13, 9, -38, -7, 35, -51, -21, 6, 49, 2, -1, 3, -27, 5, 23, 20, -51, 15, 30, 12, -37, 43, -23, 8, -4, -22, -17, 7, -37, 15, -1, 45, 37, -10, -37, 31, 33, -69, -19, -49, -42, 0, 59, 35, -33, 48, 31, 59, 14, -20, 35, 12, -26, -41, 8, 22, 40, -25, -35, -36, 18, 23, 26, -20, -31, 13, 8, -13, 32, 7, 44, 12, 13, -10, -27, 43, 26, 48, -3, 38, -14, 12, -37, -21, 6, -17, 12, -5, -31, -29, -9, -41, -52, -32, -22, 10, -23, 30, -14, 15, 33, 32, -19, 41, 47, 22, 19, -18, 9, -53, -30, 15, -8, -5, -15, 17, 39, -37, 4, -32, -37, 30, 44, -7, 22, -14, -1, 41, -61, -26, 17, 47, -8, -17, -28, 11, -9, -19, 46, -27, 33, 10, 20, 4, -14, 8, 45, -7, -54, 9, -11, -37, -2, -4, -38, 42, -36, -22, -36, -38, -19, 0, -4, 37, -22, -20, -32, 42, 25, 26, 32, -33, 41, 9, 19, 0, -17, -28, 17, 6, 59, -25, -44, -14, 34, 6, -8, 23, -8, -1, -6, 24, 1, -36, 9, -6, 1, 34, 32, 48, 6, -16, 40, 21, 37, -31, -14, 14, -8, -61, 9, 44, 20, 14, -39, -53, -33, 13, 44, -9, -41, 23, -12, 17, 63, 51, 32, 43, -35, -48, 53, 16, 40, 26, -5, 1, -12, -30, -5, 1, 84, 20, -69, 42, -41, -15, -11, 1, 24, -30, 32, 6, 28, 32, 26, -28, -52, -24, -34, -4, -22, 35, -8, -43, 22, -28, 39, 32, -34, 33, 18, -50, 10, 26, 15, 36, 39, -36, 19, -4, -31, -4, -27, 14, -6, 17, 1, -7, -4, -26, -18, -23, -56, 29, 2, 18, 22, 0, -39, -32, -37, -37, 24, -40, -39, -13, 10, -48, -12, -34, 4, -7, 37, -53, 17, 27, -38, 14, 0, 31, 2, -5, 10, -55, 12, 21, 14, 7, -21, 22, -20, 8, -16, -34, -37, -28, 9, -47, -52, 31, -46, 41, -37, 24, 38, -13, -15, -50, 8, 1, 35, -25, 11, -35, -38, -47, 13, 0, 25, -36, -1, -48, -23, -4, 35, 20, -4, -7, 13, -17, -44, 42, 13, -78, -28, 18, -10, 36, -12, 6, 41, 10, -53, -58, -27, 45, 9, -23, 8, -30, 10, -3, 1, -14, 31, -6, 25, 6, 29, 12, 5, 35, 27, -16, 36, -26, 33, 17, 13, 41, -42, 31, -31, 43, 6, 15, -36, 41, -27, 47, 7, 16, 51, -20, 46, -18, 44, 21, -39, -27, 10, -9, -50, -34, 39, -9, 47, -1, -19, -36, -21, 38, -24, -4, -25, -42, -28, -39, -24, -35, -7, -27, 11, -43, 62, -33, -15, 52, 41, 42, 61, 23, 37, -42, -38, 44, -34, -41, 51, -28, 51, 16, 20, -42, -21, -53, -24, -12, -27, -44, -4, -37, 33, -54, 37, -4, -39, 8, -39, -21, -4, -7, -32, 24, -6, -71, 32, -3, -62, -15, 23, 8, -37, -42, 36, 8, 24, -14, 6, -51, 27, -47, -22, 5, 16, 31, 27, -10, 31, 7, -17, 3, -10, -26, -6, 43, 1, -45, 45, -14, 3, -6, 4, 0, 40, 13, 44, -15, 23, 5, -22, -26, 36, 26, 21, 3, 37, -51, 34, -57, -42, -34, 4, -22, 4, 62, -12, 79, -36, -18, 18, 24, 25, 9, -4, 9, 33, 27, 0, 3, 1, 33, 55, -4, -14, -30, 41, -12, -8, -40, 29, -37, -17, 49, -21, -22, 20, -33, 19, -27, 10, 35, -31, -15, -37, -37, -26, 35, 45, -5, -30, -23, -10, 41, -19, -36, 2, -61, 44, 26, 37, -41, -7, -34, -34, -44, -15, 36, 12, -18, 21, 17, 38, -42, -45, 13, -9, -2, 57, -31, -16, 10, -19, 21, -42, -24, 46, 18, -40, 33, 11, -1, -8, 40, 46, 34, 45, 4, 30, 19, -6, 49, -22, -36, -20, 53, -7, 35, 7, -19, -27, -52, -31, -39, 19, -42, -20, 32, 15, 83, -16, -1, 60, 29, 13, 4, 40, 8, 17, -43, 0, -16, -15, 10, 44, 20, 5, -1, 61, 37, -45, -34, 46, -25, -13, 14, 2, 51, -17, -18, 16, -21, 64, 9, 15, -37, 8, -44, -27, 0, -52, 59, -45, 20, -30, 15, -35, -8, -48, -17, 31, -13, -20, -23, 26, -4, 24, -44, -45, -22, 25, 12, -25, 46, 15, -28, -57, 46, -28, -29, 36, 1, -35, 10, 13, 33, 20, -26, -17, -10, -28, -22, -35, 24, 15, 11, 0, -23, -16, 48, 15, -33, -4, -3, 44, 10, 28, 29, -6, 39, -32, -34, 37, -49, -21, 51, 36, 33, 7, -30, -3, 27, -14, -19, 21, 18, 24, -54, -28, -17, -34, 24, -38, -20, -53, 29, -18, 6, -31, -32, 38, 8, -4, -26, -25, 43, 28, 14, 26, -30, -24, 37, 5, 6, -23, 32, -3, 6, -42, 9, 71, 21, -20, -12, -4, 14, 35, -29, -4, -44, -15, 16, -30, 7, -5, -8, -5, -22, -2, 3, 39, 2, -17, -32, 32, 16, 28, -1, 6, -1, 25, -54, -26, 9, -20, -29, -45, 37, 21, -43, -9, -17, 43, -28, -16, -26, -37, -31, -20, -37, -10, -45, 53, -1, -35, -21, 5, -25, 11, 25, -65, -40, 20, -4, 32, 31, 0, 58, -6, 2, -7, -31, 9, -58, 17, 19, -54, -24, 25, -67, -37, -16, 16, 36, -25, 28, -28, 20, -66, 17, -4, -23, -61, 35, 31, -35, -29, 22, -18, -25, -5, -46, 32, 28, 1, 41, -1, -29, -5, -31, -31, 18, 7, -30, -25, -45, 34, -18, 12, -1, -50, -12, -50, 6, 16, -6, -9, 3, -23, -5, 40, -8, 15, -50, -47, -12, -43, -35, 3, 37, -1, -49, -22, 29, 5, 29, 35, -43, 20, 6, -24, 18, 7, 27, -1, -41, 22, -47, -48, 37, -41, -12, -5, -40, 22, -6, -33, -37, -1, 10, 5, -34, 30, 22, -58, 38, -27, -31, -13, -54, -19, 13, 10, 1, 13, 47, -17, 36, 19, -56, -38, -46, -4, 13, 33, -45, -14, 16, -33, 14, -7, 28, -2, 29, -52, 32, -28, -14, 24, 34, 45, -5, -17, 25, 48, 37, -11, 11, -44, -2, 18, 12, 46, 6, 48, 11, -23, -9, 25, -32, -11, 9, -4, 14, 59, 3, -34, -33, 29, 3, 50, 57, -42, 37, 1, 7, 56, -12, -18, -29, -4, 52, 1, 29, -5, 61, 20, -22, -23, 20, 29, -1, 32, 11, -27, -27, -13, 26, 56, -7, -25, -24, 38, -10, -32, -5, 36, 56, -2, -9, 36, 30, 41, -40, -21, 43, -28, 56, -32, 62, 40, 28, 23, 61, -35, 20, -20, -98, -33, -21, -15, -9, -2, 67, -37, 10, 14, -4, -13, 48, 16, -22, -8, 39, 40, -5, -54, 11, 39, -17, 35, 30, 32, -34, -3, -34, -29, -16, 20, 36, 108, -4, 20, -31, 29, 27, 40, 36, 37, 33, 33, 26, 30, -16, 13, 2, 6, 22, -9, 12, -7, 25, -45, 19, -38, 10, 29, 42, -47, -46, -12, 15, -38, 3, -2, -24, 39, -16, -55, -19, -17, -39, 16, -38, 16, -51, 24, -7, -32, 2, 35, 10, -36, 27, 8, -24, -16, -19, 32, -13, 9, -4, 17, -23, 38, -15, 5, 66, -37, -26, 30, 37, -30, 16, -35, 60, -12, 52, -38, 91, -25, 26, 46, -11, -44, -17, -20, 6, -67, -35, -34, 19, 40, 10, -17, 50, -33, 16, 99, 14, -34, 30, -25, 12, 31, 18, 0, 39, 27, -15, -32, -33, 3, 2, 11, -41, 10, -48, -34, 10, 35, -42, 30, -38, 7, -13, 35, -48, 38, 34, -43, 32, -29, 6, -5, 34, 1, 22, -51, -24, 4, 32, -28, 29, -42, -29, -11, -5, -29, -26, -32, -30, 12, 36, 31, -53, 9, -46, 29, -17, -52, -18, -57, -49, -13, 3, -1, 42, -54, 9, 10, -57, 40, -42, -42, -11, -4, -52, -5, -2, -13, -20, 32, 39, -33, 12, 9, 32, 31, -40, -51, 30, -25, 39, -24, -50, -49, 19, 20, 23, -18, -42, -22, 31, -13, 20, 10, -56, -46, -36, 5, 25, -11, 23, -56, -31, 33, 17, -5, -43, -21, 17, -32, 43, -18, 3, -35, 36, 15, 26, -15, -18, 13, -40, -11, 30, 11, -77, 15, -38, 24, 57, 21, 16, 19, 49, -49, 32, -10, 34, -11, -35, 38, -7, -15, -14, 27, 37, -54, 8, 33, 34, -13, -1, -42, -42, -1, 34, -30, 38, -8, -27, -19, 1, -45, -32, -51, 29, 38, 29, 9, 12, -12, 34, 4, -10, -32, 36, -45, 35, -57, 59, 37, -14, -13, 27, 29, 24, -37, 30, 25, 2, -42, -59, -15, -15, 16, -46, -41, -17, -21, -42, 0, -41, -24, -43, 17, 3, 10, 8, 35, -18, -102, 46, 44, -33, 38, -29, -21, 36, 45, -13, 25, 10, -20, 18, 6, 40, 31, 12, 32, 15, 22, 42, -25, 28, 29, 27, 28, -62, 20, 37, 53, -47, 41, -48, 8, 84, -7, 16, 46, -31, -13, 22, 29, 6, -36, -5, 6, 40, -15, -13, 16, -12, -62, -30, -3, 14, -29, 8, 3, -23, -44, 38, 17, 29, 13, -31, 1, 38, -20, -20, 38, 42, -43, -43, -22, 2, -12, 17, -11, 22, -13, -5, 26, 7, 5, -39, -29, 25, 37, -33, -29, 28, 32, 64, 3, 31, -13, -42, -26, -25, 23, 37, -24, -45, -19, 14, 29, 3, -3, 36, 26, 33, 2, 0, -37, -4, 3, -43, -9, -1, -23, -8, 36, 1, -43, 5, 87, -9, -26, -13, 9, 41, -29, -21, -29, 6, -25, -24, -14, -12, -21, -23, -25, -8, 41, 28, 5, 1, -10, -41, 10, 34, -17, -3, -15, 28, 1, 24, 36, 48, -11, -9, -32, -20, 10, 10, -20, -17, -26, -13, -51, 14, -21, -52, -26, -34, -51, -40, -21, -19, -30, -43, -13, -49, 4, -16, 29, 2, 14, 7, 17, 10, 9, 24, 39, 37, 17, -33, -4, 39, 38, -9, -33, -15, -5, 32, 28, 7, 4, -34, 31, -30, -13, 31, 39, 28, -30, 0, -50, -41, 27, -7, -20, -21, 106, -42, -31, 19, -8, 44, -36, -11, 17, 13, -8, 11, 18, -40, -45, 23, 34, -10, -17, 17, -23, -2, 37, -46, 30, 51, 28, 24, 15, 38, -9, 56, -2, 16, 22, 8, -26, 32, -46, -16, 37, -15, 46, 25, -42, -27, -21, -34, 12, 25, -16, 37, 40, 14, 40, -13, -1, -10, -60, -1, 6, -26, -20, -14, 17, -4, 7, -34, -16, -46, -5, -31, 25, -37, 39, -13, -62, 21, 12, -17, 37, -39, 33, 3, -6, 8, 29, -57, 42, 9, -60, 8, -42, -82, -35, 6, 41, 10, -3, 43, -15, -3, -31, 38, -15, -37, 6, 39, 46, -21, 9, 22, 5, 16, 13, -33, 35, 16, 5, 36, -55, -8, 40, -40, 33, 22, 3, 22, 42, -29, 31, 37, -46, 58, 46, -37, -14, 43, -45, 45, -37, -39, -53, -77, -29, 33, 30, 41, -26, -21, 45, -29, -13, -11, 31, 30, 38, -40, -29, -48, 40, -2, -25, 39, -9, 20, -46, -36, -33, -16, -27, 42, -30, 23, -12, -38, 27, -44, -16, 37, 30, -36, -29, 2, -16, 3, -39, -6, -8, 17, -5, 32, 24, -72, 13, -18, 16, 9, -36, 22, 43, 8, 51, 38, 8, 45, -9, -22, 29, -13, -17, -48, -47, -34, 19, -17, 45, -30, 39, -23, -1, -39, 33, -17, 10, -45, -36, -9, 14, 38, 54, -1, -54, 25, 31, -42, 6, -1, 20, -40, 26, -21, -30, 0, -36, -10, 18, 17, -12, 17, -25, 35, -24, 25, 14, -67, 3, 60, -30, -25, -13, 40, -5, 26, 37, 16, 11, -15, -22, -14, -1, 2, -8, 35, 6, -42, 58, 16, 15, -15, 1, -24, -53, 7, -2, 49, -24, 6, -20, -50, 31, -21, 43, -33, -22, -3, 15, -2, 1, -5, -16, -22, 36, 0, 16, -11, 13, 6, 7, -40, 13, -41, -27, -29, 52, 30, -8, 46, -28, 4, 48, 15, -37, 32, -48, 26, 32, -14, -56, 25, 50, 13, -7, -47, 2, -21, 87, 17, -67, -19, -10, -9, 7, 3, 13, -22, -1, -22, 14, -28, 91, 43, -30, 43, 29, 23, -30, 14, 23, 57, -13, -13, -30, -9, 35, -13, 5, -13, -42, -4, -29, 27, -11, -44, -14, -34, -11, -44, -21, -12, -44, -22, -4, -33, -41, 12, 7, -26, 27, 35, -33, 46, -14, 45, -57, 39, 48, -10, 48, -45, -31, 36, 8, -39, -11, 31, 1, 7, -28, 24, -23, 23, -10, 10, 0, -16, 7, 20, 12, 11, -19, 5, 24, -42, -39, -48, 44, 56, -18, 28, -18, 20, 49, -23, 11, -59, 41, -27, -7, -6, -32, -33, 53, 33, -16, -49, 41, -7, 100, 23, -70, 24, -6, -7, -36, 16, -25, -48, -28, -7, 12, 37, 17, -4, 38, -33, 0, -28, -37, 33, -22, 19, -32, -35, -18, 53, -37, -5, -64, -36, 22, 18, 6, -3, 10, 7, 38, 0, 43, -14, 4, 28, -11, -34, -37, 38, 11, 23, 25, 13, -26, -39, 37, -1, 6, 43, -44, -37, 11, -18, 13, 33, 40, -19, 11, 7, 8, 6, -43, 4, 31, -20, 12, -25, 40, 17, 6, 16, 39, 20, -44, 13, -4, -37, 25, -58, -20, 43, 6, -38, 12, -48, -29, 29, -3, 24, -35, 1, -48, -19, -65, 2, 31, 20, 36, -17, -11, -46, 29, -20, 29, -18, -28, -31, 10, 47, 13, 12, 14, -34, 41, 30, -25, 36, -71, 21, 8, -12, -44, 25, 27, -7, -4, -31, -34, -31, 33, -29, 8, 40, 23, 85, 34, -38, -22, -26, 41, 24, 37, 9, 53, -25, 34, -20, -38, -21, -12, -18, 40, -33, 11, 27, -46, -39, -18, -23, 13, 16, -23, -44, 47, 50, -24, 21, 53, 35, 0, -15, 33, -4, 48, 15, 38, -26, -14, -5, -47, -28, 19, 23, 9, 34, 19, 8, -4, -6, -16, 48, 39, 30, -45, 24, 14, -69, 17, -1, 14, -29, -34, 21, -32, 32, 53, 27, 9, 39, 21, 29, 36, 5, 37, 58, -19, -6, 66, -41, -18, 33, 3, 43, 8, 27, -40, -49, -5, -37, 21, 41, -4, -44, -25, 21, 4, 25, -46, 5, 12, -22, -25, 31, -3, -27, -24, 0, -20, 38, -26, 22, -44, 27, 18, -49, -2, 18, 21, 16, -16, -44, -17, -19, 32, -33, 12, -2, 15, -44, -12, 45, -31, 39, -52, 8, -5, 23, -51, 13, 27, 29, 12, 19, 39, -52, -19, -1, 29, 3, -51, 24, 17, -50, 22, 36, -27, 24, -34, -39, 37, -51, 25, -20, -23, -36, 26, 16, 36, 48, 33, 25, 17, -5, 18, 23, 14, -45, -20, -48, 58, 0, -8, -50, -7, -2, 17, 17, 110, -18, -67, -36, 41, -48, 27, 30, 4, 3, 14, -17, -14, 32, 18, -35, 16, 0, 43, -12, 35, -31, -39, -40, 0, 6, -44, -33, 14, 23, -15, 14, -5, -3, -33, -1, 31, -21, -36, -44, -16, 43, -35, 2, -36, 43, -37, -34, -24, -57, 42, 51, 4, 27, 40, -39, 26, 20, 1, -1, -4, 27, -12, -45, -43, -35, -12, 42, -23, -40, 14, -14, 2, 43, 7, -15, 9, 29, -45, 26, 1, -29, -36, -30, 16, -20, -15, -17, 22, 29, 47, 6, 12, 11, -9, -47, -35, -22, 24, -9, -6, -25, -38, -23, -21, -26, -10, -15, -29, -28, 34, -35, 9, 0, 2, -1, -34, -18, -8, -24, -49, 22, 25, -9, -6, -3, 19, -32, -31, 42, -14, 14, -52, 59, 43, 44, -17, 6, -10, 37, -1, -40, -34, -62, -17, -32, -25, 60, -16, -29, -8, -27, -32, -19, 16, 32, -24, 16, 37, 40, -1, -24, -23, -33, 14, 10, 8, -18, 22, -42, -6, 30, -18, 11, 7, 34, -29, 20, 15, -39, -19, 42, 28, -12, -1, -39, 2, 45, -2, -11, 42, 40, 52, -35, 20, 41, 43, 7, -9, -9, 5, 33, 10, 38, -24, 50, 28, -36, 54, 23, 21, 32, -7, -12, -14, 35, -34, 35, -43, 22, 52, -42, 33, 30, 91, 37, 7, -6, -31, 15, 7, 4, -28, -6, 15, -44, 23, 39, -2, -42, -30, -3, 7, -47, -19, -1, 23, -2, -6, -32, 47, 28, -41, -16, -28, -23, 18, -29, -38, 41, 31, -38, 18, -52, -21, -21, -5, -36, -30, 13, 22, 18, -28, -47, 14, -17, -36, 22, 34, 35, -34, 30, 38, -39, -24, 36, 4, 19, 4, 33, 28, -47, -9, -26, 33, 27, 13, -47, 36, -37, 13, -47, -15, 40, 30, -19, 32, 26, 39, 1, -48, 17, -33, -27, -38, -41, -3, -40, -7, -7, -5, 7, -39, -25, 31, 21, 5, -22, -26, 25, -32, -43, -21, -36, -43, 2, 15, -15, 16, -29, -18, -48, 35, -14, -78, -21, 9, -54, -3, 12, 9, 2, -2, -21, -41, -28, 64, 8, 10, 23, -18, 10, 4, -3, -32, 22, -9, -16, -34, -4, 14, 31, -42, 7, 22, -44, -6, 41, 29, -35, -6, -71, 42, 3, -25, -8, -19, 5, -30, 8, 26, -13, -36, -29, 11, -43, 34, 27, 39, -16, 11, -23, 36, 27, 19, -27, -5, -26, -12, 9, -17, 11, 17, -10, 34, 23, 43, -8, 13, -12, 34, 13, -49, 28, -31, -37, -35, 0, -45, -61, 44, 47, -19, 27, -10, -17, 48, 6, -19, 21, -9, 31, 31, 24, 16, 28, 18, 18, 56, -43, -19, -17, 36, 12, -1, 30, -5, 50, 22, -49, -42, 37, 29, 38, 15, -10, -24, 43, -21, 79, 28, 42, 43, -6, 4, 49, 11, -10, -52, -9, 22, 21, -43, 0, 32, 23, -45, 24, 28, 39, -17, -34, 15, -63, -36, 12, 43, 38, -15, -3, 48, 3, 3, 27, 5, 15, 1, -2, 35, 20, 6, 0, -16, 17, 43, -14, -14, -27, 53, 43, 45, 35, -23, 32, -38, -40, -34, -1, -6, 8, 5, -12, 20, -30, -22, -63, -18, 19, 4, 48, -39, 13, -31, -27, 65, -29, 36, 29, 11, 36, -24, -11, -41, -30, -36, 3, -1, -30, -42, -13, 68, 1, -56, 34, 46, 26, 9, -15, -36, 13, -25, -21, 34, -36, 61, 5, -15, -14, -8, -49, 37, 10, -22, -15, 14, -38, 10, 8, -38, -22, 19, -30, 29, 29, 39, 26, 28, 27, 35, 34, -31, -45, -18, 0, -12, 41, -17, 3, -7, -22, -13, -3, 54, 3, 22, -12, -6, -14, 0, 31, 18, 25, -36, 27, -28, 2, -37, 10, -20, -37, 36, 9, 5, 5, -30, 34, 50, 48, -17, 27, 58, 34, 24, -9, 14, -29, -11, -57, -27, -38, 19, 34, 42, 112, -32, 4, 60, 3, -29, -5, 18, 2, -35, 29, -3, 31, 12, 21, -44, -18, -24, -45, 103, -33, -32, 0, -34, 31, 49, 22, -20, 27, 30, 35, -25, -24, -56, 16, -6, -7, 40, -21, 59, -54, 18, -21, -1, -21, 37, 12, 32, 7, 27, 25, -32, 32, -9, -46, 28, 29, -23, 50, -37, 46, -40, 5, -47, 41, -19, -9, 14, -47, -31, 29, -19, 27, 30, 12, -27, 36, 14, 16, -32, 27, 17, 25, 38, 51, 34, 43, 1, -40, 6, 42, 3, 25, -27, -55, -11, -30, 28, -33, 14, -2, -36, -24, -8, 13, 43, 47, -16, 24, 17, -20, 27, -31, 1, -9, -22, 39, -38, -20, -22, -15, -21, -38, -16, -31, 26, 47, 52, -6, 41, 24, -38, 24, 26, 0, 38, -3, -44, -30, 23, -11, 31, -37, 42, 18, 25, 39, -38, -14, -7, -32, 17, -50, 15, -22, -13, -1, -14, -37, 40, -1, -37, -44, -36, 19, -23, 35, 17, 26, -3, -35, 40, -43, 6, 29, -29, 1, 21, -26, -11, 1, -42, -27, -32, -41, 23, -38, -27, 2, 4, 35, -56, -1, -25, 24, -12, -29, -35, 37, -35, -4, -36, -16, -36, 10, 3, -15, -29, -18, -38, 16, 17, -28, 29, 24, -6, 27, 24, -48, 9, 34, 1, -36, 21, -44, -29, -24, -43, -17, -9, -52, 38, 44, 14, -6, 18, 37, -8, -24, -30, -9, 33, 17, -39, 1, -21, 12, 20, -15, 22, 27, -30, 27, 17, -6, 40, -43, -44, 24, -35, 6, 21, 10, 24, 12, 21, 44, -21, 19, 5, -33, 33, 19, -28, 23, 31, 36, 2, -18, 0, -19, -37, -40, -9, 2, 17, 5, -40, -44, -8, -29, -38, 6, 35, -10, 23, 2, 28, -45, 0, -34, -20, 26, 5, 40, -1, 12, -5, 6, 7, -18, 12, 27, -39, -22, -46, -38, -5, -6, 32, -52, -15, 20, 7, -19, 17, 37, -15, -14, -51, 26, -43, -57, -29, -50, 2, -21, -36, 28, -28, -48, 31, -46, 24, -2, -12, -3, 34, -14, 26, -45, 38, 12, 39, -24, -32, 21, 15, 8, 5, -53, -28, -12, 37, -23, -8, -20, 4, 41, -22, -3, -28, 20, 21, 11, 0, 9, 22, -12, -4, 2, -4, -31, -31, 14, -7, 36, -31, 24, -10, 5, 17, 17, 29, -18, -37, 31, -33, -27, -3, 35, -32, -53, 5, -24, 36, -4, 10, -36, -11, -38, 20, 8, -13, -4, -9, -38, 15, 29, 17, -17, 19, -22, -18, 5, -37, -21, -37, 14, 2, -13, 3, 5, -9, -4, 27, 30, -31, -3, 31, 1, 18, 34, -50, -8, -8, -8, 19, 10, -5, 11, -20, -10, -7, -13, -16, 35, -8, -21, -49, -14, 7, -13, 3, 22, 4, -17, 8, -23, 30, -26, -6, 1, 18, 9, -12, 14, 23, -21, 43, -23, 10, -5, 35, 44, 34, -10, 54, -21, -45, 13, -44, -42, -10, -7, 44, 0, 35, 22, 15, -4, -37, -28, -5, 14, 43, -36, -47, -38, 32, 28, 13, -24, -20, 8, 43, -55, 9, -32, 32, -40, 17, 33, 11, 20, 23, -16, 31, -30, 0, 27, -3, 39, -19, -32, 42, 0, 18, 5, -20, 2, 14, 12, 36, -6, -24, 14, -26, 22, -2, 30, -27, 25, 9, -40, -8, 26, 28, 12, 15, 26, 2, 2, -18, -6, -45, -11, 31, -16, -12, -41, 32, -41, 22, -41, 10, 9, -30, -11, -1, 39, 34, -33, -20, 31, -13, 19, 8, 43, 37, -16, -16, 43, -51, 20, 51, 17, 14, -1, -13, 7, 32, -10, -17, 28, 18, 4, 19, -19, 34, 73, 40, -37, -18, -38, 2, 26, 3, -22, -8, 8, 27, -13, -10, 21, -36, 34, -4, 21, 2, -10, -24, 37, 45, -22, -28, -14, 48, -19, 6, -14, 42, -9, -6, 32, 22, 13, 9, 14, 52, 44, 49, 31, -3, -32, -48, -13, 21, -44, 11, -20, 39, 18, 3, -14, -35, -42, 21, 48, -34, -16, 30, -79, 40, 16, 43, 47, 32, -20, -24, -33, -7, 48, 28, -43, 43, 13, 52, -32, -10, 20, -47, -38, 56, 22, -15, -48, -31, -20, -67, 28, -19, -9, -9, -8, -17, -18, -24, -11, -36, 20, -55, -46, -23, 13, 5, -35, -44, 44, 32, -8, -16, 9, 23, -28, 3, 58, 28, 19, 25, -15, -52, -4, -16, -13, 13, 7, 38, -44, 35, -35, -40, -27, 20, -33, -40, 8, 43, -17, -51, -40, 3, 27, -33, 37, -48, 2, -2, -1, 30, -25, 26, 31, 30, 1, -48, -20, 11, 38, -57, 37, 6, -50, 2, 11, 22, -52, 31, -40, -34, -60, 39, -26, -47, -30, -40, -36, 32, 25, 18, -23, 27, 9, -39, 21, -8, 25, -34, -7, -20, 2, -34, 28, -45, -25, -47, -26, -23, 15, -11, -7, -33, 47, 9, 12, 0, 34, -27, 0, -41, -37, 44, -34, -37, 2, 14, 39, 18, -6, -21, -3, 14, 21, -31, 21, 44, 4, 9, -1, -4, -42, 21, 6, 8, -49, -22, -21, -11, -12, -30, -6, -12, 12, 41, 14, -32, -4, -40, 3, -37, 9, 9, 20, -43, -11, 1, -9, -2, -38, 18, -14, -40, -35, -38, 23, 41, -47, 9, 48, -5, 15, -2, 39, 39, -20, -10, 4, 23, 10, 31, -1, -22, -28, -36, -10, 26, -37, 17, -42, -29, 13, -43, -19, 23, 13, -16, -44, -26, -6, -20, 41, -22, -41, -29, 3, 27, -5, 1, 21, 29, -43, -40, 2, -31, -35, -18, -39, 26, 8, 96, -3, 18, 42, 45, -9, 50, 79, -7, 54, 4, -31, -5, 33, -2, -13, -6, -74, 12, 52, -1, -47, 32, 42, 9, 40, -14, 23, -14, 18, 4, -43, 6, -8, -46, 37, -17, -12, 48, 31, -45, 48, 1, -7, -47, -36, -10, 25, 38, -15, -4, -33, 12, 11, 42, -41, -30, -19, 8, 0, -7, 20, 42, -47, -27, 13, -22, 44, -36, 17, -7, -47, 38, -23, 24, 20, 13, 54, 12, 80, 27, 8, 50, 4, -22, -19, -18, 16, -16, 19, 17, 16, -35, 25, 14, 1, -43, -54, 34, 29, 6, 14, -5, -45, 17, -1, 10, -11, -1, 20, -41, -39, -5, -49, -6, -44, 4, -30, -16, -13, 30, 34, -20, -55, -10, 9, -13, -33, -33, -5, -41, 4, 22, -31, 20, -35, -24, -3, 31, -27, 20, 43, -32, -1, 40, -46, 19, -41, 11, -48, 12, -5, -13, -32, 6, 13, 34, -11, -47, -57, -23, -6, 9, -37, 18, -3, 19, -43, 4, 44, 8, -37, -49, 34, 3, 3, 32, -4, -22, -27, 1, -13, -42, 16, 7, 13, -37, 20, -41, -11, -38, -32, 24, 9, -37, -44, 8, 33, -37, 27, 60, 23, 7, -34, -13, 30, -11, 20, -33, 24, -41, 47, -53, 14, -55, 5, 4, 7, 8, -21, -54, -21, 7, -19, 28, 6, -21, -23, -7, 22, -28, -28, 29, -11, 0, 16, 34, 21, 5, -27, -37, 11, 15, 12, 29, 0, -31, 26, 3, -38, 6, -58, -51, 10, 14, -51, -33, -23, -14, -32, 27, -41, -34, 35, -24, 5, -3, 14, -30, 38, -7, -11, 1, -23, -56, -36, -2, 16, 5, 29, 15, 3, -3, -2, -33, -52, -36, -35, 12, -38, 40, -48, -39, -42, -22, -20, 27, 0, 28, 15, 21, 38, 16, -14, -7, -10, -5, -38, 28, 17, 12, -3, 35, -8, -13, -7, -48, -45, 22, 29, -8, 31, -51, 39, -27, -42, -32, 12, -6, 4, 15, 80, -8, 43, 36, -11, 55, 4, -10, -15, -38, 29, 35, 17, -10, 17, 31, 7, 27, 58, -12, 15, -5, 30, 45, 21, -17, -11, -33, 3, -15, -41, 31, 12, -2, -20, -27, 6, 17, -27, -7, -43, 3, -3, 9, 28, -19, 13, -5, -40, -35, -5, 38, 21, -29, 45, 39, -3, -37, 36, 21, -33, 16, -15, 7, 1, 33, -17, -11, -38, 46, -19, -6, 1, -1, -9, -13, 18, 9, -18, -40, 24, 22, -14, -48, -5, 7, -46, -1, 26, -2, -26, 22, -47, -16, 45, 18, 3, -45, -42, -29, 0, 38, -40, 55, 31, 31, 37, 36, -21, -2, 9, -25, 19, -45, -19, 49, -1, 88, -28, 18, -12, -4, -33, -20, 22, -12, 25, 25, -33, 35, 35, 7, -10, -45, 5, -39, 33, -2, -9, -10, -34, 3, -20, -24, -37, -11, -41, -34, -54, 42, -43, 32, 56, -25, -19, -24, 16, 44, 38, -21, 7, -25, 17, -16, 14, -31, -35, 43, 3, -23, 22, 36, -15, 18, -6, -32, 17, -12, 13, -19, 30, 1, 2, 66, -24, 26, -13, 32, 19, 24, -54, -6, -7, 31, 23, 32, 61, -5, -31, 50, 30, 29, -9, -24, 16, -10, 5, 47, -28, 8, -27, 19, -2, -38, -3, 127, -5, -64, -29, -31, -30, -23, 4, -37, 1, 1, -45, -46, -11, -15, -2, 40, -40, -23, -49, 16, -37, -29, -28, -13, 31, -39, 14, -34, 10, -41, -25, 19, -29, 40, -8, -35, 12, -30, 44, 18, 5, -41, 30, 44, 26, 8, 0, -39, -31, -35, 12, 8, -27, -13, -35, -45, 19, 40, 33, 40, -47, 11, -4, -45, -4, 9, -2, 19, 3, -23, -23, 22, -12, 7, 19, -45, -18, 13, 16, -44, -45, 31, 17, 23, 16, 20, 18, -16, -1, 6, -7, 13, -6, 7, 16, -40, -5, -44, -22, 45, -13, -25, -32, 8, -12, 32, -36, 25, -33, -13, -18, -11, -19, -4, -48, -10, -23, 2, 53, -25, 44, 25, -19, -29, 6, 29, 34, -26, 30, -10, -37, -11, 12, -2, 9, 23, -6, -63, 36, 0, -9, -42, -5, -40, -4, 19, 9, -21, 25, -18, -16, -40, -7, -37, -27, 23, -11, 33, -43, -18, 61, 19, -25, -20, 13, 12, 0, 25, 48, -35, 20, 6, -18, 48, -7, 14, 9, -11, 33, -31, -34, 21, 39, -24, -33, -17, 60, -3, -20, -20, 37, -46, -12, 24, -47, 28, -52, 24, -28, 42, -43, 40, 58, -18, 23, 11, -17, 43, 18, 48, -14, -41, 47, 27, 5, -13, -9, 49, 43, 6, -25, -34, 18, 64, 31, -12, -27, 28, 44, -38, -21, 11, -26, 27, -27, -30, 17, -64, -15, 25, -1, -7, 44, -45, -21, -2, -36, 44, 33, 12, 48, 16, 39, 22, 4, -19, 30, -40, -62, 0, -25, -20, 28, 41, -10, -39, 13, -31, -66, 21, -40, 33, 40, 29, -14, 66, 41, 22, -18, 11, 29, 34, -45, 0, -19, 1, 8, -38, -37, -27, 34, -4, -28, -7, 6, 38, -8, -23, 35, 3, 6, 21, -7, -7, -22, 15, -27, 20, -35, -21, -16, 34, -30, -10, -11, -38, -9, 14, -4, -24, -36, 14, -8, 10, 13, 7, -4, -44, 31, -29, 18, 51, 22, 25, 37, 22, -25, -14, 37, -33, 23, -15, -44, -29, 36, -50, 21, -1, -19, 85, 21, -39, -2, -46, 14, 42, 90, -17, 35, 39, -19, 1, 38, 32, -28, 0, -63, -2, 17, 46, 7, -27, 12, -21, 31, 7, -18, 21, 29, 37, -15, -4, 30, -4, -25, 36, 29, -12, 47, 7, 38, -36, 22, 25, 15, -31, 25, 33, -27, 38, -42, -4, -5, 17, 42, 35, 13, -11, -10, 4, 76, -40, -29, -4, -44, -9, 20, -52, -40, -9, -65, 3, 26, 33, 7, -7, 65, -3, 107, 30, 28, 26, -3, 32, 19, -14, -12, -25, -51, 9, -26, 37, -9, -25, -26, 33, 5, 121, -12, -2, -36, -22, -35, 33, 23, 5, -7, 29, -3, -9, 42, 15, 15, 16, 19, -35, 25, 9, 71, 5, -17, 5, -7, -15, 3, 9, 15, -16, -64, -14, -15, 21, 29, -33, 16, 3, 9, -3, 39, -8, -13, 52, -41, -2, 23, -24, 11, -7, -64, -15, 3, 3, -16, -6, 36, -52, -22, 2, 49, 52, -46, -18, -8, 32, -11, -14, 6, -7, 35, -35, 1, 23, 53, -26, -40, -2, -21, 0, 25, -31, 4, -7, -50, -23, -62, -34, -3, 56, 25, -11, 100, 11, 11, 49, -28, 45, -6, 24, -7, 24, -19, -42, -21, 35, -35, 6, -32, 42, 49, 68, 46, -63, -30, -7, -43, 0, 16, -31, -45, 41, -53, -23, 27, 1, 17, 13, 6, 39, -47, 16, 73, -13, -6, 22, 8, 8, 51, -3, 3, 7, -28, 29, -3, 20, 2, 8, 2, 4, -40, 11, 20, 34, 25, 37, -40, -20, 45, 21, 57, -31, -14, 4, 44, 44, 16, -4, -5, -10, 0, -9, 3, 15, 5, 48, -2, -33, -28, 22, -21, 27, 12, -26, 2, -28, 33, 40, -7, -8, 43, -35, -73, 29, -46, -37, 20, 15, -22, -32, -28, 27, -19, -14, 43, 27, -4, 34, -31, 18, -52, 34, 18, -45, -18, 67, -32, -5, -19, 27, 13, 47, 41, 90, -37, -66, -18, 43, 11, 3, -9, 5, 14, 47, 12, -7, 32, 34, 49, -18, 2, -2, 37, 3, 30, 18, -37, 41, -37, 68, 4, 3, 25, 58, 72, -25, -28, -3, -1, 25, 37, -22, 25, -39, 42, -26, -40, -21, 43, 35, 45, 8, 11, 21, 63, -5, 13, 16, -18, -12, 52, 31, 37, 3, 34, -28, 27, -36, 29, -20, 26, 5, 48, 35, -17, 35, 33, -7, 12, 14, 34, -37, 15, 14, -56, 24, 33, -17, 40, 21, 35, 44, 45, 18, -36, 13, -98, 3, 46, -24, -42, 23, -8, 37, -7, -31, 43, 29, 15, -25, 4, -13, -48, 49, 9, -23, 20, 75, 31, 35, 18, 5, -28, -69, 2, 10, 14, 46, 37, 19, -7, 19, 41, -4, 38, -27, -24, 3, 43, -44, 17, 16, 19, -2, 21, -51, -16, 13, 40, 15, -19, 31, 0, 28, 38, 37, 40, -10, 20, -21, 21, -13, -51, -53, -17, -1, 2, -18, 0, 13, -4, -19, 5, 4, 18, -36, 35, 33, -38, -50, 36, -10, -34, -20, -15, -24, 46, -18, 36, -24, -8, -32, -20, 18, -39, 40, 27, 21, 33, 2, -38, -32, -47, -36, -33, -14, -5, 33, -19, -38, -28, 24, 6, 26, 32, 23, 25, -22, -51, 35, -35, -12, 37, 30, -54, -18, -11, 87, 25, 9, 16, 25, 19, 30, 31, -64, 24, -48, -25, -6, -9, 34, 28, -12, 5, 36, -20, -25, 38, 25, 31, -12, -21, 7, -30, -42, -41, -25, -19, 22, -37, -3, 27, -29, -19, -9, -70, -11, -33, -14, 27, 34, -46, 4, -23, 27, -8, -3, 35, 58, 21, 15, 21, 27, -25, -47, 34, 44, -35, -28, -48, -41, 16, 7, -37, 18, 0, -37, -15, -16, -4, 13, 5, 49, -38, 36, 24, -23, 21, -17, -31, 21, -13, -29, 19, -35, -1, -13, -35, -34, 41, -12, -15, 34, -4, 30, 8, -7, -50, 7, 32, 21, -5, 35, -30, 38, 28, 25, 4, 45, -18, -26, 27, -10, 4, 55, 26, -38, 4, 42, -18, -33, 7, -45, 20, -29, 52, -45, -4, -35, -25, -26, 19, 10, 6, -37, 22, 37, -19, 55, -34, 12, 5, -17, -15, -26, 28, -36, -29, -16, 0, -15, -32, 15, -38, -21, -4, 31, -27, -12, 6, -13, -22, -39, 20, -1, 21, -16, 33, 20, 3, 28, -18, -15, 14, -26, 56, 1, 38, 11, -39, 50, -6, 32, 28, -29, -23, -11, -38, -50, 10, 24, -18, -29, -30, 23, 6, 20, -52, 13, -53, 29, -23, -27, -5, -21, 48, -15, 5, 9, 63, 19, 5, 60, 23, 0, -15, 0, 13, 20, 9, 5, 41, -3, 47, -24, 36, -49, 16, 56, -2, 37, 26, 29, 42, 10, 5, -21, 40, -34, 24, 11, 25, 29, -23, -42, 46, 16, -37, 11, 11, 21, -6, -44, -11, 29, 50, 22, 25, 4, -12, -17, -1, 32, -24, 43, 32, -28, -37, 4, 9, 6, -15, -52, 18, -30, -36, -3, -40, -12, 20, -22, 48, -12, -23, -42, 56, 14, -8, 37, 30, 24, 22, -15, -6, -15, 54, 17, 41, -8, -42, 17, 47, -35, -17, -21, -2, 21, 47, 45, -8, -40, -29, 43, 8, 28, 10, -13, -32, -23, 12, -33, 40, -20, 23, -3, 7, 13, 6, 54, -8, 32, 56, -65, 31, 40, -34, 27, -21, -29, -32, 6, -30, -22, -15, -38, -17, -13, -16, 28, -37, 19, 42, -31, -11, 15, 29, 23, -11, 56, 2, -37, -37, -29, 14, 25, -2, -27, -19, -2, 19, 22, 28, 48, 40, 27, 2, 11, 0, -13, 33, -14, -32, -42, 23, 25, 18, -33, 24, 45, 23, -11, 11, -2, 39, 40, -31, -21, 32, 1, 13, 29, 12, -4, -26, 8, -21, 17, -12, -31, -31, 2, 29, -40, -14, -22, -21, -3, 22, -19, -27, -25, -1, -11, 14, -21, 0, -52, -35, -16, -39, -2, -9, 26, -29, -19, -9, -11, -16, -41, -7, -19, 27, 2, 48, -46, 16, -33, -18, 34, -28, 1, -32, 13, -1, -49, -20, 21, 21, 38, 0, 8, -24, 37, -42, 14, -13, 32, -37, -31, -17, 28, -49, -52, -51, 47, -37, -33, -33, -1, -32, 8, -18, -10, -44, 3, 15, -42, -38, -32, 36, -37, 6, -14, -27, -27, -30, -8, -5, -15, 20, -44, 16, 31, -13, 27, -4, -26, -40, 28, -31, -44, -43, 33, 45, -10, -43, -7, 25, 2, 5, -19, 37, 34, -19, 12, -45, 12, -40, 39, -36, -6, 34, -15, -32, -15, -5, -38, -1, -46, 15, -7, -43, 3, 2, 44, -12, -35, -24, -28, 25, -45, 18, -23, 5, 4, 15, 35, -18, -40, 25, 24, 25, -28, -12, 4, 16, -17, 30, 28, -3, 2, 36, -49, -8, 35, -41, 14, -47, 17, -45, -21, -26, 23, -4, -50, -4, -38, -49, -26, -40, 30, -40, -56, 17, -3, 5, -23, 21, -45, 18, -25, 6, -19, 18, 22, 33, -26, -40, -44, -14, 13, 10, -4, 22, -17, -43, 18, 19, 29, 44, 16, -24, -3, -24, -54, 32, 35, -27, 1, -45, 25, 41, 1, -40, -37, 14, 27, 21, 34, -32, 17, 2, 12, 27, 33, -8, -28, -24, 28, -12, -53, -35, -41, -44, 7, -37, -46, -5, -46, -19, 38, 6, -47, -35, -9, -11, 15, -6, -8, -46, 4, -21, -42, -20, -13, 30, 27, -44, 44, 41, 45, -28, -52, -16, 29, -30, -46, -30, 26, -17, -35, 6, -38, 44, -30, -42, 32, 9, 35, 51, -31, 25, -37, 42, -38, -28, 16, -17, 7, -40, -15, -29, 39, 12, -35, -22, 15, 38, -17, 26, -27, -11, 34, 11, -25, -36, -1, 45, -48, -26, -1, -45, 37, 43, -43, 9, -7, 7, -10, 24, 47, -19, -26, 30, 22, -19, 28, -49, -6, 23, 23, -1, 15, 40, -3, 29, -46, 19, 32, 30, -20, -37, 10, -29, 27, -8, -20, -46, 14, 48, -41, -41, -33, 17, -2, -44, 34, -55, -19, 24, -24, 9, 11, -37, 35, 38, -31, -20, -65, 19, -24, -28, -18, 34, 4, -25, 4, 12, -21, -28, -37, 44, -34, -51, 40, -23, 13, 18, -10, -3, 4, -2, 21, -34, -22, -24, 27, -15, 13, 48, -51, 40, 35, 32, -10, -60, 40, 16, 22, -8, 36, 1, 56, -27, -43, -4, -42, -6, -14, -8, 40, -15, -28, -7, -44, -40, -25, 3, 