#pragma once

#include <stdint.h>


/* INT8 weights, int32 bias. Scales are stored in model_int8.json. */

static const int8_t stem_0_weight[10752] = {96, -38, -53, -49, -35, 20, -60, -3, 49, 9, -30, 5, 23, -62, -28, 44, 56, -18, -31, 1, 35, 12, 15, 75, -11, 5, -18, -23, 44, 31, -57, -39, 9, -55, 42, -27, 8, 22, -63, -49, -60, -8, -31, -15, -52, -35, -7, 33, -41, -65, -39, -30, -31, -41, -2, -58, 52, -6, 35, -37, 64, 52, 17, 17, 0, 65, 97, 50, 74, 3, 32, 64, -19, 69, 41, 15, -6, 79, 13, -35, 54, 30, 45, -35, 85, 87, 21, 43, 50, 73, 58, -19, 68, 21, 2, -12, 49, 43, 79, 20, 3, 64, 64, 52, 73, 23, 63, -12, -58, 32, 48, -36, 58, -45, 41, 7, -46, -59, -35, -28, -4, 15, -53, -5, -39, 15, -22, -56, -58, 16, 52, 20, 58, 76, 12, 58, 41, -45, 39, -30, -67, -10, -35, -72, -3, -61, -37, 50, 49, 33, -67, 51, 44, -42, 45, -74, 37, 38, -44, 22, -58, -90, -56, 10, -24, 27, -61, -84, -5, -33, -1, -85, 27, -51, 23, -2, 13, -40, 35, 8, -6, -58, -36, -35, 14, 51, 16, -53, -8, 25, -64, 22, 24, -2, 92, 72, 82, 0, 12, 62, -54, -21, 17, 12, -58, 52, 53, 54, 2, -1, -1, -54, 33, 16, -34, 34, -64, -75, 49, -67, 49, -66, -28, -70, 33, -12, 5, 29, 85, 39, 65, 80, 44, 10, 46, -59, -58, 16, 43, -26, -37, 44, 55, 57, 41, 43, -37, 58, -60, -50, -22, 45, -55, 38, 19, 21, 67, -53, -15, -3, 47, -82, -61, -45, -8, 15, 49, 45, 86, -60, -66, -21, 29, 50, -9, -69, 67, -31, 52, -4, 11, 36, -14, -18, -1, 15, 31, 13, 25, 44, -43, -39, -11, -15, 18, 72, 16, -2, -13, -31, 36, -43, -66, 12, -94, -40, 13, -21, 15, 38, 19, -42, -7, 69, 66, -9, 37, 23, 9, 38, 13, -52, 80, 32, 79, 2, 73, -45, 45, -18, 48, -27, 71, 27, -125, -39, -10, 54, 25, 40, -66, 4, -2, 51, -37, -69, 28, -27, -72, 45, 34, -56, -15, 48, -89, -46, -5, -78, -93, 57, -18, -59, -35, 20, 9, 10, 46, 14, 103, 39, 64, 42, -53, -23, -50, 33, -21, 16, 77, -9, 20, -63, -49, -20, 65, 45, -12, -39, 67, 82, 45, 59, 20, 14, 39, 59, -68, 36, -72, 17, 20, -51, 14, -5, -4, -8, 61, 51, 56, 57, 19, 43, 35, -37, 36, 37, -29, -16, -59, 33, -46, 64, -18, -21, -37, 69, -7, 11, -11, 50, 9, 27, -67, -31, 66, 11, -33, -25, -57, -12, 40, 5, -5, -17, -8, -45, -56, -5, 71, 23, -56, 20, 30, -26, 6, 12, 25, 74, 11, 56, -68, -41, -22, 83, -11, 26, -31, 9, -53, 21, -64, -37, -21, -51, -55, 40, 57, -64, -55, 37, 3, 60, -51, 3, -62, -52, -12, 23, 61, -41, 61, 19, -29, -9, -39, -36, -16, 50, -33, 57, -36, 33, 80, 45, -37, -37, -50, 79, 16, -27, -10, 16, 62, 40, -47, 45, 9, -58, 16, -48, 54, 41, -5, 13, 58, -51, -46, 39, -17, -47, 38, 81, 7, 8, 49, -10, -1, 10, 55, 76, -19, -30, -41, -21, -56, 39, 78, -23, 69, 32, 15, -50, -42, -28, 33, 29, 53, -58, 39, 44, -65, 35, -19, -13, -29, -43, -3, -46, -9, 61, -17, 33, -60, -40, 12, 61, 15, 26, -28, -64, 2, -48, -35, 41, 9, -29, 30, 51, -25, 6, -35, 44, 74, -42, -59, 46, -45, 4, 25, 20, 43, 66, -47, -62, 77, -61, 9, 62, -31, 58, -12, -63, -50, 66, -61, 3, -31, -70, 21, 39, 11, -23, 46, 25, -10, 52, -52, -35, 52, 67, -54, -42, 8, -6, 31, 34, 36, -28, -37, -19, -14, 27, 66, 7, -12, -8, 18, 30, 54, -24, -50, -15, -47, 54, 40, 53, 10, 18, 64, 68, 23, 1, -44, -25, -39, -12, 16, 29, 23, 12, 38, 55, 41, 42, -10, 33, 51, -32, 51, 14, -6, -35, -43, 62, -66, 25, -6, -36, -78, 22, 44, 10, -40, -52, -7, 49, 2, 17, 29, 2, -14, -37, -77, -28, 15, -53, 97, 63, 93, 43, 90, 58, -25, -14, 28, 48, 28, -48, 11, -2, 10, -22, -30, -64, -46, 30, 5, -41, -17, -60, -27, 55, 59, -14, -28, 58, 60, -51, 4, -3, -24, -33, -73, -54, 31, -5, -63, -61, -54, -6, 39, 80, 85, 64, -30, 79, 32, -50, 43, -39, 37, -64, 26, -57, 21, 32, -64, 26, 25, -13, 7, -60, 52, -25, -28, 50, 1, -4, -35, 25, -29, 28, 23, -16, -66, -53, 45, 10, -31, -66, -23, -10, 10, 43, -60, -7, 4, 49, -38, -34, 7, -42, 37, 42, 40, -18, 83, -31, 15, -14, -13, -60, -26, -59, -67, -22, 36, -55, 49, -48, -55, -2, 35, -56, 30, -42, -14, -24, -33, -61, 34, 8, -48, -35, 7, -19, 5, 42, -64, -3, -59, 16, -80, 28, 41, 40, 25, -73, -67, -1, 54, 54, -29, -63, -67, 1, -79, -45, -5, 19, 46, -68, 24, -11, 44, -56, -52, -74, -71, -17, -49, 11, 51, -33, 25, 30, 21, 6, 21, -66, 35, 70, -4, -38, -12, -24, -11, 18, -25, 4, -36, 1, 60, 52, -24, 15, -18, -41, 2, 56, -33, 37, 64, -40, 45, 14, -14, 65, 29, -12, -14, 38, 17, 55, -29, 7, -48, 28, -47, 69, -61, -22, 24, -11, -19, -21, 4, 44, 60, -40, 10, -60, -1, 3, 36, -1, 66, -24, -42, 5, 71, 0, -39, -33, 49, -30, -28, 55, -9, 13, 70, 2, -46, -65, 0, -69, 28, 17, 23, -49, 66, -46, -66, 21, -2, -25, -26, -24, 27, 21, 34, -43, 47, 12, -39, -29, -18, -42, -54, -6, 22, 40, 39, 2, -31, -37, -66, -22, 59, -64, 14, 18, 9, 35, -15, 12, -4, 16, -41, -87, -12, 15, 13, 16, -48, 63, -9, 49, 42, -39, -15, -54, -20, -54, -3, 5, 53, -14, 54, 42, 37, 38, -51, -19, -12, -1, -25, 7, 34, 88, 50, -29, 35, -41, -5, -23, 23, 60, 55, 41, 54, 15, 46, -44, 77, -16, 65, -46, -45, 60, 5, 74, -5, 48, 19, -5, -15, 19, -42, 85, 29, -42, 65, -42, -40, 1, -31, 79, -28, 29, 28, -11, 12, -25, -53, 45, -17, -18, 69, -72, -34, -66, 9, -9, -61, 50, 55, -59, -36, 79, -6, 16, 20, 47, 34, 27, 9, 68, 34, -24, 69, -51, 21, 30, -54, 24, -49, 32, -30, -42, -70, -31, 28, -19, -31, -48, -46, 22, -6, -41, 45, -4, -22, 5, 5, 23, -14, -34, -33, -31, 64, 14, 25, 52, 61, -11, -54, 68, 1, 52, 45, 39, -36, -34, -22, -58, -37, 55, -32, -52, 43, 43, 4, 3, 0, 35, -75, 24, -22, -69, 33, 47, 15, 56, -15, -57, 42, 17, -7, 57, -36, -45, 51, -60, 39, 60, 78, 11, 16, 37, -61, -1, -54, -46, -6, -23, -69, 30, -47, -64, -15, 19, -17, 8, 0, -52, 58, -52, 33, 55, -48, 56, 48, 39, -60, -27, -36, 58, -8, 30, 61, -27, -25, -64, -36, 4, -41, -35, -57, 29, -49, -61, -57, 20, 4, -19, -29, 62, -29, 68, -10, -39, -14, -23, 23, 57, 21, -48, -15, 42, 66, 47, -27, 10, -8, -49, -40, 36, -3, 47, 24, -10, 41, 9, -53, -36, 10, 57, -15, -2, 61, -30, 55, -11, -24, 76, -6, -65, -52, 55, -35, -9, 63, -59, 58, 55, 45, 58, 60, -62, -56, -28, -21, -65, 3, 61, 12, -7, 12, 22, -59, -55, 69, 27, -22, -51, 34, -4, 57, 51, -3, 41, -14, 71, 68, 69, 53, -58, 46, 43, -8, -68, -41, -30, -1, 14, -53, -8, -32, -47, 48, 22, 2, 6, -4, 34, 47, 59, -68, -18, -20, -65, 9, -16, -31, 45, 13, -34, 30, 40, -1, -46, 11, 45, 6, 15, -25, -32, 54, -17, -28, -14, -1, -29, 10, -22, 26, 4, -47, -29, -45, 81, -8, 40, 67, -36, 71, 65, 38, -12, 63, -26, -22, 71, 74, 35, 49, -37, -33, 49, 65, 0, -31, 17, 1, -34, -53, 70, -2, 80, 39, 20, 64, 56, 32, -39, 31, -18, 53, -47, 18, 29, -28, -21, 83, -3, 19, -45, 10, 18, 56, -19, 33, -69, 52, -50, 13, -67, 0, 37, 30, 14, -3, -52, 37, 56, -72, -81, 13, 42, 29, -44, -83, 35, -32, -14, -57, 3, 29, -10, 4, 78, 42, -20, -27, 57, -40, 58, 72, 34, -83, -24, 40, 53, -60, 64, 46, -24, -12, -10, -44, 49, 29, -69, -63, 32, -49, -52, 47, 54, -15, 70, -20, 79, -45, -60, 14, -16, 2, -32, -61, 79, 46, 14, 39, 5, 41, 29, -66, 11, -28, -33, 32, -42, 3, 2, 1, -47, 35, -22, 8, 45, 14, 0, 46, -25, -53, -50, 20, -11, -1, -49, -50, 55, -70, -36, -80, 61, -34, -54, -34, 37, 27, -28, -56, 13, 39, -37, 32, -49, 8, 67, 12, 24, 11, -35, 57, -61, 56, -30, 34, 18, -64, 52, -4, 41, 45, -40, 18, 5, -55, -43, -49, -23, -26, -13, -2, -56, 47, -23, -45, 48, 35, 47, -37, -54, 43, 68, -3, -31, -42, 48, -19, -4, 20, -20, -9, -58, 53, 21, 50, 39, -40, 71, -37, -58, 5, -1, 69, 25, -32, 58, 45, -26, 69, -6, 55, -13, -21, -5, -20, 1, 59, 34, 12, -68, 49, 12, -58, 8, -76, 1, -55, -28, -5, 31, -57, 16, -79, -23, -59, -66, -16, -21, 8, -13, -73, 30, -3, -9, -79, -74, -14, 65, 59, 56, 63, 24, 33, 45, -41, 12, -27, -39, -49, -12, -48, -37, 52, -80, -53, 25, -25, 40, 47, -87, 6, -82, 27, -84, -38, -3, 43, -42, -16, 63, 23, 68, 28, -16, 73, 30, -51, 48, 32, 36, 35, -41, 3, 38, -81, 32, -56, 13, -6, 2, -73, -17, -81, 47, -34, -21, -32, -84, 22, 22, -38, 61, -44, 37, -80, 33, -22, 21, -34, -31, -30, 45, -56, 14, 65, -54, 31, 36, 20, 27, -19, 1, 26, -23, -18, -20, 47, -24, -25, -23, 26, -44, 77, -4, 72, 44, -39, -1, 33, -34, 27, -34, 18, -30, -12, -9, 22, -74, 0, -62, -34, -59, 3, -12, -31, -62, 68, -33, -56, 14, 22, -59, -68, 65, -29, 41, -40, 25, -46, -62, 16, 50, 56, -62, 24, 20, -18, -29, -74, 55, -60, 44, 53, -30, 61, -36, 41, 58, 5, 29, -24, -3, 21, 53, 14, -41, 75, 80, -48, 0, 53, -61, 8, -62, 39, 22, -50, -54, 41, -27, 89, -11, -10, 0, -23, 50, 48, 77, 76, 10, -19, -60, -57, 79, 77, -2, -9, -40, -4, -20, 29, 86, 73, -40, -28, 3, 47, 51, 25, -64, -7, -15, 90, 78, 76, -27, -19, -20, -25, -3, 35, 41, -49, 69, -63, -16, 0, 57, -54, -40, 78, 0, 81, -9, -30, -17, 53, -3, 24, -10, -14, 40, -59, -3, -41, -6, -56, 9, 72, -53, -61, 14, -54, -16, -65, -8, -34, 39, 18, -20, -54, 37, -19, -74, -19, 24, -21, -47, -33, 19, 30, -58, -56, 5, 29, 49, -10, -97, -2, 39, 50, -73, -24, 26, -13, -67, 54, 46, 23, 37, 56, 4, -39, -18, 31, -31, -36, 0, 65, 12, 9, 76, -10, -31, -14, -63, -61, 70, -23, 34, -15, -28, -1, 50, 48, -22, 47, -24, -17, 14, -56, 36, -22, 52, -62, 8, -30, 29, 63, -25, 1, 36, 25, 52, -4, 36, -77, -15, 3, -62, 62, 58, 66, -58, 58, 64, -44, 41, -67, 41, -13, -69, 57, 51, 16, -38, -1, -47, -40, 8, -31, -4, 17, -34, 4, -37, -74, -89, -7, -48, 49, -65, -97, 20, -4, -67, -53, 25, -25, -71, 52, -68, 27, -65, 14, 68, -30, -23, -45, -9, -44, 83, 83, 70, -52, -9, -8, 55, 37, -29, 14, 14, -77, -7, -8, -33, 24, -15, -6, 3, 7, -30, 36, 29, 29, -58, -5, -11, -11, -52, -81, -42, 51, 33, 47, -8, 49, 53, 11, 58, 60, 57, -54, -57, 43, 5, 58, 6, -42, -33, 36, -74, -76, -76, -60, -75, -7, 21, 6, -30, -56, 25, -43, 5, 21, 42, 40, -102, -8, -91, -4, 15, -60, -42, 21, 1, -11, -50, -20, -37, -52, -59, 52, -21, -61, -45, 27, 37, -30, -27, -35, 10, -49, -56, -43, 8, -52, -10, -47, 37, -22, -26, 36, -12, 13, 68, 19, 9, -17, -24, 62, -29, 14, 26, -39, 62, 8, 31, -45, 0, 17, -13, -49, 10, 13, 15, 73, 42, -57, 42, 52, -43, -19, -7, 59, 0, -58, -6, -60, 68, -25, 35, -36, 68, -26, 71, -30, 40, 51, -26, 31, 74, 47, -44, 29, -7, -3, -61, 15, -3, -14, 16, -31, -52, 16, 32, -1, 46, 44, -56, -33, -77, -17, 30, -68, 0, 44, -64, -54, 19, -34, 39, -21, -15, -75, 30, -59, 33, 0, 44, -3, -79, -40, -22, -5, -36, -68, 45, -15, -28, 23, 13, -29, 18, 49, 21, -42, 34, 47, -43, -38, -26, 26, 26, 12, -29, -12, 56, 15, 27, 38, 37, 19, -10, 13, 59, 15, 16, 4, -26, 23, -53, 22, -31, 39, -40, -45, -38, 53, -52, 48, 58, 57, -4, 40, 40, 10, 75, -4, -19, -34, -29, 72, 61, -2, 32, -54, -41, 19, -26, 54, -32, -72, 48, 31, 47, -32, 6, 8, -43, 24, 2, -5, -9, 14, -63, 30, -37, -79, -34, 2, 2, -73, -68, 5, -43, -41, 57, 61, 35, 52, 15, -57, -29, 16, -50, -51, -58, -61, 22, -2, 27, -49, -8, 39, -63, 7, -62, 57, 32, 38, -10, 39, -43, -7, -26, 66, 58, 69, 70, -21, -42, -60, -15, -38, -49, -50, 18, 45, -35, -17, 45, -4, -33, 73, 13, 60, 22, -55, 1, -1, 7, -55, 24, -45, -41, 62, -11, -11, -4, 34, 38, 75, -28, -10, 40, 2, 2, -17, 85, 18, 35, -45, -11, 62, 19, 36, 76, 9, -9, 80, 29, -48, -6, -61, 13, -53, -10, -39, 47, 61, 54, -48, 54, 66, -69, 32, -55, -51, 0, -43, 10, 65, -69, -68, 16, -12, 49, -69, -11, 57, 40, 43, -31, 70, -57, -16, -56, 6, -19, -20, 30, -53, -39, 30, 5, 47, -42, -9, -22, 1, -33, 58, -67, -57, 26, -67, -1, 17, -57, 65, -25, 12, 24, -23, 47, 9, -39, -15, 18, -47, -6, -7, -7, 17, 64, -48, 59, 24, -25, 107, 4, 67, 29, -8, -17, 59, 34, 21, -37, 31, -50, -13, 60, 60, -37, 31, 3, 22, 38, 49, 10, 26, -7, -24, -12, -38, 70, -41, -45, -13, 7, -58, -54, 24, -10, 34, -41, 22, -16, 66, -14, 31, -9, -13, -20, -48, -6, -20, 10, -43, 86, -36, -40, -28, 12, -47, 45, 40, 79, 35, 7, 8, 67, -45, -24, 31, -30, 32, 0, -38, 24, 15, -12, -44, 25, -18, -12, -6, 81, 12, 58, -14, 83, 50, -33, 41, -33, 74, 71, -28, -47, -49, -29, -14, 3, 1, -7, 60, -20, 4, -30, -30, 35, -49, 10, 8, -58, 4, 17, 18, 50, -8, -33, 0, -53, 46, -62, 35, 55, -5, -68, -42, 18, 30, -12, -3, -21, -53, -5, 40, 28, -12, -71, 61, 7, 60, 41, 16, 35, 56, -31, -7, -21, 20, -43, 40, 57, 2, 58, -57, -9, 20, 12, 22, -42, -15, -41, 56, 8, 41, 18, 7, -5, -38, 31, -63, 2, -16, -23, -53, -44, 50, -10, -18, 4, -19, 12, 39, -1, 20, 39, 49, 23, 48, 51, 29, 15, -20, 37, 1, 0, 13, -26, -71, -5, 19, 48, -50, 53, 29, -59, 39, 52, -72, 34, -24, 15, 48, 54, 29, -67, -49, 32, 44, 56, -30, -52, -43, -77, -28, 17, 63, 7, 52, -5, -4, 25, 34, -9, -24, -26, 44, -26, 35, 91, 11, 22, -12, 8, 35, -3, 41, 31, 24, -49, 69, 56, -50, -5, 62, -53, -73, -47, -40, -18, 58, 69, 55, 66, -40, 43, -60, 51, -53, 15, -2, -39, 44, -36, -53, 50, -55, 53, 32, 26, -17, 51, -9, -34, -24, -6, -3, 37, 60, -58, -10, -66, 4, -54, 38, -2, -11, -85, 11, -41, 58, 47, 52, -34, -4, -66, 25, 65, 24, 59, -50, 35, -56, 27, -28, 20, -3, 15, -42, -65, -78, 54, 44, -24, -7, 17, 75, 2, 23, 2, -29, -50, -42, -59, -59, -7, -43, 39, -50, 25, 23, -46, 41, 56, -59, -53, 44, -5, 29, -47, 79, -39, -4, -25, 17, 23, 31, -17, -8, -67, 37, -15, -34, 28, -16, -4, -29, 11, 0, -25, 80, 41, 65, -41, -34, -27, 30, -7, 31, -40, -12, 68, -46, -46, -18, -46, -54, 14, -66, -61, 10, -81, 36, -55, -41, 59, 53, 3, 54, -31, -5, -42, -45, -38, -44, -76, -39, -68, -45, -28, -70, 33, -74, 12, 29, -64, 47, 18, -38, 35, 37, 27, 57, 49, 44, 46, -33, -30, -13, 13, -60, 58, 10, 33, -45, 34, -56, 58, -26, -4, 26, -14, -4, -69, 1, 4, 33, 46, 36, -28, 0, 10, -44, 26, -45, 56, -44, 45, 29, -34, -70, -11, 17, -60, -19, 70, 20, -39, -55, 55, -45, -31, -77, -11, -13, -81, -72, -32, -85, 33, -44, -15, 47, -41, -13, -19, -66, 25, -94, -68, -17, -5, -26, -2, -29, 44, -17, 17, -48, -33, 22, 36, -47, -33, 14, -59, -50, -58, -59, -58, 1, -62, -2, -9, -4, -44, -47, 44, 34, 36, -92, -31, 48, -59, 14, -21, -53, -2, -52, -47, -27, -21, 15, -52, 31, -59, 58, 44, 30, 49, -28, 25, 37, -30, -38, -16, 25, -28, 49, -35, 65, -1, -42, -11, 79, 51, -21, 37, -19, 68, 13, 43, -71, 8, 58, 51, 58, 68, -57, -28, 57, 20, 43, 64, 38, -44, 6, -27, 59, -3, 65, 63, 44, 3, 77, 64, 35, -40, 75, -18, 18, -13, 30, 30, 53, 2, 74, 62, 48, 0, 72, -57, 50, 4, -43, 58, -21, 21, 37, 31, -21, 21, 47, -52, -33, -9, 65, 62, -9, 28, -59, -44, 16, -52, -1, -36, -33, 7, 49, 56, -44, 8, -15, 34, -47, -23, 26, 7, 37, -8, 3, -16, -51, -43, -35, -72, -16, -35, -30, -23, -5, -40, 25, -31, -31, -14, -32, 59, -57, 9, -74, -7, 13, -51, 36, -71, 55, 22, 29, 44, 44, -18, -7, 59, -73, 15, -10, -8, -54, -47, 0, 23, 31, 54, -29, 59, 47, 8, 8, 60, 58, -33, 48, 17, -12, 58, 11, 17, 59, 3, -68, -39, 66, 10, 69, -15, -88, 15, -17, 71, 11, -65, -72, -19, -8, 16, 32, -25, -4, -42, 28, -25, -24, -7, -69, 52, -49, 2, -32, -56, 54, 33, -12, -56, -11, 44, -26, -62, -86, 18, 62, 91, 80, 6, -48, -37, -16, -26, -4, -24, 62, -54, 57, 18, -50, 50, -42, 39, -3, -59, -66, 21, 66, 43, 31, 24, 6, 48, -38, 32, 44, -76, 72, 50, -6, -62, -51, 24, -66, -21, 76, 45, -25, 62, -22, 1, -44, 61, -27, 73, 2, 29, -33, 56, -52, 75, -14, 10, 26, 26, -8, 12, -56, 47, -63, -28, 36, 26, 35, -53, -66, 23, -22, -59, 63, 19, -53, 47, 63, 44, -7, 36, -47, 32, 29, -39, 54, -51, 79, -41, -48, 18, -59, -10, 30, -9, 35, 10, -51, -31, 58, -27, 28, -73, 59, -41, 33, 78, 5, -23, 76, 52, 60, -70, 20, 66, 15, 7, 23, 3, -30, 50, 35, 37, 6, 27, -40, 61, 62, 73, 11, -50, 55, 9, 34, 16, 44, 69, -11, 22, 44, -55, -40, -28, -11, 8, 7, -34, -25, 71, 36, 4, 64, -41, 68, -37, -22, -23, 71, 67, 78, 36, 7, -14, 54, -8, 26, -43, 4, -40, 15, 38, 9, -41, -26, -34, -40, 19, 21, 40, -53, -20, 49, -64, -27, 25, 70, 59, 14, 62, -51, -37, 11, 60, 70, 35, 74, 40, 42, 7, -32, 69, 68, 53, -101, -89, 47, 35, -55, -34, 54, -73, 30, 62, 21, 40, 16, -17, -30, 58, -58, 19, 48, 26, -56, -48, -3, -46, 31, -80, -28, -36, 64, -17, 2, 17, 53, -31, -17, 80, -29, 24, 38, -60, -17, -41, -4, -37, -31, -4, 0, 69, 55, 68, -75, -30, -45, 55, -3, -32, 11, -12, -15, 79, 59, 32, 4, 23, -55, 63, -18, 27, 22, -8, -8, 35, 79, -32, 68, 12, 13, -58, -17, -51, -13, -14, 29, -8, 27, 44, -47, -16, 52, -54, 36, 51, 19, 47, -4, -1, 21, -33, -37, -1, -29, -36, 74, -39, 18, 25, 44, 42, -45, 60, 76, 64, -40, -55, -50, -32, -50, 22, 18, 5, -3, 3, 53, -25, -67, 23, 57, 2, 46, 53, 23, -29, -48, 57, 54, -25, -35, -15, -72, -38, -83, -1, -47, 49, -38, -76, 48, -38, -51, -21, 25, -73, 28, -9, 27, 71, -26, -64, -52, -31, -40, 16, 12, 19, -29, -75, -30, 41, 50, -46, -77, -80, -47, -66, -81, -19, 46, -24, 29, 16, -34, 20, -10, 17, 60, -27, 20, 23, -44, 6, 47, -53, -10, -46, -23, -30, -55, 21, -3, -26, 26, -39, -46, 46, -12, 45, 49, 52, -37, -9, 9, 84, 30, 32, 9, -37, -27, -53, 43, -67, -79, -3, -58, -58, 24, -41, -15, -5, -43, -24, 11, 4, 1, -18, 65, 37, 25, 48, 62, 33, -60, 36, -65, -28, 35, -64, -18, -51, 51, -42, -60, 12, 28, 73, 69, -12, 18, 0, -24, -12, 23, 61, -6, -31, 77, -63, -22, 24, -38, 58, 76, 65, 37, 52, 9, -7, 66, 72, -45, -28, 32, 51, 33, -45, -16, -36, -55, 30, 2, 53, -49, 7, 53, -3, -36, 53, -39, 72, 25, 40, -26, 22, 55, 51, -1, 44, 61, 50, 22, -40, -45, -67, -17, 6, 74, 60, -60, 1, 75, 15, -36, -58, -17, 65, -31, 45, -23, -11, 5, 64, 9, -24, -21, -7, -62, -42, -9, 3, -68, 82, -5, 31, 47, 35, 16, 48, -38, -47, 37, -36, -12, -54, 42, 64, -68, -64, -7, 54, -4, -75, 25, 22, 28, -33, -15, -69, -41, 8, 37, 16, -92, -19, 78, -60, 25, -34, 34, 35, -34, -66, 12, -16, -32, -57, 72, 4, 10, -9, 66, -35, -7, -70, 40, 16, -44, -47, -47, -29, -31, -40, 6, -64, -15, -6, -53, -19, 6, -62, -90, -35, -62, -84, -16, -29, -50, -35, 36, 19, 28, 43, -69, 19, -9, -44, -19, -28, 60, -2, -8, -73, 11, -10, -43, 4, 105, -49, 13, -19, -23, -41, 10, 65, -57, 5, 23, -49, -4, 26, 8, 32, -16, 55, 13, 65, -67, 43, 10, 65, 52, -13, 44, -27, 39, 3, 32, -4, 51, -5, 40, 9, -19, 57, 22, -23, 46, -52, 5, -17, 8, 19, -79, -24, -41, 18, 53, -65, -66, -4, 4, -3, 25, -20, -13, 30, 14, -53, -58, -48, -3, -3, -15, 22, 31, 38, -61, 55, -19, -30, -65, 66, 16, 74, 5, 27, 62, -43, 7, 22, -31, 54, 70, 60, 9, 48, 53, -61, -22, -56, -49, -38, 30, -70, -34, -60, 54, -28, -2, 38, 51, 38, -21, -9, -41, -17, 62, 60, 48, 57, 53, -43, 38, 60, 36, 21, 46, -42, 16, 32, 32, 41, 64, -59, 32, -46, 65, 37, -42, -60, -20, -40, -57, 59, 58, -43, -34, 28, 39, -5, -19, 26, -6, 18, 48, 63, 59, 75, -36, -17, 73, 42, -18, 40, 18, 56, -19, 28, 37, 9, 9, 18, -9, -53, -33, -37, 18, -41, -13, -30, -80, -52, -8, 4, -49, -29, -56, -48, 53, 30, 34, 55, -11, -83, -37, -35, 57, 38, 75, 44, 9, 37, -44, -49, -18, -54, 12, -11, 0, 50, 62, 22, 41, -9, -51, 6, 22, 72, -30, -35, -40, 45, -59, -47, 32, -20, -43, -29, 70, -40, -52, 15, -7, -4, -5, -11, -12, -7, -12, -59, -48, -44, 53, 19, 63, 16, -56, 24, 40, 31, 66, -15, 35, -9, 80, 68, 0, -31, -49, 21, 52, -46, 50, -14, 26, -80, -69, 45, -39, -25, 29, -37, -31, 62, -27, -54, 50, 17, -44, 36, 30, -51, -54, 23, -3, 35, -17, 58, -44, -26, -14, -65, -27, -14, 9, -51, -74, -5, -52, -20, -30, -23, 50, 57, 44, -40, 61, 87, -58, 51, 0, 29, 33, -43, -29, 36, -3, 20, 7, -5, 60, -72, -55, 49, 43, -1, 23, 37, 25, -61, 14, -1, 63, 77, -56, -30, 64, 66, -43, 42, 16, -32, 29, -22, -74, 51, 18, -66, 44, 22, 45, 32, 38, -4, 35, 23, 8, 7, 9, 33, -25, 21, 0, -46, -60, -21, 0, 41, -29, 42, 1, 28, -12, 68, 29, -33, -53, -53, -44, 84, 59, 68, 22, 22, -11, -43, 76, 27, -14, 13, 58, -60, 50, 32, 8, -38, 42, -64, 50, -28, -22, 21, -60, 36, 64, -9, 38, 66, 23, 62, 54, -34, 7, 7, -28, 76, 62, -50, -55, -7, -59, 40, 14, 44, -32, -77, 41, 9, -25, 50, -71, 81, 80, 1, 41, 31, -10, 39, 47, -36, 40, 12, 25, -56, 30, -27, -58, 67, -33, 56, 26, 41, 38, 51, -41, -55, 59, 54, -74, -10, -57, -67, 10, -20, 37, -30, -49, 50, -54, -3, -17, 26, -31, 27, -30, -69, -52, 25, -48, 28, 57, -64, 47, 30, -1, 2, -34, -68, -53, -67, 39, 32, -25, -46, -38, -17, 58, -53, -27, 46, 52, 7, 22, -28, -25, 67, 60, 62, 29, 34, -63, -33, -28, 44, 39, 0, 12, 45, 34, 49, -66, 20, -50, 34, 39, -25, 38, 41, 38, 11, -65, -55, 61, -9, 55, 49, 39, 59, -24, 58, -68, 13, 15, 70, 17, 2, 25, 59, 69, 50, -34, -14, 33, 25, -48, -38, -23, -75, -55, -67, 42, -22, -25, -27, 11, 0, 10, -74, 0, -59, -8, -6, 36, 10, 20, -38, -19, 25, -60, -69, -66, -32, -2, -72, 53, 27, 66, 21, 27, -82, 40, 68, -39, -37, 17, 6, 15, -42, -14, 60, -58, -17, 35, 9, 59, 71, 38, 72, 30, 29, -61, -47, -49, 63, 48, 4, 22, -6, 56, 42, 34, -36, -95, -55, -11, 63, 35, -23, -51, -43, -18, -21, 9, 14, 61, -25, -4, -64, 9, 54, -22, -15, -43, -67, 20, 25, -48, -50, 45, -45, -65, -60, 15, -13, 5, -31, 34, 50, 55, -37, 29, -31, -49, 32, 26, -57, 59, 27, 34, -18, 73, 60, -57, 51, -33, 0, -35, -5, 83, -5, 49, -11, 41, -43, 0, -46, 41, 68, -30, 29, 66, 33, -27, 16, -39, -6, -35, 9, -14, 42, -41, -5, 27, 30, 19, -57, 43, 39, -55, -23, 3, 44, 55, -71, 0, 55, -46, 29, 42, 63, 38, -13, 76, 5, 62, 46, -19, 56, 72, -10, 40, 9, 16, -14, -35, 12, 10, -11, -37, -63, 40, 73, -5, -33, 39, -20, 8, -15, 70, -56, 70, 50, 65, -68, -45, -29, -5, -5, 2, 23, -48, 42, 38, -31, -25, -68, 22, -45, 23, 39, 60, -27, 11, 9, -10, -20, -15, 89, 98, 22, -17, -9, 5, 69, -76, -22, 7, -47, 19, 99, 40, 47, -48, 1, -24, 52, -70, 11, -14, -4, 26, -77, 54, 52, -71, -6, -91, 115, 101, 82, -13, 26, -3, 11, 39, 42, -65, -14, 39, 4, 104, 60, 40, 47, -1, 62, 58, -62, -70, 11, -77, -11, 2, 33, -63, -59, -14, -2, -4, -15, -7, -32, 20, -44, -7, -63, 33, 57, -14, -26, -30, 43, -102, 11, 5, 47, -57, 56, 56, -54, -46, -47, -50, 7, 41, -41, 84, -41, -5, -13, 46, 0, 39, 17, -61, 32, 21, 11, 38, -55, -44, -31, 58, -16, -62, 5, -34, 27, 44, 32, -68, 46, -27, -25, -29, -42, 25, -65, 8, -67, 6, 26, -80, 12, 82, 39, -24, -5, -21, -68, 36, 50, 8, -65, 4, 34, -32, -31, 11, 46, 6, 2, -36, 33, -27, -67, 19, 22, -15, -20, 47, -72, -64, 34, 12, -85, -69, -63, -18, 33, 5, -39, -8, -3, -47, 58, -44, -8, -8, -9, 57, -27, -15, 27, -26, -38, 57, 71, 12, 24, -30, 22, 50, 38, -36, -21, 23, -17, 6, -56, -17, -44, -4, 20, 30, -36, 70, -14, 41, -18, 28, -64, 28, -56, 59, -4, -1, 79, 32, -57, -6, 5, 33, 62, 37, 30, -27, -36, 51, -10, 22, 16, -5, 0, -50, 22, -70, -31, -23, -39, 12, -62, -7, 51, -57, 64, 3, -47, 17, 52, -37, 7, -8, 52, -48, 4, -59, 43, 33, -18, 63, 61, -4, 27, -25, 67, 17, 14, 61, 34, 28, 9, 32, -63, -55, 40, 43, 74, -30, 56, 8, -40, 47, 15, -23, 65, -45, 37, -27, -2, 32, -16, 41, 50, 49, -52, -35, -42, 83, -66, -96, -34, -14, -30, -44, 21, 26, -44, 16, -21, -18, 55, 24, 3, -39, -77, 4, -4, 49, -37, -65, -27, 2, 50, 38, 88, -47, 4, -19, 90, 7, -15, -83, 33, -40, -57, 12, 9, -60, -1, -62, 10, 29, 35, 26, -41, -74, 19, 46, 49, 23, 9, 55, 31, 35, 43, -3, 60, 14, -41, -68, 51, 51, 33, -29, -59, 44, 42, 51, 40, -33, -32, 5, 8, 41, -36, 8, -36, 71, 49, -29, 77, 7, -45, 11, -26, 11, -13, -22, 63, -48, 2, -63, -30, -49, 61, 27, -8, -53, -5, 65, -2, 2, -62, 55, 68, -39, -66, -46, -63, 49, 8, 68, 51, -51, 16, -29, 13, 42, 45, 56, 8, 41, -39, -43, -28, -3, 65, 70, 6, -55, 12, -68, -34, 39, -46, 40, -12, 74, -32, 21, 58, -32, -55, -44, 65, -27, -43, 22, -9, -19, -66, 72, 12, 56, -48, 17, -57, 22, -21, -15, -55, -9, 16, 15, -60, -71, 7, -54, 23, -30, 60, -13, 3, 70, -5, 54, 14, 19, 2, 42, -3, 19, -52, -4, 60, 58, 89, 0, 97, 21, -41, -61, 31, -54, -2, -26, -6, -81, -19, -49, 1, -59, -37, 23, -54, 51, 41, -52, 5, -24, -14, 40, 23, -10, -13, -73, -19, 31, 61, 0, -9, 74, 16, 50, -36, 67, 8, -28, 52, 15, -63, -17, 63, -13, -43, -61, -18, -67, 1, 45, -46, -7, 45, 27, 64, -36, 42, 40, -56, 19, 34, -94, 10, -74, -90, 39, 54, 48, -40, 59, 40, 83, 24, -42, 33, -14, 63, -6, -62, -50, 37, 4, 33, 20, 38, -6, 62, 0, 38, -15, -59, 8, 54, 26, 40, -29, -7, -44, -52, 71, -22, 14, -50, -22, -29, 43, 5, -35, 55, 9, -19, 34, 35, 5, -1, -15, 28, -2, -2, -46, -41, 61, -51, -33, -18, -53, -30, -78, 27, -48, -13, 59, 5, -40, -40, -53, 69, -11, 43, -46, 42, 49, -1, -26, -47, -26, 2, -32, -42, 80, 38, -13, 66, -54, -2, 28, -21, 41, -44, -20, 50, -38, -38, -64, -31, -57, -58, 60, -29, 51, 65, -40, -20, -12, -7, 37, -52, 65, -9, -59, -66, 71, 44, -14, -43, -58, -73, 46, -24, -61, -8, 45, 13, 67, -24, 13, 71, -62, 11, -5, 72, 32, 18, 19, 22, 17, 70, 54, -63, -59, -64, 15, 66, 11, 50, 58, -44, -55, -15, -33, 23, 4, -52, -66, 27, 73, -51, -23, -41, -29, 77, 5, 34, -61, -26, 75, 42, 48, 21, -62, 20, 36, -53, 65, -15, 7, 63, -36, -28, -4, 23, 13, 38, 13, 29, -21, -1, -46, -24, -32, -38, -31, 36, 24, -30, 42, 25, 21, 19, 36, 40, -55, -55, 51, 3, 14, -41, -55, 72, -39, 27, 28, -13, -6, 69, -49, 32, 13, -49, 5, -43, -15, 43, 26, -35, -58, -37, -26, 59, 53, 67, 37, 46, 62, 20, 73, 72, 3, 35, -26, -28, 18, 60, 27, -61, -8, 35, 68, 33, -27, -46, 51, -42, 22, 38, -33, -51, 29, 75, 82, -59, 70, -21, 7, 19, 6, 26, 60, -36, -19, 41, -44, -33, 32, -46, -79, 19, 33, -69, 17, -32, -51, -71, 16, 26, -82, 52, 1, -7, -45, 53, -75, -49, 33, -55, -6, -1, -48, -69, -13, -45, -76, -83, -32, -74, 14, 45, -27, -29, 4, -50, -48, 14, -58, -26, -21, 51, 76, -4, 9, -26, 23, 37, 31, -19, -43, 71, 2, -49, -2, -58, 22, 18, 67, -28, 14, -41, 70, 71, -70, 62, -12, 49, 55, -39, 31, -61, 4, 49, 5, 8, 60, 76, -4, -6, 26, 14, -39, -1, -14, 54, 42, -6, -11, 41, 62, -50, 39, -36, -14, -59, 12, 23, -28, 56, 58, -50, -19, -15, 12, -47, -20, -37, -12, -42, -55, 36, -47, -18, -18, -43, -2, -1, 20, 40, 48, 58, -3, 26, 0, -77, 52, -61, 2, 42, 44, -9, 12, 52, 28, -22, -2, 5, 46, -30, 33, -16, 72, 7, -3, -13, 13, -21, 78, -13, -58, 58, 0, 33, 79, 2, 13, -10, 70, 52, 47, -9, -3, 33, 40, -25, -46, -55, -4, -43, 27, 55, 68, 43, 76, -56, 35, -1, -52, 47, -34, 33, -7, -15, -29, 73, 48, -16, -32, 46, 45, 61, -23, -28, 56, 40, 17, -10, 1, -67, 47, -17, -42, -47, 52, -78, -13, 12, -67, -61, 11, -78, -44, 53, -37, -34, -73, 42, -2, -25, -58, -73, -6, 60, -14, 12, 87, 38, 77, 88, -22, 72, 48, 52, -44, -57, -10, 0, -2, 27, 49, 8, -45, 54, -37, -29, -25, 30, 27, -61, 19, -31, -51, 26, -57, 46, -22, 20, 89, 81, 11, -21, 20, 33, -11, 49, -30, -42, -11, -40, 22, 3, -17, 27, 75, 78, -35, -19, -20, 58, -44, 4, 66, 72, -19, -9, -57, 29, 36, 29, 49, -79, 30, -1, -65, -19, -46, -69, 32, 59, 7, 12, -48, -15, -95, 11, -36, -33, 5, -45, 40, -51, -42, 13, -5, -20, 31, -46, -3, -54, 71, 39, 39, 65, 81, 9, 49, 1, -95, -25, 46, 72, 42, -9, 5, 34, 26, 31, 69, -4, 54, -6, -19, -64, -44, 31, -10, -1, 58, 12, 25, -42, 9, 58, 9, 19, 31, 25, 71, -54, -39, 14, -33, -3, -64, 10, 16, -20, 4, -16, 60, -30, 26, -11, 23, -48, -25, 39, 38, -22, 13, 42, -1, 39, 11, 2, -34, 44, 28, -27, -58, -60, 29, -10, 44, -17, -1, 13, -80, 18, 15, 37, 45, 50, 33, 29, 53, -2, -16, 9, 12, -49, 23, 56, 0, -24, 8, 2, 91, 32, 29, 28, -6, -14, -59, 62, 70, 2, 43, -13, -11, -55, -20, -1, 22, -44, 52, 39, -39, 29, 27, 68, 62, -49, 65, 38, -70, -61, -33, 14, 71, 48, -7, 15, 83, 7, -46, 1, -7, -48, -53, -64, -60, 24, -34, 9, -9, 62, -46, -53, -45, 52, 14, 3, -56, -51, 44, 10, 42, -27, -7, -30, -27, -76, -32, 10, -17, -10, -33, -11, 39, 0, -50, -19, 61, 56, 53, -5, -46, 83, -53, -30, 50, 25, -19, 51, -49, -26, 53, -2, -28, -27, -2, -43, -7, -56, -27, -24, 38, -23, 22, 38, 19, 34, 6, 11, -37, -72, -5, -73, 17, -62, -39, -10, 42, -46, -2, 67, 35, -37, 63, 64, 13, 35, 32, -27, -27, -16, -34, 46, 83, -13, 4, -58, 27, 82, -38, -16, -62, -72, 65, 19, -62, 16, 54, -50, 45, 41, -45, -16, 66, 4, -10, 57, 31, -8, 21, 42, -4, -58, 4, 31, 15, -5, 71, 58, -14, 19, 10, -46, 4, 50, -41, -44, 10, -13, -2, -30, -23, -10, -36, -60, 66, 60, 26, 18, 45, -50, 1, -23, 16, -32, -42, -19, 2, 45, 56, -58, -29, 22, -4, -20, -5, -51, 4, 60, 7, 72, -9, 77, 65, 60, 45, -34, 38, 48, 74, 31, 81, -4, 40, -42, 6, -57, 25, -41, -40, -30, 41, 70, -17, 35, -8, 62, 23, 35, 19, 77, -2, 64, 9, -57, 20, 30, -48, 57, -7, 43, -47, -16, -59, 67, 10, 21, 41, -52, 7, 50, -16, -76, 22, 45, 14, -2, 20, -8, 27, 49, -28, -68, 21, 57, -78, -27, -14, -31, -32, 24, -51, 4, -30, -42, 1, -7, -38, 54, 5, 65, 34, 46, 42, -16, -16, -4, 36, -9, 51, -28, 14, 47, 17, -63, 31, -18, -42, -60, 69, 38, 24, 33, 19, 34, 57, 46, 12, 54, 65, 23, 44, 13, 26, -24, -31, 6, -3, 48, -18, -37, 84, 0, 42, -50, 27, 4, -62, 21, -33, -52, -43, 61, 31, -7, -21, 37, 28, 1, 25, -18, -50, 25, 42, -14, 43, -4, -21, 28, -26, -26, 63, 0, 34, -29, 33, -25, 37, 21, 35, 40, 20, 43, -19, -31, -56, -76, -39, -16, -70, 36, -49, 5, 14, -8, 39, -66, -59, -70, 51, -58, -60, 39, -40, -60, 15, 7, 65, 65, -57, -43, 52, 18, 9, 8, 44, -55, -65, -35, -12, 50, -23, 66, 58, -43, -18, 38, -35, 47, 52, 5, -10, -22, 8, 64, -64, 36, -58, -21, 68, -66, 7, 1, 20, -60, 21, -44, 58, -62, 45, -71, 25, 49, 4, 23, -11, -4, -39, 30, -21, 106, 68, 42, 107, 18, 45, -27, 66, 56, 49, 9, 58, 62, 60, 68, 54, 23, -16, 80, -25, -36, -28, -53, 80, 69, 45, -14, -51, 41, 64, 21, 72, 71, -72, 13, -39, -29, -25, -36, -56, -52, 23, 6, -29, -32, -9, 53, -11, -21, 12, 51, -46, -3, -27, -24, -8, -66, 16, -23, 10, 67, 10, -92, -51, -25, 47, -9, 11, -38, 9, -15, 73, 56, -17, -40, 12, 53, -35, 1, -36, 7, 19, -49, 38, 50, -4, 10, -34, 40, 32, 54, 3, -57, 19, -36, 33, 31, 5, 66, 25, 22, 16, 77, 2, 52, 71, 47, 92, 71, 64, 77, 80, -40, -47, -9, 3, -47, -21, 1, 61, -45, -22, -9, 67, 79, 19, 64, 48, 10, -21, 21, -83, -57, -45, -35, 21, 5, 5, 14, -31, -24, 14, 40, 42, 53, -30, -12, 32, 28, 66, 17, 68, -36, -66, -61, 53, -45, -12, 52, 92, 104, 48, -3, -93, -79, 1, 3, -18, 24, 19, -45, 9, -9, -70, -49, 26, 35, 1, -17, -56, 23, -11, -3, 49, -61, 63, 59, -12, -69, -41, 18, -68, -87, -81, -14, -32, 6, 8, 64, 9, -1, -62, 69, -5, 51, 69, -22, -3, 87, 18, -2, -46, -9, 44, -29, -4, 6, 37, -36, -8, -51, 64, -22, -33, 2, -26, 49, 48, -38, -9, -37, 55, -23, 44, 72, 72, -47, 30, 30, -7, 5, 36, 51, -13, -30, 11, -4, -56, 27, -55, 51, 32, -19, -4, -43, 11, -68, -5, 39, 32, -49, -36, -30, -12, 52, -58, 47, -38, -19, 25, -67, -40, -48, 65, 46, 44, -27, 67, 61, 20, 30, 50, 36, 10, -34, -13, 45, -3, 80, -42, 11, 30, -69, 61, 26, -42, -49, 47, 1, -6, -68, 23, -35, 17, -38, 58, 32, -45, 14, -2, -33, -70, -13, 18, 28, 35, 25, -86, -10, -22, -34, 15, 49, -17, 14, 8, -45, 63, -61, -56, 5, 39, -45, 37, 22, 79, -51, -45, 32, 34, -37, 16, 76, 59, 58, 72, -11, -32, 81, 2, -52, 26, -2, -12, 45, -79, -45, 33, -49, 29, -17, 20, -21, -22, 58, -1, -42, -41, 40, 27, 32, -58, 13, -45, 1, -16, -40, -41, -26, 22, -44, 13, -27, -69, 1, -19, 41, 16, -73, -65, 33, -45, -52, -36, 50, -36, -35, -43, 0, 47, -58, -16, -61, 56, -19, -48, -13, -23, 55, -25, 61, 53, -74, 18, 31, 43, 26, 21, -5, -21, 19, 41, 59, 61, 56, 75, 16, 76, 2, 49, -23, -43, -59, -12, -19, 58, -4, -31, 58, 65, 2, -36, -13, -18, 58, -15, 13, 21, -45, 71, -40, 7, -9, -47, -10, 29, 61, -26, 9, 28, 26, 15, 87, -1, -24, 47, -15, 15, 77, 45, -49, 52, 39, 19, 30, -26, -16, -32, -38, -57, 18, 18, -79, -43, 43, -42, -78, 32, 50, 8, 39, 38, -84, 15, -75, -49, 25, 31, -54, -15, 14, -42, 29, 41, 19, 47, 11, -77, -14, 45, -7, -18, 24, 4, -34, 0, 60, -13, -21, 34, -61, 68, 7, -57, -45, 49, -44, 56, -25, 54, -45, 69, 68, -60, 5, -59, 5, 11, -41, -55, 54, 25, -40, 24, -26, -29, -17, 15, 48, 22, 63, 45, -25, 54, -57, 49, 16, -10, -56, 52, -33, 4, -45, 13, 30, 10, 50, 55, -22, 21, 56, -26, -24, 61, -59, 59, 41, -36, 50, -25, -40, 12, -31, 10, -40, 35, -63, -16, -16, -44, 17, 43, -11, -48, 25, -48, -27, 14, -32, -44, 50, -78, 54, 35, -57, -71, -71, -23, 3, 12, 27, 25, 10, -27, -26, -3, 21, -38, 24, -16, -91, -2, -2, -67, -13, 16, 0, 54, -30, 57, -6, -28, 41, 4, -56, 6, 62, -46, 23, 59, 5, 35, 3, 18, 18, -32, 59, 20, -69, -60, 46, -92, -65, 38, -6, 2, 33, 16, -22, -62, -5, 57, -39, -66, -11, 13, 61, 39, 29, -86, 79, 40, 89, 38, 86, -8, -4, 29, 70, 8, -31, -24, -37, 20, 78, 2, 46, 78, 1, -63, 72, 5, -40, -57, 64, -49, -43, 54, 23, 62, -20, -71, -17, -30, 15, -48, 31, -66, 52, 64, -33, 48, 54, 51, 81, -6, -23, -51, -37, -33, 12, 47, -57, -1, -11, -44, 54, 25, 64, 72, 36, -18, 78, 22, -43, 31, 21, -77, 21, 39, 52, 21, -19, 55, -45, 33, -32, 62, 56, -53, -53, 67, 36, -62, 1, 33, -23, 57, -12, -31, 2, 73, -36, 19, 54, 36, -42, -64, 23, 13, -13, -13, -42, 41, -68, -57, -29, 62, 21, -24, -68, 24, -63, 35, 28, 22, 19, -50, -42, 43, -29, 67, -63, 11, -33, 46, -17, 46, 78, 50, -25, 59, -13, -26, -30, -42, 51, -56, 24, -24, 18, 48, -6, -10, -56, -37, 27, 5, -22, -56, -18, -29, -35, -50, -10, 37, -57, 44, 60, -25, 5, -62, 35, -10, -60, -98, -27, -42, -25, 31, 48, 71, -31, 61, 53, -18, 68, -62, 41, -48, 66, 68, -70, 57, 17, -8, -12, -49, 29, 24, 29, 3, 16, 63, -61, 57, -32, -57, -60, -43, 15, -7, -38, 70, 66, 27, -32, -61, -35, 32, 46, -64, 45, -7, -46, 62, 29, 57, 58, 26, -50, -5, -41, 106, -19, -79, -72, 14, -46, 59, -62, -24, 30, 56, 36, 8, 58, -48, 18, -47, -46, 20, 0, 59, 11, -61, -37, 20, -65, 42, 7, -57, 71, -66, -60, 15, -8, -38, -59, 13, 57, -8, 46, -28, 50, 22, -30, -67, -26, 60, -29, 8, 33, -57, -34, 15, -19, 24, -25, -33, 61, 7, 31, 52, -6, 34, -11, -5, -17, 73, 31, -2, 38, 36, -34, 61, -55, -57, 20, -19, 63, 21, 53, 1, -25, -43, -23, 34, 24, 1, 10, 71, 44, -5, 57, -11, -10, -55, -12, 33, 52, -29, 28, 34, -10, 7, -42, -55, -26, 61, -60, -25, 71, -45, -7, -52, 18, 77, -43, 49, -48, 3, 5, -60, -19, -10, 64, 70, 63, 61, -4, -57, 49, -52, -13, 40, -26, 37, 73, -48, -29, -54, 52, -16, -40, 40, -47, 8, -36, 23, -9, -23, 56, -33, -36, 7, 8, 15, -11, 72, 31, -26, 2, -64, 57, 46, -30, -70, -26, 40, -39, -19, -81, -51, -41, 41, 2, 45, -77, 52, 46, -52, 56, -75, -10, -17, 2, 49, -9, -42, -47, -73, -37, -41, 3, 66, 72, 58, 33, 80, -67, 2, -9, -28, -23, -49, -31, -62, 62, 30, -30, 26, 11, 14, 45, 66, -28, -12, 46, 9, 21, -56, -7, 38, -51, 43, -67, 30, 93, -30, 94, 68, -18, 5, -37, 52, 53, 7, -32, -64, 2, -51, -19, 29, 12, 34, 14, 13, -8, -46, -46, -1, -44, 52, -59, -70, -34, 60, -32, 67, -59, -84, -66, -100, -91, 38, -35, 55, 5, 57, 95, -16, -28, -71, 2, -22, -6, 51, -16, -16, 57, -20, 7, -9, -43, -57, -27, 69, -59, 25, 58, 17, -20, 4, -38, -16, 41, 30, -55, -22, 41, 72, -52, 56, -29, -47, -7, 44, 42, 50, -43, -48, 62, 1, 66, 25, -41, -5, 29, -51, 74, -58, 19, -63, -62, 37, -18, -22, -37, -51, 47, -9, -45, 60, 30, -18, -12, -47, 10, 79, -27, -36, -45, 15, 65, -41, 7, -36, -25, 79, 73, 45, 17, 76, 10, 61, 25, 24, -15, 35, -8, 7, 48, 41, 34, 57, -18, -78, 61, 53, 39, -14, -5, 10, 11, 46, 21, -51, -65, 48, 8, -39, -65, -53, 49, -3, 7, -57, -6, -20, 10, -14, -62, -36, -53, 37, -34, -17, 34, 69, 53, 47, 15, 43, 9, 48, -11, -32, -22, -37, -26, 58, -54, 10, -8, 5, -56, -46, -71, 0, -17, -85, -79, 48, -55, -17, 10, -20, 4, -69, -4, -53, 40, 50, -45, 57, -37, 65, -69, -61, 2, -3, 24, 36, -66, -33, -47, 45, -10, -51, 61, 40, 42, -15, 42, 0, 71, 61, -69, 2, -30, -5, 23, 52, -11, 11, -53, 20, -10, -41, 80, 32, 58, 8, -5, 40, -16, 48, -50, 10, -39, -23, -34, -117, -39, -58, -23, 52, 3, 49, -35, 20, 31, 31, -18, -47, 13, -7, 1, -9, 50, 29, 5, 40, -55, -54, -43, -44, 24, 13, 46, 57, -46, -58, 50, -23, -76, -60, 29, -31, -55, 28, -10, -52, -54, -2, 45, 15, -25, -36, -26, -14, 14, -6, -48, 46, -54, 62, -32, 66, -16, -54, -33, -1, 51, 49, 36, 30, 46, -8, -8, 58, 40, 54, 0, -18, -50, 2, 51, -24, 48, 34, -62, -48, 41, 58, -19, -19, 18, 17, 40, -28, -67, 17, -1, -19, -45, 44, -28, 20, -66, -4, -46, -3, -1, 49, 67, -42, 52, -32, 32, 32, -4, -17, 57, -35, 17, -31, -13, -14, 30, 48, 36, -17, 26, 47, 22, 15, 39, -10, -59, -75, 59, -43, -52, 46, 9, -16, -35, 21, 0, -35, -41, -60, -7, 8, 31, -27, 43, 16, 18, 39, 77, 5, 56, 10, 58, -9, 71, 47, -7, 60, 35, -12, -69, -15, -39, -52, 51, 39, -46, -38, -5, 23, -52, -74, 6, -25, 11, -26, -74, 24, -43, 30, -63, 47, -71, -19, -74, -75, -74, 48, -30, -43, -67, 76, -47, -20, 12, -32, 56, 66, -24, 1, -14, 47, -33, 6, -4, -9, 31, 22, 8, -28, -60, -8, -36, -16, -48, -34, 36, 5, -45, -18, -18, 5, 47, 72, -87, 3, 59, 39, 4, 61, -10, 28, 78, -30, -44, 81, 20, 15, -57, -3, 64, 43, -59, 29, -20, -11, -16, -55, 44, 13, -53, -39, 8, -48, 20, 4, -68, 47, -15, -38, 38, -33, -82, 44, 13, 33, -46, -34, -50, 25, 52, 49, 64, 41, -48, 29, 12, 35, -49, 27, 26, -61, -53, 45, 56, 42, 63, -62, 86, -20, 25, 0, 61, 3, -6, 23, 17, 17, -35, 47, 49, 103, 65, 6, -56, -45, 40, 16, -70, 24, 43, -26, -48, -22, -49, -31, -36, 21, 56, -53, 120, -9, 53, 16, 69, 13, -19, 24, -34, -54, -46, -56, 18, 17, 106, -4, -53, -33, 41, -3, 51, 47, -53, -30, -56, 11, -31, 7, 38, 37, 21, 3, -14, -6, -36, -14, -17, 19, -37, -56, 29, -35, -19, 21, -62, -25, -112, -127, -48, -3, -102, 12, -52, -37, 51, 63, -35, -63, 6, 69, -38, -51, 71, -37, 29, 51, 25, -31, 8, -44, -29, -81, 24, -10, 35, -22, 54, 58, 21, 37, 67, 72, -6, -12, 32, -18, 12, 63, -4, -33, -3, 41, 1, -30, -30, -43, 20, 32, -28, 3, -36, 37, 22, -6, -39, -10, 44, -32, -68, 22, 54, 70, -49, 5, 27, 36, 20, 30, -67, 29, -2, -64, -32, -26, 25, 32, 49, 13, 40, 9, 15, -31, 42, -39, 27, 6, 74, 45, -19, -41, -35, -46, -19, 70, 22, -18, 18, -48, -19, -27, -7, 68, 72, 63, 75, 66, -30, 46, -56, -35, -17, -29, -35, -27, -5, 97, -42, 79, 56, 51, -51, -40, 12, 61, -54, 65, 83, -11, -63, -47, 21, 61, -49, 54, 56, 75, 28, -42, -59, 43, 36, 22, -51, -38, 73, -14, 83, 0, 40, 80, 1, -32, 25, -47, 36, -50, -34, 5, -42, 0, -49, -12, -12, -54, -15, 26, 44, -28, 26, -11, -33, 22, -12, 47, 59, 32, -45, 8, 8, 52, 43, 52, 1, -60, -7, -60, -73, -56, -34, -59, -12, 23, 47, -4, -29, -32, 36, 4, -34, -29, -74, -7, -51, 4, 0, -70, -71, 12, -66, 50, 54, 53, -43, -19, 13, 33, -34, -46, -14, 67, 70, 62, -7, -22, -27, -45, -27, 74, 70, -50, -50, 27, -12, 65, 38, 7, 37, 31, 42, 61, -27, -14, -25, -32, 75, 34, 17, 26, -28, -22, 56, 35, 41, -29, -57, -47, -54, 37, -54, 60, 51, 44, -8, 34, 64, 81, 62, -46, -2, -21, 39, 32, 52, -59, 34, 7, 21, -24, -30, -58, -46, -51, -79, -9, 16, -21, -70, -66, 15, 26, 38, -13, -43, -87, 26, -23, 45, -8, -48, 13, 30, 59, 55, -82, -80, 5, -27, 59, 16, -20, 40, -37, -56, 46, 7, -25, 63, 22, -38, -14, 59, -70, 53, -4, -36, 43, -22, 28, -48, 48, 53, -20, 56, -40, -82, 27, 55, -70, 56, 33, -43, -69, 47, -74, -69, -53, 40, -55, -17, 26, -69, 3, -37, 59, -24, 19, -49, -9, 20, -47, 26, 23, 18, 55, 48, -13, -1, -32, 22, 73, 74, -9, 46, -17, 26, 45, -8, -53, 63, 18, -23, -47, 43, 87, 62, 21, 20, 9, -10, -34, -34, -26, 21, 40, 75, 7, -15, 23, -59, -22, 47, 36, -66, -21, 33, 19, 65, 1, 29, -20, 2, 11, -11, -1, 41, -13, -17, 66, 60, 24, 14, -23, 1, 41, 66, 46, 9, 36, 15, 2, -43, 29, -16, -52, 29, 20, 35, -39, -14, 6, -17, 31, -9, 28, 17, 61, 46, -3, 26, -1, -57, 21, -36, -45, 42, -8, -30, 73, 47, -13, 26, -5, -74, -2, 9, 28, 1, -40, 15, 29, -29, 31, 34, -37, 10, 0, -9, -19, 42, -45, -60, -23, 40, -52, 44, -20, 5, 26, -76, -39, 8, -70, -34, -67, -10, -44, -15, -46, 34, 52, 37, 42, 13, 31, -22, 44, 57, -53, 81, 22, -2, 76, 43, 38, -20, 52, -37, 33, 47, 48, 23, -9, 81, -34, 7, 7, -1, -41, 18, 4, -18, -27, 6, 57, -23, -48, -55, 69, 9, 53, -35, -5, 24, -51, -18, -26, -38, 7, -57, -43, 17, 48, 71, 18, -31, -23, 35, -8, 54, 35, -46, -24, 28, 55, -70, -63, -11, 28, -27, -79, -9, -65, -55, -51, 28, 1, 3, -1, -78, -33, -49, 20, -49, 36, -40, -60, 55, -19, -41, -109, -32, 50, 64, 5, -53, 26, -10, 14, -44, 63, -41, 53, -47, -83, -63, 38, -12, 17, -78, 22, 43, -23, -1, -37, 34, 44, 26, -65, 27, 20, 51, -2, 24, -15, 75, 61, 50, -5, -80, -19, 31, -23, 49, -25, 7, -81, 24, -11, 32, -68, 2, -67, -4, -70, 57, 16, 28, -55, -38, 54, 9, 9, 42, 13, -41, 55, 49, 1, -11, 29, -9, 73, -4, -7, 24, 8, 46, -10, 80, 13, -3, 94, -7, 81, -53, 19, 7, -34, -39, 78, 59, 19, -7, 45, -29, 67, 57, 34, -54, 40, -54, -57, 54, 15, -9, 32, 75, 23, 40, 66, -5, 4, -40, 65, 25, -41, -51, 41, 84, -54, 48, 67, -31, -5, 12, 80, 64, 71, -77, -72, 5, -19, 39, -42, -1, 13, 21, -67, 53, 29, 66, -14, -57, -28, 34, -47, 36, 79, -22, -5, -35, -61, 62, 36, 68, -11, -56, -22, -67, 45, -45, 22, -29, 80, 40, 20, 62, -43, -18, -57, -19, -17, -32, -49, 26, -41, -57, 4, 64, 40, 31, 38, 55, -52, 16, 63, -48, 57, -8, 47, -3, -82, -35, 9, 32, -48, 6, 63, 20, -53, 5, 18, 29, 72, 18, 21, -71, 55, -19, -3, 41, 15, -59, 21, 26, -68, 52, 5, -46, 61, -69, 6, -3, -38, -15, 10, 15, 67, 51, 13, 62, 60, 23, 74, 22, 75, -27, -5, -60, -75, -33, 62, 32, -41, -59, -28, -60, -23, -49, 49, 31, -40, -53, 24, -30, 38, -28, -21, -27, -76, -27, -10, -19, -64, 16, -3, 37, 21, 24, 65, -30, 54, -9, -79, -63, 45, -57, 47, 38, -35, -54, -68, -58, 13, 41, -25, 13, -60, -15, -1, 90, 23, 38, 80, 9, 55, -59, 19, 25, -61, -14, 43, -15, -17, -2, -42, -4, 22, -71, -14, 30, 35, 48, -5, -29, -1, -42, 37, 46, -56, 28, 61, 53, 28, 41, 29, 54, 29, -25, 26, -72, -27, 42, -6, -48, 16, -37, -9, -76, -79, 34, 30, 49, 13, -5, 32, -9, -42, -47, -39, -71, -57, -61, -21, -28, -83, -14, 11, -84, -13, -4, -48, 49, 17, 30, -1, -64, 53, 4, -27, -9, 34, 68, 30, -50, 19, -55, 43, 25, -47, 9, -41, -28, 43, -77, -68, -51, 30, -24, -14, -1, 75, -7, 6, -45, -6, -48, 3, 69, 7, 57, 76, -52, 53, -53, -43, 60, -38, -12, 11, -44, -10, 34, -39, 5, -65, -69, -5, 34, 75, -12, -13, -49, 70, 29, 0, 55, 21, -62, 51, 71, 1, -54, 37, 42, 48, 31, 65, 30, 46, 31, 49, -16, -40, -19, -25, -55, 37, -59, -14, -10, 63, 27, -6, 39, -37, 33, 5, 57, 42, -30, 67, 24, 52, 3, -23, -30, -45, 40, 30, -20, -4, -41, 60, -28, -52, 56, 68, 59, -19, 22, 32, 65, 73, 35, 32, 78, 87, 11, 49, -48, 5, 54, -77, -33, -57, -13, -19, -8, -52, 43, 7, 49, 43, -29, 34, -43, -69, 28, 36, 48, -3, -22, 21, 83, -33, 54, 10, 75, 74, -24, 37, 8, 34, -15, -15, -33, -33, 30, -11, -79, -18, -26, 15, 49, -9, 23, 25, 11, -69, 32, 43, -58, 55, -57, 36, -82, -54, -30, -15, -39, -18, 37, 56, -43, -33, 7, 13, 44, 8, 43, 63, 44, 29, -56, -61, 29, -41, 50, -23, 13, -12, -19, -59, 66, 51, 22, 61, -18, 32, 51, 24, -58, 5, 74, -43, -44, 38, -12, -31, 11, -19, 13, 73, 0, -30, 23, -40, -2, 15, -9, 16, 47, -28, 0, -44, 61, -34, -39, -24, 25, 9, -52, -8, -26, -8, -37, 35, 20, -19, 61, 4, 9, 34, 9, -16, -5, 40, -42, 75, -44, 17, 7, 50, -47, 7, -28, 67, 37, -27, 19, -64, -11, 50, 31, -69, -12, 21, -52, 14, 58, -31, -35, -42, -73, 47, -73, 44, -32, -57, -10, -7, -51, 4, -57, 28, 58, -26, 38, 19, -5, 6, -11, -24, -8, 76, 86, -14, -2, 78, -13, 32, -35, -58, 75, -17, 20, -47, -61, -65, -61, -4, -8, -6, -54, -33, 16, 55, 39, 1, -54, -73, -73, 35, 2, 88, 1, 9, 2, 15, 68, 93, 48, 16, 77, 46, -1, -69, 24, 63, -47, 14, 39, -36, -37, 54, -5, 58, 17, -57, -17, -22, 31, 59, -22, 36, 29, -59, 26, -62, 5, 33, -64, -33, -51, -70, 23, 21, -76, -38, -44, 6, -28, -64, 13, 44, -31, 12, -22, -75, -67, -80, -68, -25, 35, -26, 37, 11, -51, -39, 19, -41, -64, 12, 71, 71, 24, -28, 16, -5, 46, -14, 54, 65, -9, -62, 47, 19, -9, 11, -69, -74, -38, 6, 16, 22, 22, 47, -29, -6, -80, -31, 60, -43, -67, -11, 39, -32, 63, 22, -38, -48, 34, 16, -12, -67, -11, 69, -64, 55, -19, 6, -39, 37, -67, -63, -17, 46, -7, 51, 57, 14, -15, 52, 9, 12, 45, -56, 29, 5, -33, 25, -65, -18, -27, 1, 19, -41, 63, -57, 44, -13, -54, -5, -20, 19, 36, -59, 20, 71, 34, 66, 68, 29, 4, -27, 34, -12, 7, -43, 48, 27, -60, 18, -1, -12, 26, -19, -38, -7, -12, 54, 63, -47, 80, 74, 62, -21, -37, 72, -37, 17, -13, 76, 20, -11, 43, -51, 15, -21, 50, -54, 39, 9, -19, -24, 41, 28, -32, 67, 66, 17, -15, 63, -51, -32, 71, -1, -17, 56, 55, 1, -30, 58, 9, 15, 29, -3, -16, 14, -16, -6, 59, -66, -24, 27, -59, -21, 21, -51, -67, -34, -35, 61, -47, -34, -48, -67, 24, 25, -73, -71, -46, 4, -34, 26, -71, 0, 47, 33, 10, 28, -20, 87, 49, -35, -57, -64, 67, 43, -54, -32, -60, 45, -14, 15, -15, -51, 13, -1, -1, -11, -37, 29, 63, -55, 23, 30, 10, 38, 26, -55, 40, -25, 38, -32, 7, -2, -41, -59, -54, -11, 36, 11, -20, 34, -65, -3, -9, -18, 9, -10, -30, -14, -56, -28, 71, 1, -9, -54, 7, -31, -48, -12, -33, -78, -3, 5, 31, -15, -39, 14, 82, -26, 76, 70, 40, -18, 51, -51, -1, -72, 29, 34, -43, -19, 66, -26, -41, -12, -28, 41, -62, 62, 22, 33, 94, -23, 34, 76, 39, 35, -2, -7, 14, -47, 38, 42, -13, 8, 30, 30, 14, 20, -57, 49, -33, -40, -36, 2, -41, -9, 48, 5, -3, 43, -24, 5, 20, -15, 30, 60, 63, 53, -7, -33, 3, -5, -26, 42, 59, -47, 67, 14, 38, -14, 10, -19, -27, 3, 7, -25, -60, -31, 39, 9, -40, -12, -56, -7, -41, -68, -89, 12, 8, -38, 9, -34, -27, -66, 35, 4, -8, -57, -26, -41, 28, 52, 23, 9, 61, 13, -68, -2, -12, -61, 32, -8, 38, -41, 62, -102, 35, -34, 2, 54, -51, -9, -31, 18, 60, 68, -33, 19, 17, -41, -36, 10, -53, 51, -26, -46, 4, -5, 54, 26, -58, -52, 1, 8, -23, -1, 59, -58, 58, -12, 21, 10, -23, 72, -17, -45, -4, 59, -49, 56, -10, 74, 11, -40, -63, -57, 25, -59, -43, 11, -15, 46, -61, -53, 37, -2, -45, -30, -39, -58, 1, -34, -88, -23, -8, 27, -41, -45, 60, 57, 57, 15, -82, -81, -40, -69, -45, 24, 50, 11, 3, 24, -69, -2, -2, -49, 18, -6, -20, -33, 26, 16, -77, -65, -24, 27, -15, -61, 26, -33, -6, 71, -9, 65, -6, -11, 17, -34, -29, 31, -59, 60, 48, -64, -63, -17, -36, -41, -20, 58, -50, -20, 62, 5, -75, -54, -11, -36, -17, -20, 8, 17, -29, 50, -35, 6, 53, 67, -65, -40, -64, -56, -6, -37, 29, 7, 26, 67, -21, 66, 35, 59, -18, 12, 46, -42, -49, 44, -70, -61, 30, 54, -1, -31, 32, -26, -36, 5, -16, 55, -25, 52, -13, 41, -14, 40, -6, -57, 12, 25, -17, -39, -50, -19, 8, -56, -57, 13, -65, 17, 55, -61, -36, 10, 53, 35, 46, -9, 49, -44, -22, 8, 8, -1, -54, 8, 35, 13, -54, -51, -30, 19, 51, -47, -59, 18, 27, 40, 44, -54, 21, 48, -29, 17, -62, -69, -39, 50, -10, -19, -13, -24, 56, 32, 41, 77, 19, 51, 65, -38, -62, 12, 39, 56, 7, 37, 21, -3, 55, 45, 9, 32, -32, -61, -67, -71, 6, -71, 11, -56, 24, 56, -38, 28, -10, -36, -6, -80, 18, -10, -42, -54, 8, 52, 17, -1, -74, 16, 26, -51, -56, -70, -79, -5, -46, -51, -63, -58, 2, -70, 54, -30, 10, 46, -16, 24, -43, -9, 53, -51, 48, 23, 27, 56, 64, -30, -19, 56, -11, 70, 11, 19, 48, -18, 47, 32, -67, -36, -37, 25, -11, -30, 50, 11, -49, 64, 50, 36, -48, -54, 55, -64, -65, -33, 43, 50, 62, 54, -7, -29, -42, -6, -64, -69, -48, -32, -57, -23, 45, 20, 42, 27, 83, 93, 63, -3, -25, 27, -16, 75, 47, -13, 37, 36, -48, 9, 50, -25, -3, 28, 2, 42, 17, 82, 17, 4, 3, 69, 18, -1, 30, -39, 27, 60, -15, 42, 9, 92, 63, -16, 36, -66, 51, -38, -64, 37, -24, 23, -4, 43, -57, -13, -39, 23, -12, -55, 40, -67, -29, 13, 44, -23, 52, 43, 51, 4, 18, 56, -51, -39, 4, 28, 36, -44, -53, -56, -46, 18, 66, -52, -17, -35, -24, -72, -22, -70, 45, 69, 30, 58, -26, 31, 71, -78, -32, -11, -46, -62, -77, -83, 2, -67, -39, 26, 2, -19, -20, -36, -41, -5, -52, 44, 41, 41, 25, -13, -38, -31, 8, -18, -8, 53, -21, 17, 50, -67, 42, 49, 15, -43, -24, 52, -3, 31, 47, 57, 18, 34, 58, 23, -17, 29, 1, -41, 55, 6, -33, 60, -26, 37, -7, -13, -50, -13, 22, 49, -40, 58, -8, -26, 60, 34, 6, -60, -40, -23, 40, -28, 7, 0, 13, 5, -3, -34, -43, -19, -65, 13, 77, 59, -45, -11, 35, 44, 73, -33, -13, -26, 65, 31, 31, 24, 39, 53, 64, 40, -34, -32, 62, -60, 17, -38, 52, 44, -9, 49, 61, -45, -17, 6, 9, -26, -42, 30, 16, -58, -69, 58, -21, -70, -72, 91, 4, -47, -2, -14, -44, 47, -47, 0, -47, 29, -40, -86, -15, -57, -87, -67, 47, 45, 54, -31, 37, -52, -22, 12, 44, 37, -50, -4, 7, -37, -61, 54, -7, -45, -23, 36, 88, 41, 67, 5, 21, 25, -28, 33, -28, 39, 51, -11, 7, 48, -7, -51, -34, -14, -77, 36, 16, 47, -62, -16, 29, 51, 1, -26, -3, 8, -8, -37, 20, 49, 51, -35, 30, -1, -61, -46, -7, 4, -49, 69, 61, -5, -59, 23, -32, -10, -23, -53, -20, -28, 6, 26, -22, 26, 27, 25, -35, -30, -29, 57, 33, -59, 9, 16, -53, -53, 76, 37, -6, -36, -36, -32, 58, 11, 58, -1, 41, 2, -35, -19, -7, 0, 70, -7, -16, -33, -47, 33, -10, -15, 13, 21, -17, -18, -23, -23, -36, -9, 65, 52, -26, -2, -9, 52, 14, 38, 33, 19, 10, 12, 49, -60, 64, -9, 56, -47, -32, 62, -39, -2, -9, 41, 16, 93, -21, 30, -21, -38, 58, 29, 3, 65, -17, 47, -44, 34, -14, 37, 63, 47, -20, -8, 48, 39, 32, -4, -56, -9, -29, 50, -51, 41, 31, 4, 20, 2, 5, 60, 45, -36, -9, 0, 85, -44, 48, -29, -41, 23, -37, 19, 66, -64, 57, -62, 1, 56, 57, 65, 52, -8, -2, 41, -67, -79, 31, -14, 40, 43, 34, 41, -13, -74, 4, -44, 29, 42, -4, 1, 4, 43, 53, 50, -20, -57, 31, -67, 65, 44, 1, 33, -56, -17, 68, 39, -35, -44, 37, -62, 50, -9, 25, 3, 6, -43, -57, -61, 0, -31, -30, 30, 87, 64, 59, 66, -36, -65, -61, -28, 19, -37, -10, 63, -12, -67, -29, -16, -72, 54, 17, -54, 40, 50, -69, 47, -68, 43, -61, 40, 59, -55, -27, -26, 1, 51, -49, 9, 65, 66, -36, -58, -30, -42, 2, 21, -24, 4, 69, 6, -26, 38, -78, -13, -61, 22, -11, -27, -34, -74, -11, -68, -53, 58, 8, -16, 30, -70, 23, 67, 28, 42, -25, 25, -4, 2, -5, 53, -65, -35, 27, -46, 42, 81, 32, -23, -30, -10, 1, 92, -29, 51, -26, -3, 54, -6, 67, 17, -34, 18, 35, 11, 59, -27, 3, 54, -16, -19, -52, 35, 73, -18, 36, -14, 38};

static const int32_t stem_0_bias[112] = {-37, 7, 20, 8, 2, -45, 86, 36, -13, -16, 38, -15, -35, -29, 40, 18, 55, -39, 65, -13, -40, 18, -30, 1, -50, 37, 4, 56, -11, -64, 9, 85, -53, 68, 2, -13, 54, -9, -25, 32, 74, -21, 30, 65, 50, -60, 46, -45, -52, 16, -54, 46, 22, -8, -17, 88, -47, 12, -45, 0, -39, 57, 66, -4, 18, -52, 6, -16, 3, -31, -31, -54, 70, 38, 23, 61, -36, 38, 29, 74, -65, 30, 66, 4, -39, -49, -12, -33, -63, -9, 41, 56, -14, -8, -55, 53, 23, -77, 55, -17, -20, 47, 20, -6, 61, 42, 46, -37, -34, -31, 52, 72};

static const int8_t tcn_0_depthwise_weight[560] = {101, -17, -9, -62, -28, 112, -48, -18, 19, -46, -58, -86, 77, 18, -9, 47, 7, -78, 36, -78, 52, 101, 118, 13, 53, -2, -57, -93, -5, -18, 1, 29, -67, 86, -61, -24, 22, 110, 5, -123, -85, -3, -14, -44, 124, -85, -52, 36, -57, 46, 58, -96, -71, -35, -19, 4, -11, 69, 40, 30, 35, -86, 69, 85, -74, 62, -95, -73, 61, 81, -10, 6, -32, 47, -60, 26, 75, -114, 32, -22, -114, 100, 85, -69, 28, 96, 13, 37, 54, -19, 32, 93, 109, 99, -63, -45, 75, -88, -74, 109, -67, -84, 5, 52, 76, -51, -69, 32, 6, -59, -81, 7, 97, -4, -3, 82, -96, -41, -4, 16, -54, -86, -84, -67, -76, 66, -66, -40, -52, -47, 103, -45, 63, 70, -80, 6, -34, -97, 78, 111, 47, 62, 33, 99, -103, 14, 84, -39, 23, -15, -80, -18, 125, -33, 121, -9, 54, -79, 33, -4, -27, -120, 9, 105, 78, 15, -24, 104, 48, -34, 90, 53, -81, 78, -90, -51, 58, -101, -111, -84, 31, 43, 4, 117, -69, 122, -11, 11, -88, -92, -62, -34, -52, -83, -23, 30, 83, -41, 18, 48, 60, -34, 29, -21, -30, -84, 28, 113, 58, -29, -2, 53, -107, -61, 7, -93, -14, 66, -49, 116, -24, 14, 38, -4, 120, -28, 94, -106, -117, -76, -54, 90, 10, -14, -55, 71, 107, 49, -120, 103, 62, 41, 81, 32, -82, -96, -25, -42, -7, 65, -74, -85, 19, 35, -35, 15, 99, 44, -92, 21, 100, 42, -98, -23, 22, 36, 96, 89, -57, -24, -42, -76, 88, 81, 60, 114, 102, 49, 88, 111, -105, 47, 34, 69, -105, 114, 74, 104, 43, -96, 16, 6, 86, -35, -3, 100, 100, -48, -2, 44, 12, 49, -23, 52, -41, -37, -7, 18, 8, 91, -92, -12, -3, 86, -31, 78, 70, -69, 104, -52, -44, 72, 11, 100, -81, 93, -91, 19, 35, 110, -111, -34, -10, -42, 35, 85, -46, 21, 83, 42, 10, 34, -110, 108, 53, -120, 67, 89, -50, -5, -94, -109, -92, -62, 39, -12, 98, -25, 99, -114, 14, 58, -82, 82, -3, -82, 94, 85, 51, 21, -88, -77, -16, -114, 76, -11, 48, 101, 16, -1, -63, -87, 7, 12, -62, -82, 1, -73, -33, -75, 21, 72, -84, -60, 60, 27, -68, 90, 100, 107, 17, -73, 32, 80, -79, 31, 100, -62, 0, 77, 63, -94, -116, 120, -38, -79, 22, -36, 47, -115, -101, -54, 113, -114, 48, 70, -7, -94, 39, 53, -105, -16, 56, -50, -78, 22, -32, -34, 100, 113, -42, -35, -112, 33, 109, -105, 21, -89, 87, -63, -50, -17, 127, 43, -31, -115, 105, 46, 86, 61, -98, 104, -111, -38, -62, 58, 35, -90, -96, 44, 18, -100, 46, 7, 100, 37, 10, 62, -29, -24, 48, -59, 53, 27, -28, -101, 57, 81, 13, 0, 37, 56, 27, 67, 41, 4, 105, 103, 48, 100, -47, -48, 36, -51, -49, -33, -91, 103, -65, 29, 50, -24, -110, -6, 17, -90, 5, -115, -5, 91, -45, 41, -94, 73, -110, -95, 120, -103, 43, -59, 18, -59, -60, -59, -79, 87, -61, -98, -116, -99, -116, 112, -101, 32, -34, 20, -85, -118, 94, -39, 77, -111, 83, 81, 34, 20, -37, -26, 53, 42};

static const int32_t tcn_0_depthwise_bias[112] = {19, -83, 62, 94, -47, -96, 117, -14, 56, 56, -17, 0, 56, 7, 49, 59, -75, 96, -93, 78, 74, -105, -35, -40, 76, -47, -46, -85, -28, -71, 104, -19, 103, 2, 86, 37, 25, 11, -24, 24, -23, 79, 25, 42, -79, -41, -9, 100, 24, 51, 96, -31, -79, 28, 68, 112, 48, 67, -24, 38, -16, 115, 7, -49, -85, 90, -25, 119, 66, -120, 97, -56, 11, 47, 118, 54, -101, -22, -1, -26, 124, 108, -63, 116, -78, -83, 32, -22, -30, 40, 121, 87, 46, 93, 70, -72, 96, -91, -82, 68, -103, 109, -65, 51, -110, -92, -13, 7, -70, -18, -56, 11};

static const int8_t tcn_0_pointwise_weight[12544] = {50, -104, 22, 40, 34, -41, 15, -11, -41, 20, -12, 4, -32, 82, -12, -21, 20, -46, 9, 90, 84, 12, -19, 48, 66, -72, 10, -27, 22, -63, -43, 30, 46, 6, -40, 4, -33, 52, 47, -42, 49, 98, -9, 83, -25, 19, 50, 19, 23, 74, -4, 41, 33, -22, 77, 90, 93, -4, 75, -49, 44, 85, -1, 80, 65, 62, 24, 63, 38, -58, 53, 35, 66, -44, -20, 17, -3, 14, -28, 27, 93, 23, -122, 89, 44, -31, -33, -32, 0, 3, 34, -31, 90, 29, 58, 3, 64, -57, 29, 54, -54, 28, 60, 46, -45, 45, 50, 40, 26, 47, -37, -37, -15, 113, -26, 61, -1, -67, 10, 28, -38, -6, 28, 9, -24, 60, 34, 16, -38, 67, 4, -61, 5, -21, 1, 37, 7, -59, -12, 34, -44, 23, -27, -68, 43, 11, -31, -74, -12, 1, -48, -65, 11, -51, 22, 24, -7, 23, 33, -24, 55, 67, 68, 1, 49, 35, 44, -22, -69, -56, 3, 53, 45, 20, -7, 37, -9, -74, 63, 42, 16, -32, 8, -46, 54, 19, -24, -46, 52, 67, -58, 9, -15, 2, -58, 7, -61, 7, -28, 32, -5, -67, 47, -36, 19, -52, -46, 79, 11, -31, 35, -3, -57, -47, -11, 48, -55, 36, 8, -41, 49, 44, -28, -5, 63, -2, 62, 36, -29, 58, 8, -63, 47, -64, -15, 15, 10, -68, -4, -22, -22, 45, -39, 59, -20, -42, -65, 67, -55, -46, -24, -10, 55, 31, 2, -4, -55, -43, -35, -15, -62, 6, -3, -72, -54, -70, 56, -51, 33, 49, 49, -20, -48, -46, -61, -32, 4, -49, -3, -45, 58, 48, -50, -55, 34, 2, 60, -45, -16, 41, -12, -64, -43, -19, -27, 48, -81, 17, -76, 10, 6, 64, 22, 31, 22, -27, -1, 15, 54, -36, -20, 2, -57, 52, -23, 11, -13, 28, -53, -4, -49, -37, 30, -46, -7, 42, 67, -1, 7, -23, 4, 11, -25, -51, -28, 17, -60, 76, 46, 67, -61, 41, 50, 39, 15, -25, 14, 62, -34, -69, 11, 56, 58, 18, 45, -45, -39, 40, 55, -35, -5, -3, 1, 38, 27, 49, 66, -3, 36, -59, -52, 22, -55, 35, -1, 22, 37, 16, 3, -52, -15, 50, 30, -6, 37, -69, 55, -37, 12, -10, 1, 46, -33, 6, 37, -59, -16, 0, -26, 74, 76, 3, 12, 42, 47, 4, -55, -43, -36, -1, -11, -30, 67, -51, 28, -54, 37, -52, 49, 0, 56, 51, -42, 7, -60, -67, -9, -24, -55, -24, 74, -7, -9, 76, 60, -32, -46, 2, -14, -60, -64, 52, -21, 31, 59, 43, -7, 37, -6, -20, 14, 55, 31, -2, 13, -30, -13, 40, -25, -15, 2, -64, -43, 29, 41, 36, 70, -5, -54, 9, -9, 43, 33, -29, 32, -48, -64, 32, 47, -22, 77, 30, -22, 14, 21, 22, -19, -23, 70, 54, -48, 16, -43, -40, 20, 17, -102, -18, 40, -43, -52, 48, -12, 17, -54, -48, -1, -26, 19, -40, -28, -16, -52, -59, 29, -48, 65, 70, -50, -27, 84, 53, 12, 38, 55, 53, 46, 1, 38, 0, -22, -18, 10, 60, 35, 50, -49, 13, 41, -59, -15, -5, -18, 52, -21, 59, 57, -48, 0, -50, 52, -63, 54, -15, 61, 44, -11, -1, 45, 16, 65, 11, -7, 64, 44, -30, 38, 7, -51, 21, -5, -3, -31, 10, 39, -60, -52, -58, -43, -42, 27, -70, -7, 38, -52, -14, -64, -39, -58, 53, -68, -26, -73, 34, 32, 20, -1, -2, -55, -9, -17, -69, -67, -26, -34, 22, 11, -60, 40, -20, 26, 1, -59, -14, 63, -55, 65, -22, 5, -64, 59, -14, 11, -45, 72, 35, -26, 13, 8, -51, 4, -47, -8, 18, 47, -35, -7, 34, -6, 6, -6, 58, 60, -60, -59, 12, -20, -70, 27, 25, 3, 20, -49, -12, -24, -23, -47, -61, -48, 5, 47, -25, -15, -14, 4, 30, 39, -68, -36, 49, -21, -2, 20, 7, 38, 42, -41, 4, 48, 17, 90, 25, 6, -27, -20, 65, 25, 78, -50, -15, 29, -24, 71, 30, -47, 76, 14, -48, 68, 1, 28, -31, -34, 79, 60, 62, 71, -12, 0, 16, 19, -36, 75, -40, 9, 26, 15, 33, 79, -21, 27, 28, 36, 12, -8, -19, -26, 69, 49, 15, 29, -27, 0, 63, 10, -43, -21, 27, -13, 73, 6, -2, -15, -57, -23, 69, -11, 68, 22, 66, 3, -41, 70, 9, -103, 58, 46, -45, 8, -8, 79, -41, 39, 56, 60, -3, -31, 8, -41, -50, -17, -11, 5, -12, -12, -35, 61, 56, -27, 49, 40, -18, 9, 25, -29, 73, -28, -5, -4, -71, -44, 0, -79, 58, 22, 70, -2, -11, -65, -31, 43, 18, 53, -54, 71, -15, 32, 39, 83, -3, 46, 4, 11, -23, 9, -62, 75, 71, 5, -77, 73, -1, 12, 27, 65, -10, -58, 13, 59, -65, -42, 61, -11, 18, -60, 72, -8, 46, -8, -3, -25, 67, 46, -2, 3, 41, 40, -21, -13, 20, -46, -29, -62, 66, -16, -29, 61, 41, 23, 56, 52, -46, 35, 54, 64, -56, 59, -62, 23, 20, 29, -22, 21, -57, -1, -69, -48, 10, 60, 2, 14, 104, 25, -50, 32, -25, 33, 46, -9, -20, -57, -45, 67, -34, 51, 12, -54, 52, 51, -21, -18, -19, -65, -31, 38, -34, 53, 63, -67, -60, 10, -49, -57, 67, 60, -3, 12, 29, 44, -68, -58, 11, 22, -30, 54, 33, -17, 36, -65, 1, 41, 24, 27, -41, 57, -9, -47, -10, 51, 55, 18, -47, -66, -51, -64, -7, 20, 21, -2, 27, 50, -54, 65, -74, -78, -16, -42, 21, 6, 65, -58, 28, 43, 28, -59, 37, 33, 3, -38, -62, 24, 1, 49, -43, -4, 54, -68, 12, 99, 14, -66, 38, 47, -37, -26, 70, 25, -14, -56, -55, 31, 98, -15, -8, -51, -4, 38, -28, -72, 27, 7, 7, 6, 10, 14, 49, 53, -57, -52, 81, -51, 9, -54, 50, 38, 8, 80, 46, 10, 34, 48, 18, 63, -51, 12, 21, 28, 53, 69, 6, -25, -48, -44, -9, 50, 41, -36, 36, 28, 4, 34, -15, -31, 46, 52, -21, -22, 42, 22, 63, 2, 39, -7, 2, 32, 35, 2, 68, 46, 26, 71, -61, -56, -13, -45, 9, 26, 4, 88, 23, 27, -45, 27, -6, 31, 59, 6, 45, -3, 46, -37, 53, -21, -24, 55, 16, -15, 12, -19, 44, 39, 47, -10, -10, -5, -63, -47, -27, 53, 16, 62, 7, -2, -51, 28, -67, 19, -10, 55, 46, -42, 17, -23, -17, 67, 70, 47, -11, 58, 86, -36, -89, 23, 42, 12, 63, -5, 19, 21, -46, 12, -17, -2, 67, 54, 20, 8, -42, -43, -30, 58, 42, -3, 72, 65, 45, 12, -18, -10, 17, 11, -30, 78, 46, 10, 69, 42, 78, 51, 79, 39, 13, -28, 82, 42, 58, 30, -40, -17, 18, 11, 75, -60, -44, 66, 17, 63, -28, 65, -58, 29, -44, -13, 47, 53, 34, -38, 1, 65, -20, -15, -55, 7, 83, 28, -21, 64, -9, 65, 41, 6, 22, 13, 78, 45, -26, 71, 48, 57, 21, -35, 0, 49, 88, 79, -103, -31, -114, 69, 74, -19, 68, -37, 52, -3, 74, -18, 57, 59, 45, 19, -13, -13, 93, -45, -14, 57, -60, -24, -34, -10, 42, -26, 17, -51, 5, -10, -50, -40, 84, 75, -17, 56, -6, 69, -65, 19, -32, -61, -52, 19, 49, 13, 63, 15, -26, -25, -67, 13, 22, -61, 43, 60, -52, -3, 45, -50, -31, -44, -28, 22, -49, 41, 48, -40, -44, -6, 20, 45, -42, 81, 66, 34, 2, 34, 42, -10, -26, 47, 36, 34, 80, 25, 61, 63, -36, 32, -25, -13, -3, 59, -31, -14, 20, 63, 66, 79, 51, -53, -26, 78, 18, -2, -70, 52, -74, 51, 81, 5, 99, 18, 30, -52, 65, 47, -62, -25, 13, 15, 47, -50, -2, 2, 29, 12, 41, -9, -61, -67, -59, -70, 19, -27, -56, -51, 53, 19, 47, 65, -15, -20, -13, 28, -53, 15, 55, -28, -39, 53, -18, -67, -10, -67, 25, -78, 59, -59, 62, -73, 52, -43, 35, 14, -43, 3, -76, -55, -25, 15, -25, 5, -20, 33, -19, 18, 68, 2, -10, -7, 18, -37, 39, -42, -7, 59, -30, -30, 7, -34, 59, -57, -18, 51, -23, -76, 35, -11, -76, -41, -2, 64, -17, -10, -10, -29, -51, 60, 65, 14, 27, -29, 50, -68, -45, -12, 28, -6, -5, -51, 39, 31, 70, 1, -61, -33, -58, 15, 62, -25, 58, -62, -50, -30, -4, 65, -35, -15, -3, -75, -13, 14, 35, 35, -17, 33, 43, -39, -8, 56, -31, 6, -27, 11, 59, 9, -62, 31, -16, 0, -22, 4, -49, -60, -20, -30, -33, -76, -38, -5, -59, 56, 53, -22, 17, 57, 35, -67, 10, -3, 58, 53, 19, -13, -10, -11, -61, -58, -33, 15, -36, -36, -41, -35, 3, 26, -48, -27, -17, 8, -30, -6, 21, 57, -72, 64, -43, -74, 6, -67, 43, -77, -12, 51, 67, 60, -36, 26, -76, -35, -44, 23, 52, -36, 56, -69, 58, 24, -58, -25, 42, 15, -24, 30, -64, 54, -10, 18, 12, 32, 22, 51, -72, -47, 15, 54, -63, 6, 50, 46, -33, -11, -37, -37, 15, 51, 53, 32, -37, -2, 55, -4, 37, -41, -77, 1, 53, 66, -82, -30, 50, -52, 9, 34, -46, -71, 64, 35, 0, 31, -46, -24, 35, 17, 42, -52, 8, 66, -10, -80, 67, 18, -1, 65, -39, 83, 28, -69, 5, 59, 0, -84, -18, 11, 38, -39, -6, -39, -41, -6, -60, 8, -14, 41, -71, -11, 3, -26, -42, -8, -31, -2, 16, -62, 7, 18, -57, 27, -49, -34, 13, 68, 35, 52, -50, 57, -4, -5, 4, 56, 13, -5, -45, -42, 92, 52, -2, -80, 1, 34, -45, 6, -38, 24, 40, 52, -10, 27, -69, 5, 50, -19, -65, -16, 44, -76, -5, 18, 11, 22, -30, -76, -9, -68, 7, 6, 19, -55, 36, 47, -3, -58, 65, -65, 2, -38, -81, 2, 57, -40, 14, 44, -62, 1, 5, 44, -34, -72, 53, 57, 18, 54, 20, 30, -12, -61, 64, 5, -42, -63, -48, 45, -45, -9, 26, -15, -53, -28, 7, -5, -35, 10, 36, -82, 13, 4, -56, 1, -58, -34, 34, 45, 5, 53, -32, 1, -47, -14, 54, 54, -46, -42, -27, -26, -65, 20, 62, -18, 59, 15, -1, 0, -62, -61, -6, -77, -34, -15, 87, 27, -44, 39, 18, 10, 51, -36, 33, 3, -76, -26, 43, 31, 42, 14, -67, -63, 11, 6, 5, 15, -58, 11, 22, 34, 32, -50, 0, 60, 31, 24, 12, 61, 54, -76, 29, -24, 63, -25, 0, 29, 8, 27, 25, -13, -66, 28, 63, -62, -56, -71, -68, -35, 56, -32, -62, -73, -19, 11, -16, -33, 48, -21, -53, 54, -17, -65, -11, 21, 59, 33, -45, -19, -31, -84, -38, 58, 30, -71, 1, 47, 63, 29, 31, 17, -30, -52, 10, -10, 46, -71, 71, -31, -37, 45, -67, -6, 53, 54, -63, 6, -57, 28, -67, -13, -82, -48, -28, 17, 75, 43, 30, 46, -56, -27, 5, 69, 28, 9, 69, -4, -71, 34, 37, 39, -41, 23, -14, -4, -36, 57, 10, -14, -21, -20, 34, 55, 5, 50, 26, 34, -7, 71, 14, 29, -54, 5, -19, 38, -34, -31, 77, -77, -59, 32, -27, 12, -12, 46, 30, -37, 39, -63, -46, -32, 20, -13, -28, -36, -25, -22, -37, 14, -46, 30, -35, 45, 6, 22, 73, 43, 14, 6, 9, -45, 32, -27, 11, -8, 37, 80, -52, 38, 15, -28, 38, -28, -59, 37, 3, -56, 13, 6, 57, 20, 57, -13, 48, 94, -23, -68, 16, 61, 5, -56, 57, -44, -73, 18, -72, -38, 40, -11, 63, -68, 66, -28, 62, -17, 57, 28, -55, 58, -20, -55, -8, 4, 44, 13, 40, 64, 79, 34, -14, 77, 34, 84, -44, -77, -24, 22, 57, -17, 34, 77, 21, -51, 93, -7, -20, 76, -37, -24, -16, -41, -36, 7, -47, 8, 10, 49, -22, -12, 3, 16, 17, -2, -22, -17, -25, 49, 36, 0, 44, -31, 23, -32, 44, 3, -11, -51, 26, -16, -51, 63, 15, 62, 58, 37, 50, -15, -6, 7, -50, 14, 44, 65, -7, -2, -8, 6, -42, 25, -30, 16, 38, 32, 43, -29, 79, -32, -4, -43, 38, 59, 12, 73, -19, 72, 7, 47, 78, 84, -5, 21, -6, 64, -54, -69, 29, 71, -12, 64, 18, 27, 67, 23, 84, -10, 70, 91, -41, -42, 46, 82, -65, 37, 38, -46, -32, 65, 3, -12, -23, 42, -9, 47, 23, 63, -51, 2, 4, -5, 24, 54, 41, 7, 85, 28, 46, 0, -82, -67, 21, 54, 15, 39, 72, 53, -28, 44, 29, -35, -40, 19, 54, 20, 71, 94, -63, -15, -70, 43, -65, 3, -50, -48, 12, 5, 70, 89, -51, 23, 44, -44, -39, 23, 1, 68, 8, -35, 49, 1, -66, -29, -41, 35, -29, 55, 58, 10, 62, -2, -44, -63, 40, -54, 8, -23, 38, 67, -65, 17, 9, 6, -120, 12, 50, 11, -19, 1, -59, -50, 24, -15, 29, 24, -59, 54, 22, 53, -38, -26, 102, 47, 16, 60, -61, -3, -17, -66, 38, 2, -20, -9, -78, -65, 37, -8, -17, 82, -38, 44, -9, -59, 50, -45, -17, -81, 3, 56, 48, 55, 61, -54, -69, -15, -47, -22, -91, -71, 34, -20, -64, -33, -50, 69, -27, 66, -66, 42, -20, -61, -8, -14, 15, 11, -56, 35, -21, 67, 30, 88, 0, 27, -11, -57, 58, -58, 33, -16, 4, -81, -57, -70, 16, 50, -40, 12, -65, -25, 59, -23, 16, 79, -38, -48, 0, 53, -21, -52, -2, 24, -5, 32, 1, 26, 3, -48, 73, 1, 22, 20, 21, -5, 54, -70, -5, 56, 51, -9, -11, 10, 12, -1, 61, -65, -60, 69, -34, -69, 77, 24, -65, -34, 14, -50, 20, -59, 2, -45, 4, 36, -85, -66, -33, -32, -35, -51, -29, 43, 36, 8, 57, -36, 40, -32, -60, 7, -65, -44, 10, 59, 24, -57, 25, 37, 34, -45, 56, 62, 41, 23, 7, 16, 33, 53, 69, -26, 2, 60, 14, -8, -24, 68, 23, -43, -76, 68, 14, 9, 56, -18, 57, -53, 52, -12, 6, 53, 1, 29, 19, -9, 48, 54, -16, 63, 47, 15, 38, 43, -24, 31, 5, -31, -67, 42, -76, 27, -55, 60, 85, 11, 8, 20, -44, 47, -38, 25, 62, -5, -10, -1, -14, 15, -20, -17, -49, 44, -29, 48, -22, -15, -35, 63, -34, 46, -78, -64, -71, 34, 0, 41, -61, -5, 17, -25, 40, -60, -32, 45, -64, -31, -11, -26, -19, -76, -21, 7, 2, -29, 59, -21, -24, 54, 6, -64, 12, 51, 53, -57, 72, 48, -10, 48, 57, 25, -22, 34, -68, -63, 2, 10, -39, 60, -35, -33, 17, 34, -68, 2, -19, 9, -12, -21, -4, 44, -50, 53, 59, -60, 12, -62, 34, -7, -63, 7, -80, -62, 21, 37, -38, 5, 58, -26, 21, -70, -4, 27, -73, -48, -24, -79, 67, 63, -20, 27, -74, -29, -66, -57, 39, -1, -48, -33, 49, -53, -68, 26, 102, -37, 6, -21, -55, -48, -26, -74, -49, 26, -49, 39, -1, -1, -45, 11, 40, 0, 34, -31, 54, -25, 56, -50, 38, 53, -11, -19, -60, -70, -50, -35, 22, -76, -25, -47, 22, -29, 44, 0, 22, 55, 58, 0, 61, -38, -13, -58, 66, 53, -11, -20, 12, 55, -40, 48, -41, 30, 21, -38, 40, 5, -35, 36, 34, -5, -54, -56, -27, 5, 48, 13, 23, -50, 32, 69, -47, 66, 56, 26, -63, -31, 47, 25, 35, 16, -42, 6, 26, 21, 42, 44, 4, 39, -15, 40, 36, 39, -19, 34, -40, -31, 54, 52, -52, 43, 64, 45, -13, -4, 75, -76, -2, 41, 18, -45, -30, 33, -72, 85, 1, -45, -36, -59, -28, -48, -50, -30, -64, -46, -10, 54, -19, 83, -41, 15, -40, -21, 30, 13, -57, -64, -44, 68, -53, -9, 10, 0, 91, -16, 59, 51, -31, 60, 70, 10, -36, -32, 22, -71, 7, 62, -54, -24, 48, -67, 27, 83, 4, 22, 51, -59, 67, 10, 55, 26, 57, -8, 69, 46, 37, 70, -15, 19, -24, 52, 52, -52, -41, 50, -61, 81, 15, -42, 52, 47, -5, 44, 2, -32, 71, 58, 28, 81, 84, 5, 29, -3, 54, 25, 57, 34, -21, -47, -46, -38, 11, -10, -13, 53, -7, -52, 73, 20, -30, 70, 87, 46, 11, -41, -19, -20, 80, -30, 41, 38, -17, -43, 15, 4, 32, -1, 26, 51, -50, -12, 50, 27, 32, 68, 61, 11, -82, -60, 73, 34, 69, 3, 48, -17, 79, -25, 45, 34, 53, -21, 81, -8, -42, -60, 35, -23, -27, -43, -51, 71, -17, 24, 44, -21, 46, 42, 25, -37, -2, -11, -13, 18, -16, -42, 20, -34, 9, -50, 5, -21, 62, 88, 76, 36, 14, 26, 58, 14, 87, 18, -5, 5, -17, 27, 60, -34, 23, -2, 57, 85, -15, 75, 88, -31, -38, 14, -13, 8, 85, 19, 77, 70, 32, 28, 72, 27, 87, 15, 4, -71, 5, 11, -47, 57, 59, 10, -61, 37, -77, 10, 31, 28, -35, 22, 20, -66, -12, -25, -20, 18, -16, -62, -36, 30, 22, 3, -34, 14, 12, -22, -51, -63, 29, -3, -14, 19, 4, -34, 30, -33, -31, 9, -17, -8, -7, -25, 25, 63, 50, -73, -40, 28, -70, 32, 7, -40, 1, -59, -3, -53, 27, 52, -3, 65, 9, 65, 15, -23, 5, 13, -44, -47, -6, 39, 9, 29, -34, -75, -14, -52, -59, 19, 37, -26, 11, 12, -83, -35, -58, -52, -1, -75, 53, 6, 1, 47, -46, 2, -45, -36, -45, -54, -69, -68, -36, 48, 34, 43, 40, 15, -68, 16, -36, -64, -13, 39, 8, -58, -69, 22, -16, 11, -44, -16, -49, -33, 59, -60, -55, 62, -9, 17, -66, -28, -21, -11, -81, -3, -36, 8, 41, 54, -83, -39, -31, -60, 36, -47, -35, 27, 41, 30, -23, 61, -73, -62, -59, -36, 46, 58, -25, -58, -41, 59, -2, -63, 11, -37, 18, 19, 42, -59, 17, -64, 44, -74, -1, 33, 18, -66, 24, -52, -65, -17, -50, -77, 67, -13, -58, 23, 18, -59, 13, 13, -21, 53, -29, 19, -47, 43, 7, 41, 66, 32, 41, -75, -63, -55, -21, 18, -29, 32, 17, -75, 36, -43, 12, -6, 13, -18, 60, 25, -4, 123, -19, 97, -22, -40, 58, 32, 9, -10, 26, 34, 36, -28, 67, 32, 14, 34, -47, -47, -48, 4, -16, -41, 66, -11, -25, -30, 51, -14, -26, 97, 33, -35, 17, -50, 48, -44, 27, 53, -37, -37, 21, -1, -48, -16, 14, -46, -36, 30, -25, 50, 22, 66, 56, -3, -8, -27, 79, 21, -59, 15, 19, -22, 7, 77, 13, -17, -55, 26, 21, -27, 46, 27, 55, 12, 50, -51, 40, -18, -46, -13, 43, 81, -82, -63, 54, -53, -31, 36, -37, 8, -28, 3, -28, 10, 25, 72, 15, 24, 17, -66, -3, -47, -42, -42, -4, -25, -32, -53, -10, -45, 55, -36, -3, 52, 27, 61, 34, -69, -30, -76, 32, 37, 39, 46, 37, -72, -50, -67, -53, -46, 28, -48, 40, -41, -32, 3, -28, 7, -67, -42, 12, 9, 56, 3, -38, 23, -21, 30, -24, -17, 0, -72, 52, 56, -11, 3, -18, -3, -34, -43, 37, -49, -59, 6, 30, 8, -4, -15, -41, 47, 53, -36, 11, 11, 43, 68, 48, -6, -67, 44, 19, 7, -20, -63, -71, -2, -56, 15, -4, 24, -77, -1, -53, -10, -58, 62, -41, -43, 7, 31, -2, 61, 5, -21, -59, -20, -12, -56, 10, -73, -46, 19, -79, -33, 36, 71, -65, -23, 30, 65, 44, 38, -14, 0, 16, -57, 61, -46, 45, -83, 17, -44, 22, 82, 50, -5, -56, -78, -43, -44, 17, 41, -36, 45, 33, -4, -42, 25, -16, -69, -3, -32, 5, 42, -56, 50, 27, 5, -24, 38, 5, -58, -42, -43, -33, 1, 34, -18, -55, 55, -50, 10, -52, -8, 41, -8, 5, 44, -69, 30, -44, 33, 76, 1, -24, -68, 13, 63, -26, 37, -41, -16, -47, -29, -79, 6, -64, 30, 6, -35, 72, -80, -37, 54, 8, 10, 20, -2, -71, 9, -30, 43, -37, 18, -49, -21, 7, -65, -38, 46, 101, 18, -6, -57, -36, -13, 4, -64, -73, -1, -23, -7, 13, 21, 20, 25, -57, 20, -65, -35, -33, 5, 38, 41, 12, -20, -39, 7, -12, 18, -52, -25, -73, 18, -8, -68, 30, -30, 66, -82, 10, 50, 32, 62, -77, 39, 8, -58, -34, 38, 36, -30, 75, -10, 37, 6, -7, 38, -70, -40, -20, -50, -71, -45, -20, 5, 12, -31, -43, 23, 46, 58, -33, -31, -60, -9, 36, -11, 15, 10, 13, 14, -43, -73, -78, 50, 56, -27, -5, 21, -39, -42, -36, 53, 44, -14, 4, -22, 33, -26, 23, -76, -61, -61, -8, -74, 46, -48, -70, -3, 65, 42, -60, 32, -12, 20, 48, 6, -84, -44, -14, 39, -71, -65, -25, 33, -77, -51, 65, 61, -48, 27, -31, -23, -68, -41, 40, -19, -67, 20, 19, 4, -15, 56, -50, 57, 3, -67, 22, 29, -42, -26, 29, 51, -30, 23, 28, 37, 4, -34, 30, 60, -68, -14, -69, -40, 28, -25, 37, -37, 4, -12, -55, -44, 49, -56, -9, 34, 63, -41, 16, 61, -45, 35, 63, -66, 5, 21, 1, -27, 16, 30, -57, -17, -56, -14, 78, -26, 57, 29, -45, -63, -10, 14, 29, -31, -7, -65, -11, 38, 32, 7, -37, -61, -17, -28, 53, -31, 18, -44, 3, 38, -6, -25, 67, 60, -31, -29, -67, -27, 45, -55, 60, -42, 7, -20, -32, -18, -56, -23, -46, -79, -38, 64, -34, -22, -42, 44, 9, 76, -47, -25, -69, -11, -19, -58, -8, 0, 3, -19, 65, -74, 47, 23, -42, 49, 57, 9, -43, -15, 6, -11, 37, 65, -48, -49, -13, 29, 33, -38, -45, -74, -32, 41, -24, -35, -43, 71, 29, 26, 64, 50, -66, 9, 39, -20, -54, -62, -51, 88, 46, 26, 63, -30, 15, 74, 23, -31, -14, -12, 42, 39, -45, 61, 2, 12, -63, 50, -9, 39, 51, -47, -80, 8, -11, 26, 59, 57, 9, 14, -2, -79, -16, 42, 57, -37, 5, -35, -26, 57, 25, 18, -21, 27, -41, 47, 46, -11, -23, 19, -46, 74, -27, 35, -11, -12, -37, 72, -46, 79, 14, 2, 0, 90, 30, 33, 13, 49, 30, -42, 28, 48, -29, 16, -34, 55, 28, -46, -38, -11, 24, -15, -38, 39, 28, -31, 99, 28, -3, -61, -62, 61, 18, 35, 13, 61, -58, -5, 15, -53, 89, -18, 69, 32, 2, -16, 92, -41, 94, 42, 6, -17, 24, -34, -32, 57, -46, -37, 0, 45, -10, 75, 58, -14, 91, -36, -4, -3, 57, 5, 1, 11, 1, -82, 85, -58, 22, -7, -12, -43, 27, 79, 33, 68, -40, 1, -105, -28, -10, 91, 59, -62, 2, -19, 0, 14, 39, -1, 80, 40, 9, 27, 59, 50, 64, -27, -58, 66, -15, 48, 0, -9, -14, -16, 4, 13, -55, -27, -58, 50, -8, 50, -59, 11, -37, 33, -32, 50, -29, -18, 46, -44, 15, 71, -44, 24, 35, 1, 7, -46, 44, -53, -19, 38, 68, -36, -25, 75, -40, -45, 77, -23, -22, 71, -18, -66, 3, -12, -20, -44, -8, 52, 33, 16, 37, 43, -48, -26, -72, -25, 73, -48, 33, 53, -67, -42, -63, -53, -44, 7, 22, -29, -77, 10, 49, 27, -13, -27, -31, 27, 16, 52, 79, -17, -29, -17, 8, -16, 64, 19, 74, -72, 33, 20, -62, 69, -37, 12, -25, 28, 52, -28, -25, -8, 0, 55, -4, 29, -26, 11, -32, -29, 47, 30, 3, -1, -59, -51, -45, 36, -44, -29, -54, -22, 42, 65, -38, 53, 34, 26, 1, -62, 67, 63, -33, -10, 14, 16, 46, 20, 6, -60, 35, 23, -62, 30, 15, -34, -10, -4, -44, 32, 37, 67, -49, -50, 40, 25, 1, 56, 45, 58, 21, 46, -3, 18, -39, -60, -68, -1, -34, -9, -43, -60, -27, 49, -72, -62, 10, 5, -6, 53, -50, -30, 17, -47, -41, -60, -70, -23, -43, -14, 9, 13, -61, -67, 3, -9, 37, 18, 37, 50, 23, 2, -74, 5, 2, 53, -17, 57, 50, 55, -78, 24, -23, -33, -28, -92, 105, -61, -69, -30, 40, -11, -39, 40, -14, 37, 21, -20, -40, 8, -28, -62, 27, 14, 54, -47, 55, -48, -71, -75, -71, 30, 59, -9, -25, 44, 57, -35, -62, -2, 46, 33, -81, 40, -63, 47, -35, 31, 17, -53, 49, -44, -38, 8, 28, 6, -15, -32, 50, 20, 50, -27, 9, 21, 12, 3, -74, -33, 61, 31, 33, -84, 37, -35, -18, -1, 56, -56, 34, 34, 67, 4, -11, -57, -2, 33, 21, 82, 50, -57, -29, 31, -40, -57, -32, -30, -12, 35, -11, -73, 71, 45, 100, 50, -42, 27, 25, 23, 21, 4, -23, 31, -1, -56, -75, -24, 14, 37, -2, -17, -24, 32, 63, 28, -18, -38, 20, 51, -77, -20, -6, -18, -44, -4, 17, -22, -32, -24, 22, -65, -36, 37, -27, 46, 12, 58, 66, 59, -48, 2, 20, -36, -14, 59, -5, 4, -13, -64, 64, -9, 38, -33, -54, -73, 46, -23, -27, -75, -57, 3, 16, -61, -77, -50, -72, 3, -16, 3, 5, -65, 52, -67, -37, 7, -24, -80, 53, -43, 15, 37, 15, -40, -11, 25, 3, 64, 2, -9, 28, 19, -65, 26, 22, -68, -3, -63, 27, -77, -17, 58, -38, -74, -7, -53, 0, 0, -43, -50, 42, 57, 5, 58, -67, 44, 45, -62, -41, 26, 8, 78, 44, -55, 5, 4, -63, -57, -2, -29, 9, 2, 78, -64, -23, 19, 30, 18, 62, -22, -22, -83, -52, -62, 35, -48, -1, -18, -15, 41, -7, -38, -74, 37, -21, 43, -32, -5, -80, 40, 9, 9, -47, 30, -46, 34, -21, 4, 50, 34, -79, 29, -2, 22, 13, 26, -27, 58, -2, 29, -6, 15, 8, 48, -29, 62, -3, -18, -27, -78, -44, -56, 34, -80, -19, -9, 3, 1, -53, -45, -34, 35, 31, -26, -3, 37, -30, -38, -56, -1, -70, 2, -19, -83, 42, -85, 8, 45, 21, -3, -41, 64, -3, 10, -54, 18, -34, -49, 31, 2, -87, -58, -6, -69, 49, 32, 2, 15, -21, 2, -28, 2, 38, 3, -13, -23, -29, 81, 50, 1, 42, 23, 94, 9, 14, 42, 11, 0, -38, 16, -61, -40, 21, -59, 66, -42, -9, 63, -27, 57, -33, 18, -70, -29, 66, -19, 19, 77, -29, 25, 11, -41, -35, -33, 19, -51, -5, -29, -11, 77, 86, 33, 47, -55, 47, 26, 84, -47, 4, 93, -37, 84, 4, 9, -43, -48, 70, 58, -33, 0, -16, 17, -60, 69, 12, -95, 37, 49, 25, 92, -1, -70, 78, -25, 82, -39, 12, 2, -39, 71, -19, 44, -5, 34, 39, 0, 46, 67, 17, -2, 94, 13, 68, 15, -4, -20, 100, -44, 38, 27, -34, 26, 60, 28, 30, -25, 64, -6, -50, 45, 24, -11, 43, 24, 11, 10, -52, -16, -25, 58, 32, -26, -23, 10, 16, 45, 9, -27, 25, -17, 32, -67, -64, -39, -25, -29, -62, 36, -67, -46, 67, -48, 59, -58, -84, -34, 13, -52, -73, -59, 16, -35, -30, 11, 52, 30, -2, -80, 60, -66, -64, 61, -18, -57, -58, 20, 9, -88, -47, 5, 58, 71, -10, -23, 72, 0, -69, 24, -3, 19, 18, 59, 8, -17, 20, -45, 25, -66, 32, -60, -7, 30, 50, 28, -24, -5, 26, -1, 56, 66, -26, 10, 43, -9, 37, 69, 42, -15, -15, -68, 43, -31, 26, 3, -46, 44, -35, -11, 33, -40, -41, 24, 68, 38, 60, -55, -11, -35, -35, -77, -6, 23, -46, -11, 6, 30, 26, 58, 1, -1, 10, 26, 16, -13, -43, -2, -13, -46, -16, 68, 66, 15, -31, 44, -29, -14, -7, -42, 10, 50, -62, 31, -3, 43, 41, -6, -65, 71, 63, 9, 58, -26, -54, 59, 52, -28, -4, -39, 16, 18, 72, 51, -53, 52, 2, -15, -55, 32, 15, 11, 83, -46, -35, -15, -29, 25, -3, 42, -19, 4, -23, -7, 7, -39, -84, -40, -16, -24, -15, -21, 70, -49, 5, -7, -28, -38, 44, 29, 37, 53, -45, 44, -5, 29, 59, 30, -2, 38, 74, -2, -60, 81, -16, 72, 89, -14, -13, -44, 107, 76, -1, 8, -27, -28, 14, 78, 31, 5, -47, -26, 42, -9, 63, 4, -7, 77, 63, -33, 33, 65, 70, -8, 74, -17, -18, -45, -36, 59, 57, 6, 23, -32, -52, 41, -21, 25, -27, 30, 22, -65, -4, 95, -57, 25, -11, 5, -16, 25, -3, 51, -38, -43, -46, 71, -18, 37, 59, 13, -2, 40, -22, -97, -21, 5, 51, 88, -22, -8, -28, 67, 15, -3, -32, 90, -82, -21, -64, 12, 65, 48, 62, 20, 22, 28, 65, 51, 3, -3, -37, 55, -24, -57, 56, 17, -14, 3, -61, 10, 9, -72, -65, 35, -75, -71, 38, -57, -23, -29, -64, -4, 44, 33, -18, -68, 24, -73, -57, 56, 29, 52, 31, -69, 34, -72, 22, -26, -76, 49, 24, 41, 22, -31, 19, -2, -9, -1, 8, 7, -37, -19, 43, -34, -12, -79, 28, -12, 58, 36, 53, 20, 44, 55, 0, -24, -48, 69, -3, 53, 10, -11, 20, -10, 31, 64, -30, 47, -73, -24, 15, 42, 18, -57, 53, -39, -52, -66, 24, -14, 48, -65, 40, -26, -31, 59, 59, 48, 70, -78, 67, 11, 4, -72, -8, -16, 35, -10, -7, -35, 13, 7, -51, 46, -63, 58, 55, -33, 6, 31, 60, -37, -64, -78, -60, -48, 21, 16, -75, -67, -28, 60, 45, -60, 4, -20, 37, 2, -45, 3, -43, 40, -10, -47, -66, 7, 61, -71, -9, 13, 5, -15, 42, -34, -56, 53, 56, 29, 9, -6, -3, 35, -60, -2, 3, 4, -24, 60, 60, -31, -5, -21, -11, -18, 10, 32, -76, 37, -49, -14, -50, 66, -32, -35, -56, -47, -51, -27, -9, -17, 57, 66, 22, -6, 53, -43, -29, -22, -44, 54, 29, -74, 75, 41, -37, -47, -78, -60, 15, -48, -2, 29, -78, 27, -6, -34, -30, 30, -3, 68, 34, 45, -65, 59, 1, -3, -71, 15, -8, -23, -23, 0, 36, 22, 46, 14, -56, -32, -22, -35, -68, -65, -76, 49, -60, -11, -43, -35, 67, -45, -19, 57, 59, -65, -42, -18, 8, 58, -37, -6, -71, -59, 30, 52, -53, 9, -41, -16, 1, 32, 0, 60, 6, -1, -33, -29, 10, 19, -27, 46, 59, 2, 48, -23, -59, 66, -8, -56, 14, 39, -25, 20, -33, -19, -65, -81, -34, -21, 63, 14, 59, -80, -20, -53, -26, 54, 62, 49, -76, 4, -30, -2, -59, 61, 30, -59, 32, -42, -14, -5, -69, 58, -29, -61, -14, 33, 1, -39, -79, 5, 58, 15, -5, 62, -37, -55, 27, -8, 15, -31, -47, -50, 82, 12, 60, 80, 42, 68, 20, -85, -44, 7, 58, -8, -3, -27, 33, 11, 48, 55, 2, 17, -33, 59, -56, 24, 8, -31, 29, -27, -58, 2, 2, 59, 29, 64, 41, 69, -35, 33, -9, -57, 0, 10, -46, -18, 81, 7, 74, 43, -42, -14, -2, 60, -4, -11, 76, 77, -26, 59, -4, 8, -16, 30, -30, 56, 79, 14, 27, 85, 72, 64, -51, -37, 40, 17, 23, 7, -54, 23, -11, -12, 46, 40, -21, 61, 25, 43, 16, 66, 24, 76, -26, -29, 19, 42, -42, -2, -58, 17, 75, 53, 17, 22, 31, 76, 52, 14, 63, 6, 54, -73, -12, 47, -55, 22, 0, 49, 10, -9, -10, 17, -19, 39, -73, -58, 48, 39, 10, 64, -18, 43, -50, 57, -62, -62, 36, 30, -57, -60, 21, -16, 79, 3, 46, 46, -66, -84, 23, -8, 9, 9, -64, -45, 59, -28, -1, -64, 62, 34, -6, 53, -45, -19, -27, 63, -11, -42, 53, 39, -36, 4, 26, 59, -19, 26, -61, -29, -57, 52, 41, 29, -3, 36, -61, -28, 42, -28, 50, 46, 62, -35, 21, 0, 26, 33, -41, 61, -12, -7, -24, -6, -13, 52, -35, -5, 32, -79, 20, -48, -40, -63, 40, 16, -74, -54, 66, 69, 16, 46, -55, 20, 53, -48, -49, -51, -41, 70, -65, -20, 1, 56, 37, -47, -55, -50, -50, -48, 8, 51, 49, 55, 37, 11, 9, -26, -38, -27, -12, 4, -55, 76, 10, 12, -26, -9, -40, -3, 46, 75, -29, -56, 10, 25, -18, 34, 22, 46, -3, 14, 4, -39, -39, 35, 83, -35, 64, 57, -59, -51, -65, 53, 56, 46, -16, -28, -32, 44, 52, -80, -13, 57, -43, 48, 22, -10, -22, 21, -5, 31, -19, 27, 17, -47, 22, 103, 23, -43, -46, 67, 38, -9, 48, 56, 40, -3, 29, 20, 73, -40, 42, -61, 49, -29, -32, -41, -45, -52, 67, -34, -40, 49, 2, 90, -68, 27, 41, -48, -34, -19, 29, 46, -37, 10, 57, -2, -5, -25, -14, -62, 26, -40, -71, -22, 8, -51, 15, 22, 56, -11, -66, -31, 31, 2, 5, -38, -46, -57, -25, -7, 12, 13, -44, -62, -18, -14, -75, 16, 31, -62, 45, -69, 32, -21, 9, 55, 61, 59, -26, -10, 29, -47, 9, 33, -50, 0, 24, -69, -49, -2, -3, -10, -20, -29, 61, -61, 57, -30, 53, -73, 53, -39, 39, 46, 43, 45, -13, -12, 41, -16, 27, 32, -68, -17, -44, -64, -56, -5, 0, -19, 28, 41, -10, -54, -76, -28, 44, -52, -73, -48, 16, 58, -51, 29, -24, 38, -41, 46, -45, 17, -1, 65, 35, -38, -26, -77, 8, 77, 48, -9, 38, -1, -45, -24, 45, 18, -57, 38, 70, -42, 43, -6, -20, -45, -6, 101, 15, -2, -28, 60, 28, -35, 16, 9, -1, -55, -55, 5, -57, 56, 8, 48, -18, -20, -25, 111, -126, 35, 4, 34, 47, -1, -4, 10, -48, 50, 23, -6, -30, -54, 33, 62, -35, -54, 51, -27, -18, -53, -21, -24, -43, -44, 3, -70, 20, -77, -2, 8, 23, 37, -13, 32, -50, 28, 7, -14, 66, -30, 51, -28, -39, -45, 1, -51, 2, -35, -30, -71, -33, 30, 16, -12, -11, 47, 7, -26, 61, -23, 68, 9, 62, -34, -24, 60, 61, -4, 21, 12, -11, 2, -6, 32, -50, -50, 14, 39, 2, 29, -73, -1, 51, 0, -5, -45, 34, 2, 55, 61, -47, -42, 37, -55, -36, -65, -8, 44, -43, 12, -18, -62, -6, -49, -77, -57, 32, -53, 65, 6, -44, 24, 57, -29, -33, -31, -72, 57, -73, -60, -70, 0, -77, -42, 22, -45, -5, -39, 32, 16, 70, -74, 43, -49, -48, 24, -41, -60, 8, 35, -54, 1, -52, 7, -16, -2, 50, -64, -16, 50, -52, -50, 63, 53, 5, -15, -46, -65, 51, -62, -20, -13, 53, -63, -16, -41, 9, -29, 48, -71, -43, -38, -69, -14, 58, 16, -54, -53, -15, 50, 29, -51, -46, -38, 17, -42, -74, 47, -22, -11, -79, -57, -51, -9, 9, -27, 1, 59, 5, 35, -57, -28, -65, -69, 26, 19, -31, 36, 48, -34, -18, 5, -23, 3, -67, 36, -52, -65, -1, 23, -3, -31, 39, 51, 42, -7, 40, -80, -19, 45, 57, 10, -80, -34, -3, -66, 51, -23, 0, -30, 39, 11, -27, 28, -52, 12, 22, -43, 42, -32, -21, 56, 45, -16, 42, 22, 57, 23, -82, -49, -3, -26, -44, 0, -6, 27, -76, -79, -7, -61, 56, -81, -15, -37, -37, 63, 35, 61, 55, 42, -40, -40, -48, 61, 41, 35, -5, -62, -54, 17, 16, -19, -53, -13, 63, -43, -29, 11, -70, -48, -76, -63, -24, -67, -37, 48, -54, 29, 26, 39, -28, -22, 54, 13, 35, -39, 58, 26, -14, -74, -70, -33, 9, 27, -7, 72, -58, -5, 44, -58, -19, 16, -32, -19, 11, 56, 29, -60, 18, -80, 34, 32, 37, -39, 35, -59, 25, 32, 4, -10, -48, 22, 24, 17, 7, 19, 49, -60, -6, 54, 41, -18, 63, -13, -70, -60, -12, 17, 42, 28, 69, -9, -4, -14, 30, 36, -74, 2, -62, -71, -16, -48, 5, -57, -72, 32, -29, 25, -7, -55, -30, -42, 20, 55, -10, 0, -63, -14, 10, -11, -39, 48, -6, -34, 40, -9, -43, 6, -31, -67, 15, -67, -39, 42, 31, -18, -23, -57, 31, 56, -32, 61, -24, 68, -49, -60, -18, 80, 36, -19, 49, 39, -25, 49, -52, -27, 16, -22, -14, 33, -52, 7, 55, -26, 54, -20, -12, 12, -83, 30, -44, -58, 33, -73, -10, 15, 25, 87, 5, 19, -16, 21, -24, 62, -7, 22, 27, -17, -5, 7, -28, -40, -12, 27, 57, -57, -24, 32, -16, -38, -102, -59, -10, -22, -49, 53, -46, -61, -46, 52, -48, -11, 0, 17, 8, 23, 23, 70, -48, 2, 4, -70, 46, -23, -35, 27, -71, -39, -61, 66, -36, 15, -46, -24, 13, 68, -26, -27, 17, 34, -36, -1, -6, 16, 14, -5, 0, 60, -16, 31, -70, -54, -65, -39, 31, 3, 38, 54, -69, 15, 93, 29, 22, 64, 49, -42, -60, -63, 71, -64, 7, -54, -44, 45, 53, 7, -15, -59, -42, 38, -15, -37, -50, -62, 39, -15, 34, -59, 0, 29, 31, 24, -74, 29, -63, 1, 43, -46, -43, 29, -72, 64, 22, 66, 23, 5, -47, 59, -66, 47, -20, -9, 54, 29, -13, 39, 15, 37, -45, 27, -68, -65, -68, -24, 49, -31, -72, -67, 74, -56, 40, 35, -35, 69, 26, 18, -54, -31, 6, -16, -56, 42, 36, -81, 46, -31, -40, -7, 60, -21, 30, 0, -76, 32, 26, -68, -5, -33, -80, 44, -14, 40, 0, 32, -16, -64, -35, -28, 52, 27, 24, -55, -36, 15, -65, 56, -59, 3, -15, 11, 4, -31, 49, -4, 51, -64, -48, 42, -69, 8, -21, 22, 5, -31, -58, 40, 26, 35, -2, -26, 49, -78, -78, 53, 59, 7, 27, -28, -2, 47, -60, -65, 11, 12, 61, -73, -63, 50, 23, 50, -72, -33, -53, -12, 28, 71, -30, -42, -50, 9, -1, 42, 2, 58, -39, 20, 17, -83, 10, 28, 43, -11, -2, 37, -36, 58, -22, -75, -39, -4, 15, -10, 26, 34, -75, 59, -13, 15, 56, -9, -57, -23, 0, 9, -34, -73, -25, -58, -75, -14, -61, -17, 21, 58, -56, -72, 38, 5, 60, -59, -31, 55, -9, -2, 15, -60, -68, 41, -67, -55, -6, 9, -69, 58, -49, -54, 6, 48, 17, -36, 21, 0, 40, 20, 3, -6, 30, -19, -47, -15, -70, 8, 53, -54, 56, 26, -71, -53, 23, 63, 45, 33, 30, -72, -43, 22, 51, -52, 42, 41, 3, -40, 28, -69, -40, 56, 5, -5, -60, -29, -41, -30, 6, 0, 34, -5, -38, -3, -58, -74, 46, 48, 24, -41, 29, 47, -40, 21, -4, -60, 31, -65, -55, -30, -23, 15, 50, 52, -41, -35, -46, 15, -10, 21, 50, 32, 9, 41, 32, 29, -12, 32, 6, -5, 26, -60, 63, 68, 32, 10, -17, -47, -11, -38, 13, -30, -31, 59, -42, 7, 29, -58, -25, -55, 49, -30, -1, -42, 43, 72, -18, 49, 25, -11, 36, 59, 32, 71, 32, 37, 57, 45, -58, 69, -13, -34, 59, 55, -28, -68, -1, -39, -39, 50, 6, -12, 61, -35, 53, 8, 66, -36, -38, 10, 4, -15, -21, -7, -40, -40, -10, 60, -40, 14, -48, -13, 43, 8, -49, 58, 8, -55, -82, 21, 3, 37, -57, -12, 21, -53, 5, 8, 16, 35, -72, -60, -63, -22, 33, -46, 0, 21, -72, -41, 54, 26, -14, 0, 54, -31, -19, 44, -8, 51, -33, -39, -6, -52, 66, 40, 2, 46, -33, -66, 14, -67, 14, 49, -29, 48, -59, -46, -20, -2, -66, 24, 22, 8, -31, -11, 57, 1, 2, 24, -42, -46, -25, 0, 18, 61, -27, 28, -19, 9, -4, -44, -16, -26, -22, 1, 45, 22, 13, 32, 53, -74, 67, -63, -26, 1, -74, 54, -73, -52, 66, 62, -30, 3, -1, -19, -1, 64, -50, 29, -41, 2, -57, 51, 12, -52, -39, -80, 46, -6, -24, -51, -3, 43, -51, 58, -63, 52, 10, 40, -76, 19, -26, -41, 28, 87, -56, 2, 9, -67, -47, -10, 78, -81, 72, 82, -17, 3, 51, 51, 42, 59, 52, 57, -24, -31, -54, 6, 49, 34, -46, 59, -26, -4, -43, 70, -25, 16, -15, 73, 52, 72, -16, -28, 44, -27, -8, -9, -44, 21, 75, 8, -9, -49, -72, 6, 63, -65, 79, -53, -55, 45, -31, 33, 75, 18, 24, -13, 7, 22, 51, -95, 55, 52, -60, -4, -14, 3, 51, -36, 33, 22, -48, 22, 12, 71, -43, -83, -30, 68, 27, 54, -7, -41, 6, -20, -28, 34, 55, 75, 8, -30, 66, -61, 29, -62, 53, -13, 69, -58, 64, 54, 54, -59, 42, -44, 18, 42, 7, 29, 65, -21, -14, -26, 29, -44, -52, -70, 6, 66, -30, 40, 42, -7, 7, -86, 39, 74, -53, 61, 56, -14, -28, 22, -46, 45, -3, -77, -17, 37, -47, 30, -38, -33, -10, 2, -17, -31, 75, 20, 48, -78, -16, 14, -9, -12, 51, 1, -43, -33, -36, 50, 40, -33, 24, -61, 39, 40, 47, -12, 55, 24, 45, -25, 38, -51, -6, 7, -54, -36, 12, 25, 43, 70, -35, 74, 15, -1, 68, -117, 47, -50, -11, -37, -10, -49, 62, 63, -44, -44, 84, 67, -38, -21, -26, -28, 39, -71, -46, 22, -45, -58, 5, -7, 7, 78, 12, 29, 24, 84, -74, -13, 5, -45, 39, 13, 13, 27, -59, 96, 67, -26, 57, -63, 31, 5, -1, 15, 16, 39, -48, -25, -54, -3, -40, -2, -30, 23, -49, -39, -47, 49, 51, 47, -76, 30, -64, -34, 74, -42, -15, 24, -43, -35, 17, -13, 54, -25, -36, 23, -14, -72, 71, -19, -23, -48, -9, 38, -43, 16, -57, -19, -12, 49, -32, 50, -67, 8, 27, -34, -60, 28, -23, -4, -26, 44, 49, -3, 24, 19, -35, -19, 3, 4, -14, -80, 21, -36, -6, -71, 2, 40, -59, -39, 23, 35, -55, -88, 47, 9, -54, 64, 60, -29, 49, 16, -34, 73, -9, -61, 13, 8, -24, -63, -14, -26, 31, -48, 50, -5, 62, 7, -43, 16, 58, -35, 14, -56, 69, -36, 64, 38, 53, 40, 72, -3, 5, -49, 18, -10, -39, -36, -19, 13, -33, 76, 25, 6, 31, 38, -42, 72, -46, 14, 66, 10, -64, -62, 50, 41, -55, -17, 49, -66, 12, 37, -50, -12, -59, -28, 66, 48, -57, 35, -56, -43, 36, 21, 16, 31, -24, 12, -33, 56, 13, 24, 48, 45, -14, 19, -17, -10, 58, 20, -41, 66, -7, 23, 28, 28, 60, -47, -31, 53, -25, 44, 82, -43, -54, 76, 20, 1, 8, 30, -31, 48, 10, -55, 76, 26, -59, -68, -23, 5, -5, 74, -26, -51, -16, 41, 42, 77, -7, -35, -60, -38, -49, 25, -10, 50, 47, 12, 91, 78, 54, 58, 70, 46, 17, 7, 53, -9, -52, -44, 66, 59, -46, 51, 12, 15, 57, 46, -60, 60, 81, 60, 52, -15, -78, 38, -62, 16, -20, 66, -61, -28, -81, -21, -28, 59, 31, -20, 50, 37, 31, -47, 8, 31, -5, -30, 47, -31, -25, -39, 47, -12, -3, 67, 89, -45, -56, 78, 46, -46, -2, -39, 6, 32, -7, 84, 45, -59, -29, 14, -17, -20, 93, -50, -65, 16, 6, 1, 44, -2, 67, 60, -34, -6, -30, 72, 79, 10, 13, -68, -19, -63, -104, 34, 61, -44, -60, 29, 48, -3, 0, -68, -21, 81, -26, 68, 63, 36, -8, -31, -12, 47, -11, -48, 58, -10, 12, -7, 5, 26, -73, -65, 54, -36, 0, 47, -7, -2, 50, -50, 15, -38, 92, 16, 62, 81, 18, 59, -41, -53, 85, 39, -1, -51, 47, 40, 83, 27, 34, 88, -11, 9, 62, -26, 36, -40, 75, -78, 12, 44, -41, -4, -62, -23, -46, 17, -3, 16, -48, -6, 5, 4, 82, -19, -41, 18, 38, 16, -50, -22, 7, 39, -6, 57, 72, -40, -34, 34, -46, 43, 75, -31, 18, 18, 2, 19, 10, -32, 59, 50, 22, 63, 42, -29, -18, -12, -73, -31, 51, -50, -75, -32, -7, 4, 44, -69, -70, 29, 47, 5, 29, -60, 45, 61, -14, 57, -58, -16, 65, -58, -23, -7, -77, 42, 40, 36, -19, -81, 53, 24, -41, -47, -16, -57, -64, -54, -17, -59, -15, 15, 27, -20, -50, 21, 58, -57, -77, -20, -77, 52, -23, 5, 19, -7, -25, -71, 3, -58, 38, -4, -70, 0, -8, -34, 35, 11, 8, -3, -22, 5, -3, 65, 29, -20, -64, -78, 60, 15, -27, 57, 39, 39, -79, -56, -81, 8, 45, -72, 23, 39, -47, -39, -19, 44, -52, -75, 22, 23, 74, -76, -19, -7, -4, -28, 23, 41, 37, 69, 2, -21, 60, -37, 0, -41, -25, 24, 23, 57, 33, -64, 4, -7, -51, -45, 35, -60, 3, 39, -19, 41, -22, -15, 11, -10, 0, -29, 23, 13, 6, 58, 62, 24, 19, 34, 29, -8, 15, 39, 9, 43, -13, 57, -18, 16, -49, 5, 8, -1, -74, -29, 27, 64, -63, 47, 52, -30, 7, -58, 5, 13, -54, 72, -47, -28, 21, 29, -50, 53, -32, -12, 29, 29, -18, -51, 20, 20, -33, -18, 12, 51, -67, 50, 20, 25, 25, 49, -53, 54, -15, 19, 40, -64, 3, -42, -20, -20, -72, -23, -67, 48, 15, -26, 30, 47, 74, -15, 15, -37, -12, -45, 69, 1, -32, 62, -9, -11, -27, 7, 17, -44, 1, 62, 52, -23, -27, -36, 80, 53, 18, -40, 55, -25, 42, -56, 9, -67, -61, 43, -13, 43, 27, -64, 87, 20, -1, -67, -2, 7, 36, 35, -30, -13, -38, -59, -61, -50, 72, -23, 9, -6, -27, -3, 76, -30, 49, 25, -25, -68, 13, 63, -31, -21, 59, -52, -23, -26, 8, -57, 69, 1, -19, 19, -15, 51, 21, 22, -27, 68, -50, 108, -34, 56, -65, 15, -2, 0, 61, 84, -8, 8, 42, 42, 19, 25, 7, -52, 48, -53, 5, 54, -44, -47, 44, 71, -55, 49, 32, 15, -62, 11, 44, -76, -13, -68, 20, -18, 8, -47, -42, 17, -24, 24, -21, 10, 19, -17, 28, 15, 51, -25, -53, -73, -39, -37, 33, -30, -32, -19, -44, -16, -58, -83, -58, -65, -29, 5, 4, -18, 25, 20, -62, 57, -63, -4, 36, -62, 44, 5, -8, 32, -19, 24, -54, 17, -49, -9, -17, -29, -63, 5, 33, -55, -39, -54, -40, -37, 47, 28, -55, -1, -29, 31, 25, 28, -77, 12, 37, -1, -8, -30, 48, -72, -11, 69, 4, 50, 2, -29, -68, -16, 42, 40, 4, -55, -73, -64, -59, 46, 60, 55, -86, -64, 10, 22, 64, -58, -85, -62, -74, 56, -63, 57, 12, -69, -77, -8, -24, 5, 53, -4, -58, -25, 11, -7, -1, 49, 25, 44, -19, -19, -44, -48, 56, 13, -39, -35, -43, -15, 48, 41, 40, -44, -44, -2, -2, -15, -50, -32, 47, -15, 24, -45, 56, -82, 11, 54, 65, 11, -53, -1, -19, 16, -13, 48, -1, -13, -78, 33, -38, -7, 40, 45, -25, 42, -49, 47, -67, 5, 28, 36, -15, -40, 15, 39, -31, -50, 2, 5, 62, -68, 23, -27, -26, 19, -39, 3, 47, 2, -70, -60, -76, -48, -3, -55, -79, -33, -42, -54, 55, 12, -38, 20, -6, 27, 41, -71, 55, -42, 37, -45, 34, 42, 49, 46, -75, 25, 13, 35, 36, -14, -56, 26, 57, -40, 34, -38, -35, 4, -6, -36, -11, 26, -14, 1, -61, 18, 14, 52, 30, -67, -41, -73, -33, 37, -56, -84, -8, -33, -19, 15, -7, 11, -65, -7, -34, -73, -30, 34, 41, 63, -9, -85, 66, -35, 13, -38, 53, 12, -78, 8, 39, -40, 9, -77, -3, 25, 15, -25, 12, 49, -23, -82, 6, -69, 57, -13, 53, -86, -64, -17, 60, -35, 44, -63, -21, -28, -82, -54, -57, 0, -35, -56, 10, 55, -85, -6, 18, -5, 59, 22, -31, -54, 30, -5, 25, -50, 47, -31, 60, -75, -82, 59, -13, -31, -71, 47, -74, -54, -54, -15, -11, -65, 24, 0, 45, 8, -67, 20, -37, -40, 60, 32, -77, 0, 13, -11, 56, 32, 42, -33, 40, -29, 40, 45, -62, -2, -70, -79, 8, 14, 46, 4, -6, 46, 42, -71, 61, -75, 46, -14, 47, 38, 11, -8, 29, 56, 19, -30, 56, 5, 56, -23, 4, -40, -7, -30, -16, -32, -65, 28, -48, 36, -67, -71, 10, -58, 73, 60, 57, -2, -24, -7, -56, 38, -47, -27, -44, 23, -79, -4, -22, 58, 15, -42, 60, -33, -43, -26, 2, 46, 53, 32, -69, -21, 36, -30, 6, -21, -6, -63, -4, 38, -48, -54, -35, 5, -16, 10, -65, 27, -57, -56, -55, 31, 14, 8, 32, -39, 39, 37, -36, -45, -23, -6, -14, 17, -40, 82, 17, 62, 41, -8, 17, 3, 59, 13, -63, 1, 32, 43, -31, 50, -54, -71, -15, -26, -40, -23, -59, 10, -21, 25, -75, 9, -55, 38, -39, -40, 67, -3, -35, 48, -1, -61, -33, 55, 17, -2, 76, -49, 19, 1, -2, -4, 55, -35, 5, 19, 7, 52, 29, 26, 74, -65, -56, -7, 63, 40, -14, -54, 56, 40, -56, 57, -46, -67, 63, -1, 2, 48, 67, 50, -72, 52, -24, -71, 64, -61, 56, 3, -10, -4, 53, -15, -13, 38, 97, 12, -55, 29, -72, 37, -42, 57, -59, 63, 52, 30, -6, -96, -15, -36, -43, 67, 34, -47, 54, -4, -26, 82, 56, 2, 41, -6, -21, -52, 11, 40, 15, 9, 31, -59, -17, 15, -4, 19, -41, -43, -19, 52, 1, 79, 58, -31, 6, -22, -50, -84, -34, -32, 66, -17, 25, -26, 31, -20, 17, 31, -27, 39, 52, -5, 83, -48, -54, 13, 58, -14, -11, 84, -8, 23, 15, -41, 41, -51, 55, -1, -6, 17, -58, -42, 17, 6, -52, -57, 25, -7, 79, 67, -25, 58, -19, 25, 1, 34, 44, 7, 79, -63, 3, 10, 1, 70, 51, 60, 24, 5, 27, 88, 37, -11, -22, -15, -5, -31, -70, -54, -43, 42, 5, -29, -43, -1, 23, -72, 56, 56, 37, 8, -24, -36, 59, -31, -23, -9, 13, -24, 11, -58, 22, -6, 42, -18, 53, 42, -35, 26, 27, 65, -40, -70, 30, -11, 44, 30, -38, -15, 60, 4, 57, -19, -62, 18, 68, -58, -27, 9, -76, -53, -45, -25, -24, 11, -60, -15, -12, 15, -71, 44, -1, 23, -8, 57, -41, 36, -72, -5, -8, -70, -36, -42, -43, 37, 21, 11, -41, -15, -5, 18, -61, -38, 11, 9, 38, -8, 3, 48, 27, -62, 14, 53, -58, -68, -52, -11, -49, 19, -67, 3, 24, -8, 44, 106, -43, -10, 29, 30, -40, -28, -48, -13, 19, -28, -42, 1, -34, -5, 39, -47, 26, -38, 5, 39, 52, 72, 59, 41, 79, -54, 56, 14, 32, -39, 44, -21, 103, 84, -68, -19, 36, 18, 76, 28, 22, -60, -30, 45, -32, -31, -7, 38, -24, 65, -33, -14, -45, -17, 15, 45, 73, 65, -37, 89, 29, 33, -26, -19, 41, 18, -49, 31, 49, -2, 64, 25, 79, 73, 8, -69, -56, -1, 54, -56, 31, 25, 39, 14, -49, 43, -44, 40, -19, 30, 1, -41, 24, -20, -11, 25, -117, 29, 75, 43, 38, 20, -8, -14, -41, -48, -31, 16, -68, 20, -22, -8, -82, -49, -23, 5, 33, -72, -87, -61, -2, 59, 0, -13, -33, 50, -66, -74, 6, 15, -9, -82, 44, 49, 1, 0, 2, -5, 21, 60, -73, -50, -32, -13, 56, 1, 33, -3, 28, 47, 26, 20, -14, -8, -70, 22, -61, 45, 22, -48, 3, 16, -2, -28, -73, 35, 31, 54, -50, 12, -38, 1, -14, -9, -61, 63, -72, 6, 0, -42, 12, -63, -24, 0, -2, -60, 23, -22, 72, 19, 18, 51, -43, -54, 29, -36, 28, 10, -26, -27, -47, -64, 52, 38, 12, 22, -53, -21, 52, 17, 32, 57, 6, -73, 20, -70, -62, -54, -48, -26, -13, 24, 7, -17, 25, 67, -50, 25, -61, 7, 17, 18, 67, 24, 37, 35, -50, 0, 40, 43, 48, 57, -14, -22, 71, 1, -7, -56, 39, 76, -15, 39, -48, 13, 35, -55, 33, 34, 13, 25, 74, 57, -56, 58, 56, 26, 37, 7, -3, 66, -36, -91, -46, -26, 61, 17, -20, 33, -58, -13, 61, -4, 30, 55, 61, -49, -39, 26, 62, 49, -19, 63, 47, -28, -37, 7, 78, -19, -52, -37, 41, 43, -37, 28, -12, 8, 65, -50, -21, -3, -61, -17, 11, 5, -45, -59, -14, 34, 99, 73, 24, -9, 66, 40, 21, 46, 43, -13, -15, -1, -33, 56, -4, 18, 19, -1, 29, -1, 21, -63, -18, 14, -55, 81, 42, 52, 4, 66, 56, 56, 20, -43, -50, 52, 30, 67, -1, 67, 68, 26, -34, -31, -3, 32, -36, -70, 57, 28, 25, 59, 23, 47, 28, -70, 49, -59, 18, -73, 65, -48, 62, 17, 48, 3, 36, -4, -8, -27, 20, 38, 5, -54, 9, -71, -51, -84, 61, -71, 39, -30, -23, 19, -5, -12, 41, 43, 14, -54, -13, 16, 14, -5, -66, 47, -62, -21, 53, -86, -21, 61, -52, -53, 60, -16, -62, 32, 23, -39, 62, 48, 46, -29, -53, 8, -30, -17, -53, 64, 64, -41, -25, 60, -63, 4, -57, -58, -12, 94, 22, -84, 51, 42, -65, 29, 1, 62, 46, 35, -11, -47, -57, -64, -38, 66, 10, -21, -83, 21, -7, -59, 54, 5, -43, -6, 9, 24, -52, 60, 65, -18, 57, -41, -43, -65, -37, 27, 71, 44, 45, 48, -56, 28, 68, -47, 65, -8, 27, 13, 16, 48, -37, 45, -52, -45, -76, -20, 55, 20, 49, 42, 19, 31, -55, 8, 41, -18, 13, -45, 4, 21, -1, -50, -38, -45, 41, 23, -19, -43, 56, -26, -66, -40, 35, -56, 31, 7, 24, -59, 53, 19, -59, 14, 3, 37, -13, 2, 0, -11, -3, 46, -28, -70, 16, 7, 20, -37, -22, 5, 33, -3, -20, -45, -15, -59, 28, -28, -85, -44, -50, 1, -7, -83, -72, -50, 48, 22, -42, 27, -47, -54, -64, 57, -13, 10, -37, -52, -42, -63, 54, 17, -15, -46, 22, 39, 57, 43, -44, -63, 30, -28, -7, -17, -28, -59, -43, -32, 58, -61, 38, -56, 6, 31, -45, -53, -19, -76, -54, 47, 33, 59, 39, -77, 28, -38, -29, -2, 12, -12, 20, 45, 23, -69, -51, 1, 34, 51, -72, -64, -34, 10, -5, 22, -32, 67, -50, -78, 3, 40, -62, -6, -61, -48, 56, -39, 20, -80, -49, 56, -8, 22, 5, -68, -65, -15, 49, -28, 2, -43, -9, -30, -50, -32, -22, 19, -23, 49, 44, 8, 38, 34, -39, -68, 54, -67, -68, -46, -55, 58, -73, -33, -69, -59, -53, 36, -23, -16, -64, -43, 32, -70, -5, 10, 1, 64, -48, -51, -75, -5, 54, 26, -16, -7, 43, 18, 46, 21, 23, -69, 58, 59, 5, -57, 18, 68, -69, 26, -63, -14, -74, -35, -34, 3, 22, -15, 20, -47, -54, -35, 33, -62, -65, 52, -34, -61, 15, -15, 16, -3, 4, -1, -11, -52, -73, -52, -19, -43, -60, -17, -72, 59, -32, -10, -17, 3, -11, 25, -13, 40, -11, 46, -19, -16, -27, -36, -23, 36, -33, -40, 18, -62, 54, -39, -58, 3, 18, -56, -62, 51, 15, -46, -72, -39, -60, 7, -63, -25, 57, 41, -54, -7, -62, -59, 13, -63, -64, 5, 21, 8, -48, 64, -36, 70, 37, -24, -62, 37, -20, 21, 68, 59, 23, -7, -1, 67, -69, -43, 64, -54, -64, -34, -40, 57, -45, -10, 1, -63, -16, -56, -55, -22, -20, 7, -1, -17, -49, 53, 37, 27, -31, -41, 55, 50, -6, -35, 36, 57, 26, -25, 51, -31, 57, 8, -53, 59, 11, 19, -61, 65, 30, 23, -70, 34, -10, 51, -46, 17, 58, 30, 60, 53, -56, 12, 54, -64, -36, -22, -36, -16, 23, 25, 31, 22, -16, 7, -1, 11, 59, 15, 48, 56, -62, -12, 52, -12, 75, -47, 19, 14, -55, -1, 14, 47, -24, -26, 35, -9, -6, -40, 56, 54, -28, 39, 72, -18, 55, 10, 22, 68, -13, 65, 13, 69, 32, -59, -21, -54, -1, 84, -49, 9, -12, 79, -15, 23, -27, 40, 27, 28, 53, -63, -34, -23, -10, 6, -63, 23, 36, -41, 76, 63, -41, -11, 0, 74, 58, 53, -63, 41, 45, 60, -16, 36, -64, 24, -17, 24, -22, -99, 89, 24, 7, -64, -17, 50, 0, 71, 17, -60, -65, 41, -3, -11, -24, -59, -15, -3, -40, -20, 15, -18, -1, -7, -19, 45, 76, -39, 6, 43, 23, 20, 8, 35, 19, 51, 0, 57, 30, 57, 31, -29, -19, 53, 21, 36, 36, 34, -24, -46, -44, 38, 27, 0, -21, 5, 46, -7, 64, 15, -41, 17, -8, -67, 38, 10, 30, -43, -28, 29, 56, -70, -66, 8, -48, -42, 7, -34, -43, -78, -36, 47, -31, 46, -27, 3, -57, 33, 62, 65, 53, -4, -12, -27, -32, -64, -54, 5, 8, -34, -66, 52, -40, -15, -78, -24, 19, 43, 64, 39, -8, 84, -30, -19, 27, 0, 64, 58, -8, -58, -53, 30, 4, -33, 46, 8, 40, 9, 28, -8, 31, 21, -45, -52, -23, -2, -15, 59, 43, 36, 30, -61, -5, 61, 3, 29, 48, 17, -34, -29, 22, -102, -47, -49, -30, 75, -47, -13, 35, -44, 58, -40, -45, 17, -35, 20, 46, -54, -29, -18, 2, 26, 60, 48, -8, 33, -50, 25, 18, 14, 54, 57, -40, 21, -30, -43, -32, -64, 68, -38, 7, 50, -71, 64, 28, 63, 77, -21, -46, 43, -66, -37, -27, 83, -6, 60, -23, -63, -3, -10, -9, 46, 58, 2, -44, 81, 9, 38, 6, 9, 48, 9, 53, -99, -2, -27, 73, 55, 20, 57, -2, -23, 60, 33, 20, 21, -38, -52, -52, 12, 83, 33, -8, -15, -18, -42, -48, 7, -45, -52, 87, 67, 8, -23, -15, 6, -22, -32, 67, -61, 54, 4, 48, -61, -1, 51, -64, 17, -19, -53, -51, -63, -35, 21, -42, 41, 9, -63, 64, -43, 71, -35, -47, -66, 35, -7, -49, -3, 18, -55, 45, -53, -67, 14, -30, -58, 36, 59, -33, 49, -42, 51, 63, -23, 12, 0, 58, -38, 26, 71, -61, -24, -20, 47, -52, -39, 47, -38, 46, -45, -46, 63, -25, -31, 31, -31, 29, -36, -34, -16, -15, -24, 44, -3, -45, -64, -24, 55, -37, 23, 31, -20, -53, -13, 12, 70, 6, -65, -33, -54, 51, 28, 15, -8, -26, -41, -25, 14, 37, -5, 68, -2, -2, -7, -21, 87, 66, 17, -38, 64, -39, 37, 27, -2, 63, -45, 13, -7, 15, 54, 40, -14, -14, -35, 22, -2, 57, -3, -27, 22, 57, 24, 68, -38, 0, 23, 50, 61, -43, -51, 19, 52, 26, 68, -55, 59, 32, 54, 68, -43, -57, -21, -14, -79, -89, -37, -41, 43, -2, 3, -3, 18, 5, -48, 2, 1, 9, -67, 26, 4, 16, -3, 58, -14, -10, 9, 57, -49, 62, 37, -76, -60, 61, -24, -32, 68, 59, 25, 47, 16, -48, -50, -29, 32, 39, 71, 41, 14, -28, 61, -5, -38, 59, 12, -52, -22, -66, -55, -60, 51, 46, 27, -60, 20, -22, 27, 35, 18, 25, -31, -15, -40, -7, 51, 39, 52, 41, -69, -70, 15, 50, -69, 56, 24, 37, -33, -69, -25, 42, -24, 22, 32, 20, 43, 8, 21, -14, 58, -29, -28, -74, -21, 35, -82, 69, -30, 51, -2, -70, -3, -51, -1, -18, -38, -67, 58, -16, -83, -21, 16, -37, 29, -76, -79, -68, -50, -73, -28, 45, -58, -65, -58, -58, 23, -7, -61, -31, -35, 65, 41, -29, 48, -56, -29, 29, 47, 24, -22, -40, 53, -55, 69, -25, -58, 17, 52, -71, -34, -77, 7, 1, -32, 10, -20, 47, 22, 3, -43, 25, -3, -79, 24, -37, 63, -75, -17, -25, -55, -20, 31, -9, 62, 10, 40, 58, 23, -73, 47, -26, 0, -8, 17, 39, -62, 30, -13, 18, -4, 62, 26, 29, 0, 20, 12, -69, 39, -23, 2, 60, -34, 4, -32, 48, -67, -33, 28, 64, 36, -48, -74, -10, -57, 33, -3, -27, 48, -53, -32, -29, -84, 13, -9, -14, -59, -58, 39, 43, -3, -3, -73, 47, 15, 57, -74, 26, -26, 41, -81, 2, -9, -51, -10, -79, -79, -33, -13, 71, 65, 46, -4, -40, -34, 21, -7, -34, -59, 14, 44, -93, 42, -6, 17, 24, -75, 44, -49, -57, 43, -64, 72, 41, -59, -41, -54, -56, 44, -9, 44, -29, 14, -4, 35, -7, -35, -38, -67, -38, -9, 8, 16, -3, 58, 48, -44, -37, 44, 19, 65, -1, -56, -42, 9, 33, -29, -28, 5, -36, 36, 33, -63, 22, -2, 51, 26, -59, -22, 41, -34, 38, -39, -14, -60, -39, 4, 41, 16, 55, -74, -46, -75, -34, 11, -60, 38, 60, -74, -8, -56, -71, -57, 24, 35, 53, -16, 3, 14, -25, 44, -55, -26, -47, -62, -42, -42, -41, -42, 49, 11, -41, 42, -67, 23, -46, -1, -65, 48, -4, -28, -13, -28, 14, -70, 26, 13, 15, -64, -59, -1, 13, -49, 49, 19, 35, -62, 3, 71, 11, -9, 56, 50, -31, -16, 37, 90, 114, 11, 22, 32, -10, 68, 37, 80, 74, -24, -30, -37, -66, -27, -55, 75, 89, -16, 6, -36, -58, 22, 54, 69, -22, -75, -15, 34, -45, -40, 16, -61, 16, 62, -49, 9, 21, 62, 56, -12, -18, -55, 49, 60, 73, 70, -33, 94, 27, 19, 5, -31, -32, -47, -53, 28, -39, 52, -8, -46, 22, 40, -68, 83, -56, 93, 19, 73, 45, -16, -35, 11, 50, 77, -23, -39, -5, 10, 84, -35, -26, 65, -24, 7, 24, 68, -90, 45, -50, -34, 4, 1, 44, 13, 14, 68, 70, -15, 21, 33, -60, 65, 47, 51, -31, 31, -63, -17, 47, 7, -8, 45, -46, -62, 19, 32, 56, -6, -21, 43, -65, -21, -34, -75, 24, -38, -47, 62, -39, 16, -61, -6, -34, 44, 15, -47, -54, -58, 10, -10, -6, -10, -39, -56, 5, 4, 27, -36, 31, -38, -17, 55, 14, 22, 63, 3, 44, -63, -24, 4, -48, 42, -58, 14, 5, -53, -45, 4, -70, 3, 20, 40, 1, 45, -17, 3, -29, 38, -53, -61, 13, 48, -33, -62, -54, -29, 52, 26, 58, 56, 10, -24, 50, 23, 60, 53, -55, 43, 52, 17, 40, -9, 4, 11, -57, 11, -50, 31, -37, -35, -37, -54, -11, -22, -56, 2, -2, 18, 0, -5, -49, 63, -1, 49, -1, 47, -21, -20, 43, -41, 44, -58, 50, -16, -8, -22, 58, 66, -71, -2, -64, -43, 4, -24, -68, 57, 30, 52, 1, -2, 56, 60, 13, -13, 4, -77, 57, 43, -78, 5, 10, -12, -27, -2, -75, -58, 36, 64, 36, -18, 43, 50, -46, -11, 10, 2, -75, -75, 33, 47, -9, 61, -22, 67, 8, 41, 4, 54, 35, -7, -9, -64, 61, 33, 53, -73, -63, 12, -35, -65, -36, 19, -59, -52, 41, 62, 38, 0, -13, -67, 10, -33, -20, -24, 17, -38, -11, 17, 52, -51, -11, -13, 23, -26, 63, -46, 41, 13, 56, -16, 11, -28, -25, 39, 27, -51, 59, -80, -8, 51, 55, 39, -30, 56, -66, -2, 5, -6, -30, -16, -84, 18, -70, -59, -29, 33, 9, -39, 35, -41, 4, -3, -10, -64, 28, 55, -36, -65, -73, -65, 14, 17, 29, -14, -23, -29, -54, -82, -30, 48, -22, -15, -61, -18, 8, -15, 42, -30, -70, 56, 12, -77, -48, -48, 58, 67, -58, -34, -56, -15, 35, 9, 57, -12, 40, 43, -52, 18, 13, 54, -39, 68, -8, -7, 56, -28, -80, -68, -4, 19, 61, 38, -77, 51, -54, -28, 54, 57, -67, -37, -58, 14, -10, 3, -72, 64, 15, -29, 23, -16, -16, -67, -63, 67, 28, 73, -78, 34, -12, -20, 35, -2, 2, 18, -8, -80, 64, 92, 3, 38, -75, -54, -23, 8, 18, 39, -91, 23, 28, 0, -52, -15, -57, -84, 47, 52, 78, 21, -64, -50, -2, -74, 36, 45, -48, -28, -9, -27, -48, 0, -35, -5, 19, 6, 49, -22, -42, 31, 64, -48, 11, 46, -18, -5, -19, 71, 50, 51, 54, 57, -36, 28, 67, -24, 31, -23, 7, -9, 53, 48, 3, -28, 56, -51, -15, -79, -65, -26, 20, 16, 40, 6, 35, -76, -16, 62, 51, 62, -30, -56, 20, -41, 56, -27, 106, -3, -43, 34, -43, -31, -41, 25, -17, 54, -18, 17, -60, 18, -62, -76, -8, 36, -41, 14, -50, 55, -64, -6, 24, -7, -28, 49, 34, -41, 36, -33, 51, -28, -22, -24, -65, -37, -2, 51, 69, -58, -64, 15, -61, -46, 70, 1, 21, 26, 56, 31, 41, -1, -75, 43, 45, 26, 35, -35, -26, -56, 12, 12, 60, 11, 19, -29, -36, -72, 52, -82, 16, 14, -21, 60, -24, 50, -16, 52, -45, -31, -11, -43, -56, 27, 13, -48, -64, 21, -71, -70, 52, -54, -10, -52, -26, 51, -57, 1, -76, 10, 18, -57, -48, -68, -15, 55, -36, -78, -13, 20, -42, -30, 2, -13, -3, 26, 4, 9, -55, 19, -20, 53, -56, -58, -43, 7, -50, -80, 31, -33, -24, 24, -50, 22, 24, -40, -16, 47, 46, -8, 32, -21, -75, -13, -52, 60, -1, 22, 18, 37, 2, -69, -4, 26, -39, 58, 18, -49, -48, 40, -14, 8, -36, 58, 13, 20, 11, -43, -63, -40, 42, -7, -58, -31, -41, 63, 1, -30, 34, 22, -2, 33, -70, 12, -44, 32, -22, 48, 17, 43, 15, -65, -19, 18, 38, -22, -42, 0, -72, -79, 35, 29, 41, 42, -5, 61, 32, 38, -44, -58, -78, 41, -63, 7, -19, 51, -64, 53, 6, 35, -15, -4, 58, -45, -77, 55, -27, 13, 36, 12, -11, -77, -81, 10, -70, -62, -16, -17, -35, 2, 61, 16, 47, -22, 44, -26, -52, 78, 28, -20, 27, -21, -41, -27, 77, 0, 55, 81, 45, 64, 22, 60, 36, 32, 4, 52, 42, -63, -27, -37, -2, 11, -27, -18, -4, -70, 62, 15, 44, -3, 71, 53, -36, 16, -36, 8, 68, -14, 64, 23, 25, 42, -23, 72, -2, 37, -27, 70, -6, 19, 5, -21, 3, -16, 11, -5, 23, -14, -48, -23, 75, 49, -50, 17, -49, 74, 56, -16, -49, -44, -35, 78, 13, 70, -39, -12, 18, -19, 35, -16, -6, -2, 41, 57, 0, 3, -60, 69, -38, 67, -56, -53, 85, 